//Numpy array shape [784, 10]
//Min -0.808884263039
//Max 0.754577279091
//Number of zeros 0

#ifndef W3_H_
#define W3_H_

#ifndef __SYNTHESIS__
model_default_t w3[7840];
#else
model_default_t w3[7840] = {-0.0775933042, -0.0810607448, -0.0351176970, -0.0563683175, 0.0628858581, 0.0295553356, 0.0758546814, 0.0548644885, 0.0115437806, 0.0066871494, -0.0111524835, -0.0225675851, 0.0061256364, 0.0425876454, 0.0803223774, 0.0667193905, -0.0194100291, -0.0091180503, 0.0654431805, -0.0620362535, -0.0382795185, -0.0851466954, -0.0566268899, -0.0748413876, 0.0144919232, 0.0426147208, 0.0381840840, 0.0308394954, -0.0145011470, -0.0354291573, 0.0254637897, 0.0683585778, 0.0457469597, 0.0772120431, -0.0556590073, 0.0800000504, 0.0584258661, -0.0103351921, 0.0450873300, 0.0369558185, 0.0244301260, -0.0435083620, 0.0153498575, -0.0384437703, -0.0770802870, 0.0822687075, -0.0032294095, 0.0863454416, 0.0088373795, 0.0766474977, 0.0037070513, 0.0117968842, 0.0315091163, -0.0857432634, 0.0708718672, -0.0045438185, 0.0172690004, 0.0236247703, 0.0033805817, 0.0849423185, -0.0525274016, 0.0373192206, 0.0082170665, 0.0182625204, 0.0785395280, -0.0544005968, 0.0408484414, 0.0244838670, 0.0582740530, 0.0497595444, 0.0107734352, -0.0643712729, 0.0793487504, 0.0576113090, -0.0741450116, -0.0198846459, -0.0024958327, 0.0821155235, 0.0614836738, -0.0016497746, -0.0801667273, 0.0393122360, -0.0664476976, -0.0742324963, -0.0189810544, -0.0037208721, -0.0372640938, 0.0092305019, -0.0820816830, 0.0441077426, 0.0098747760, 0.0164519176, 0.0845383480, -0.0250907317, -0.0315422751, -0.0013989508, 0.0763171539, -0.0362255163, -0.0205099359, -0.0786078796, -0.0004483312, 0.0249216482, -0.0797946453, 0.0752236918, -0.0169509873, 0.0110018924, -0.0366436951, 0.0555493310, 0.0363296792, 0.0221672505, 0.0070284605, 0.0558743402, 0.0539870188, 0.0105244219, 0.0225455537, -0.0003424883, -0.0746928304, -0.0257946104, -0.0530079231, 0.0756386146, -0.0691194311, -0.0497730784, -0.0054029771, 0.0537459441, -0.0268652793, 0.0521852188, 0.0883531570, 0.0647421032, -0.0736468211, -0.0353945047, -0.0555267967, 0.0593323223, 0.0060443929, -0.0588939488, 0.0285346881, -0.0241665356, 0.0225715749, 0.0508500934, -0.0108654108, 0.0468474329, -0.0634392351, -0.0565723181, 0.0132694375, -0.1191227287, -0.0834304765, -0.0511275157, 0.0080110095, 0.0019630808, 0.0206798725, 0.0200460833, -0.0199877005, -0.0320597515, 0.0381722301, -0.0527006425, -0.0563974753, 0.0745317265, -0.1065179259, 0.0023905572, -0.0828843415, 0.0126082832, -0.0431346782, -0.0344366953, 0.0287369490, -0.0536010452, 0.0573907271, -0.0024248883, -0.0857937485, 0.0195688531, -0.0653779060, -0.0794747248, -0.0701601580, -0.0543489270, -0.0380036831, 0.0397968963, -0.0847860128, -0.0182859376, -0.0138487294, -0.0298979729, 0.0431563184, -0.0404092930, 0.0296624675, 0.0316579863, 0.0759122297, -0.0576265827, -0.0537651107, -0.0667066872, 0.0150972381, -0.0840458870, 0.0360415354, 0.0691482201, 0.0441164002, 0.0211250037, -0.0060985461, -0.0329497866, -0.0634019598, -0.0743589178, 0.0289979503, -0.0867079496, 0.0269673243, 0.0076005012, -0.0004465282, 0.0257158950, -0.0690910295, 0.0077223703, 0.0086112469, 0.0654728189, -0.0273007751, -0.0860978141, 0.0806524530, -0.0737748519, -0.0758310109, 0.0228870288, -0.0208043382, 0.0806702748, -0.0624905154, -0.0803301483, -0.0625450835, 0.0415579900, 0.0681128129, 0.0644428506, 0.0662938580, -0.0848792121, 0.0440490618, 0.0404819772, -0.0392516479, 0.0536595955, 0.0728828236, 0.0639450476, 0.0659797564, -0.0557836741, 0.0225161016, 0.0317763090, 0.0260099694, -0.0670691580, 0.0623371229, 0.0735600814, 0.0087164938, -0.0811067373, 0.0631204471, 0.0332410634, 0.0074059516, 0.0751546994, 0.0222700462, -0.0720333755, 0.0130482465, -0.0283566974, 0.0649095997, 0.0410704240, -0.0184717476, -0.0138275921, -0.0754629895, 0.0368415192, -0.0405510999, 0.0235646442, 0.0500376895, 0.0199645236, 0.0171594694, -0.0557874665, 0.0613249317, -0.0533560291, -0.0054126158, 0.0557106808, 0.0378478244, 0.0280583128, 0.0179086775, -0.0402701013, 0.0858416036, -0.0427196287, 0.0522102788, 0.0195869654, 0.0176258758, -0.0138461813, 0.0249370709, -0.0019561350, -0.0108622462, -0.0436697304, -0.0243576467, 0.0504574850, -0.0865321383, -0.0794212744, 0.0582324192, -0.0074776039, -0.0140025541, 0.0423055813, 0.0122556835, -0.0518052839, -0.0704571530, 0.0235640034, -0.0511967838, -0.0250139832, -0.0532831587, -0.0742560998, 0.0433839634, 0.0706753805, 0.0600167736, -0.0069509223, 0.0584047809, -0.0596806705, -0.0801914781, -0.0580186099, -0.0448466688, -0.0769547299, 0.0333582237, -0.0155092776, -0.0458901785, 0.0733555630, 0.0486816987, 0.0612939075, -0.0695554316, 0.0212315544, -0.0005938932, 0.0287317708, -0.0127523318, 0.0060852394, -0.0085744783, 0.0864175037, 0.0414323732, 0.0073355883, -0.0129932016, 0.0434225723, -0.0057837386, 0.0361109152, -0.0717062056, 0.0100882500, 0.0550019331, -0.0773527995, 0.0869828388, 0.0037036815, -0.0335887857, 0.0488353968, -0.0573996566, -0.0388320647, -0.0496549904, -0.0279476326, -0.1002350897, 0.0057955682, 0.0553430356, -0.0836500004, -0.0457209758, -0.0708214641, -0.0648673549, -0.0589776672, -0.1016576439, -0.0127498563, -0.1211675107, -0.0823381394, 0.1240806058, 0.0076595955, -0.0894122422, -0.0524381250, -0.0879429132, -0.0834264159, -0.2452889979, -0.1536812186, -0.1601900607, -0.0175708272, 0.1920738369, -0.0832403079, -0.0824714229, -0.1075494140, 0.0016789527, -0.0487855524, -0.1229474172, -0.1552575529, -0.0881248564, -0.0411952995, 0.1657526940, -0.1209004298, -0.0817410946, -0.1276737899, -0.1137926951, -0.1279672980, -0.0684694797, -0.0011603632, -0.0986657515, -0.1140854582, 0.2055908591, -0.1029369906, 0.0295909047, -0.0719884038, -0.1026749760, -0.0797565430, -0.0612483621, -0.0580969937, -0.1225502566, 0.0232463852, 0.0748360381, -0.1178089529, -0.0152407559, -0.0730830282, 0.0639566630, -0.0083738957, -0.1297921538, -0.0831283405, -0.1983399540, -0.1241166666, 0.2277961969, -0.0722254291, -0.0028826615, -0.1750780046, -0.0524811372, -0.1137368754, -0.1716044545, -0.0463276245, -0.3074638247, -0.1901373714, 0.1769176126, -0.0724069998, -0.0626841411, -0.2234591842, 0.1119309142, -0.1132583767, -0.1727375388, -0.2058993429, -0.2236239612, -0.2166050524, 0.2298891991, -0.1674254239, -0.2391227186, -0.2183693051, -0.0746790767, -0.0540443994, 0.0009299606, -0.1311188191, -0.0888271406, -0.1561858356, 0.0377312563, -0.0980002955, -0.1536301374, -0.1588656902, -0.0657307431, 0.0558320954, -0.0316369906, -0.1207104921, -0.1522705704, -0.1951154172, 0.0679526627, -0.1217759848, -0.0959900022, -0.0850192830, 0.0063287094, -0.0600257106, 0.2254039645, -0.1210959628, -0.2497529089, -0.1001782566, 0.0294041168, -0.1074784845, -0.0382443145, -0.1404309124, -0.0242655687, -0.2087728530, -0.0304772630, -0.0945293680, -0.2309766859, -0.1880178005, 0.0730878860, -0.0791986808, -0.2061909139, -0.1683766842, -0.0897657499, -0.0322985351, -0.2010803819, -0.0393215045, -0.0908825472, -0.0372493118, 0.0621915907, -0.0647429451, -0.0515012667, -0.0324555188, -0.0910765827, -0.0143110212, -0.0596996993, -0.0589452758, -0.1730014235, -0.0933678523, 0.0256115869, -0.0855650604, -0.1454551071, 0.0074789980, 0.0427240394, -0.0888969451, -0.1180638075, -0.0363872461, -0.0997254178, -0.0169899929, 0.1465278268, -0.0717518181, 0.0025853568, -0.0310749020, 0.0218529310, 0.0214869305, -0.0811166614, -0.0533041656, -0.0666404963, -0.0863311440, 0.1300635189, -0.0700454786, -0.0839890465, -0.0244515073, 0.0261562075, -0.0327083841, -0.1700653583, -0.0068303025, -0.0664108470, 0.0114614200, 0.0319987722, -0.0620784312, -0.0420581624, -0.1385813355, 0.0123951621, -0.0122402199, -0.1572210491, 0.0420481563, -0.1206780225, -0.0914261416, 0.1742319763, -0.0783907622, -0.0894255638, -0.0170788579, -0.0133668855, 0.0079406127, -0.0548523925, 0.0751309618, 0.0621640906, -0.0703892410, -0.0585545897, 0.0129054114, 0.0839980319, -0.0226436481, -0.0018479526, -0.0305401757, 0.0114419386, 0.0650653616, -0.0240151137, 0.0749832764, 0.0715813860, -0.0800467879, -0.0569333993, 0.0325798169, -0.0141563565, -0.0162637904, -0.0766488016, 0.0030825660, -0.0736754984, 0.0315422565, 0.0624585375, -0.0738274157, 0.0006210580, 0.0814221576, 0.0608550683, -0.0364911146, 0.0407194272, -0.0757985339, 0.0109076947, 0.0475136563, -0.0274158418, -0.0574919134, -0.0144923627, 0.0471464917, 0.0583227202, 0.0222614482, -0.0076827407, 0.0722898021, 0.0662914142, 0.0009350702, 0.0646963939, -0.0749704465, -0.0147909969, 0.0100524202, 0.0501409248, 0.0001706108, 0.0446031466, 0.0033903196, -0.0446836427, -0.0173936263, -0.0107226819, -0.0763263702, 0.0504285768, -0.0479950644, 0.0299879648, -0.0596380681, -0.0896927118, -0.0376909524, -0.0964332893, -0.0444543660, -0.0325005427, 0.0407742411, 0.0741338059, -0.0841426104, 0.0704544634, -0.0484830588, -0.1097313017, -0.0303911604, -0.0119766332, -0.1181940883, 0.0981437862, 0.0136190550, -0.1185185388, 0.0315953232, -0.0118726911, -0.1031690836, 0.0054973140, -0.0570452474, -0.1424951553, 0.0320564210, 0.0395119190, -0.1192661077, -0.0183026772, -0.0364932977, -0.0881493539, 0.0009843261, -0.1234593466, -0.1161252931, -0.1479104608, -0.0391691178, 0.1274272650, -0.0208283570, -0.0049939509, -0.0456723049, -0.1837467849, -0.1248708218, -0.0955013111, -0.1051060632, -0.2263746411, -0.1758832932, 0.2390080839, -0.0344625264, -0.1245962158, -0.1090705544, -0.1735753417, 0.0002293050, -0.0718970150, -0.1668006182, -0.2911072373, -0.1711820364, 0.1966377646, -0.0509392209, -0.1581064463, -0.0861611962, -0.0759285763, -0.1640250385, -0.0229251925, -0.0470928401, -0.2147637457, -0.1125522703, 0.1627184600, -0.1579522192, -0.1083967090, 0.0010474717, -0.1941452622, -0.2721738517, -0.0591194145, -0.2518956363, -0.3981176019, -0.1256818920, 0.1451437771, -0.1140577570, -0.2490297109, -0.1411705017, -0.1340837479, -0.2817854583, 0.0313244686, -0.1242139935, -0.5092832446, -0.1163221002, 0.3198156059, -0.2067336589, -0.2494699806, -0.2140939385, -0.1671353132, -0.2624547780, -0.0004412370, 0.0001240348, -0.6071972251, -0.1543999165, 0.3088054657, -0.2693890035, -0.2225884497, -0.2606520355, -0.2229010761, -0.0628997982, 0.0873641893, -0.0023084504, -0.4973388016, -0.2245493829, 0.3858365417, -0.3319773972, -0.3713937700, -0.4333860874, -0.2642728388, -0.0035711532, 0.0739290714, -0.0459828638, -0.4070774019, -0.3287645280, 0.2848368287, -0.1790441424, -0.5107387900, -0.4156653881, -0.3161213994, 0.0440254286, 0.0483693145, -0.2052503675, -0.2372869551, -0.4873782098, 0.3115708530, -0.2333524823, -0.3498599827, -0.3297349811, -0.4678362608, 0.0610334128, -0.0091594970, -0.1173983738, -0.3342668712, -0.2021911442, 0.1195465550, -0.0975538194, -0.3003414869, -0.3027125895, -0.3162395656, 0.1349231303, 0.0084775798, -0.1064986885, -0.3645157516, -0.2156945914, 0.2705319226, -0.1196119562, -0.3401810527, -0.2976236045, -0.4298108816, -0.0569510609, -0.0650345385, -0.2226118743, -0.2631335855, -0.0612182468, 0.1466179788, -0.1797193438, -0.3330493271, -0.2319235951, -0.3201639354, -0.0977774039, -0.1109570935, -0.1458227038, -0.4071576893, -0.0365682580, 0.1890191287, -0.1430997849, -0.1459527612, -0.2931918502, -0.3453466594, -0.1200471669, -0.1407462955, -0.1147154570, -0.2292321622, -0.0161196310, 0.1626063734, 0.0107866190, -0.2982111573, -0.1571295559, -0.3328683078, -0.0601881221, -0.1409567595, -0.2155722380, -0.2936666012, -0.0607811399, 0.2401756942, -0.0682920292, -0.1543973833, -0.1659796387, -0.2694826424, -0.1629412472, -0.1539835781, -0.2052627355, -0.1624565125, -0.1348416209, 0.2640476227, -0.0127157914, -0.2501053810, -0.1271878183, -0.2306246758, -0.1843258142, -0.1177961230, -0.1466257125, -0.2147834152, -0.1492397189, 0.2496743202, -0.0970629007, -0.0493283272, -0.1064146012, -0.0335548148, -0.0906010568, -0.1050044447, -0.1384408921, -0.1649538279, -0.1360092461, 0.1103702560, 0.0123191755, -0.1411441267, -0.1490777731, -0.0549794696, -0.1353934556, -0.1075740382, -0.1721050739, -0.1474993527, -0.2268889099, 0.0900957733, -0.0011071491, -0.1042187363, -0.0542158931, -0.0807523131, -0.0456562787, -0.0679860190, 0.0258717742, 0.0043857885, -0.1702416241, 0.0595902503, 0.0114891874, -0.0342709906, -0.1273102313, -0.0416415706, -0.0549646839, -0.0030833185, 0.0744925365, -0.0645554364, 0.0735897198, -0.0343471430, 0.0267050192, -0.0832638294, -0.0153867304, -0.0772512257, 0.0821033195, 0.0304982066, 0.0288756639, -0.0335917808, -0.0551433787, -0.0017517433, 0.0215994120, 0.0206425563, 0.0028040409, 0.0696162805, -0.0441452973, 0.0599944964, -0.0441977121, -0.0275655016, 0.0539872423, -0.0713561624, 0.0129699931, -0.0119112507, -0.0164664686, -0.0049304739, 0.0712980554, -0.0073876306, 0.0447463766, 0.0318104029, -0.0185478702, -0.0389785916, 0.0167323127, 0.0368134603, -0.0635217279, -0.0102914227, -0.0235754158, -0.0071692774, -0.0481139719, -0.0275386404, -0.0166566446, -0.0160637572, -0.0331706218, -0.1251328439, 0.0534943976, 0.0103011187, -0.0293218717, -0.1656481326, -0.0384433419, 0.0069421357, 0.0309253763, 0.1029073820, -0.1047948748, -0.0375770442, -0.0727477372, -0.1065874696, -0.0264321622, -0.0411506593, -0.0528628379, -0.1716439426, 0.0099605825, 0.0162421297, -0.0004765540, -0.0220437907, 0.0205259081, -0.1155689731, -0.0352514535, -0.0498658232, -0.0012900351, -0.1107489765, -0.1319569498, 0.0568250380, -0.0499472581, -0.0601440929, -0.0138322692, -0.1624834239, -0.0816590637, -0.0258476585, 0.1429494470, -0.1381159425, -0.1853220612, 0.1139337644, -0.1422337592, -0.1537581235, -0.0725169778, -0.0837720782, -0.0388000347, -0.0078189773, 0.0721656829, -0.2022933662, -0.1244379431, 0.0910421833, -0.3050700724, -0.1622053683, -0.0402374603, -0.0782213286, -0.3208617866, 0.0760320351, 0.0854232460, -0.3076755404, -0.2870381176, 0.1477239877, -0.3307186663, -0.1429418176, -0.1720436215, -0.2624478936, -0.1622470170, 0.1779434979, -0.0182237308, -0.3713563979, -0.2385506034, 0.1840746403, -0.3250094354, -0.3529005051, -0.2185101658, -0.1254493445, -0.2714144289, 0.1492803544, 0.0486372039, -0.4465118349, -0.0444150306, 0.2076512873, -0.4564451277, -0.2453379631, -0.2893164456, -0.1933811158, -0.4049176276, 0.1811992973, 0.1156186536, -0.4004545510, -0.1993434876, 0.1032226011, -0.2814503014, -0.2594773173, -0.4216483533, -0.1077893674, -0.1515114307, 0.2431064248, 0.1466534436, -0.5398398042, -0.1943765730, 0.1084906906, -0.2913480401, -0.3468190134, -0.4050185382, -0.0920447558, -0.1092308611, 0.1593165100, 0.1923847646, -0.6518450975, -0.0684914663, 0.1864881068, -0.2523460984, -0.3425422609, -0.5136518478, -0.0990867689, -0.1528656930, 0.1213424057, 0.2775735557, -0.4714788198, -0.0870861486, 0.1000527218, -0.3301256299, -0.2495957762, -0.4577290416, -0.2200273722, 0.0174969528, 0.1148900688, 0.1892345101, -0.4395214021, -0.1106176153, 0.1386245936, -0.3397586644, -0.2157582790, -0.5727863908, -0.0734352171, -0.0678807199, 0.0504697002, 0.1998673230, -0.3034539223, 0.0387353264, 0.1296302676, -0.2636919320, -0.3624932468, -0.4312614799, -0.1656201929, -0.1734666228, 0.0856690332, 0.0805929378, -0.3636096716, -0.0231842659, 0.1501140743, -0.1628336161, -0.3157284558, -0.3307425976, -0.2497953773, -0.2374267578, -0.1723401845, 0.0957376584, -0.2931937575, 0.0569048710, 0.1590454876, -0.1338784397, -0.2333338410, -0.2186863422, -0.3077844977, -0.2287579477, -0.1185198501, 0.0018034364, -0.0556539930, 0.1198284924, 0.2346271873, -0.0708108991, -0.1977506131, -0.3003229499, -0.2982524931, -0.2092619091, -0.2475975603, -0.0019480117, -0.0297767706, -0.0250793360, 0.1361983865, -0.2223661393, -0.2644394338, -0.2139411867, -0.2750579715, -0.2881697118, -0.2147124261, -0.1332151145, -0.0386693105, 0.0495546162, 0.2347406447, -0.2403953075, -0.1974704564, -0.3114449680, -0.2090772688, -0.2633907795, -0.2743457258, -0.3820182383, 0.0007497458, -0.0062101376, 0.1781486869, -0.0871402621, -0.1310783178, -0.2392958701, -0.2251696140, -0.1700042784, -0.2852881253, -0.2086056024, -0.0067509389, 0.0050357031, 0.2028300911, -0.0561564490, 0.0647755489, -0.1071814895, -0.1643567234, -0.1682854742, -0.0664367899, -0.1934883296, -0.1430227309, -0.1269326955, 0.2193779349, -0.0823239237, -0.0645080358, -0.0241458844, -0.0464609973, -0.0895804763, 0.0674395859, -0.0172829274, -0.1695174277, -0.0355897993, -0.0480360463, 0.0408413410, -0.1308753341, -0.0356685631, -0.0107032945, 0.0379163548, 0.0322130658, 0.0132240597, -0.0408361219, 0.0129974214, 0.0220306255, -0.0625110194, 0.0018007092, 0.0029212174, 0.0571163818, -0.0351000391, -0.0341375247, 0.0785404816, 0.0782001540, -0.0317005329, 0.0452714339, 0.0691051260, -0.0366661809, 0.0385656133, -0.0308816694, 0.0509606525, 0.0139693916, 0.0028635636, 0.0415721759, -0.0317692608, -0.0252332389, -0.0667014867, -0.0403308272, 0.0815638229, 0.0589895584, 0.0568292476, -0.0187148303, 0.0854475349, 0.0507028811, 0.0462139621, 0.0141920671, 0.0289839320, -0.1031902507, -0.0440719090, 0.0023292217, 0.0242566746, -0.0630336031, 0.0230634566, -0.0803070590, -0.0360817611, -0.0364139900, -0.0176947694, 0.0583115146, -0.1267317235, -0.0372601673, -0.0042824061, -0.0970797986, 0.0487879254, -0.1598449200, -0.0551416203, -0.1101112589, -0.0463003628, -0.1063465774, -0.0740428418, -0.1871245354, 0.0898327455, -0.0307487119, 0.1199761406, -0.0301673729, -0.1755788773, -0.0472610816, -0.0985147357, -0.1456488371, -0.0871155113, -0.1612887532, 0.0294067245, 0.0686239898, 0.1912103742, -0.0189569201, -0.2408457994, -0.0054077222, -0.1329597235, -0.1860767007, -0.1633187085, -0.2308766544, -0.1098619103, 0.1566363424, 0.2423418462, -0.0724343807, -0.2414638251, 0.0431022644, -0.2256154269, -0.2780221105, -0.2078522444, -0.0606542490, -0.1788437068, 0.1416954845, 0.2238594145, -0.1397345066, -0.1593094021, -0.0484027378, -0.3310877681, -0.1873532236, -0.2041208744, -0.0506606251, -0.1443767697, 0.1294396967, 0.1197502315, -0.1290729791, -0.3096427023, 0.0655698478, -0.4356076419, -0.1200534105, -0.3714939952, -0.1043257713, -0.1380961239, 0.2001543492, 0.2091397941, -0.2556794882, -0.2053809315, 0.0030901616, -0.4655475914, -0.1050804630, -0.3903958201, -0.0910519361, -0.1089463905, 0.1576653868, 0.1507300138, -0.3139147460, -0.1596316844, -0.0332965627, -0.4483636618, -0.0330880433, -0.3333986402, -0.0547986627, -0.0785321519, 0.1493018121, 0.1923107058, -0.3619325757, -0.1274359524, -0.0295729768, -0.4234667122, -0.0564017333, -0.2594181895, -0.0737497434, -0.0219780914, 0.2145772427, 0.2491676956, -0.3691866994, -0.1578284055, -0.1700145155, -0.4482920766, 0.0244269967, -0.3051245511, -0.0187734570, 0.0468218513, 0.1348992437, 0.1498052329, -0.2057520002, -0.1695278287, -0.0269122515, -0.3625922203, 0.0575046577, -0.2668329477, -0.0026503042, 0.0299953986, 0.0971331447, 0.0952373818, -0.2423850149, -0.1950421780, -0.0504687913, -0.4618652463, 0.0396493599, -0.3626682460, -0.0430454649, -0.0025088526, 0.1710593700, 0.1327867508, -0.2300474346, -0.0041142805, 0.0590785705, -0.3600504994, 0.1319336593, -0.3858020008, 0.0042583295, -0.0166531689, 0.1422432661, 0.1086855531, -0.1206717640, 0.0191058926, 0.0130092064, -0.4296582043, 0.0871137008, -0.4085228145, 0.0202178806, -0.0669774041, 0.0944730341, 0.0777684897, -0.1475429237, 0.0935278684, 0.1417447180, -0.4810779393, -0.0383480079, -0.3685194552, -0.0330664739, -0.0606109798, -0.0062620984, 0.0625020638, -0.0719311014, 0.0238640886, 0.1147200689, -0.4536296427, -0.0452106334, -0.3233146667, -0.0638035908, 0.0509511195, -0.0426250324, -0.0216883346, -0.0479831174, -0.0181427971, 0.2267550975, -0.3621176481, -0.0594525076, -0.3678917587, -0.0969407782, 0.0629906207, -0.1668647677, -0.0920630172, 0.0709346905, -0.0057042255, 0.2474815547, -0.3565661311, -0.0124753686, -0.4330256581, -0.1125727817, 0.1012326926, -0.1628340036, -0.2695078254, 0.0794479176, 0.1462564021, 0.2564466894, -0.2589544356, -0.1128228605, -0.4281727672, -0.0401552841, 0.0411139391, -0.2359426469, -0.2300513685, 0.1054044366, 0.0702314451, 0.2186747640, -0.2828327119, -0.0902593583, -0.4414900839, -0.0779280290, -0.0207307674, -0.3751778603, -0.5251181722, 0.1308495700, 0.1280647069, 0.2280062884, -0.2569483817, -0.1492197067, -0.2048145533, -0.1543127745, -0.2266357839, -0.3213498890, -0.1817775369, 0.1295266598, 0.1108387709, -0.0042566834, -0.1851963997, -0.0536905788, -0.1905707121, -0.1527124792, -0.2979713976, -0.1019124985, -0.1547055095, -0.0041864179, 0.1906598508, 0.0129251285, -0.1421439499, 0.0097947149, -0.1578285396, -0.0534549095, -0.1867669225, -0.1657496691, -0.1320451498, -0.0441497825, -0.0053148209, -0.0615040436, -0.1041704789, 0.0268953685, -0.0403378829, -0.1029395089, -0.0619000047, 0.0354426578, 0.0439484529, -0.1079579815, -0.0760615319, 0.0586232021, -0.0205429439, -0.0356433503, -0.0307891741, -0.0639284477, -0.0218288451, -0.0863056481, 0.0052539185, 0.0028747767, 0.0125737190, 0.0661894754, 0.0612002239, 0.0851426944, -0.0128478557, 0.0440770909, -0.0631388500, 0.0838878527, -0.0022848845, -0.0805677474, -0.0834775046, -0.0238788873, -0.0720156282, -0.0003777444, 0.0085698813, -0.0179648139, -0.0224753227, 0.0073468718, -0.0547027849, -0.0581046790, -0.0787016526, 0.0053961016, -0.0905536786, -0.0982643813, -0.0122924298, 0.0318984948, 0.0141567383, -0.0003217047, 0.0413369611, -0.0866476148, -0.2226375639, -0.1405395269, 0.0420869030, -0.2147645205, -0.1068539172, -0.2320460081, 0.0291191712, 0.0084163425, 0.2093207836, 0.1232630759, -0.3467637002, -0.0199147072, -0.0582973398, -0.2722149789, -0.1371424347, -0.3132261634, -0.0153904222, 0.0552815832, 0.2474274337, 0.0544707701, -0.1645255685, -0.1803744733, 0.0296828095, -0.2862781584, -0.2908955514, -0.1697241366, -0.0496574752, 0.0343149528, 0.1118719727, 0.0196357947, -0.2313563824, -0.0475702584, 0.0454670638, -0.1930112392, -0.3928585947, -0.0824370235, -0.1670746952, 0.1324558854, 0.1635736972, -0.0041324222, -0.1245891824, -0.0129899336, -0.0362097174, -0.0918158963, -0.4110172391, -0.1117300764, -0.1653185934, 0.1604629308, 0.1867000759, -0.0681584775, -0.0254566222, -0.0527020916, 0.0106333187, -0.1403540671, -0.2607362568, -0.0504643470, -0.1549404413, 0.1593843549, 0.1171208769, 0.0169651378, -0.1298878044, -0.0660522133, -0.1092587337, -0.0910749957, -0.2645664513, -0.0264587514, -0.0833919197, 0.1805462986, 0.1557431221, -0.1050780043, 0.0467555448, 0.0363111719, -0.1086551026, -0.0558166243, -0.2377653122, 0.0205948930, -0.1151901409, 0.1445330232, 0.0948719829, -0.1528201401, -0.0338068083, -0.1535054892, -0.2094939500, 0.0055582155, -0.1079277620, -0.1017222926, 0.0228550900, 0.1212204024, 0.0149992732, -0.1940113008, -0.1012095660, -0.1145336777, -0.2799389064, 0.0467149541, -0.0673018768, 0.0310281403, -0.0204210151, 0.1485514939, 0.0709682852, -0.1413700283, 0.0012844687, -0.1668609530, -0.3108512163, 0.1069216207, -0.1416312903, 0.0920472890, 0.0776160359, 0.0885401815, 0.0969569981, -0.1481945813, -0.0711842626, -0.1037324145, -0.3573302329, 0.0808577314, -0.1659711897, 0.0811576918, -0.0210629776, 0.1560781002, 0.0583035052, -0.0174666047, -0.0746006146, -0.0424943827, -0.3425776362, 0.0719407052, -0.2394659370, 0.0180280209, -0.0460817851, 0.1140325069, 0.0272823665, 0.0030431477, 0.0299023967, -0.0324214585, -0.3589000702, 0.1754838675, -0.3930568993, 0.0978453755, -0.0962494239, 0.1433964670, -0.0440540090, 0.0439554080, 0.0568504594, -0.0188073106, -0.3485934138, 0.0952497795, -0.3535518646, 0.1321830750, -0.0782773793, 0.0767143145, -0.0591382980, 0.0639635250, 0.0676279664, 0.1444192529, -0.3670201600, -0.0094238911, -0.3307375014, -0.0184769072, -0.0079367422, -0.0770738870, -0.0920807421, 0.0011419014, 0.0192371234, 0.1863772273, -0.4638800323, 0.0662452355, -0.3585860133, -0.0109886490, 0.0962621495, -0.0421087481, -0.1412959397, 0.0995310917, 0.1009865627, 0.1721209884, -0.5877439380, -0.0314838961, -0.2643035948, 0.0137499496, 0.2160507143, -0.0536301732, -0.1645442098, 0.0315409303, 0.0690580755, 0.1911736280, -0.4414588809, 0.0086138574, -0.4129182100, -0.1090034470, 0.1156086624, -0.1351220161, -0.3200272918, 0.1509222686, 0.1182670295, 0.0641833395, -0.4802518785, -0.1916633993, -0.4352853000, -0.1790244430, 0.1097951829, -0.2393168062, -0.3544532359, 0.3457530737, 0.1627500355, 0.2451063246, -0.4727803767, -0.1306292862, -0.5994277596, -0.2251431346, 0.0164525490, -0.3635457158, -0.2887239754, 0.1999547035, 0.2840171456, 0.1733537167, -0.3876310885, -0.0982131809, -0.3866073489, -0.3497523069, -0.2999604940, -0.1308456957, -0.2340993881, -0.0101931673, 0.2312478274, -0.0820993036, -0.0993174389, 0.0850708187, -0.1893816441, -0.2380124927, -0.0646287203, -0.1273158789, -0.2177489251, -0.1933459640, 0.2321341336, -0.0106715588, -0.0675055906, 0.0267063137, -0.0063031479, -0.0485605113, 0.0283279847, 0.0272980388, -0.0615159236, -0.1161133125, 0.1039841697, 0.0860073119, -0.1090464443, -0.0251314882, 0.0096162707, -0.0414020866, -0.0232804194, 0.0621408150, 0.0431197211, 0.0041589886, -0.0798533782, -0.0104393214, 0.0246411338, -0.0085667074, -0.0290314406, -0.0497170389, -0.1093525440, -0.0681117103, -0.0068137678, -0.0270638224, -0.0979238153, -0.0028279498, -0.0933006629, 0.0015442966, -0.1226594150, -0.0001742027, 0.0134653524, -0.0933500081, 0.0521693379, -0.0081780758, -0.0037657444, -0.0880821049, 0.0732136741, -0.0961688757, -0.1105609387, -0.1726805121, 0.0325330310, -0.0361703113, 0.1831865013, -0.1680454314, -0.2174872160, -0.1656541228, 0.0603847168, -0.2263913304, -0.1872413903, -0.2458880246, 0.1015639231, 0.1085102856, 0.1662858427, 0.0695697442, -0.2683508098, -0.1215897873, 0.0141096180, -0.2525121570, -0.3376329541, -0.1470330656, -0.1452939510, 0.0357879028, 0.2190055251, 0.1471320093, -0.1380472779, -0.0746153146, 0.0865967795, -0.1168637052, -0.5284322500, -0.0474140979, -0.1128062680, 0.0892247632, 0.1960663646, -0.0103118066, -0.1964802742, -0.1327453554, 0.1044124216, -0.1070860922, -0.3945208788, -0.1333427578, -0.1566931009, 0.0923074186, 0.1280159801, 0.1230558902, -0.1243622899, -0.0209575687, 0.0544095635, -0.1067299247, -0.2669602334, -0.0989092290, -0.2026687115, 0.0366927236, 0.0945588872, -0.0302770156, -0.0765592009, -0.0743020400, 0.2290644944, 0.0170585662, -0.2860467732, -0.1780476570, -0.3254533410, 0.0942199528, 0.0906146169, 0.0224659517, 0.0170787908, -0.0921759158, 0.0543736368, -0.0790284276, -0.2039808482, -0.0750361308, -0.2063202113, 0.1474160999, 0.1530827731, -0.1089442596, 0.0362235270, -0.1670927554, 0.1036567166, -0.0132941268, 0.0036464783, 0.0258874744, -0.1373424977, 0.1149361432, 0.1028261855, -0.2441393882, -0.0031127990, -0.0913228989, 0.0003861879, -0.0546596386, 0.0002068424, -0.0450657457, -0.1094999909, 0.0469192192, 0.0963116288, -0.2230020016, 0.0019211172, -0.1224259362, 0.0304142423, 0.0981769040, 0.0797155201, 0.1439574063, -0.1189995259, 0.0373031944, 0.1598869413, -0.2723431885, -0.0049524889, -0.1458892822, -0.0917423069, 0.0319926888, 0.1129629388, 0.0388664864, -0.1040214449, 0.1722506136, 0.0233029034, -0.2711594701, 0.0425955914, -0.1002563089, -0.1601663530, 0.0745800212, 0.1404389888, 0.1266510487, -0.2348550856, 0.1020137370, 0.1704286188, -0.3104431033, -0.0375275053, -0.0914323926, -0.1122969240, 0.1615039557, 0.2255407125, 0.1707596183, -0.2854898274, 0.0635304749, 0.1228118315, -0.2739104331, -0.0548614934, -0.0573407672, -0.1369822025, 0.1173611209, 0.1683303267, 0.1609367281, -0.1583634615, -0.0183337647, 0.0189375617, -0.1140376553, 0.0435381122, -0.0181390475, -0.1320329309, 0.0805044025, 0.0937588438, 0.1487979740, -0.0479183793, 0.0692507029, 0.1145557761, -0.1709317416, 0.0649746284, -0.0959280878, -0.1185008287, -0.0561592542, 0.1144971922, 0.0853913948, -0.0060288208, -0.0407285020, -0.0005041462, -0.0351929516, 0.0966622233, -0.0690223426, -0.1692329049, 0.0883509070, -0.0300312769, 0.1088018119, 0.1295518726, -0.0556321591, 0.0216048416, 0.0029448548, 0.1473363489, 0.0363851227, -0.0725842938, 0.0963474959, -0.0416064635, 0.0351165906, 0.0465886258, -0.0519716367, -0.1485179961, 0.0134183038, 0.0719765276, -0.0109746102, -0.0768462196, 0.0056968210, -0.1491298527, 0.0854891241, 0.0348880291, -0.1024115458, -0.2027680129, 0.1864416450, 0.1744634360, 0.0315357745, -0.1501586884, -0.0477965474, -0.3938456476, -0.0460092984, -0.0548106283, -0.4032945633, -0.3038099110, 0.2849723995, 0.2156315446, -0.0424428955, -0.2813541293, 0.0258134138, -0.4107742310, -0.2810669541, -0.1438889056, -0.3936914206, -0.3620958328, 0.1046760306, 0.3039506972, 0.0466500558, -0.3940739632, -0.0958064720, -0.4772804379, -0.4876973927, -0.4609526694, -0.3062544763, -0.4413591325, 0.0568296760, 0.3459304571, -0.0487475768, -0.2855524719, 0.0267239679, -0.3847018480, -0.1969024986, -0.0648416281, -0.2184007168, -0.1656569093, -0.0358539671, 0.1670305729, -0.0899310336, -0.2562661171, -0.0694898963, -0.1438325793, -0.1110342965, -0.0095280949, -0.1192713603, 0.0149720144, -0.1732357442, 0.1158091724, 0.0871796757, -0.1526891291, -0.0427754745, -0.1660835743, 0.0812520683, -0.0863018930, 0.0119409477, -0.0630431995, 0.0804111063, -0.0301370639, 0.0148199387, -0.0052007567, 0.0030628263, 0.0022151610, -0.0840554759, -0.0514089875, -0.0842604116, 0.2066307068, -0.1552088261, -0.1264304966, -0.1179236174, 0.1082088947, -0.1764022261, -0.2172170728, 0.0051385164, -0.1038598046, 0.0675404370, -0.0118213715, -0.0267431047, -0.0876838788, 0.0038236310, 0.2245858461, -0.1766758263, -0.1460445374, -0.0725772306, -0.0293202270, 0.0135273561, 0.1129069924, -0.1356271058, -0.3576292992, -0.1857141554, 0.2109085470, -0.2739766836, -0.3154197633, -0.2525187135, -0.1295822710, 0.1301561445, 0.2483147234, 0.0934642404, -0.3916080296, -0.1233362854, 0.0853882357, -0.2114599496, -0.3300589621, -0.1392991543, -0.2472590208, 0.1692437679, 0.0883807689, 0.0677805915, -0.2741980851, -0.1842674762, 0.1675074250, -0.1740363389, -0.4671109319, -0.1583637148, -0.2783967257, 0.0658708289, 0.1573467851, 0.0728112832, -0.1395478100, -0.1277069598, 0.1066751555, -0.1344722062, -0.3010451496, -0.0955968052, -0.2618128061, 0.0590817779, 0.0094561400, -0.0034410155, 0.0100117931, -0.0655892268, 0.1844945699, -0.0743241534, -0.3541184068, -0.1653489172, -0.3386860490, 0.1277037561, 0.1015439406, 0.0129488399, 0.0522048771, -0.0481925011, 0.1064713597, -0.0498507805, -0.0922636464, -0.0341828577, -0.2376574725, -0.0098436102, 0.0121335862, -0.0954911858, 0.0125876134, -0.0669619516, 0.2138384134, 0.0490467139, -0.1712698042, -0.0190618131, -0.2185508311, 0.0684426203, 0.0677668601, -0.0938026682, 0.1311914176, -0.1165798679, 0.1512454748, 0.0273596756, -0.0814426318, 0.0582873113, -0.1375673413, 0.0445171893, 0.0524725541, -0.1505780518, 0.1190661937, -0.1224752665, 0.1242866293, 0.0438239425, -0.0071648220, 0.0981806964, -0.1361207217, 0.0351137295, 0.0917897150, -0.3208456337, 0.0232019126, -0.1384034604, 0.1406509876, -0.0222737081, 0.0935273170, 0.0531462058, -0.0522951037, 0.0456355326, 0.1023228616, -0.3025217950, 0.0360276513, -0.2172203809, 0.0662306547, -0.0086091720, 0.1624553353, 0.0079946695, -0.1644227058, -0.0064176144, 0.1119510233, -0.4393022954, 0.0150673082, -0.1331742257, 0.0084190844, -0.1439467371, 0.3135753572, 0.1409917474, -0.1147784889, -0.0051196460, 0.0940475762, -0.3702982664, -0.1017786413, -0.0847370476, -0.0058161882, 0.0283176806, 0.3743565083, 0.0801943764, -0.2598646283, 0.0100004198, 0.0879678354, -0.3899708688, -0.0288299676, -0.2156433314, 0.0202091318, -0.0719457716, 0.2966788113, 0.1972554028, -0.1319077164, -0.0053383042, 0.0546317920, -0.2086057961, 0.0525063090, -0.2006663531, 0.1794831008, -0.0376602896, 0.2289039642, 0.1855863035, -0.0887208208, -0.0442610048, 0.0894630328, -0.2072566003, 0.0484829023, -0.2768138647, 0.0781199709, 0.0344120488, 0.0480830669, 0.1476177573, 0.0071348045, -0.0315220319, -0.0129698245, -0.1470809877, 0.0928411335, -0.1444345117, 0.0700167865, 0.0639487207, 0.0054004625, -0.0071120411, -0.0858711153, -0.0056218505, 0.0422178395, -0.1058929637, 0.1126650423, -0.1514426768, 0.0066034258, -0.0319684222, 0.0204259567, 0.1226255223, -0.0211590827, -0.1337061077, -0.0722282007, -0.0430366136, 0.0567389168, -0.2041669041, 0.0156365223, 0.0307405405, -0.1210850477, 0.0902632326, -0.0198604260, -0.0269665644, -0.0811469778, 0.2269394398, 0.1409227401, -0.1507223547, -0.0107084634, 0.1321095675, -0.2412949502, 0.0677549988, -0.1652175337, -0.2661544085, -0.2658862174, 0.1251266003, 0.2101079673, -0.2503311634, -0.2254178971, 0.0481784120, -0.3708080649, -0.1527582109, -0.4023560584, -0.4043357074, -0.5375584960, 0.0212808289, 0.4669753313, -0.1414376050, -0.2317990214, 0.0908714607, -0.4396908581, -0.4500649571, -0.5204461813, -0.2262265384, -0.4259338081, -0.0938771516, 0.4277271926, -0.0704326555, -0.2784201801, -0.0064424407, -0.3919000924, -0.3476341367, -0.1372542083, -0.3003489971, -0.1737802178, -0.0216228664, 0.2305422127, -0.1685213447, -0.2722592354, 0.0138958953, -0.2698295116, -0.1468875557, -0.1290089637, -0.1708724797, 0.0135457600, -0.1545176059, 0.0434130430, -0.0066086762, -0.1562590897, 0.0200315360, -0.0958947614, 0.0921857283, 0.0525375344, -0.0452200621, -0.1149578691, -0.0630620718, -0.0459357910, 0.0371555723, 0.0359597579, -0.0601418689, -0.0747614577, -0.0798956454, -0.0015165831, -0.0572417416, -0.1149092913, -0.0893445164, -0.0743965283, -0.0485477559, 0.1212196350, -0.1441813409, -0.1229730025, -0.0208560191, -0.0501907803, -0.0031528862, -0.1295754164, -0.0890390053, -0.0674352348, -0.1284540892, 0.1777559370, -0.1693098247, -0.3140015006, -0.0462199710, -0.0307989102, 0.0133402962, -0.0294669941, -0.1326332539, -0.4794484377, -0.1064240411, 0.2344961315, -0.0955681726, -0.3308100402, -0.2054483294, -0.0138839278, 0.0928657427, 0.1958801895, -0.0572057813, -0.5134530067, -0.1814317554, 0.1285459101, 0.0087103629, -0.3914966285, -0.2310384214, -0.1705706716, 0.0778180659, 0.1223889068, -0.0599131733, -0.2395709753, -0.2401423454, 0.0674543455, 0.0335204341, -0.3798424304, -0.0908276066, -0.2991789281, 0.1591114700, 0.0724914074, -0.0452483818, -0.1939339191, -0.2231961489, 0.1710038185, 0.0372251570, -0.2213857472, -0.0719732270, -0.2377957851, 0.0379489250, 0.0684725940, -0.0339887664, -0.0517747141, -0.1206327677, 0.1893672496, 0.0433103032, -0.1977743804, -0.0753257498, -0.2884179354, 0.0379968993, 0.0765648186, -0.0941332057, 0.0343334414, -0.1323129684, 0.2340896130, 0.1189880520, -0.0563063659, 0.0122759072, -0.3164225519, 0.0510246120, -0.0436320715, -0.0288128071, 0.0859336257, -0.1591375768, 0.1342568099, 0.1357219219, -0.0183824077, -0.0527353473, -0.2011722177, 0.0683631971, -0.0541306473, -0.1059201658, 0.0992887765, -0.1006013900, 0.2087688297, 0.0479259156, -0.0793417320, -0.0494436063, -0.2249005586, 0.1482049227, 0.0185364783, -0.0739340559, 0.0914652571, -0.0784475431, 0.1407046020, -0.0290048048, 0.0086590033, -0.0097143743, -0.0419209264, 0.1010623202, -0.0938418284, -0.2175145000, 0.0478829481, -0.0570651665, 0.2183265686, 0.0802142769, -0.0029497773, 0.0203328710, -0.0973249003, 0.0762059614, 0.0680357814, -0.2703239620, -0.0949773267, -0.1581340283, 0.1257409155, 0.0439916439, 0.0587892272, 0.0394771360, -0.0048676683, 0.0704714879, 0.0484962501, -0.3591339886, -0.0630057976, -0.1964659840, 0.0992132723, -0.1373755038, 0.2406317294, 0.1485596895, 0.0785575584, 0.0599343292, 0.1423451155, -0.3661565781, -0.1692160815, -0.2440114617, 0.1207767949, -0.0349495485, 0.2233552486, 0.2631610036, 0.0049433019, 0.0057483711, 0.1524940282, -0.3876364231, -0.0982137918, -0.2561837733, 0.2555406094, -0.0225591231, 0.1279282421, 0.1923667192, -0.0690561309, -0.0686527714, 0.0343514904, -0.1643426567, -0.0377835147, -0.2405520678, 0.2100742906, -0.0225162767, -0.0116168773, 0.1966062635, -0.0429569073, -0.0072126039, 0.1456396878, -0.1575751603, -0.0119170994, -0.3889580965, 0.1894653141, 0.0404523723, 0.0633301884, 0.0856890008, -0.0339282788, 0.0234544240, 0.0182718541, -0.0664918497, 0.0094246380, -0.4293908179, 0.1353373230, 0.0581620112, -0.0665062293, 0.0061396537, -0.0690054968, -0.0535015538, 0.1551902294, -0.0726659372, 0.0975998491, -0.3476766348, 0.0193958413, 0.1307764649, -0.1338341981, -0.0107378121, -0.1112442687, -0.0166684221, -0.0115976138, -0.0807840005, 0.1230132058, -0.2928789854, -0.0538749620, 0.0236945208, -0.1335879862, 0.1339484602, -0.1787044108, -0.0294653084, 0.0558859706, 0.0111903921, 0.1859393120, -0.2082992196, 0.0199352689, 0.1322668046, -0.1478386372, 0.0772479326, -0.4015142322, -0.2656877637, -0.3925366700, 0.0728420690, 0.4286819100, -0.4061094224, -0.1529937088, 0.1049020141, -0.3210227787, -0.0739572644, -0.4976199865, -0.4613743126, -0.5719596148, -0.1230343059, 0.4797022641, -0.4005468190, -0.2952812910, 0.1572256684, -0.3913094401, -0.6534758210, -0.5172090530, -0.5454155207, -0.4991732836, -0.0433895029, 0.5587009192, -0.5004017353, -0.3495883346, -0.0982245356, -0.4371215701, -0.5002120733, -0.2667632699, -0.3105042875, -0.2070060521, -0.1237167567, 0.2324847579, -0.2371306866, -0.2397286594, -0.0018590018, -0.3373410702, -0.1467902064, -0.0237861052, -0.0864069164, 0.0209354535, -0.1201409325, 0.0547571331, -0.1136399060, -0.0581877828, 0.0359858535, -0.0098832836, -0.0578296110, 0.0313145183, -0.0569646172, -0.1053148136, -0.0163613893, -0.0682938918, 0.0431852043, 0.1250837147, 0.0278287064, -0.1321286857, -0.1311358660, -0.0120640500, -0.0572487153, -0.1946573555, -0.1145663634, -0.2162465304, -0.0907733366, 0.2697290182, -0.2344010472, -0.2747862935, 0.0359171405, -0.0781342089, 0.0043263785, -0.0719290823, -0.1948874146, -0.2029663622, -0.0432622954, 0.1203759685, -0.2180173844, -0.2098489851, -0.1378561407, -0.1514744610, -0.0456860662, 0.0718779191, -0.2310150266, -0.3207750618, -0.2623785436, 0.2625258565, -0.1339139044, -0.2737766504, -0.0997871161, -0.0978079140, 0.1205337644, 0.1902848929, -0.1579115242, -0.4246518314, -0.1753854752, 0.1658067405, -0.0730588734, -0.2721987367, -0.0904757529, -0.2309478223, 0.0584515519, 0.1176346540, -0.1217587888, -0.1770342588, -0.2090950012, 0.1089104190, 0.0799625218, -0.1355577856, -0.0536813512, -0.1237165853, -0.0045208982, 0.0694072768, -0.1099406555, -0.1630672216, -0.1150394231, 0.0624701940, 0.0812418759, -0.0183004644, -0.0376439653, -0.1863776445, 0.0127148051, -0.0773252547, -0.0519973226, 0.0598746017, -0.0214862619, 0.0830996856, 0.2007135451, -0.0462915152, -0.1314971447, -0.1357006133, -0.0179465022, -0.0290899053, -0.0146434763, 0.0765268728, -0.0086550685, -0.0128256632, 0.1167602018, -0.0290411878, 0.0040104487, -0.2171632499, 0.0865710005, -0.0837922394, -0.1513435990, 0.0296403039, -0.1148685366, 0.0330561474, 0.1273866296, -0.0827538967, -0.0490428098, -0.2551968098, 0.0336506516, -0.2402334064, -0.0413221195, 0.0970178545, -0.1010610685, 0.0144692175, 0.1091431007, 0.0046609696, -0.0645661727, -0.0994770378, -0.0124575254, -0.3222851753, -0.1321202517, 0.1243301854, -0.1660038978, 0.1422241330, 0.0145675531, 0.0553880744, 0.0175327901, -0.0646009222, -0.0233933441, -0.3030381501, -0.1077137440, 0.1035994440, -0.1368539631, 0.1408133507, 0.0570723154, 0.0565131754, 0.0616997518, 0.0507021658, -0.0488105118, -0.0543251298, -0.1861169636, 0.0495884977, -0.0499899872, 0.0720947310, 0.0073678908, -0.0557548553, 0.1238352060, 0.2533851564, 0.1192209870, 0.1151935458, -0.4314936697, -0.1382708102, -0.1598973125, 0.2886310518, -0.1714668870, 0.1044526622, -0.0177082829, 0.2840637267, 0.0709832758, 0.2026768327, -0.3459112644, -0.1750254929, -0.1610697806, 0.2369749397, -0.2033794075, 0.0716527253, 0.1251019239, 0.1484051198, 0.0645200685, 0.1511186212, -0.0697985366, -0.2984263301, -0.3960590363, 0.3570095301, -0.1799335480, -0.0976274982, 0.1862203181, 0.0546609275, 0.0119824680, 0.2095117122, -0.0067554424, -0.1607640982, -0.4296569526, 0.2310451269, -0.0988915414, -0.0158901326, 0.1896718442, -0.1026672050, 0.0066700070, 0.0262714084, -0.0089164758, -0.1606612056, -0.4930697978, 0.2248701155, 0.0485071242, -0.0349346362, 0.1368713677, -0.1122639552, -0.0033131351, 0.1478033662, -0.0542121120, -0.0633075163, -0.3411420286, 0.1586809158, -0.0085918363, -0.0953575745, 0.0908193961, -0.2289574444, -0.0209577344, 0.1439124495, -0.0915056542, -0.0522001609, -0.2515009642, 0.1468687803, 0.0184125658, -0.0074658128, -0.0553259626, -0.2744866312, -0.1434348077, 0.0840305388, -0.0774455443, 0.0615373030, -0.2992021739, 0.0331061631, 0.0281699691, -0.1079316363, 0.1274800450, -0.3830064535, -0.0530471951, 0.0907123983, -0.1118294895, 0.2105523944, -0.2869770229, -0.0392530933, 0.1598644257, -0.2243755460, 0.1532586664, -0.3610113561, -0.1221323684, -0.2544453740, -0.1030803993, 0.3278430998, -0.2702488601, -0.1187009960, 0.1367313862, -0.2925129533, -0.0024836785, -0.5253047943, -0.5570431352, -0.8088842630, -0.2830913961, 0.6391122937, -0.3440224230, -0.2885820270, -0.1318317503, -0.3890222311, -0.5245690942, -0.4091433883, -0.4237785935, -0.4505804181, -0.3207725883, 0.7545772791, -0.5517693162, -0.3774269819, -0.0928251147, -0.4260793328, -0.4619686604, -0.2589480579, -0.1820046604, -0.1305437833, -0.3132343292, 0.3893878162, -0.3168323636, -0.1609670073, 0.0850323588, -0.3458280861, -0.1162563637, -0.0844652653, -0.0234816484, -0.0557242855, -0.1303593814, 0.1524112523, -0.0759537965, 0.0419487432, -0.0988871381, -0.0471790582, 0.0167289674, 0.0431118719, -0.1179890409, -0.0756640062, -0.0837611854, -0.0418919288, -0.0676928982, 0.1071267352, -0.0420011617, -0.1569779813, -0.0062983646, 0.0220950972, -0.1517036706, -0.2250182480, -0.1629769206, -0.0645263344, 0.0236537233, 0.1273333579, -0.1575157791, -0.2375511825, -0.0420724265, 0.0044371472, -0.0464832298, 0.0119659910, -0.1657235920, -0.2415884286, -0.0294585433, 0.2985726893, -0.1663686484, -0.3664281666, -0.0887679085, -0.0506054461, 0.1237770617, 0.1268612891, -0.3260945976, -0.2917517722, -0.2520479560, 0.3147204220, -0.1882896870, -0.2967348993, -0.1984632313, -0.1346908808, -0.0766333714, 0.1163775474, -0.0799480900, -0.2837814987, -0.1657854021, 0.1302047372, 0.0383285470, -0.2299726009, -0.0831844732, -0.3171404302, 0.1487928629, -0.0341468267, -0.1329591572, -0.0924541578, -0.1480486691, 0.1309803873, 0.0577011891, -0.0849397257, -0.1547511816, -0.1288333237, 0.0027239949, -0.0593760610, -0.1153805852, -0.0264493767, -0.1388465762, 0.1027917713, 0.0803585723, 0.0834771320, -0.0820462108, -0.1759823412, -0.1198838130, -0.1439371258, -0.1079531908, 0.0459230654, -0.0270065069, 0.0809486285, 0.0972227976, 0.1098329648, 0.0416989140, -0.1101509109, -0.1541717499, -0.2210483849, 0.0108335735, 0.2113867998, -0.0464647412, -0.0230113640, 0.1702734977, 0.0835603699, -0.0762467012, -0.1908926666, -0.1770178974, -0.4164977074, 0.0217383280, 0.2033994049, -0.1511545330, 0.0310490988, 0.1425904036, 0.0756689236, -0.1106292680, -0.2261007279, -0.1672148257, -0.4043313265, -0.0271423738, 0.1748924553, -0.0737711042, 0.0880638137, 0.1442556083, 0.0495105088, 0.0605358332, -0.0955332965, -0.1145585403, -0.3939851224, 0.1059881076, 0.2075623125, 0.0062934607, -0.0009525201, 0.1470375359, 0.0904054865, 0.0016341495, -0.0658588707, -0.2348520905, -0.3315916359, 0.1207646355, 0.1781207770, -0.0674118251, 0.0961707011, 0.0548210628, 0.0009302456, 0.0225721840, 0.1142112985, -0.1813125759, -0.0374453440, -0.1700415760, 0.1790826470, -0.0761677846, 0.1306212991, -0.0113294069, -0.0627102479, -0.0119014019, 0.4168474078, -0.2126735002, 0.2079321295, -0.4848871231, -0.0239387304, -0.1174948588, 0.2012404501, -0.1529023349, -0.1222529560, -0.1640707552, 0.3943985999, -0.0833383575, 0.1453472227, -0.1925231218, -0.0926088318, -0.3897663653, 0.3368568122, -0.2600811422, -0.1732473373, -0.0851981938, 0.2616652548, 0.0325584635, 0.1130070910, -0.0628261268, -0.2540699840, -0.3346024156, 0.4033685625, -0.1585082859, -0.0621929988, 0.0701053068, -0.0607014075, -0.0091747353, 0.0867923647, 0.0754164234, -0.2463716418, -0.3396631479, 0.3287533224, -0.1827244908, 0.0108395396, 0.0742236525, -0.0813839510, -0.0124613410, 0.1530689746, -0.0312949382, -0.2735660374, -0.3900191188, 0.1656538993, -0.0176074747, 0.0228963196, 0.0888505057, -0.2217390239, -0.0753269941, 0.0979944021, 0.0244100522, -0.2037142217, -0.3682962060, 0.1478255093, 0.0777243078, -0.0064051673, 0.1184385493, -0.2886179090, -0.0095460396, 0.0891114175, -0.1428414732, -0.0914597437, -0.2076065987, 0.0944714472, 0.0424747132, 0.0401163884, 0.0817642510, -0.2038930058, -0.0630790889, 0.0202973001, -0.0317317732, -0.0553966649, -0.1388960928, 0.0916377306, 0.1083398759, -0.0691709295, 0.1844954342, -0.4106054902, -0.0972076282, -0.0192020163, -0.1521257013, -0.0114357229, -0.1022064388, 0.0231942758, 0.0590888485, -0.0678553209, 0.2221515328, -0.4206936061, -0.2459634840, -0.1454685479, -0.2187537253, 0.3040086329, -0.1758911610, -0.1949927062, 0.1179854870, -0.2734601796, 0.1006615981, -0.5330408812, -0.3265279830, -0.6859427094, -0.2867697477, 0.6047347188, -0.2131514698, -0.2523775399, -0.0814459398, -0.3199108839, -0.3430049717, -0.2580667436, -0.2192623168, -0.1936759800, -0.2803923190, 0.6662279367, -0.5255231261, -0.2102953792, -0.1699541658, -0.3051439226, -0.3684195876, -0.1326216161, -0.0682027712, -0.2163597196, -0.2220734358, 0.4341406822, -0.4404948652, -0.1311080903, 0.0180818159, -0.2754227519, -0.0664496943, 0.0352717265, -0.0254086051, -0.0467900857, -0.0999144316, 0.0000822603, -0.1459301561, 0.0025160518, 0.0392682552, -0.1897250265, -0.0814744234, -0.0863449946, -0.0869794488, 0.0396165363, -0.0528717749, -0.0872457027, -0.0007453903, 0.0713434890, -0.0916473791, -0.0319638886, -0.0543615222, -0.0112473574, -0.0390143394, -0.0481679849, -0.1566340029, -0.1907701492, -0.1526323408, 0.1211759523, -0.1173547804, -0.1700548381, -0.1102297902, 0.0319228992, -0.1005625129, -0.0311774444, -0.1675910503, -0.0741273165, -0.0523038581, 0.3376726508, -0.2155138403, -0.3468091786, -0.1690831780, -0.1396780461, -0.1471814215, 0.0714758858, -0.1855208874, -0.3389664292, -0.2367180437, 0.2413258106, -0.0708560273, -0.2110607773, -0.1988120228, -0.0296596158, -0.1196197867, 0.0010145155, -0.2030679882, -0.1159500927, -0.2210336179, 0.2157656997, -0.0414025933, -0.1190246716, -0.1024808735, -0.1256484538, -0.1617828161, -0.1648359746, -0.0880023986, -0.0170415509, -0.0065001175, 0.0928360149, 0.1417836100, 0.1603710353, -0.0121053886, -0.3134308755, -0.2531580627, -0.2263343483, -0.0854183510, 0.1326290518, -0.0386571139, 0.0283949096, 0.0767827332, 0.1107824147, 0.0605567135, -0.1463286132, -0.3281915784, -0.3033797443, 0.0681581721, 0.1323824227, 0.0998077914, 0.0567128733, 0.2679837644, 0.1164459139, -0.0606799833, -0.1446312517, -0.4242630005, -0.3564000428, 0.0095618293, 0.0393197462, 0.0866705254, -0.0074131773, 0.1983455569, 0.1728581488, -0.1070291921, -0.2049282640, -0.4027904570, -0.3616118729, 0.2094289809, 0.0861501247, -0.0152639654, 0.0733076483, 0.2040573508, 0.1165366545, -0.0463772938, -0.1821895838, -0.4101336002, -0.3347296715, 0.1500086784, 0.1909777224, 0.0557499193, 0.0102432761, 0.1292853355, 0.1021688357, -0.0019556319, -0.1787467897, -0.4554197788, -0.1982434839, 0.2329088449, 0.2079138905, -0.0385865457, 0.0041720597, 0.0661607757, 0.1183647364, -0.0398247242, -0.2255103439, -0.5753449798, -0.1091225669, 0.1680426598, 0.2883089483, -0.0121474890, 0.0257174689, 0.1294949204, -0.0671758577, -0.0759965032, 0.1222263649, -0.5068691969, 0.0126482518, -0.2816331387, 0.1663933843, 0.0204389915, 0.0434229970, 0.1381219178, -0.1708232760, -0.2917367518, 0.3451346755, -0.3863707483, 0.0803727433, -0.5045221448, 0.1011202857, -0.2369252741, 0.0700016022, 0.1348088831, -0.0264501851, -0.3590243161, 0.4588185251, -0.3007538319, 0.1282802075, -0.0527154543, -0.0451160967, -0.3911030591, 0.2424359918, -0.1230046526, 0.0467527322, -0.4144459665, 0.2523390651, -0.1094066873, 0.1290292442, 0.1858141124, -0.2391668409, -0.2873611748, 0.3157036901, -0.1437873840, 0.1019469649, -0.1562958956, -0.0497684218, -0.0705712438, 0.1704711169, 0.1547560543, -0.1948283017, -0.2213442624, 0.2345506847, -0.0574679971, 0.1746491641, 0.0239911098, -0.1901085377, -0.1422052532, 0.0920553952, -0.0676129237, -0.2544262707, -0.2726449668, 0.2562281787, -0.0361627638, 0.1495033801, 0.1347936392, -0.2112629414, 0.0586452521, 0.1342882514, -0.1138788685, -0.3349965513, -0.1739766449, 0.0858605653, 0.0203981511, 0.1638803929, 0.0214197263, -0.2613956928, -0.0441545956, 0.1099086404, -0.0811934620, -0.4589210451, -0.0355627760, 0.1346169710, 0.0443998277, 0.1866886616, 0.1443514377, -0.1935516894, -0.1152593195, -0.1448304802, -0.1017343700, -0.4342269897, -0.0538512468, 0.1025596783, 0.1042840332, 0.1737970114, 0.1090277731, -0.2379737198, -0.1556482315, -0.2004831880, -0.1422953010, -0.4002144933, 0.0450806729, 0.0491771102, 0.1447074860, 0.0128451586, 0.2709379792, -0.1729305834, -0.1948438883, -0.2733832896, -0.3496347964, -0.0724410787, 0.2079889029, -0.1461236179, 0.1700506359, -0.0749690235, 0.1491861939, -0.3191551268, -0.0803942755, -0.4031189084, -0.4495429099, 0.1677462310, -0.0549456328, -0.2886164784, 0.0682446733, -0.3055845797, -0.1873387843, -0.0520656854, 0.0320970044, -0.1463522315, -0.3113457561, 0.3947104216, -0.2426794767, -0.4346937239, -0.0524493419, -0.3243634999, -0.1361129731, -0.1289543211, 0.0551856235, -0.2352914214, -0.2440376729, 0.2356835008, -0.3521574140, -0.2537518144, 0.0890444666, -0.2656692863, -0.1193840578, 0.0978024453, -0.1342306137, -0.1890413016, -0.0906045586, 0.0660859570, -0.0018400571, -0.0482464395, 0.0211368222, -0.1058786809, -0.1058283672, -0.0709197000, -0.0891487747, -0.0453708954, 0.0147319073, 0.0075412095, 0.0349386409, 0.0827852562, -0.0810210854, -0.1178990901, 0.0067637563, -0.0462598689, -0.0068694633, -0.0297936182, -0.1451102793, -0.1408189833, -0.0581725352, 0.1442060769, -0.1150757596, -0.2011156529, -0.0512384400, -0.0406470709, -0.1116250008, -0.0347408876, -0.1372332126, -0.1962459981, -0.0727705956, 0.2675163150, -0.0670439973, -0.2650983930, -0.1022131145, 0.0314592943, -0.2101340145, 0.0639761388, -0.1468280256, -0.2109013498, -0.1124222130, 0.3457032442, -0.0028288509, -0.1368020028, -0.1290596575, -0.0283051636, -0.2701158822, -0.1989739835, -0.2130153626, 0.0321316943, -0.2303286493, 0.3353099525, -0.0210391022, 0.1776969880, -0.0213765092, -0.2256750613, -0.3621779680, -0.2160857469, -0.0887603685, 0.0553271845, -0.0636096671, 0.1188591346, 0.1392293125, 0.2373058796, -0.0246863980, -0.1764751673, -0.5612291098, -0.3176525831, -0.0395862386, 0.1373051405, 0.0971191525, -0.0458149128, 0.1005268991, 0.2127750963, 0.0797241256, -0.0730918795, -0.5298970342, -0.3772306740, 0.1696301848, 0.1746757179, 0.0721248388, 0.1458424330, 0.1312512308, 0.1448421478, -0.0102112284, -0.1454628557, -0.4878615439, -0.3171844780, 0.2208589315, 0.1050371230, 0.0730069801, 0.0099329492, -0.0128103243, 0.1073738709, 0.0157942586, -0.1901529878, -0.4693089128, -0.2109200209, 0.1722530723, 0.0115700113, 0.0495077781, -0.0225724410, 0.0547226332, 0.1765355319, -0.0301403552, -0.2436084151, -0.5163388252, -0.1492672414, 0.3249783516, 0.2167133093, -0.0410704985, -0.0861601382, -0.0540571883, 0.0566047393, 0.0261399411, -0.3604982793, -0.4462701678, -0.1287209094, 0.2883112431, 0.2186555862, 0.0587882549, -0.1563964933, -0.0366408713, 0.0360084139, -0.0558186993, -0.2526262999, -0.4599377215, 0.0330266021, 0.2141057700, 0.3198165894, 0.1792954355, -0.4410122335, 0.0632094741, -0.1296220869, -0.1472580582, 0.2106178403, -0.4624734521, 0.0661629662, -0.1178968474, 0.1475594938, 0.0306530520, -0.3532113433, 0.2144212127, -0.0900907740, -0.5234647393, 0.4224969447, -0.4116592407, 0.1620967537, -0.3285374939, 0.0000519148, -0.2661211789, -0.2926538289, 0.0543721505, 0.1107192934, -0.6200401783, 0.3873568773, -0.3073010743, 0.1409468949, 0.0623499118, -0.1609606892, -0.1977583468, 0.0312943794, 0.0778604522, 0.1103658453, -0.4698419273, 0.0288638454, -0.2750722766, 0.0866892487, 0.2440295070, -0.1972964555, -0.0855011865, 0.1479383111, -0.0149797117, 0.1507288516, -0.2667710185, -0.1253416389, -0.2057014257, -0.0061122319, 0.1560505480, -0.3630131185, -0.0394622050, 0.1967386305, -0.0735717788, 0.2134846598, -0.1132988781, -0.0788798332, -0.0484543033, 0.0626284257, 0.0473260172, -0.2004731745, -0.0676508024, 0.1821762025, -0.0589401238, 0.2641461790, -0.0304787718, -0.1306414753, 0.0190394688, -0.0944104493, 0.0808429793, -0.2470161915, -0.1820998043, -0.0124961315, 0.0743291676, 0.2537227571, 0.1105198860, -0.2569567859, -0.0485097840, -0.1527068764, -0.0072178231, -0.4234448075, -0.0251890291, 0.0688436702, 0.1828692853, 0.2349779159, 0.1434436440, -0.1883890033, -0.0831532925, -0.2693139911, -0.0164463911, -0.5317570567, 0.0287115145, 0.0389100686, 0.1209453195, 0.2445830107, 0.1449667662, -0.1556723416, -0.1936338097, -0.3933482170, -0.0725691244, -0.7376354933, 0.2285369039, 0.0261338986, 0.2129510045, 0.1219121665, 0.2437762171, -0.1075139418, -0.2478616089, -0.3588071764, -0.2295386791, -0.6013957858, 0.2895050645, -0.1538961232, 0.1705831587, 0.0405443422, 0.2012641877, -0.2496775240, 0.0287424810, -0.4220731556, -0.1162227765, -0.4962365627, 0.2515171468, -0.2967030108, 0.2158427089, -0.4016824961, -0.0086203795, -0.1164932549, 0.2381697148, -0.0376365073, -0.1206522584, -0.0150163751, -0.1658258289, -0.0019507526, 0.0556307733, -0.4602141678, -0.1405550838, -0.1768605113, 0.1158649772, -0.0047326144, -0.1727295667, 0.1115096360, -0.2798734605, 0.0062661986, 0.0985952765, -0.2906174064, -0.0755985528, 0.0444268808, 0.1329704076, -0.0758010969, -0.1280068308, -0.1545414180, -0.0875859484, 0.0993454903, -0.0849378631, -0.1655307263, 0.0111489063, 0.0060036364, 0.0380188189, 0.0183543582, 0.0454322845, -0.0602296665, -0.1074169874, -0.0188629180, -0.0639018565, -0.1011854634, 0.0001672786, -0.0875814334, -0.0665673837, -0.1081260145, -0.1452956200, -0.1455574334, -0.0817424804, 0.0159294512, -0.0735100657, -0.0747952759, -0.0982610956, -0.0078125531, -0.0481361486, -0.1228376105, -0.1862955242, -0.1131421998, -0.0126989577, 0.1966004521, -0.1792655438, -0.3449377716, -0.0441830121, -0.0036755016, -0.1594769657, -0.0566901974, -0.0902914181, -0.1279197335, -0.2113436162, 0.2328628302, 0.0042450395, -0.0530534163, -0.1323182732, -0.0695804209, -0.2646643817, -0.0994046554, -0.0062639480, -0.0012950322, -0.1254145801, 0.1901078522, -0.1104210913, 0.1085150242, 0.0350161865, -0.1409542263, -0.5250312686, -0.2095544487, 0.0610330962, 0.0029418916, 0.0736989453, 0.0745084956, 0.0173054598, 0.1774731725, 0.0868391544, -0.0941464528, -0.5536420941, -0.3116941452, 0.1989380866, -0.0049667382, 0.0512000583, 0.0629026815, -0.0503900051, 0.1469303071, 0.1386539489, -0.1391199082, -0.4842926562, -0.3405117691, 0.1842121929, 0.0142515153, 0.0909128711, -0.0397257321, -0.0307016633, 0.1932978034, 0.0553568676, -0.0511584058, -0.3670234680, -0.2006178349, 0.1894732565, 0.0268590264, 0.0457183681, -0.0508302115, -0.0933376402, 0.1686372608, 0.0086012119, -0.2120961845, -0.3730286062, -0.1087240800, 0.2107489109, 0.0314717293, 0.1064442471, -0.0513618439, -0.0612785779, 0.1346849948, 0.0864286125, -0.3590697050, -0.2051266730, -0.2018329650, 0.3907236159, 0.1457321942, 0.1440214366, -0.2290681005, -0.2020818144, 0.0459356271, 0.0185787473, -0.4775585234, -0.2046775967, -0.1355927587, 0.4609343112, 0.2552669942, 0.0833187178, -0.4278570116, -0.0756436959, -0.0362844169, 0.0053603468, -0.2140876204, -0.1414038539, 0.0970777646, 0.2032938600, 0.2673159242, 0.1206234470, -0.6310320497, 0.1972947121, -0.0672080070, -0.3931388557, 0.3123582602, -0.1624357104, 0.1178783327, -0.0076393867, 0.0689346045, -0.0977183953, -0.7025853992, 0.2461245954, 0.0016681486, -0.4702254534, 0.3923938870, -0.1584418416, 0.0817212909, -0.1904191673, -0.0038525932, -0.1219432727, -0.3332436979, 0.0955583453, 0.1086342409, -0.6759564281, 0.2990355492, -0.1730677933, 0.0200764425, 0.0309448726, -0.2382248342, -0.0312324464, -0.0588462129, 0.0120360851, 0.1728271693, -0.4272118509, 0.0955206379, -0.2582967579, 0.0182411931, 0.1972260624, -0.3677582741, -0.0193250701, 0.1396447569, 0.0785057545, 0.2361824661, -0.2372682244, -0.0837655589, -0.1284099668, 0.0814436227, 0.2910048664, -0.1633349806, -0.0755285695, 0.1331408918, -0.0325267278, 0.3342280686, -0.1536076516, -0.2513962984, -0.1235875264, 0.0449770316, 0.2018828988, -0.2095222324, -0.0717330500, 0.1156369150, -0.0070515219, 0.2130412161, -0.0802174360, -0.2415870130, -0.0600105301, -0.0481137149, 0.0344470628, -0.0920294523, -0.1019741371, 0.0018288684, -0.0380146280, 0.2679846287, -0.0595448315, -0.2679017782, -0.0356316343, -0.2226376534, 0.2023286968, -0.1548175663, 0.0688033029, 0.1253633350, -0.0097035775, 0.2249338478, 0.0012942856, -0.2095593959, -0.0965317413, -0.2421576679, 0.0911468565, -0.3065945804, 0.1253851205, -0.0684324056, -0.0382516049, 0.1330860853, 0.1737432033, -0.2087628841, -0.1348496675, -0.2826345563, -0.0100554097, -0.4334035814, 0.2142266780, -0.0650028363, -0.0345513262, 0.0564709306, 0.2735288739, -0.2802718878, -0.1921751797, -0.2727175653, -0.0281799901, -0.4720379412, 0.3520862162, -0.1382594705, 0.0636946708, -0.1160703227, 0.2120869011, -0.3567670584, 0.0300503206, -0.2259154171, -0.1097363383, -0.4738886654, 0.2182888240, -0.1390004158, -0.0026310044, -0.3287267387, 0.0442022793, -0.1445945501, 0.2016927302, -0.0719781145, -0.0608058982, -0.2098797560, -0.0794961005, -0.0792411566, -0.0312931016, -0.2757815123, -0.0918130279, -0.1320862472, 0.2356001139, -0.1668775082, -0.1131495163, 0.0223502219, -0.3988900781, -0.0934854820, -0.0696607828, -0.2265467793, -0.1254059076, -0.0355711468, 0.1604861915, -0.0706562102, -0.1185199991, -0.1600641906, -0.0728123561, -0.0246904176, -0.1700681746, -0.0478714630, 0.0439491421, 0.0580386110, -0.0246485341, -0.0671558976, 0.0110450825, 0.0104071861, 0.0088950284, -0.0436978303, -0.0173654743, 0.0039315922, -0.0017028928, -0.0286224615, 0.0155897634, -0.0098249493, 0.0376537479, -0.1243029982, 0.0234401710, 0.0216294117, -0.1312924176, -0.0220677666, -0.0978415981, 0.0918037221, -0.1172464788, -0.0854680315, -0.0433026887, -0.1093179435, 0.0599724278, 0.2215144336, -0.0400407985, -0.1629586667, -0.2370712459, 0.1137571856, -0.1164000407, -0.0058166119, -0.0513194017, -0.0230487455, -0.1894030720, 0.1767840236, -0.2038599253, 0.0146165574, -0.0097651640, -0.0298092235, -0.1836045682, -0.0217975099, 0.0480870306, 0.0067613004, -0.4328258932, 0.2028222829, -0.2956646383, 0.1989786923, 0.0133037008, -0.1226787418, -0.3726354837, -0.2618120909, 0.2313090712, -0.0294383150, 0.0425456986, 0.0108409170, -0.2620880008, 0.0583308488, 0.0721169114, -0.1408082545, -0.3178128004, -0.3076543510, 0.1148856208, 0.0204582214, 0.0585354753, 0.0475897305, -0.2507261336, 0.0639669225, 0.1016646251, -0.1789589524, -0.2802773416, -0.3023916483, 0.2984347343, -0.0270702764, 0.0953394771, -0.0766828880, -0.2554978728, 0.0902871042, 0.0892554373, -0.0307902787, -0.2255338728, -0.1303200126, 0.2148759365, -0.0199372228, 0.0736667141, -0.0717839748, -0.1676041335, -0.0177511759, 0.0680167973, -0.2301587164, -0.0229805391, -0.1646841615, 0.2182386965, 0.1701799184, 0.0727245584, -0.1959863603, -0.2208112925, -0.0350939557, 0.1245797202, -0.4379015863, -0.0983207077, -0.0921274573, 0.2171905637, 0.1297196001, 0.1611849964, -0.3130577505, -0.1234537289, -0.0619490407, -0.0072406288, -0.4596146345, -0.0257948730, -0.1221683174, 0.3326061666, 0.2129431367, 0.1826099008, -0.5144901276, 0.1319477260, -0.1067031398, -0.0897997841, -0.1810525358, -0.0073811240, 0.0056104362, 0.1365160197, 0.0909907743, 0.1059443280, -0.6942393184, 0.1441735029, -0.0887324885, -0.4021335840, 0.3592571616, -0.0091270190, 0.0922301486, -0.0817374811, -0.0076220832, 0.0052425335, -0.5468835831, 0.2396502048, -0.0408253893, -0.6165201068, 0.3937895894, -0.0425127260, -0.0207619164, -0.0861079618, -0.0612259544, -0.0850923359, -0.3375388384, 0.0517798513, -0.0129853562, -0.6640023589, 0.2979840040, -0.0587432683, 0.0214189049, 0.1813451648, -0.2510685325, -0.0178400800, -0.0533917919, 0.1570007205, 0.1942063123, -0.5550153255, -0.0078280233, -0.0926807672, 0.0038094465, 0.2487309873, -0.2196408212, 0.0981175676, -0.0072384509, -0.0181895047, 0.2295879722, -0.2146989405, -0.2937971056, -0.1785968244, -0.0163779743, 0.3068001270, -0.1876285374, -0.1191105694, 0.1261684597, -0.0779307485, 0.2597417235, -0.0800574869, -0.3001965582, -0.1006039381, 0.0220945105, 0.1728039831, -0.1617728025, -0.0385196507, 0.1965825111, -0.0830504149, 0.1260329187, -0.0083422689, -0.2507612109, -0.1008308232, -0.0108147208, 0.2468251437, -0.0699588656, -0.0105719352, 0.2112939507, -0.1130064353, 0.1011343524, -0.0412213281, -0.2629355192, -0.0993597060, -0.1403839290, 0.1123150736, -0.0024051014, 0.0160533041, 0.1543955207, -0.1076213568, 0.1050439477, 0.1417963058, -0.1406444460, -0.0991862342, -0.0561341345, 0.0652956963, -0.1126392111, 0.1270122975, 0.0551721305, -0.2004120201, -0.0281670615, 0.1182246134, -0.2785450518, -0.1811479479, -0.2513571680, -0.0246959813, -0.1283643842, 0.2270705998, 0.1557083428, -0.2158483565, -0.0604932271, 0.2831153274, -0.1746935397, -0.1183127910, -0.1325601190, -0.0462764874, -0.1838715672, 0.2341996580, 0.0411539525, -0.1718698889, -0.2930749953, 0.1083811224, -0.2509683371, 0.1513141394, -0.1259162873, -0.2174489796, -0.2008242160, 0.0875925496, 0.0068297614, -0.2559562325, -0.5784270167, -0.0426112115, -0.1690672040, 0.2746184766, -0.2370653600, -0.1775111854, -0.2741487920, -0.0235569216, -0.1331466734, -0.0122678876, -0.3253180087, -0.1792435795, 0.0222315565, 0.2190767378, -0.1488275230, -0.1269493103, -0.0977859348, -0.2372230291, -0.0838168487, -0.0400003716, -0.0891917869, 0.0158074256, -0.1008455083, -0.0055061746, 0.0156465434, -0.0492618941, -0.0918124616, -0.0496454276, -0.0605282634, -0.1350999773, -0.0343579426, -0.0539269336, -0.0308334529, -0.1157151833, 0.0376476012, -0.0255598035, 0.0334382355, 0.0382918976, 0.0373478532, -0.0079619605, -0.0547081865, 0.0208188556, -0.0546561107, -0.1175072342, -0.0166604836, -0.0357058197, -0.0563089810, 0.0626950860, -0.0860091373, -0.0134044550, -0.0499374196, -0.1030167118, 0.1388588250, -0.1216888651, 0.1654491574, 0.0067069102, -0.1668633670, -0.0204910431, 0.1225831062, -0.1585363299, -0.1791494638, -0.1828764826, 0.0902915820, -0.0197941083, -0.0182351768, 0.0933231041, -0.1208243072, -0.2509008646, 0.1930038929, -0.1568168998, -0.0232495647, -0.0375531726, -0.0359193422, -0.0521279201, 0.0900942832, 0.0702027380, -0.1223965436, -0.4868924320, 0.0685153231, -0.2218166590, 0.1556839943, 0.1415822208, -0.2252360135, -0.0607462376, -0.1727031171, 0.0611210726, -0.2412468195, -0.0443448648, 0.0521529615, -0.3414475024, 0.0801540092, 0.1121485010, -0.1912992746, -0.0498789921, -0.1918332726, 0.1896976233, -0.1700490117, 0.0602679811, -0.0478535034, -0.2705406845, 0.0199555401, 0.1004841030, -0.0938194096, -0.0115539730, -0.2911266088, 0.2839970291, -0.2228669524, 0.0875190571, -0.0386588313, -0.2576932013, 0.1144864783, 0.2109835297, -0.1771464795, 0.0338460095, -0.3153007925, 0.2508978844, -0.0719050542, 0.0666078776, -0.2416360229, -0.2254585326, 0.0540400073, 0.1122802719, -0.1861921251, -0.0317936912, -0.2286785096, 0.2172975093, -0.0640714839, 0.1420620233, -0.2877177000, -0.1685515344, -0.0347756296, 0.1765373498, -0.3582937121, -0.0057091052, -0.1514508873, 0.2138908803, 0.1166850626, 0.2463391274, -0.3512542546, -0.1423191726, -0.0736003518, -0.0142168505, -0.1932041198, 0.0160072595, -0.0284148306, 0.1786660552, 0.0753692389, 0.1794007719, -0.4074904025, -0.0267767031, 0.0242961626, -0.2372546792, -0.0522779748, 0.0943851098, 0.0104857273, 0.0432171859, 0.0145915421, 0.0647141188, -0.4223900437, 0.1680724770, -0.0376610197, -0.4891659915, 0.2928688526, 0.0651717409, 0.0849492475, 0.0229687914, -0.0974044353, -0.0342849940, -0.3808153272, 0.1299993098, -0.1808206886, -0.5821021795, 0.4433405995, 0.0204677377, -0.0136021292, 0.0168878250, -0.2673855424, 0.1219244674, -0.1478602439, 0.0800229460, -0.0783809945, -0.5110181570, 0.1944968998, 0.0441288501, -0.0639924780, 0.1404043436, -0.2637767792, 0.1289331317, -0.0473702997, 0.0437613353, -0.0338604562, -0.4485333562, -0.1607757658, -0.0157163888, -0.0646915361, 0.3615681827, -0.1949336231, 0.0505531617, 0.0307670608, -0.0514334217, 0.2266715467, -0.1463210583, -0.3153678477, -0.0239768364, -0.0710268542, 0.3003813624, -0.1756880581, -0.1293830574, 0.1945811361, -0.1272393018, 0.1470775753, -0.1104864702, -0.4038594067, -0.0641855970, 0.0647157207, 0.1897188127, -0.1012785733, -0.0029890579, 0.3029044271, -0.2054055184, 0.0924548432, -0.0120701445, -0.4038503766, -0.0154078444, -0.0105077000, 0.1459007114, -0.0246835519, -0.0609026700, 0.2395737171, -0.1997452974, -0.0887474641, 0.0996579528, -0.3332696259, -0.1308369637, 0.1237947568, -0.0267997067, -0.0153296329, 0.0750066936, 0.2214153260, -0.2155615091, -0.0693854094, 0.0014932971, -0.3399136961, -0.1313032508, -0.0375493094, -0.0588455945, -0.0971095860, 0.0636027753, 0.2695069909, -0.2982339859, -0.0773520395, 0.1125977784, -0.3122434020, -0.1949675083, 0.0604610331, 0.0045154975, -0.1211776435, 0.1565377265, 0.2611360848, -0.2546099424, -0.1684953272, 0.1595260650, -0.2401201129, -0.0919113755, 0.0630647540, -0.0561275482, -0.0444615074, 0.0581667051, 0.0670704395, -0.1521888375, -0.3231584132, 0.2058826685, -0.2239961326, 0.1947265714, -0.0138629628, -0.3365987241, -0.0216364544, 0.0661487877, -0.0384389274, -0.2172762752, -0.5923301578, -0.0121320942, -0.2886150777, 0.4040655494, -0.3914873898, -0.2393837124, -0.1662253141, -0.1055519059, -0.1567679346, -0.0835927725, -0.1962509602, -0.2692784369, -0.1631144881, 0.3766396940, -0.0140284095, -0.0171315987, -0.2339629978, -0.2171610892, -0.1904677004, -0.3516122103, -0.0608749948, -0.1050526574, 0.0169789158, 0.1836370379, -0.0102290446, 0.0244629756, -0.0275094230, -0.1535643190, -0.0473555550, -0.1180594862, -0.0321245752, -0.0784251615, -0.0853630230, 0.0204310268, -0.1162729189, -0.0532769859, -0.0842464864, -0.0625746027, 0.0641686395, -0.0623926148, -0.0869668052, -0.0165855754, -0.0232172273, -0.0480707027, 0.1323196739, -0.0722435415, -0.0234536659, 0.0374827348, -0.1176791489, 0.0288178120, -0.1696710587, -0.1395707279, -0.0178128351, -0.0698665902, 0.0817057267, -0.0797051787, -0.2437517643, -0.0722712800, 0.0048316242, -0.1990464628, -0.1220720038, -0.3207957745, -0.0631482601, 0.0680555031, 0.0935197547, -0.0670381486, -0.0898912847, -0.3756312430, -0.0485159718, -0.2294261903, -0.0246264171, 0.0188898053, -0.0292840321, 0.1508631855, 0.0661793575, -0.1272327006, -0.0473934077, -0.4025834203, 0.0600330606, -0.3807514012, -0.0111766020, 0.1353186071, -0.2218363881, 0.1253842115, 0.0145148477, -0.0581688434, -0.1917380840, -0.0478854179, -0.0675134957, -0.3157236874, -0.0092417980, 0.1093087718, -0.3642622828, 0.0563780442, -0.1239648834, 0.0732306987, -0.1277613938, 0.0692336261, 0.0279765166, -0.1788972914, -0.0569458865, 0.2015133500, -0.2106969208, 0.1010872275, -0.0875113383, 0.2163252831, -0.2706948221, 0.1350597590, -0.0107830791, -0.1732292771, 0.0679336935, 0.1124556586, -0.2259926647, -0.0210876111, -0.3401442468, 0.1402089149, -0.2882644236, 0.1134540588, -0.0888722166, -0.0364852473, 0.0739860758, 0.2273186594, -0.2832255960, 0.0353240333, -0.1948948056, 0.2180758417, -0.2760050893, 0.1405174732, -0.2799693048, -0.0094871521, 0.0024451362, 0.2079707682, -0.1555512846, 0.0130401645, -0.2921627462, -0.0176450163, -0.1499420553, 0.2813762426, -0.2223708183, 0.0253726281, 0.0999140739, -0.0019673782, -0.1565622687, 0.1349935532, -0.1760766357, -0.0129749067, -0.1311911047, 0.3614940941, -0.4038448930, 0.1131054536, 0.0642003715, -0.3589732647, 0.0224958137, 0.2024872452, -0.0780789480, 0.0734089687, -0.0576236472, 0.0724709928, -0.2615868747, 0.2257519960, -0.0332338102, -0.5378929377, 0.2426075935, 0.2473672479, 0.0001725065, 0.0122550940, -0.1967914104, 0.0015145215, -0.1248948723, 0.2020848989, -0.2251433581, -0.4985282123, 0.4116809964, 0.0600681789, -0.0979165882, 0.1612104625, -0.1943155825, 0.1032200530, -0.0883985609, 0.0717113912, -0.1438455135, -0.5290874243, 0.1097135022, 0.0145710753, -0.1481089890, 0.3273130655, -0.1535569578, -0.0549623072, -0.0366138034, -0.0222696867, 0.0672158375, -0.3133583963, -0.2671983540, 0.0364857614, -0.1095740274, 0.3652987480, -0.1730436832, -0.1008553058, 0.1139143333, -0.0368739255, 0.1031238362, -0.1402443200, -0.3462930620, -0.0185516961, 0.0720819309, 0.2422104627, -0.0961700976, -0.1389309913, 0.0968124345, -0.1152477041, 0.1477602124, -0.0592230000, -0.4442730546, -0.0076353941, 0.0505458638, 0.1104595289, 0.0406739525, -0.0453974158, 0.2027758360, -0.1975875944, 0.0398300327, -0.0189833362, -0.3113261163, -0.0410698093, 0.1465256363, 0.1162544638, 0.0721977055, 0.1311155409, 0.2144083828, -0.2468344569, -0.0678409636, 0.0238477569, -0.3812733889, -0.0532790609, 0.1436000466, 0.1141386926, 0.0128502222, 0.0889519677, 0.0964809135, -0.1993451715, -0.1019747630, 0.0948361829, -0.2141366899, 0.0228626318, 0.1914552897, -0.0064511392, -0.0662200078, 0.0082125692, 0.0655130446, -0.2715241015, -0.1804554909, 0.1325869560, -0.2108837217, 0.0410272703, 0.0897333696, -0.0156383011, 0.0716953054, 0.0346825607, 0.0110497149, -0.1987106949, -0.2198658139, 0.1371752918, -0.3111886084, 0.1436928809, 0.0583831295, -0.1512995958, 0.0531410947, 0.0448570326, -0.0021618083, -0.1026102155, -0.3932444453, -0.0402621180, -0.2086472511, 0.2048711032, -0.0161821414, -0.1830375940, 0.0348551534, 0.0365593359, -0.1553595662, -0.2075259537, -0.3920022845, -0.2063305229, -0.3204782009, 0.4515649080, -0.3917853534, -0.2219413817, -0.2317174524, -0.0524284765, -0.2976143956, -0.3217787147, -0.3549691141, -0.1449851394, -0.1185934916, 0.4257292747, -0.1284738183, -0.2157481760, -0.2010812759, -0.4220189154, -0.3352175057, -0.2872949541, -0.2019671351, 0.0359375775, -0.1334290206, 0.0417747907, -0.1752968282, -0.1350975484, -0.1272386014, -0.1670866758, -0.0972280577, -0.0529999509, -0.0837009177, 0.0765654370, -0.0141347051, -0.0213034078, -0.0861450881, 0.0325426310, -0.0716148391, -0.0511791855, 0.0294489786, -0.0330409557, 0.0628441945, -0.1149364561, -0.0017042607, -0.0006779390, 0.0716334283, -0.0734971762, -0.0269579794, -0.1089266166, -0.0177118462, -0.0316786021, -0.1669577807, -0.2057851404, 0.0303972606, -0.0650097281, 0.0994755402, -0.0251490641, -0.1992054135, -0.1867392659, -0.0456156470, -0.1453403383, -0.1897904873, -0.2751077712, -0.1595102698, 0.0696281120, 0.2411170453, -0.1741059572, -0.0518845581, -0.3900635839, -0.1103818342, -0.2925553322, -0.1985821873, -0.1183228046, -0.1414617002, 0.1484370977, 0.1664385945, -0.0934040621, -0.0580977201, -0.5443100333, -0.0414216816, -0.2290677130, -0.2051392794, 0.1606030315, -0.3009092212, 0.1774420887, 0.0790534019, -0.1071501002, 0.0771375448, -0.1356807798, 0.0041262186, -0.3499331772, -0.0957898125, 0.0329253711, -0.4866568446, 0.1347607970, -0.0358669274, -0.0059554926, 0.0223526936, -0.0754518360, -0.1684692949, -0.1681478173, -0.0725538060, 0.1594084650, -0.3352376819, 0.0536897406, -0.1801763475, 0.1513649970, -0.0909669921, 0.0450882353, -0.1320458353, 0.0146163059, 0.0516635999, 0.1272202432, -0.1717687398, -0.0210257862, -0.2393745780, 0.1759707928, -0.2965795100, 0.0992635116, -0.2156758159, 0.1119118854, 0.0771943107, 0.2559709549, -0.1632830501, -0.0089655519, -0.2829979360, 0.0658018515, -0.2856455743, 0.2093780637, -0.2652225792, 0.1809630096, 0.0409709625, 0.1316542476, -0.1463197619, 0.1651135087, -0.3568910956, 0.0165841356, -0.3431411386, 0.2924276292, -0.2638393044, 0.0791729838, 0.0652924180, -0.0223249178, -0.0508170016, 0.1597749293, -0.3465732932, -0.0294201691, -0.3293604851, 0.3081625402, -0.2344790846, 0.1707990915, 0.1103635281, -0.2467927933, 0.0704336911, 0.1701406389, -0.2185136825, 0.0761225671, -0.3389002979, 0.1702872068, -0.1461655349, 0.1971371025, -0.0566819534, -0.5363385081, 0.3359584212, 0.1109255627, -0.2747558951, 0.1423788667, -0.2743584216, -0.0184235740, -0.0766215548, 0.0344274789, -0.1262422651, -0.5725175738, 0.3333142102, 0.0596921444, -0.2197138965, 0.2604867518, -0.2091841549, -0.0225133691, 0.0394094996, -0.0551048853, -0.0637114123, -0.2841264009, -0.0062431553, 0.1326834857, -0.1107876003, 0.3120180964, -0.0831210986, -0.0716202110, 0.1137510985, -0.0856851563, 0.0585721582, -0.1740568280, -0.1996234655, 0.0240158457, 0.0351909325, 0.2669868171, 0.0085480008, -0.1484512836, 0.0630360693, 0.0343386531, 0.0769499540, 0.0030678017, -0.4110188484, 0.1080017462, 0.0026633779, 0.0971194953, 0.0248426050, 0.0535482094, 0.0693658143, -0.1489582658, -0.0021773453, 0.0360400826, -0.3751671314, 0.0637196228, 0.1146050021, 0.1004080325, 0.0201989710, 0.0555041172, 0.1061488464, -0.1064962521, -0.0874721259, 0.0769837126, -0.1611671895, 0.0282299127, 0.2137579024, -0.0440516360, -0.0207521021, 0.0828609690, 0.0470335744, -0.1080380678, -0.0519611761, -0.0139860855, -0.1366138905, 0.0938747376, 0.0169742256, -0.0013915170, -0.0413442925, -0.0356894955, 0.0929957181, -0.0952365398, -0.0773125887, 0.1022441760, -0.0851351917, 0.1303048581, 0.0781204328, -0.0936123580, 0.0413065962, -0.0020140230, -0.0161278695, -0.1870871335, -0.2119969577, 0.0481016636, -0.0845189840, 0.1308750063, 0.1523680091, -0.1351527125, 0.0202400666, 0.0435202532, -0.1861060858, -0.1660920531, -0.2336040288, 0.0295977797, -0.1039526314, 0.0620184615, 0.0571647175, -0.1893805265, -0.0393265188, -0.0721363798, -0.1764587760, -0.1438012868, -0.3883406222, -0.0221340861, -0.1985997707, 0.3829289079, -0.1173334941, -0.1808267087, -0.0124101592, -0.1370902508, -0.1859034300, -0.0966018811, -0.3898390234, -0.1029060781, -0.1885864884, 0.4707147181, -0.4066992104, -0.3546815813, -0.2918647230, -0.1619278044, -0.0813605562, -0.4225625098, -0.2015995681, -0.1287469417, -0.0750115141, 0.3030209541, -0.2252561152, -0.1495010853, -0.2353959680, -0.3507109582, -0.0958429798, -0.2775889635, -0.1607553214, -0.0280945823, -0.1075465381, 0.2136024982, -0.1760315448, -0.0936058685, -0.1189104170, -0.2391489297, -0.1533175409, -0.2502665222, -0.2473833114, -0.0543793924, -0.0217890814, -0.1130040362, -0.0538670309, -0.0205267370, -0.1319526881, 0.0039612846, 0.0421222150, -0.0332384743, -0.0552053712, -0.0249828100, 0.1171119586, -0.0981195793, 0.0488125868, -0.0809781924, -0.0831216723, -0.0974882990, -0.0154115492, -0.1249558404, -0.0130745694, -0.1177062988, -0.0990177020, -0.0438727401, 0.0954385921, 0.0110070417, -0.0967153013, -0.1056267545, -0.0273779854, -0.1358620226, -0.1257081330, -0.3543553948, -0.0444213450, 0.0044535389, 0.3517172635, -0.2482152581, -0.1006231457, -0.3038682938, -0.0516310297, -0.4250930548, -0.2407624573, -0.0469089337, -0.1745143384, 0.1508706510, 0.2227331847, -0.2681281865, 0.0614821278, -0.4625795186, 0.0661761612, -0.2893827558, -0.2810968757, 0.0625390187, -0.4726373851, 0.2594594061, 0.1510738134, -0.0698480159, 0.0706294030, -0.2515887320, -0.0928307325, -0.1343808919, -0.2087578028, 0.0045387438, -0.6092904210, 0.1172711924, 0.0493195169, -0.2184230089, 0.2779821455, -0.1516115069, -0.2160727680, -0.1241844445, -0.1277597249, 0.1377056241, -0.2397508770, 0.1347367167, -0.0503461398, -0.0800097063, 0.0117126023, -0.0591615699, -0.2180125862, 0.0162335001, -0.0717671365, 0.0814288259, -0.1756823510, 0.1337908655, -0.1536346227, -0.0196312200, -0.1371266693, 0.1654285789, -0.2704503834, 0.0842303708, -0.1380218863, 0.2635802627, -0.1279630810, 0.1186790615, -0.3214811683, -0.1479102820, -0.1969319731, 0.0932538286, -0.2178630680, 0.1030645147, 0.0499118418, 0.2560920715, -0.0051664594, 0.1492524594, -0.3069247901, -0.1306431144, -0.1711534858, 0.2207954228, -0.2870368361, 0.1011520252, 0.0245075542, 0.0509845652, -0.0921292156, 0.1540201306, -0.2917379737, -0.2330760211, -0.2648525536, 0.3182432353, -0.1827776432, 0.2111451477, -0.0550483689, -0.2058186978, 0.1593624949, 0.1741845012, -0.3399819434, 0.0819985792, -0.1535758823, 0.1703301668, -0.1577470601, 0.0546942800, -0.1902185977, -0.4370802343, 0.1515126675, 0.2277643681, -0.4022736549, 0.0726257488, -0.1468115449, 0.0457578376, 0.0528155230, -0.0147322919, -0.1857993156, -0.3806315362, 0.1406043321, 0.0832094848, -0.2702993155, 0.2070247829, -0.0726500899, 0.0463831015, 0.1333427280, -0.1391009837, 0.0277950410, -0.1400574595, -0.0522146598, -0.0155412816, -0.1181985959, 0.2353678495, 0.0009596609, -0.0054673012, 0.0378052630, -0.1340233982, 0.0097812330, -0.0309502799, -0.2006053776, 0.1481928080, 0.1118029729, 0.0902040526, -0.0260327123, 0.0794329271, -0.0192112364, -0.0706810653, 0.0185479484, -0.0274666715, -0.2424631715, 0.1028500944, 0.1407063007, -0.0750039145, 0.0100799771, 0.1239030957, -0.1228267178, -0.1656180471, -0.0554753840, -0.0369932428, -0.1856116652, 0.0000931791, 0.1589695662, -0.1201748550, 0.0838078931, 0.1476605982, -0.1110448986, -0.0417525358, -0.0805006847, -0.0880269334, -0.1497387290, 0.0416729860, 0.2206066251, -0.1311706156, 0.1086613461, 0.0586937554, -0.1067264378, -0.1137429252, -0.0637393668, 0.0273712352, 0.0134774605, 0.0048910151, 0.1331293285, -0.1214749068, 0.1186709404, -0.0126919579, -0.1400636286, 0.0205446575, -0.0714368671, -0.0083493004, -0.0813516229, 0.0211123563, 0.1543074697, -0.0844795257, 0.0341118835, -0.0448681116, -0.1830728799, -0.0783413053, -0.1825867146, -0.0033338994, -0.0888184533, 0.1518189311, 0.1136856675, -0.1461573094, 0.0832070261, -0.0219385456, -0.1739540994, 0.0109469602, -0.2215059698, -0.0616072044, -0.1517785043, 0.2419924140, 0.0922651440, -0.2317897826, 0.1399303377, -0.0030720269, -0.3771742880, -0.0291911941, -0.4113521278, -0.1095736474, -0.1253723055, 0.2833580375, -0.2661502361, -0.1942194402, 0.1714276224, -0.1207113415, -0.1833426952, -0.0537042916, -0.4047571421, -0.2376935333, -0.0760484338, 0.3908628523, -0.3307898939, -0.3146929741, -0.1131099239, -0.1560350209, -0.1598987728, -0.3848428130, -0.2937527597, -0.0692488626, 0.0137467124, 0.1442732960, -0.2201177627, -0.0956297368, -0.2111676931, -0.0990890861, 0.0903635100, -0.3020036519, -0.1828715056, -0.1124811098, 0.1365854889, 0.1736526638, -0.0381696410, -0.1177244782, -0.0506450050, -0.1737066507, -0.1177235618, -0.1153189018, -0.0228239018, 0.0611067973, -0.0044313981, -0.0302667972, -0.0426355861, -0.0047670039, 0.0374461003, -0.0245369747, 0.0134657640, 0.0116815958, 0.0613121353, -0.0621167943, 0.0763710812, -0.0936515257, -0.0220629256, -0.1039806232, -0.0778713599, -0.1261482388, 0.0959476158, -0.0745091364, -0.0966477394, -0.1954443008, -0.1185959131, -0.1731674820, 0.0723291337, -0.0810100213, 0.0841071904, -0.0566266142, -0.0199739747, -0.2152687609, -0.2495290339, -0.3375201523, -0.1137333214, -0.1449373960, 0.3315911591, -0.1043400317, -0.0219613798, -0.2853909433, -0.0216170605, -0.4206532538, -0.2779633105, -0.0447400957, -0.2948003411, 0.1927361339, 0.1892516315, -0.2454480976, 0.0898216590, -0.3582150042, -0.0348806344, -0.2623805404, -0.2742407024, -0.0101615181, -0.5147591233, 0.0883093476, 0.2489445955, -0.2568170130, 0.1446166486, -0.3766404986, -0.2250471860, -0.1030061692, -0.1803696603, 0.1092600822, -0.2659416795, 0.1329829097, 0.1988697946, -0.1550910026, 0.2756964862, -0.2429449260, -0.2770724595, -0.0186321978, -0.1197308302, 0.1379320174, -0.1732825786, 0.2070506364, 0.0528598987, -0.3074011803, 0.1325589418, -0.0767004713, -0.4468051493, -0.0988501683, -0.2171400338, 0.0387864858, -0.1335743219, 0.0384029336, 0.0067843287, -0.2553932369, 0.1988261938, -0.0530463941, -0.3094392419, 0.0617827140, -0.1484476924, 0.1120875180, 0.0198726580, 0.0550565608, -0.1218413040, -0.2948282063, -0.0246169399, 0.1390406638, -0.2901181579, 0.0508205853, -0.2104417682, 0.1854631007, -0.0552898236, 0.2022245675, -0.2190147787, -0.3193191588, 0.0002740686, 0.2225184590, -0.2199498117, 0.1168915480, -0.2702674270, 0.1237469763, -0.0062722163, 0.0870377421, -0.2606135309, -0.2976267636, -0.0658339262, 0.2353513390, -0.2278070897, 0.0073993183, -0.2689508200, -0.0294029210, 0.0883712173, 0.2057695389, -0.2621341050, -0.1781071424, -0.0344963707, 0.3066667020, 0.0314180590, -0.0230822023, -0.1542816609, -0.0977301002, 0.1602823436, 0.1930252314, -0.2057092488, -0.0153771453, 0.0486631021, 0.2032842040, 0.0459374972, -0.1376207620, -0.0963593274, -0.0733115673, 0.1426141560, 0.1251279265, -0.0407236293, 0.0225084405, 0.0130730262, 0.1168548092, 0.0741382912, -0.1505851001, -0.0971449539, -0.0375228487, -0.0679131299, 0.1020765752, -0.0269214548, 0.0837713778, 0.0323219262, 0.1046822295, -0.0839797556, -0.0461030230, -0.0800261497, -0.0061750566, -0.0761079714, 0.0102444924, 0.1683571339, -0.0542774126, 0.0371410809, 0.1588540971, -0.1578684896, -0.0897491798, -0.1128574014, 0.0141618093, -0.0309790764, 0.0256121978, 0.1823152304, 0.0178912412, 0.0510669015, 0.0671946406, -0.0923221186, -0.1198022366, -0.0272491425, -0.0308631249, -0.0153111508, 0.1512004435, 0.0997396037, -0.1368619055, 0.0085509261, 0.1667865515, -0.2747558355, 0.0100115417, -0.1658171266, -0.0385397226, 0.0486608185, 0.0456849523, 0.1041439623, -0.1848517060, 0.0243095979, 0.0185358003, -0.1281032562, -0.0373204052, -0.0631388277, -0.0072055319, -0.0630468801, 0.0194309689, 0.1286845058, -0.1060189903, -0.0023119075, 0.0259434097, -0.2524217963, -0.0657294989, -0.1093025878, 0.0143183274, -0.0326117650, 0.1324578375, 0.1507959515, -0.1402730793, 0.1088707969, 0.0104601216, -0.2996995449, -0.0338905007, -0.2174275368, 0.0076376596, -0.0154995024, 0.1784505844, 0.0955941752, -0.3823530674, 0.0361156873, 0.0362486765, -0.2718118727, 0.0800477192, -0.1671502143, 0.0298593435, -0.1115637943, 0.2389449626, -0.0620102920, -0.2465684712, 0.1474918127, -0.0361968875, -0.3064778149, -0.0303140320, -0.2835042477, -0.0394730717, -0.0053584585, 0.2879507244, -0.2225985974, -0.3011720479, 0.1273047626, -0.1791315526, -0.1285390109, -0.1302795410, -0.1747301370, -0.1817133427, -0.0717792362, 0.4162307084, -0.3734779358, -0.2702549398, -0.0646810532, -0.2002332956, -0.1283858567, -0.3182120621, -0.1484244913, -0.2214456052, -0.1217840761, 0.2432291657, -0.2173816413, -0.1303750128, -0.1189619005, -0.1205608845, -0.1317531466, -0.2801174521, -0.1798395067, -0.0994517282, -0.0227883290, 0.0018822992, -0.1446629614, 0.0626757070, -0.0804698542, -0.1407336891, -0.0686265603, -0.1583483219, -0.0131662413, 0.0478199348, 0.0573075190, -0.0537015647, 0.0261765793, 0.0760810897, -0.0612168051, -0.0064957291, 0.0122534633, 0.0712270513, -0.0644185245, -0.0126745133, -0.0818726346, -0.0802420825, 0.0574106872, 0.0049539017, -0.0714393109, -0.1162235737, 0.0712891817, -0.0406660885, -0.0271042399, -0.1701866239, -0.0606966242, -0.0730635300, 0.1202344894, -0.0046371222, 0.0064583491, -0.0290360805, -0.1508251578, -0.2318119109, -0.1360829473, -0.1857073307, -0.1719743907, 0.0188891869, 0.2262365371, -0.1905922145, -0.0988759398, -0.2642133236, -0.2366968393, -0.4295097589, -0.3582325280, -0.0119627640, -0.2414163649, 0.0936082453, 0.2978908718, -0.2206389904, 0.0316252597, -0.3009100854, -0.3061021864, -0.2541658878, -0.1591296941, -0.0623470545, -0.2720615566, 0.0526018105, 0.2206454873, -0.2626624405, 0.0302128401, -0.3310557604, -0.3381831944, -0.0183252543, -0.1574794948, -0.0462945923, -0.1030881554, 0.1405029297, 0.1460688263, -0.2463185042, 0.0986224785, -0.3120710552, -0.4342762232, 0.0199863631, -0.1637710184, 0.0419472419, -0.0020276052, 0.1709953994, 0.1546496451, -0.4296388626, 0.0459015593, -0.0986829326, -0.2418131232, 0.0782849789, -0.2262221277, 0.0044150581, 0.0133741321, 0.1582452655, 0.1675904840, -0.3946799636, 0.1692689508, -0.0836782306, -0.1665119529, 0.0668503791, -0.2917058766, 0.1688184440, 0.0175149832, 0.0906559154, 0.0800407305, -0.4148024321, 0.1729846895, 0.0656835660, -0.2486209571, 0.0446075760, -0.2876423001, 0.1916621178, 0.0817035884, 0.1238478050, 0.0146956965, -0.3151387274, 0.1057540774, 0.2046592087, -0.1696988493, -0.0346865430, -0.3237760365, 0.2462990731, -0.0072452971, 0.1797099262, -0.1155231521, -0.2125555277, 0.0731236562, 0.2000747919, -0.0539469011, -0.1369210631, -0.3599529266, 0.0860733092, 0.0134652099, 0.0599784255, -0.2020808756, -0.2327256054, 0.0720518827, 0.3435239196, 0.0073549841, -0.1015528291, -0.3691395521, 0.0777771845, -0.0365923755, -0.0030817955, -0.1243041754, -0.1715810150, 0.0114028500, 0.1929380745, 0.0279337950, -0.0500557646, -0.1583223939, -0.0742315724, -0.0484348722, -0.0559782572, 0.0303566940, 0.0028965094, -0.0965150744, 0.2254897207, 0.0346727744, -0.1351336688, -0.1077358127, -0.0354112163, -0.0380796753, 0.0831872746, -0.0175402313, -0.0468140356, 0.0040147770, 0.2743696868, -0.1052185372, -0.0405561477, -0.0681621060, -0.0156619139, 0.0403607301, 0.0000482627, 0.0795352012, -0.0289354939, 0.0765468702, 0.1950096041, -0.1772921830, -0.1257149875, -0.1178519577, -0.0585424080, 0.0246862862, -0.0159194302, 0.1548311710, -0.1302643865, 0.0884563774, 0.1225361452, -0.2944993675, -0.0227067806, -0.1692703813, -0.1065548807, 0.1086461172, 0.0779776424, 0.1354422569, -0.1760180593, 0.1038192660, 0.1832748950, -0.3014309406, -0.0193748306, -0.1149166599, -0.0901208296, 0.0399998985, 0.0569549985, 0.1189325452, -0.1131539717, -0.0057481043, 0.1083903313, -0.2363610417, -0.0025561184, -0.0776348338, -0.0661271363, -0.0226105768, 0.1514453739, 0.0843080282, -0.1688582152, -0.0141233914, 0.0388010778, -0.3506094813, 0.0644675195, -0.0738143176, 0.0423136801, -0.0450303145, 0.1919215769, 0.0800642446, -0.1658668965, 0.0930597931, -0.0428445116, -0.4410851300, 0.0919919610, -0.1244275197, 0.0182451643, -0.1070957482, 0.1883360893, -0.0124559263, -0.1513379365, 0.0787833035, -0.0665899143, -0.4158427417, 0.0182521846, -0.1369692832, -0.0319843777, -0.1273538172, 0.2078472078, -0.0580646470, -0.3032611012, 0.1392429322, -0.1863800883, -0.4036554694, 0.1197665930, -0.1867802292, -0.1918164194, -0.1116448045, 0.2844545245, -0.3025400341, -0.3001127541, 0.0255752206, -0.2705465555, -0.2081173956, -0.2011633515, -0.0606883988, -0.2612371147, 0.0223097131, 0.3027857542, -0.3629163504, -0.1314016581, -0.0021694519, -0.2070973814, -0.1175652891, -0.3704396784, 0.0707377270, -0.0508895628, -0.0552961193, 0.1776921302, -0.0451369807, -0.1425137371, -0.0657500550, -0.0746978372, -0.0484336689, -0.1711835712, -0.1534292102, -0.0854789242, 0.0169270337, -0.0537398532, -0.0739899352, -0.1042529792, 0.0636154041, 0.0444838144, -0.0624237619, -0.1405862719, 0.0402292535, -0.0807757825, 0.0480689630, -0.0924508721, 0.0348595679, 0.0060034669, 0.0031320211, -0.0221342500, -0.1170358360, 0.0210095607, 0.0076420163, -0.0814174637, -0.0374387018, 0.0258592591, 0.0475210771, -0.0601561964, -0.0420006290, -0.0899866745, 0.0111376541, -0.0744126365, -0.0693145245, -0.1124476194, -0.0570618920, 0.0199218281, 0.0935066789, 0.0045858026, -0.0397448055, -0.0147184525, -0.1543547958, -0.1150851622, -0.1797931641, -0.1300523579, -0.0044080275, 0.0318370350, 0.2527802289, -0.1430994868, -0.0537673309, -0.2009169012, -0.2341132015, -0.2608566284, -0.1872682124, -0.1891971678, -0.0177821442, -0.0339710712, 0.2489664257, -0.1672299057, 0.1034260765, -0.4291160107, -0.2593520582, -0.2637301981, -0.1620837897, 0.0819799230, 0.1259910166, 0.0978405625, 0.0772516876, -0.1829565614, 0.0289596114, -0.4524151087, -0.2042605877, -0.1285458803, -0.1376951039, 0.0290403515, 0.1296941042, 0.0833966061, 0.0972950980, -0.3312957585, 0.0763820484, -0.3193184137, -0.1489418894, -0.0439060703, -0.2088081539, -0.0217418112, 0.0387877822, 0.0896741226, 0.1184890792, -0.4424331486, 0.1260768622, -0.2219741940, -0.2205547392, 0.0574346744, -0.2967828214, 0.0443306342, 0.0861183256, 0.0940742418, 0.0328624658, -0.2543680668, 0.0706474409, -0.0846170187, -0.1665715724, -0.0153701808, -0.1829008609, 0.1403153092, 0.0119319884, 0.1759191155, -0.0269632004, -0.3556936383, 0.0684552491, -0.0341775157, -0.1194781363, -0.0899162143, -0.2316570729, 0.0974951237, -0.0378944799, 0.1144743711, -0.0497774556, -0.1843461543, 0.1274178475, 0.1061956882, -0.0754456595, -0.0388155840, -0.2319439799, 0.2127790749, -0.0470588692, 0.0567941815, -0.0394252390, -0.2042735517, 0.0985281244, 0.1617003083, -0.1006321758, -0.0219991971, -0.1780503243, 0.1904779375, -0.1065514460, 0.0102170017, -0.0764763430, -0.1996295154, 0.0022037900, 0.2744908631, 0.0097367624, -0.0166543350, -0.1758573055, 0.0265412610, -0.1497565508, 0.0141561609, -0.0154094845, -0.2040763199, 0.0598404557, 0.3306453824, -0.0338888280, -0.0240000654, -0.1008995399, 0.0489701070, -0.0867903978, -0.0570300631, -0.0930107608, -0.0913055316, -0.0260259900, 0.2377797812, -0.0359941944, -0.0109847663, -0.2066855729, 0.0059807673, -0.0020712884, -0.0841214955, 0.0522543900, -0.0505900756, 0.0834609866, 0.2826439142, 0.0254705623, 0.0278096255, -0.1099755093, 0.0349870883, 0.0006151037, 0.0591363758, 0.0323709212, -0.1181900352, -0.0386768952, 0.0865201801, -0.1357898712, -0.1372100562, -0.1548341960, -0.0947611183, 0.0114829885, 0.0874233693, 0.1471982151, 0.0053628660, 0.1059673205, 0.0723759457, -0.1148836613, -0.0073433290, -0.1751286387, -0.1187938303, 0.1588548571, 0.0693816021, 0.0495057590, -0.0694106594, -0.0431105494, 0.0777320936, -0.3384264410, 0.0210125353, -0.1301307976, -0.1305561960, 0.0566186346, 0.2066331208, 0.0689399391, -0.0990302414, 0.0132436864, -0.0091515332, -0.3545814455, -0.0548709221, -0.2118824124, -0.0994383320, -0.0225547627, 0.0139794750, 0.0745164827, -0.1188703105, 0.0431995839, -0.0770398229, -0.4063848555, 0.0944911912, -0.1492669135, 0.0042637479, 0.0577197932, 0.1126119122, -0.1186194792, -0.0524717793, 0.0899892673, -0.1394883543, -0.3443988860, 0.0960112438, -0.1709147692, -0.0456211194, -0.2125253379, 0.1961639673, -0.1144888103, -0.0893871486, 0.1734349430, -0.1221713424, -0.2895111144, 0.0036954582, -0.1417087913, -0.0860498548, -0.2396614999, 0.2405607849, -0.1818511039, -0.1148485765, 0.0654958189, -0.1473934650, -0.3118005991, 0.0206851661, 0.0330358222, -0.1859868020, -0.0286028180, 0.2269300222, -0.2956404686, -0.1584945470, -0.0125239575, -0.1211958155, -0.2579168379, -0.2018273324, 0.0478819236, -0.1607834697, 0.0565364882, 0.2441796809, -0.1911898553, -0.1827861220, -0.0692398623, -0.2208587676, -0.0460635610, -0.2762324810, 0.0455973707, -0.0290769823, 0.0399734676, 0.0153224263, -0.1387310326, -0.0861048922, 0.0330435038, -0.0695827827, -0.0270687640, -0.1945565492, -0.1378371865, -0.0180653520, -0.0399701819, -0.0214855969, -0.0491630025, -0.0353155360, -0.0511120781, 0.0122935632, -0.0670518652, -0.0894819275, -0.0282394160, -0.0174611155, -0.0275367312, -0.0915361121, -0.1185338423, 0.0333893746, -0.0275354013, 0.0159503892, 0.0018849612, -0.1205669567, -0.0942908674, -0.0659373701, -0.0280695539, 0.0091874087, 0.0626780540, -0.0666473135, -0.0821751207, -0.0748405010, 0.0041007400, -0.0557433851, -0.0438206680, -0.0874281600, -0.1188802123, 0.0369252153, 0.1233196035, 0.0207736958, -0.0752040520, -0.0394834094, -0.0954765677, -0.1737073809, -0.2343093753, -0.1898653507, -0.0047084615, -0.0096612955, 0.1499741077, -0.1196423918, -0.0604618676, -0.1580695063, -0.2003089488, -0.2039245069, -0.0836161450, -0.1793537140, 0.0369755886, 0.0507060364, 0.0851066113, -0.2005624622, 0.0013465990, -0.2827150822, -0.0606282130, -0.2788610160, -0.1424904764, -0.1246047914, 0.2852891982, 0.0665617213, 0.1121683866, -0.3656620383, 0.0044107004, -0.4488988519, -0.0383058935, -0.1070636883, -0.1998043209, 0.0917086899, 0.1652493030, 0.0407944955, 0.1550210267, -0.2487444431, -0.1316398531, -0.5117663145, -0.0481828228, -0.0416518226, -0.2728287876, 0.0592551902, 0.0589914881, 0.1271986812, 0.0142990975, -0.2793876529, -0.0771658868, -0.2349989265, 0.0071252934, 0.0152410651, -0.2206972241, 0.0372613259, 0.0441553928, 0.0761874765, 0.0544374548, -0.1330557764, 0.0029319420, -0.1609046459, 0.0031346278, -0.0670131743, -0.0885155872, 0.0987068638, 0.0221642889, 0.0700704157, 0.0852331817, -0.2151446044, 0.0842523351, -0.1976544112, -0.0263326000, 0.0393336862, -0.1068807691, 0.0542256944, 0.0036152897, 0.0824829862, 0.0488263816, -0.1844728440, 0.0072528860, -0.0529320054, -0.0658108816, -0.0008623711, -0.1188566312, 0.2148072571, -0.1691333055, 0.1286152750, -0.0150681036, -0.0892459601, 0.0429599360, -0.0649982318, -0.0427292362, 0.0906410143, -0.1404951513, 0.1192643568, -0.3511595428, 0.0229557287, -0.0445632897, -0.1307359487, 0.1109786555, 0.0667724013, -0.0279062856, 0.1157671064, -0.1050508842, 0.1600388288, -0.2262276262, -0.1118439883, 0.0225503445, -0.1180682704, 0.1428571492, 0.0621806122, -0.0580742434, 0.1888436526, -0.1694202423, 0.0729279965, -0.0772944763, -0.1320232749, 0.0209980048, -0.0885042697, 0.1024744138, 0.0784343630, -0.0844340771, 0.0838260353, -0.1115326732, 0.0857248753, 0.0066400291, -0.1045940444, 0.0277117174, 0.0121972188, 0.1022738516, 0.0179951247, -0.0757842883, 0.0969278738, -0.0819920674, -0.0080242939, 0.1325991154, -0.0316741914, -0.0150779886, -0.0469342582, 0.0954603106, -0.0092178648, -0.1352357119, 0.0239807218, -0.0984215513, -0.0955313966, 0.2339559346, -0.0262440480, 0.1128738150, 0.0011214624, 0.0855868384, 0.0071717226, -0.1791266799, 0.0143116694, -0.0928631797, -0.0415636860, 0.0728464499, 0.1154268757, 0.0979926139, 0.0117138913, 0.0899433494, -0.0774971694, -0.1630266607, 0.0090617314, -0.1599413157, -0.0500489399, -0.0051573929, 0.0624268577, 0.0958868489, 0.0001067368, 0.1105431318, -0.0560335815, -0.2942100167, 0.0371661931, -0.2241460085, -0.1550476253, -0.0353692248, 0.1872025430, -0.0186751559, 0.1319179833, 0.1118370369, -0.0771918967, -0.3061254323, -0.0595054813, 0.0098417373, -0.0744209290, -0.0344792940, 0.1321848184, -0.1208372936, 0.0270361900, 0.1168752238, -0.1339525133, -0.4130620658, -0.0048036738, -0.0288188905, -0.0259159002, -0.2372850627, 0.0735227764, -0.1638416648, 0.0054104482, 0.0461216979, -0.2174555957, -0.3942226470, 0.0792297572, 0.1094602793, -0.1617834866, -0.2380161136, 0.1218462586, -0.2073291838, -0.0115528991, 0.0922549069, -0.2667798400, -0.3851529956, -0.0407790653, 0.0886816084, -0.0280001946, -0.1377363354, 0.1107648835, -0.3453974724, -0.1707179546, 0.0314635932, -0.2833675444, -0.2468234748, -0.2703365386, 0.0164313838, -0.0648972318, 0.1024441198, 0.0222197846, -0.1682923287, -0.1378687173, 0.0937414616, -0.1704640090, -0.1647042036, -0.2849188447, -0.0004366554, 0.0897948518, 0.0426361859, -0.0647239611, -0.0368934348, 0.0849614367, 0.0528374352, 0.0132313604, -0.1113156229, -0.0638269186, -0.0863225907, 0.1040046439, 0.0602498427, -0.0556969084, -0.0671617091, -0.0435109399, -0.0334064066, -0.0738387257, -0.0020329626, -0.0672812015, -0.0067283325, -0.0553091802, -0.0838146284, 0.0156536773, -0.0083925948, -0.0850330219, -0.0354314186, 0.0713897422, -0.0580078959, 0.0335927531, 0.0466506854, 0.0310172737, -0.0188641623, 0.0712443069, -0.0119004920, 0.0497391298, 0.0814111754, -0.0469198860, 0.0344270617, -0.0801475346, 0.0101683587, -0.0517184213, 0.0095375106, -0.1345791817, 0.2051820308, -0.0366826728, -0.1173529178, -0.0042198505, -0.0894034877, -0.1434167027, -0.1436334848, -0.1681526452, -0.1448899955, -0.1325720847, 0.2512214184, -0.1373302042, 0.0891958624, -0.0093652233, -0.2305871248, -0.1179961637, -0.0837766528, -0.3043992817, 0.0205580853, -0.1113795564, 0.2574886978, -0.2328292578, 0.1642645597, -0.0860670879, 0.0449128374, -0.2041863948, -0.1594208330, -0.1610030085, 0.1835303903, -0.0336873718, 0.2536056340, -0.3031990230, 0.1082672402, -0.1855068654, 0.2088845074, -0.3266998827, -0.1425640434, 0.0136068994, 0.2509852350, 0.0088924803, 0.2411975414, -0.2294726372, -0.1224964932, -0.4215728641, 0.1695399731, -0.2748829126, -0.1085093617, 0.0563346930, 0.0895833224, -0.0941783711, 0.0950959101, -0.1997817755, -0.0184383597, -0.4902288914, 0.1717703938, -0.1546947658, -0.0797386616, 0.0063584256, 0.0153006390, 0.0791373625, 0.0848135427, -0.1514144242, 0.0225126054, -0.4134879112, 0.0547520295, 0.0100095598, -0.0188080762, 0.0729383826, -0.0041769077, -0.0301714763, 0.0758080482, -0.1375978142, 0.0577263795, -0.3030758798, -0.0223730542, -0.0477647632, 0.0530692115, 0.1179396808, -0.1487943530, -0.0271129515, 0.0245939363, -0.1432293355, 0.1734818369, -0.3153965175, -0.0757931247, -0.0157550238, -0.0177271739, 0.2685720325, -0.2469012439, 0.0247882828, 0.0924990177, -0.1528618634, 0.1819243580, -0.3388957083, -0.0838385373, 0.0591312423, -0.0893010348, 0.2275587916, -0.1451380849, -0.0341893807, 0.0272117257, -0.0833585337, 0.1041187644, -0.2701821327, -0.0168559831, 0.2065503448, -0.0087448778, 0.2652933896, -0.1323407739, -0.1116960645, 0.0443282425, -0.1137476414, 0.0924781710, -0.1110704094, -0.0008482784, 0.2494039983, -0.0780150816, 0.1491433978, -0.0755535364, -0.0652038977, 0.0367477164, -0.0770423263, 0.1673290581, -0.1500787288, 0.0860910490, 0.1974141598, -0.0968074501, 0.0860376582, 0.0475162342, -0.0727957785, -0.0341015384, -0.1093534082, 0.0618794449, -0.1843815893, 0.1023704410, 0.1690418869, -0.1787128150, 0.0091416538, 0.1788531691, -0.1748583019, -0.0669302791, 0.0467138030, 0.1049929932, -0.1466505826, -0.0696220621, 0.1412740946, -0.1586595476, 0.0329749174, 0.2011640817, 0.0494211502, 0.0497849658, -0.0023960064, 0.0665963963, -0.2365228385, -0.0579140373, 0.1276136935, -0.0788491815, -0.1446832716, 0.1026900485, 0.1304095984, 0.0645143166, 0.1440165192, -0.0424218513, -0.2319801003, -0.1954850405, 0.0776767582, -0.1073591188, -0.2569397986, 0.0862419903, 0.1047391072, -0.0969081074, 0.1493389159, 0.0118533988, -0.1492975205, -0.2980034947, 0.0330287740, -0.0620314144, -0.3025739491, -0.1166633293, 0.1554175615, -0.0598365776, 0.0966634154, 0.0453057028, -0.2336004376, -0.2599536180, 0.0856311545, -0.0223991200, -0.2294212729, -0.1605743319, 0.1158225089, -0.2437188774, 0.0987835526, -0.0909783319, -0.2274361849, -0.3087796867, 0.0087567754, 0.1735944748, -0.2118053585, -0.0818388462, 0.2040519416, -0.2736606598, -0.1011981145, 0.0121772867, -0.2244001627, -0.3279516697, -0.0741744414, 0.1300036013, -0.1092361212, -0.1371871978, 0.1601273715, -0.1855263561, -0.1131884977, 0.1343925446, -0.2499505579, -0.3673656285, -0.0237318464, 0.2224729210, -0.1365275830, -0.2268308550, 0.0249337517, -0.1786648780, -0.1804676205, -0.0023186852, -0.2151328772, -0.2355305105, -0.1224676967, 0.1321114600, -0.0012942827, -0.0148832491, 0.0047667888, -0.0773518682, -0.0017524392, 0.0333544761, -0.2077599317, -0.1027864739, -0.2447521687, 0.0035004949, -0.0919845924, 0.0512631126, 0.0435186923, 0.0134550156, -0.0257684793, -0.0283298921, -0.0631510839, 0.0107680215, -0.1370024681, -0.0795224905, -0.0103680491, -0.0395534337, 0.0491091385, -0.0798133388, 0.0782870725, 0.0627044365, -0.0717611238, 0.0109872445, -0.0851465985, -0.0612832904, -0.0819106400, -0.0303808376, -0.0112875104, -0.0632404238, 0.0494838879, -0.0680484325, 0.0123152062, -0.0097395852, -0.0852150917, -0.0281227268, -0.0721323788, -0.0279891528, 0.0297772661, -0.0597095639, -0.0410791859, -0.0073798373, -0.0354269221, 0.0310476795, 0.0830214247, -0.0674095899, -0.0708478466, -0.0194392875, -0.1477247775, 0.0539705046, -0.0708225071, -0.0824905634, -0.0872681215, 0.0294462144, -0.0020861342, -0.1430527568, -0.1382158250, -0.2190402150, -0.2638019919, 0.2593905926, -0.1277118921, 0.0793634504, -0.0309693329, 0.1089863554, -0.1506623328, -0.2593454719, -0.0452197753, -0.1436064541, -0.1857453734, 0.2688558996, -0.1355023086, -0.0200613923, -0.1521563530, 0.1931097656, -0.3742749393, -0.0895327479, -0.0990293920, 0.0379275233, -0.3182201087, 0.1926586032, -0.2039798647, 0.0098749250, -0.0709217712, 0.2182879150, -0.4244658649, -0.0453231186, -0.2090482563, 0.0274807010, -0.2567820549, 0.2862058282, -0.0486386158, 0.0235044397, -0.2848001420, 0.2944026887, -0.3909988403, 0.0718454048, -0.0683266446, -0.1235059053, -0.1915564239, 0.2841989100, -0.0939046815, -0.0401661508, -0.3737586737, 0.2969352603, -0.1870715618, 0.0588859692, -0.1733200252, -0.1183289662, -0.2173950672, 0.1692975610, -0.1282684207, 0.0881672502, -0.3518410623, 0.1482034177, -0.0774775594, 0.1090070307, 0.0022577380, -0.2090937644, -0.2432953417, 0.1687131673, -0.0147091076, 0.1285336316, -0.5048680902, 0.1675556451, 0.0054338882, 0.0591172688, 0.0239616372, -0.2007790357, -0.2089781761, 0.2049524039, -0.0093496535, 0.0664581358, 