//Numpy array shape [784, 10]
//Min -0.805673897266
//Max 0.714531540871
//Number of zeros 0

#ifndef W3_H_
#define W3_H_

#ifndef __SYNTHESIS__
model_default_t w3[7840];
#else
model_default_t w3[7840] = {0.0866601244, -0.0783172473, -0.0228969157, -0.0254248679, -0.0290731788, -0.0863581672, -0.0594443604, 0.0624717996, -0.0349941291, 0.0436742529, -0.0036589056, -0.0812388584, 0.0568095371, 0.0047689602, -0.0570748299, 0.0465048328, -0.0218399763, 0.0136864483, 0.0547827557, -0.0105804205, -0.0064127669, -0.0412111655, -0.0592073649, 0.0299436077, -0.0699007958, 0.0154969245, -0.0041357353, 0.0543017611, -0.0201228261, -0.0217127576, -0.0679305047, 0.0809935257, -0.0318077281, -0.0080155954, 0.0535983369, 0.0201323330, 0.0371502265, -0.0435346402, 0.0260214955, 0.0432682708, 0.0034980923, -0.0466050431, -0.0575574264, 0.0377196819, -0.0700375661, 0.0390989408, 0.0381517187, -0.0443693176, 0.0827005729, -0.0289065056, -0.0180863366, 0.0108505115, -0.0818498731, 0.0157953352, -0.0572604463, 0.0788182989, -0.0316589810, -0.0565867051, -0.0723329782, -0.0493331030, -0.0407605693, 0.0514691100, -0.0733935907, -0.0149579644, 0.0286339894, -0.0663572326, 0.0866317376, -0.0790790915, 0.0222895741, -0.0809235647, -0.0491074845, -0.0552118346, 0.0200153589, -0.0506871827, -0.0717053264, -0.0003433600, -0.0145799071, 0.0811295882, -0.0427872166, 0.0503001586, -0.0858664140, -0.0686841905, -0.0286466703, -0.0169817656, 0.0353618041, 0.0813942626, -0.0339083411, 0.0473670438, 0.0741485283, -0.0351367407, -0.0509808436, -0.0696671605, -0.0833679512, 0.0018904805, -0.0556725003, 0.0043389499, -0.0627032220, -0.0862347484, -0.0823801309, -0.0281318910, 0.0292833149, -0.0518357717, -0.0020529628, 0.0745884553, -0.0799045339, -0.0326347575, 0.0598470494, 0.0243168622, 0.0319118500, 0.0765833631, -0.0730745569, -0.0369948670, -0.0707418770, 0.0009575784, 0.0778894946, 0.0251028985, 0.0715311244, -0.0346647203, -0.0280163661, 0.0333228484, -0.0994449481, -0.0277531482, 0.0347654857, 0.0199425910, 0.0061952868, -0.0378879271, 0.0131239714, -0.0688031390, -0.0905850455, 0.0038751978, -0.0536483563, -0.0333989412, 0.0596050061, -0.0225397088, -0.1448142827, -0.0402058288, 0.0295382962, -0.0788902193, -0.0805939138, -0.0373909064, 0.0436385050, 0.0206162427, 0.0790896863, -0.0527941138, -0.0466036573, -0.0602401309, -0.0756925792, -0.0889018998, -0.0822239295, -0.0789318904, -0.0771524683, -0.0818045810, -0.0029771633, 0.0373095423, 0.0057388404, -0.0284355804, -0.0158678181, -0.0593906343, 0.0378555357, -0.0104379859, -0.0814473778, -0.0380806997, -0.0353876054, -0.0131528527, 0.0423568860, -0.0746332407, 0.0349778831, -0.0227536783, -0.0114857927, 0.0822595134, 0.0479273573, -0.0290621966, -0.0396833010, 0.0521157160, -0.0184399486, 0.0262758806, 0.0523325875, -0.0725442544, 0.0420490280, 0.0235036910, -0.0285919346, -0.0420412645, -0.0183171928, -0.0786926076, 0.0242089182, 0.0385036394, -0.0155858025, 0.0207699537, -0.0135084391, -0.0730035305, -0.0091485754, -0.0602733195, -0.0630661622, 0.0062515438, -0.0635195524, 0.0470828339, -0.0353410356, -0.0721573755, -0.0344119072, 0.0825311020, 0.0758945569, 0.0221857578, -0.0233832970, 0.0073105097, -0.0365579538, -0.0663760751, -0.0326863416, 0.0466570780, 0.0565365329, -0.0104217008, 0.0145428255, -0.0519146509, 0.0860027596, -0.0265951753, 0.0790796950, 0.0057298392, -0.0639627129, 0.0567815676, 0.0240844414, -0.0781418905, -0.0733688399, -0.0500467457, -0.0452088080, -0.0192879811, 0.0054535493, 0.0161745250, 0.0796652511, 0.0549684688, 0.0342843011, -0.0348319747, 0.0463214591, 0.0550842509, 0.0807352439, -0.0769713074, -0.0827438012, -0.0142802149, 0.0495907590, 0.0298043117, 0.0839550868, 0.0071243942, -0.0009276345, -0.0758355111, -0.0698639303, 0.0675726011, -0.0554998145, 0.0252576768, 0.0546649322, -0.0672350228, 0.0740064606, 0.0276305825, 0.0621463433, -0.0019156784, 0.0768866315, -0.0182263330, 0.0160847455, 0.0509848371, -0.0327889360, -0.0536380634, -0.0119694248, 0.0442156419, 0.0306310952, 0.0726556107, -0.0546155386, 0.0477624759, 0.0737373605, 0.0301620960, 0.0303153023, -0.0350674167, 0.0195407644, 0.0733156577, -0.0039443970, 0.0833934918, -0.0721086264, 0.0825721696, 0.0225833803, -0.0203756914, -0.0133622438, 0.0360048339, 0.0381818786, 0.0660401508, 0.0231066942, -0.0208243802, -0.0663174167, 0.0482269600, 0.0807606205, -0.0639880151, -0.0835500062, 0.0842983052, -0.0682325587, 0.0760605261, 0.0483924672, -0.0809406787, 0.0215101242, -0.0658355504, -0.0833186880, 0.0212888792, -0.0627410263, 0.0310304165, -0.0268819109, -0.0444376320, 0.0578255728, 0.0155015513, 0.0774143115, 0.0214397460, -0.0548330322, -0.0716421753, 0.0242291093, 0.0240672827, -0.0497721508, -0.0082947686, -0.0274783522, 0.0847476348, 0.0841603503, 0.0111746192, -0.0293118767, -0.0186097994, -0.0538153276, 0.0727498308, -0.0325409137, -0.0338155329, -0.0831527039, 0.0271938350, -0.0693747997, 0.0038144751, -0.0084725842, 0.0561934412, 0.0001812370, 0.0175986607, -0.0005519638, 0.0463013686, 0.0038066569, 0.0569666103, -0.0545795858, -0.0391265489, 0.0190935750, 0.0707921088, 0.1197525859, -0.0182090960, -0.0070901294, -0.0314788073, -0.0201738719, -0.0808676109, -0.0643798113, -0.0835797340, -0.1475750059, 0.0375002101, 0.1722304076, 0.0322755016, -0.0771161541, 0.0505741797, -0.1030604541, 0.0387790538, -0.0136810644, -0.0812887326, -0.1698520184, -0.0610153861, 0.1235350668, 0.0165297985, -0.0780495629, -0.0793893859, -0.0426991358, -0.0208132286, -0.0292017069, 0.0681370124, -0.1046120673, -0.0204517748, 0.1634722501, -0.1306859553, -0.0522401258, 0.0336942002, -0.0626298413, 0.0023364986, -0.1520757973, 0.0255167950, -0.1366672665, -0.0368146449, 0.1022945270, -0.0634858981, -0.0779289380, -0.0692641065, -0.0810597837, -0.1695583314, -0.1757197231, -0.0773991644, -0.2077322304, -0.0098895747, 0.2181049883, -0.1212656274, 0.0206923708, -0.0315754376, 0.0391915962, 0.0065044509, -0.0680830181, -0.0557942390, -0.3006449640, 0.0481627993, 0.1995132565, -0.1042876914, -0.0544830710, -0.1702036411, 0.0021126766, 0.0175741725, -0.2218111604, -0.0288797375, -0.2507565320, -0.1427863091, 0.1893171072, -0.0310388412, -0.1562579274, -0.1257058680, -0.0108229434, -0.1664578766, -0.0997554362, -0.0932292491, -0.2624728978, -0.1012840718, 0.2800220549, -0.0675551370, -0.1829548478, -0.1759253889, -0.0996598750, 0.0543061979, -0.0563042760, -0.1350421607, -0.0760552362, -0.0557439774, -0.0135156559, 0.0222163331, -0.0615180247, -0.1253384203, -0.0118281730, -0.0207814388, -0.0431621559, -0.1185083985, -0.2854509652, -0.0613425709, 0.0732330605, 0.0018489193, -0.1019618213, -0.1010281220, -0.0757604241, -0.1021288037, 0.0571756512, -0.0315522887, -0.1897152513, -0.0934518054, 0.0721373856, -0.1415504813, -0.1944052577, -0.1810580343, 0.0300555900, -0.1048280448, 0.0536161922, -0.0359116234, -0.2112877667, -0.1377473474, 0.0047850525, 0.0236763228, 0.0007102447, -0.0508378670, -0.1116003841, -0.0016354844, -0.0332125612, 0.0236354955, -0.1435204446, -0.0118783545, 0.1088262126, -0.0560706630, -0.0679892302, -0.1299331784, -0.0509191416, 0.0355083570, -0.1605589092, 0.0172350965, -0.2253298908, -0.0497336201, 0.0413559899, -0.0886490047, -0.0240649600, -0.0322847813, -0.0396626778, 0.0473506339, -0.0428613648, -0.0588414036, -0.1511080265, -0.1340133399, 0.0393718444, -0.1033197194, -0.1896585524, -0.1933193654, -0.0520948693, -0.0257639308, -0.0925505385, 0.0174608156, -0.1797998995, -0.1100989282, 0.0411934555, 0.0685093254, -0.0745057389, 0.0147208590, 0.0250836201, -0.0573511757, -0.1142353565, -0.0216532573, -0.0733709335, -0.0748396441, 0.0815677866, -0.0063504893, -0.0915073231, -0.0688015968, -0.0585134625, -0.0140259061, -0.0111061856, 0.0576387383, -0.0061864662, -0.0851061121, 0.1653947383, 0.0269524269, -0.1098706052, -0.1051762104, -0.0714595243, 0.0706879124, 0.0113699809, 0.0590375438, -0.0247942507, -0.0011491850, 0.0040837154, 0.0317183807, 0.0543393120, 0.0774147883, 0.0824428722, 0.0769725069, -0.0171918646, 0.0079184994, -0.0021827072, -0.0112359300, -0.0583869442, -0.0166001469, 0.0676614121, -0.0682760626, 0.0802815035, -0.0604413003, -0.0697759241, -0.0767708346, 0.0333538726, 0.0001137853, -0.0693507418, -0.0388216786, 0.0614047721, -0.0505599715, 0.0535640344, 0.0497686341, -0.0515653044, -0.0655419305, -0.0192714408, 0.0053511858, -0.0134495795, -0.0084778816, 0.0635692999, -0.0059164762, -0.0696975216, 0.0762271211, 0.0049283430, 0.0476349965, 0.0391114280, 0.0547134951, 0.0628328994, -0.0819242299, -0.0431449600, -0.0287006199, 0.0581854656, 0.0011342466, 0.0130624473, 0.0134488344, -0.0189969540, 0.0294033140, -0.0286665261, 0.0538374409, 0.0415745303, 0.0578239188, 0.0724973828, 0.0563769676, 0.0394589268, 0.0398676023, 0.0307860225, 0.0340799317, 0.0425571464, -0.0392503031, 0.0454551578, -0.0349425413, 0.1170457080, -0.0638142675, -0.0466860197, 0.0305347685, -0.1417777538, -0.1088181734, -0.0275294837, -0.0670580342, 0.0317831822, -0.0481626838, -0.0507743172, -0.1008867696, -0.1183733940, -0.0203669369, -0.1503586173, 0.0167664159, 0.1879714131, -0.0898884535, -0.1321327537, -0.0467525870, 0.0111930380, -0.0911979228, -0.0213110410, -0.0666389540, -0.0847568512, -0.0525142625, 0.0106226355, 0.0369966701, -0.0403804928, -0.0802802071, -0.1087116003, -0.0168703850, -0.1031632200, -0.0165211428, -0.2088463008, -0.1063395068, 0.1032582074, -0.0562467538, -0.0176883079, -0.0306518562, -0.1669459790, -0.0285413396, -0.0837111473, -0.1049711928, -0.2120735496, -0.2174122334, 0.1713659465, -0.1542444974, -0.0507302284, -0.1611372977, -0.1743925959, -0.1187811568, -0.0045908447, -0.1919324994, -0.2867840528, -0.1651782393, 0.1777914464, -0.0581438951, -0.1281882674, -0.0597516000, -0.2769513130, -0.1413582414, 0.0853383839, -0.2011620998, -0.3277949095, -0.1111692637, 0.1270953715, -0.1424390525, -0.1396411061, -0.1540511400, -0.3114198446, -0.1895364672, 0.0057282974, -0.1147120968, -0.3540598452, -0.1593272090, 0.3324943185, -0.1742741913, -0.2730775774, -0.1263050139, -0.2240722626, -0.2064695805, -0.0344877653, -0.0063107014, -0.4309469759, -0.2624580860, 0.2516885400, -0.1840423048, -0.3410094976, -0.2849000692, -0.2716473937, -0.1622125655, 0.0934953466, -0.0886787847, -0.4467383325, -0.3259009719, 0.2805135548, -0.3307445347, -0.3337875307, -0.3236809373, -0.2560354471, 0.0813919678, 0.0254210513, -0.1755872071, -0.5054302812, -0.4204744697, 0.2344326526, -0.1771941483, -0.4515642226, -0.3216018081, -0.3028754592, 0.0998102278, -0.0145826368, -0.1003206894, -0.2968254983, -0.4115963280, 0.1948315650, -0.2401859015, -0.3101068437, -0.2888681591, -0.4076814353, 0.1832822412, 0.0737911314, -0.2017315328, -0.4510517120, -0.2255816907, 0.1690764874, -0.0850877911, -0.3797887266, -0.2247352153, -0.2546201646, 0.1447997838, 0.0854166374, -0.0688453838, -0.3386195004, -0.0781208277, 0.2314616889, -0.1237267032, -0.3837783933, -0.2881767154, -0.3166284859, -0.0339307077, -0.0027200554, -0.1356166899, -0.3734400868, 0.0011240436, 0.1709684134, -0.1679329127, -0.2164401859, -0.3267185092, -0.2703371942, -0.0648910999, -0.0757339895, -0.1234807894, -0.3586815596, 0.0097109973, 0.1678220928, -0.0313604623, -0.2287235558, -0.2412165701, -0.2682512701, -0.1943107843, -0.1547538489, -0.2142475247, -0.2828155756, -0.1449818164, 0.2333652675, -0.1147594824, -0.3367209435, -0.1370247155, -0.2898607254, -0.1852925569, -0.1513628215, -0.0851629972, -0.2499480993, -0.0408195518, 0.2389225513, -0.1471487433, -0.1769202352, -0.1324842274, -0.2117905766, -0.1166078523, -0.2454660833, -0.1326724291, -0.1728699952, -0.1428128630, 0.1487966329, -0.0842149332, -0.2144290209, -0.0426204167, -0.1809267402, -0.1761494726, -0.1670032144, -0.1683711112, -0.1943573058, -0.1464626044, 0.2030060440, -0.1196005270, -0.0531002097, -0.0170497093, -0.0148540884, -0.2140684277, -0.0967170969, -0.1355694830, -0.1104770154, -0.1546533555, 0.1131718904, -0.0476736054, -0.2167515755, -0.0798726305, -0.0103362957, -0.1244595349, -0.0368081629, -0.1024664864, -0.1537368298, -0.0471386611, 0.0237502549, -0.0795298442, -0.0964943394, -0.1161751896, -0.0216061305, -0.0877542198, 0.0383060388, -0.0234989282, -0.0835510939, -0.1234568283, 0.0745935366, 0.0364180543, -0.0968422592, 0.0033466166, -0.0202463269, 0.0182515755, -0.0220247805, -0.0482753739, -0.0362717137, -0.0292351916, 0.0121146291, 0.0102740750, -0.0056250095, 0.0095200390, -0.0575940460, -0.0009034425, 0.0361424312, -0.0347280540, 0.0398209020, 0.0586586073, 0.0405961946, 0.0033180490, -0.0210664794, 0.0071301833, 0.0467914864, 0.0081386864, -0.0208186209, 0.0435323790, 0.0559658036, 0.0345359072, -0.0286116228, 0.0659766868, 0.0494435504, 0.0237140134, -0.0320129730, 0.0116053000, -0.0587809756, 0.0188644081, 0.0433615372, 0.0363297835, -0.0600515530, -0.0143578723, 0.0362628624, 0.0601439849, 0.0402970836, 0.0193691924, -0.0518684350, -0.1401631981, -0.1180184409, 0.0029567103, -0.0175281372, -0.0214013848, -0.0287797581, -0.0973633975, 0.0773240253, 0.0491174720, -0.0689341128, -0.1037880257, -0.0952555388, 0.0227539632, 0.1057290435, -0.1312695593, -0.0288722627, -0.1008112356, -0.1382165700, 0.0109917121, -0.0221614204, -0.0077451253, -0.1436070651, -0.0088706389, -0.0480528735, -0.0892962664, -0.0329947025, -0.0840507224, -0.0180489793, 0.0055456259, -0.0382313095, 0.1475412399, -0.0585132949, -0.0479744710, 0.0561009347, 0.0264117923, -0.1275382638, -0.0109154275, -0.2296563685, -0.0075203269, -0.0457111411, -0.0136597864, -0.1410437524, -0.0961315334, 0.2060646117, -0.1705776602, -0.1062597930, -0.0863769650, -0.1967567950, -0.2158763409, 0.0234685391, 0.0351737477, -0.2284140885, -0.1767915040, 0.2058027089, -0.2826744318, -0.2416033000, -0.0651937723, -0.0957031548, -0.2567736208, 0.0264924821, 0.0732908770, -0.3372764587, -0.2075676173, 0.0720803216, -0.2295802832, -0.1754363775, -0.2401577085, -0.2096744925, -0.1776727587, 0.1890426576, 0.0162859373, -0.4281212687, -0.1770180166, 0.1720400453, -0.3863199055, -0.2952368259, -0.1411403865, -0.1513689905, -0.3339828849, 0.1579752266, 0.0679066479, -0.4754428864, -0.1382621080, 0.1818448305, -0.3352108002, -0.2313439846, -0.3159818053, -0.0548691265, -0.2830394804, 0.1551523507, 0.2183061987, -0.4807440042, -0.2508599162, 0.2040292770, -0.2988074124, -0.3776888251, -0.4929824173, -0.0741844401, -0.2347959876, 0.2558658123, 0.2696619332, -0.5371100903, -0.1348330081, 0.1480257213, -0.4291770458, -0.2928678691, -0.4208939970, -0.1181525216, -0.1614038348, 0.1650617719, 0.1385522336, -0.5605524182, -0.2010757327, 0.1753223240, -0.2913179696, -0.2181756943, -0.5343130827, -0.1522172540, -0.0915736407, 0.0346951075, 0.1379210055, -0.4769535959, -0.1144004315, 0.1622694880, -0.2465751916, -0.3398121893, -0.5484228134, -0.1409451067, 0.0478190295, 0.1000035703, 0.1660311967, -0.3188369572, -0.0741815194, 0.0917377621, -0.3119786084, -0.1981674582, -0.4819061756, -0.0918254554, -0.0632791221, 0.1148721352, 0.1691668630, -0.2839478850, 0.0112753576, 0.1595702171, -0.2311374098, -0.3005355597, -0.3853021860, -0.1739936769, -0.1685461402, -0.0488050990, 0.1685707718, -0.2868046463, -0.0247078910, 0.1957364678, -0.2424179465, -0.2292909026, -0.4334549308, -0.2148458958, -0.3159396052, -0.0308641717, 0.0921739116, -0.2866508365, 0.0693691522, 0.1568387896, -0.1861509234, -0.2179512531, -0.2667363286, -0.2026386261, -0.2353165895, -0.1478119344, 0.0070544290, -0.1255149245, 0.0742697716, 0.2176865488, -0.2339358628, -0.2778681815, -0.3116543591, -0.3002367020, -0.2179010212, -0.1922682971, 0.0583008491, -0.0816913694, 0.0442622788, 0.1844570637, -0.1926232874, -0.2043844312, -0.2686658800, -0.1807730645, -0.2424785197, -0.1149232760, -0.1746466309, 0.0357196182, 0.0014308078, 0.2371335179, -0.1656000018, -0.1640406251, -0.2457752228, -0.1994830519, -0.2269008905, -0.2893606126, -0.1731930226, -0.0974945799, 0.0077857524, 0.2014733702, -0.0551524237, -0.1362723857, -0.1386252791, -0.1822958142, -0.1840573996, -0.3012230098, -0.2351245284, -0.0332009122, -0.0425973013, 0.2442179769, -0.0361398421, 0.0492267050, -0.0069820378, -0.1595757008, -0.2604908943, -0.1702263951, -0.1537470222, -0.0798594281, -0.0392170399, 0.0993857384, 0.0265865754, -0.0516489409, -0.0258899201, -0.1393648833, -0.1068092436, 0.0899577215, -0.0474485531, -0.0012248401, -0.0825051591, -0.0322635770, -0.0417341925, -0.0513933189, 0.0232772864, 0.0054198541, -0.1030105576, 0.0211577937, -0.1204404980, -0.0169301946, 0.0369522385, -0.0118099954, 0.0457481146, -0.0088497922, 0.0483913943, 0.0610994920, -0.0684039593, -0.0583239160, 0.0817059949, 0.0016630813, 0.0121878684, 0.0195535570, -0.0398309268, 0.0566030070, -0.0562984720, -0.0327645205, 0.0234387815, -0.0277945176, 0.0803546682, 0.0612931326, -0.0792158619, -0.0680670664, -0.0697257966, -0.0727017522, 0.0364045873, -0.0869712234, 0.0566637926, 0.0277019385, 0.0333367884, -0.0135404719, 0.0275897495, -0.0845029950, 0.0369027369, -0.0157140717, -0.0696750209, -0.0292511676, 0.1138435081, -0.0764909312, 0.0084855249, 0.0168724153, -0.1066516116, -0.0757877752, -0.0167430341, -0.0780898482, -0.0388458520, -0.0702324957, -0.0313148387, -0.0155657008, 0.0148337549, -0.0744437948, -0.0781874210, -0.0501615144, 0.0148893297, -0.1263103038, -0.1086885184, -0.1043114886, -0.0348491222, -0.1733412147, 0.0333603360, 0.0110192765, -0.1890854239, 0.0011269227, -0.0361294448, -0.1128348485, 0.0237065349, -0.2212903649, -0.0291126855, 0.0294112712, 0.2207236886, 0.0216210652, -0.1773049384, -0.0166130960, -0.0897784829, -0.2657127976, -0.1182297096, -0.2133038044, -0.0160952881, 0.0417565778, 0.2273331136, -0.1117590964, -0.2877890468, 0.0422999971, -0.3019348085, -0.2383719236, -0.1623031944, -0.1330200583, -0.1930791140, 0.1430659294, 0.1739096045, -0.0768277794, -0.1851348132, 0.0424216725, -0.3088111579, -0.1784355044, -0.2329397202, -0.1144831032, -0.1891057640, 0.1064867973, 0.1870333105, -0.1469341815, -0.3007678986, 0.0651348457, -0.4805588126, -0.0948227569, -0.3614086211, -0.0137164053, -0.1600488573, 0.1682250500, 0.1614586860, -0.2771770954, -0.2081534415, 0.0215525813, -0.4564248621, -0.1006962135, -0.4428689182, -0.1091907844, -0.0538102575, 0.1313056350, 0.1261629909, -0.2851440609, -0.1264481843, -0.0053031263, -0.6131288409, -0.0479522161, -0.3940965235, -0.0859725326, -0.0531111062, 0.1909516603, 0.1884009540, -0.2516810000, -0.1456959397, -0.0936120525, -0.4431131184, -0.0299520101, -0.2517043948, -0.1057886705, 0.0983879864, 0.2169844955, 0.2063364983, -0.3246334493, -0.1563285589, -0.1411519796, -0.2880611420, 0.0401864275, -0.4081661999, -0.0016123648, 0.0770645887, 0.1721089929, 0.1063471287, -0.2033143491, -0.0874733552, -0.0670786202, -0.4519461393, -0.0143789975, -0.2541213036, -0.0783270597, 0.0215920806, 0.1713971645, 0.1691675037, -0.2544126511, -0.1029327661, -0.0434890613, -0.3833183944, 0.0095568756, -0.4432448447, 0.0349827521, 0.0908690467, 0.1502415091, 0.0468013994, -0.2350184768, -0.0133692538, -0.0429102741, -0.4424735308, 0.1340936571, -0.4380871952, -0.1286920905, 0.0568375476, 0.0858186409, 0.1241834983, -0.1521454602, 0.0865189508, 0.0539466478, -0.3579653502, -0.0508790649, -0.4137035608, -0.0405297540, -0.1314202845, 0.0985521451, -0.0532974824, -0.1056276783, 0.0205207318, 0.0761024803, -0.4226651192, -0.0058285594, -0.3962940276, -0.0885721445, 0.0319729857, -0.0328903906, 0.0032368049, -0.1417224258, 0.0564077720, 0.2401100993, -0.3526929915, -0.0891306400, -0.3801808357, -0.1218624115, 0.0691987723, -0.0362128578, 0.0060140756, 0.0134240389, 0.0553627685, 0.2307705283, -0.3629387021, -0.0701051503, -0.4915757477, -0.0276680663, 0.1547433138, -0.0518730320, -0.0420108810, 0.0778370202, -0.0837573335, 0.3075994849, -0.2181498706, 0.0070700999, -0.4468969107, -0.0852849260, 0.0052612699, -0.2386522740, -0.2348250747, 0.0770767406, 0.0522311330, 0.2486824244, -0.3072185814, -0.1319273114, -0.6239092946, -0.1685079634, 0.0126732895, -0.2104148269, -0.2021778971, 0.0652098581, 0.0532010905, 0.1991942227, -0.2458899021, -0.1938749850, -0.3997499943, -0.1031261310, 0.0703552365, -0.3482213318, -0.4410873353, 0.1471046060, 0.1267719269, 0.3363158107, -0.1563977897, -0.1373957396, -0.3101147413, -0.2768980563, -0.1258937865, -0.1909152865, -0.2145098746, 0.1093016490, 0.0875340849, 0.0628982931, -0.0248621255, -0.0831936449, -0.1790513396, -0.1905509233, -0.2888531387, -0.1613822728, -0.1370708048, 0.0648992211, 0.1346600056, 0.0309016667, -0.0523554049, 0.0697609037, -0.1237787232, -0.0580949672, -0.0590742566, 0.0288913324, -0.1015370786, -0.1440620422, 0.0959545672, 0.0401894748, 0.0293246415, 0.0766175538, -0.0905829296, 0.0214849636, -0.1439919621, -0.1260520518, -0.0062505058, -0.0646046624, -0.0544917770, 0.1297948360, 0.0737447441, 0.0472020023, 0.0260227751, 0.0590457395, 0.0190897584, 0.0127182975, -0.0275979601, -0.0279743336, -0.0306374580, -0.0017841384, 0.0258688480, -0.0756428018, -0.0432537049, -0.0665497705, -0.0397127084, -0.0104656443, 0.0407850519, 0.0636604503, -0.0634035543, -0.0206468478, -0.0504500829, -0.0402751602, 0.0405690446, -0.0595430918, -0.0054177418, -0.0574110523, -0.0123618413, -0.0528556108, -0.0123223290, -0.0173133165, -0.0944985375, -0.0645845458, -0.0399172418, 0.0027216612, -0.0222678557, 0.0106846942, 0.1052375883, -0.0380446874, -0.1193630099, -0.0698314384, 0.0813159868, -0.1841909736, -0.0723458454, -0.1911436617, 0.1445926577, 0.0511826053, 0.2363677174, 0.0408638380, -0.3645512760, 0.0086156586, -0.1432223618, -0.1647669822, -0.0698471069, -0.2366895229, -0.0488155447, 0.1268129647, 0.1394255608, 0.1033050269, -0.1653201431, -0.1949353665, -0.0714887828, -0.3368348181, -0.1555906683, -0.2307466269, 0.0281772856, 0.1311492771, 0.2194729894, 0.0818053707, -0.2206106782, -0.0359759629, -0.0774058700, -0.1721748859, -0.3819675744, -0.2065335810, -0.1385221928, 0.1492998898, 0.1175674796, -0.0088491607, -0.1407019496, -0.0497584343, -0.0128072426, -0.1972414702, -0.4278210998, -0.0387483463, -0.2622509897, 0.1875860989, 0.1153607219, -0.0231331419, -0.0745445862, 0.0453416556, 0.0490703247, -0.0596551634, -0.3496089876, -0.1715688705, -0.2569655478, 0.0977961048, 0.1078556925, -0.0492689461, -0.0366148874, -0.0486560501, -0.1146388277, -0.1536513120, -0.3272860944, -0.0984735936, -0.1850864291, 0.1736980379, 0.1443015039, -0.1938415468, 0.0275920890, -0.0572810918, -0.1623597294, -0.1344503462, -0.2017432898, -0.0157306809, -0.0994882882, 0.2201384604, 0.0893684775, -0.1117245555, 0.0650488660, -0.1359306127, -0.1874132007, -0.0254823267, -0.0012363759, 0.0085222190, -0.0291771740, 0.1138573661, -0.0034329274, -0.2297513634, -0.0979601666, -0.1243716702, -0.2647794187, 0.0246509928, -0.0759076476, 0.0709598362, -0.0249971766, 0.1105771810, 0.0943692327, -0.2030443549, -0.0747032911, -0.1500236988, -0.2118418515, 0.0280274972, -0.0861698687, 0.1028886661, 0.0075984676, 0.1071978956, 0.0764332488, -0.1129014269, -0.0807238817, -0.0395712629, -0.3865946531, 0.1342808753, -0.1890371740, 0.1628590375, 0.0120412875, 0.2334189117, -0.0029718617, 0.0079256510, 0.0284830146, -0.0467645340, -0.3324715197, 0.1342495382, -0.1841368824, 0.1047375128, -0.1027174890, 0.2001844198, 0.1179867759, -0.0415969081, -0.0223788209, -0.0287775695, -0.3264622688, 0.1280540377, -0.3805055916, 0.0885693505, -0.0664729699, 0.1529652625, 0.0088111451, -0.0024466929, 0.1009592190, 0.0095497919, -0.3649195433, 0.1084381044, -0.3283159137, 0.1234087273, -0.0068623503, 0.0728121176, -0.0084893322, 0.0936347246, 0.0554152690, 0.0669635087, -0.4125695825, 0.0404425673, -0.2829662859, 0.0521620587, 0.0580101646, 0.0420788787, -0.0044265748, 0.0846613497, 0.0252810903, 0.2121655196, -0.4776405692, 0.0410731249, -0.3557641506, -0.0721096992, 0.0140387462, -0.0988341346, -0.1494295448, 0.0505965538, 0.0781399906, 0.1384238303, -0.5282787085, 0.0656027198, -0.2759485841, -0.0119501250, 0.2220212817, -0.0714657754, -0.1870293468, 0.0139675476, 0.0933661759, 0.2453021556, -0.3782853782, -0.0517844670, -0.3801382184, -0.0371630490, 0.0700644329, -0.1801254302, -0.3186806440, 0.2336506695, 0.0432211347, 0.1264632046, -0.3326948881, -0.0630848110, -0.5404244065, -0.1287777871, 0.0102827689, -0.3204661906, -0.3116897345, 0.2864643335, 0.1371552497, 0.1395142972, -0.3092365861, -0.1695587933, -0.4694143534, -0.2495835572, -0.1601599604, -0.3283449411, -0.3062992692, 0.1810161024, 0.2380883843, 0.1041760296, -0.2758883834, -0.1606762558, -0.4149673283, -0.2806491554, -0.3614460230, -0.1569133848, -0.3015996218, 0.0512272753, 0.3142224848, -0.0269313306, -0.0914244279, 0.0500619523, -0.2361000329, -0.3430854678, -0.1558143497, -0.1756395251, -0.0990826860, -0.1406604052, 0.2371969372, 0.0352688320, -0.0462796092, -0.0523960367, -0.1257875860, -0.1659612060, 0.0004950745, -0.0785607100, -0.0767472014, -0.0080064051, 0.0161773190, 0.0367768034, 0.0110603226, -0.0184139144, -0.0839838684, 0.0628216788, 0.0531812683, -0.0777318105, -0.0150888413, -0.0333686695, -0.0801233500, 0.0331899300, -0.0250842422, 0.0705635771, 0.0809591636, -0.0869368389, -0.0758460090, -0.0000663692, 0.0727989823, -0.0617719553, -0.0966340080, -0.0862572268, -0.0456776544, 0.0097274035, -0.0099284574, -0.0603343658, -0.1191498488, -0.0517939441, -0.1043336168, -0.1240608096, -0.0849583149, -0.0319035910, 0.0149943400, -0.1741479039, -0.1657536328, -0.1219470575, 0.0000372755, -0.0823473856, 0.0561544299, -0.0547062941, -0.2328776121, -0.1129493937, 0.0815110728, -0.2754831612, -0.0986959785, -0.1578949243, -0.0493501164, 0.0478926003, 0.1580068022, 0.0063411924, -0.3262852430, -0.0805873722, -0.0503898524, -0.2545860708, -0.2813992500, -0.0928906724, -0.1312508285, 0.0714784265, 0.1809699833, 0.0583218075, -0.1925598383, -0.1318681985, 0.1381858140, -0.2609269023, -0.5455652475, -0.1020354629, -0.1051304340, 0.0615611151, 0.2159759849, 0.0980990827, -0.1634674668, -0.1139661148, 0.1640791297, -0.0968121812, -0.2979682982, -0.0740982145, -0.1591700017, 0.0577587560, 0.0600358173, -0.0625050515, -0.0954318866, -0.0707692355, 0.0872641802, -0.1747684181, -0.3498186767, -0.1052694619, -0.3327521384, 0.0287890937, 0.1472981274, 0.0033614535, -0.0816160291, -0.0773898065, 0.1668016464, -0.0066389549, -0.2288011014, -0.1188028678, -0.2930251360, 0.0422008410, 0.0688812211, -0.0801791623, -0.0646973103, -0.1171486452, 0.1170521379, 0.0023789147, -0.1710530668, -0.1121865064, -0.1969952434, 0.0919893384, 0.0906819999, -0.0705120564, -0.0613067858, -0.1093632951, 0.0361591689, -0.0753725097, -0.0925870463, -0.0374246910, -0.0827578604, -0.0163603704, 0.0092436858, -0.1894999593, 0.0509380102, -0.2109356672, 0.0215068683, -0.0072683087, -0.0038457871, -0.0219730474, -0.1329998672, 0.0063563436, 0.1011894718, -0.1938694566, 0.0472245701, -0.1015695035, -0.0949021354, 0.0473991781, 0.0050789104, 0.0272788182, -0.1396309137, 0.0925125256, 0.0713278577, -0.2383530587, -0.0542762466, -0.1919922382, -0.0655989200, -0.0209679101, 0.1435467303, 0.0502336696, -0.0760950372, 0.0728137642, 0.1394613832, -0.3703261018, 0.0415628366, -0.0951190069, -0.0685517192, 0.1009494439, 0.2564678192, 0.0748780891, -0.1583193094, 0.0587321632, 0.0136438431, -0.2703022361, -0.0748153850, -0.1684755534, -0.1633207947, 0.0470955297, 0.1202182397, 0.1172796115, -0.2027966231, 0.0882272050, 0.1373706460, -0.2857164741, -0.0604659244, -0.0549875945, -0.0394926593, 0.1384194195, 0.1446676105, 0.1328662187, -0.2526206672, 0.0283057149, -0.0061900862, -0.1312150508, 0.0697996691, -0.1228582487, -0.0787085518, 0.0924662799, 0.1338727325, 0.1773196012, -0.1500845551, 0.0029188104, 0.0518839434, -0.1412921697, 0.0206453651, -0.0169791952, -0.1145506054, 0.0048478371, 0.0053436393, 0.1066844165, -0.0901020095, -0.0158181787, -0.0717487931, -0.0858271345, 0.1332217306, -0.0029343490, -0.1069971621, 0.0573159158, -0.0198107697, 0.0568608418, 0.0381674357, -0.0723842680, -0.0730069876, -0.0255478807, 0.0862258375, -0.0895977691, -0.2247817069, 0.0290734619, -0.1209117100, 0.0733276680, 0.0325798616, 0.0000515077, -0.0829191431, 0.0885327160, 0.0852204040, -0.0562828444, -0.0602317937, -0.0038606001, -0.1651873738, 0.0438383780, 0.0314306989, -0.1894578040, -0.1379913241, 0.1005078927, 0.1124314666, 0.0452808291, -0.2157461792, -0.0437540412, -0.3855132759, -0.0174025707, -0.0212404616, -0.3534153104, -0.2497231364, 0.2616964579, 0.2544390857, -0.0577860512, -0.2844074070, 0.0571204871, -0.3940383494, -0.3595098555, -0.1499640793, -0.4580726922, -0.3344148993, 0.1173573285, 0.3029393554, -0.0365312099, -0.3053032458, -0.0651940629, -0.5322287679, -0.4284864664, -0.3875597119, -0.2496945560, -0.5048551559, -0.0248896237, 0.2699910700, -0.0613760725, -0.2645200193, 0.0274058096, -0.3849393427, -0.3012565374, -0.1651058197, -0.2444843352, -0.1369535923, -0.0525249019, 0.1358219683, -0.1038323566, -0.1288304925, -0.0051859017, -0.2941744030, -0.1925018579, -0.1437998861, -0.1746317595, -0.0497741997, -0.1460757554, 0.1187798530, -0.0050316285, -0.1474736035, -0.1361996680, -0.1515894383, -0.0901562870, -0.0079538031, -0.0184008423, -0.0438217483, 0.0607224219, -0.0037253117, 0.0621128455, -0.0200137869, -0.0724499300, 0.0520102233, -0.1863162667, 0.0080166142, -0.1907105297, 0.0997709408, -0.1079899371, -0.2011719048, 0.0328005776, 0.1072767526, -0.1411440820, -0.0843705237, -0.0546390228, -0.1307909489, -0.0767833367, -0.1483882219, -0.0614301935, -0.0976069123, -0.0609618314, 0.1047655568, -0.2138885260, -0.1773941815, -0.1056265756, -0.0608737618, 0.0049203793, 0.1487406194, -0.1331392974, -0.4065335691, -0.0755541772, 0.1711133718, -0.3445603251, -0.3262646794, -0.2051341981, -0.0934246257, 0.1473851204, 0.2530877590, 0.1229706630, -0.4948844910, -0.1004172340, -0.0418189354, -0.1010262668, -0.4426979423, -0.0789321214, -0.1935010552, 0.0774983540, 0.1469300389, 0.0741454139, -0.2225424498, -0.0977170169, 0.1455611289, -0.1057851166, -0.3695571423, 0.0049410500, -0.3247637153, 0.1028560773, 0.1347187907, 0.0099365134, -0.0879534259, -0.1656769365, 0.1104159877, -0.0474130549, -0.3719154000, -0.1644441038, -0.1487012208, 0.1230040789, 0.0865854174, 0.0054647815, -0.0356202088, -0.0447965004, 0.1268849671, -0.0062569315, -0.3183046877, -0.2032277584, -0.3903543055, 0.0596507750, 0.0170118846, -0.0416437685, -0.0441099070, -0.1632444113, 0.1008391455, -0.0168830156, -0.1337614655, -0.1130788103, -0.2679031789, -0.0313569158, 0.0990966633, -0.0385907218, 0.1189648136, -0.0846460089, 0.2230710238, -0.0028495074, -0.0330648050, 0.0273171458, -0.1659560949, 0.0574740805, 0.0423240773, -0.1365647465, 0.1494686455, -0.1566438675, 0.2409005314, -0.0481047370, -0.0998213515, -0.0205251016, -0.2731487751, 0.1199147329, 0.0923020765, -0.2654998600, 0.0569320135, -0.1064544693, 0.1741512120, -0.0212060791, 0.0262495577, -0.0325440280, -0.1409289837, 0.0579191558, 0.0183254182, -0.2655873299, 0.0488324836, -0.1345037371, 0.1754820198, -0.0903822929, 0.1606371254, 0.1211668625, -0.0321483649, 0.0419492908, 0.0702057779, -0.2537931204, 0.0379174910, -0.2087087780, 0.0122049386, 0.0146928327, 0.1910568327, 0.0400764272, -0.1791766584, 0.0708449408, 0.1442469507, -0.4571459591, 0.0347806998, -0.1293553859, -0.0363986082, -0.0939496234, 0.2488114089, 0.1517348439, -0.2263352126, 0.0225931723, 0.1240339950, -0.4780550599, -0.1285041273, -0.1647266597, 0.0047396580, -0.0222838130, 0.4289811552, 0.1581179053, -0.1937946677, 0.0270274263, 0.1194338202, -0.4158850908, -0.0370305814, -0.2017789483, -0.0166492090, -0.0251343530, 0.2662115097, 0.1522445679, -0.2154356241, -0.0824600011, 0.0629036576, -0.2875550985, 0.0031718910, -0.1190994233, 0.1007690802, -0.0145605914, 0.2365537882, 0.1575073749, -0.1545103937, 0.0022254875, 0.0677788034, -0.1954331696, -0.0213269666, -0.2217833996, 0.0362080187, 0.0104147037, 0.0359036475, 0.0604769476, -0.0976978615, -0.0636688322, 0.0986502990, -0.0867632255, 0.0205756929, -0.3052809834, 0.0892883763, 0.0474998355, 0.0045642899, -0.0064709517, 0.0534548163, -0.1045782343, 0.0348689631, -0.1678420901, 0.0518709198, -0.2137191296, 0.0901976302, 0.0321234837, -0.0327037498, 0.0461495221, -0.0861753747, 0.0142292213, -0.1076530740, 0.0602498017, 0.0849219710, -0.0780981928, -0.0413982272, 0.0779995173, -0.1014801785, 0.0220860243, -0.0986232013, -0.0710505769, -0.0906691104, 0.0952107236, 0.1519935131, -0.1705491692, -0.1311962306, 0.0958379284, -0.3292680681, 0.1046354622, -0.2336655557, -0.3412092328, -0.3542966247, 0.0993896052, 0.1891709864, -0.1350906491, -0.1564239115, 0.0949929133, -0.3314193487, -0.1584865898, -0.3919832706, -0.4922277033, -0.4995176792, 0.0864767805, 0.3805767000, -0.0495322198, -0.3322811723, 0.0424811020, -0.3849381804, -0.5164562464, -0.4417997897, -0.2779405713, -0.5269834995, -0.0940397456, 0.5227527618, -0.1261551678, -0.3146008253, -0.0703815445, -0.3751077056, -0.4181621373, -0.2267132252, -0.1743426621, -0.1997952312, 0.0755345821, 0.2657483220, -0.1646611542, -0.2534050345, -0.0670543239, -0.2147201747, -0.2019688487, -0.0737612918, -0.1195129082, -0.1586747169, -0.1932394803, 0.1700472236, -0.0902025923, -0.1616609991, 0.0369954444, -0.2337854356, 0.0607915036, -0.0347558595, 0.0184791405, 0.0609497651, -0.0165410824, 0.0107177561, 0.0116882399, 0.0083255973, 0.0601095855, -0.0564429238, -0.1548175961, -0.0743673071, 0.0186850112, -0.0492711551, -0.0664998218, -0.0334766842, 0.0294449460, 0.1185004711, -0.0646423399, -0.0654751658, -0.0816152170, -0.1032860354, 0.0959960297, -0.1782954782, -0.1005829275, -0.2159967422, -0.0395415202, 0.2067094892, -0.1559422761, -0.2021516711, 0.0013331461, -0.0248177927, -0.0438047945, 0.1466838568, -0.1187294349, -0.4324347079, -0.1848455518, 0.2354196310, -0.0286998134, -0.3082274795, -0.2771470547, -0.0190276802, 0.1552306563, 0.1937338859, -0.0649932921, -0.4982474148, -0.1312143952, 0.1890268922, -0.0856998414, -0.3814380169, -0.2232449055, -0.2245767415, 0.1573998332, 0.1260271370, -0.0065395124, -0.2811638415, -0.1104359999, 0.1544391811, -0.0207145065, -0.3245519400, -0.0919875577, -0.3243679702, 0.0986860245, 0.0681475922, -0.1401194334, -0.1658125520, -0.1034877375, 0.0856014714, 0.0231097043, -0.1466329098, -0.0798496008, -0.1895924509, -0.0474529713, 0.0145804714, -0.0305112395, -0.0370644554, -0.0132511463, 0.1661384255, 0.0018198519, -0.2689292133, -0.0035073180, -0.3381182253, 0.1003840715, -0.0009790388, -0.1715059131, -0.0356599465, -0.0593731180, 0.0910590887, 0.0756856278, -0.0269390345, -0.0359470807, -0.2996512949, 0.1258631349, 0.0314399078, -0.0883888006, -0.0002284314, -0.0688210875, 0.1967819780, 0.0855978653, -0.0249855015, 0.0299957432, -0.2050405145, 0.0967017785, -0.0272491928, -0.0804931521, 0.0098295873, -0.1744003296, 0.2279736847, 0.0532170869, -0.0976865813, -0.0563601628, -0.1749696434, 0.0298205167, 0.0158137325, -0.2196843326, 0.1173052117, -0.1415666342, 0.1384529322, -0.0244387183, -0.0229853671, 0.0716072917, -0.1069569513, 0.0020639922, -0.0519343838, -0.2142235339, -0.0273331329, -0.1816505194, 0.2012412697, 0.0587429628, 0.0254080258, 0.0648898482, -0.0316777714, 0.0136102680, 0.0697095841, -0.2266718894, -0.0377818085, -0.0919058323, 0.1357667148, 0.0514062159, 0.1101276428, 0.0438360237, 0.0369737521, 0.0834984034, 0.0397382677, -0.3842350245, -0.1318276823, -0.1245876327, 0.0754893124, -0.1259991080, 0.1745475233, 0.0917024240, 0.1035800055, 0.0054971511, 0.1927198172, -0.3664377928, -0.1843119264, -0.1827256531, 0.2353806198, -0.0644150898, 0.1486787200, 0.1092546433, -0.0345397927, -0.0556794517, 0.0442378670, -0.2827217579, -0.1469201595, -0.3098355830, 0.2467998713, -0.1079153046, 0.1048159599, 0.2722472548, 0.0109601403, -0.0382646434, 0.0866068006, -0.1358465105, -0.0914377272, -0.3577809334, 0.2572157681, -0.0370241329, 0.0158932544, 0.1012389287, -0.0306756124, -0.0280681737, 0.0591070764, -0.1560418755, 0.0158955194, -0.3656672537, 0.1908696890, 0.0767315179, -0.0394740216, 0.1800374240, -0.1303144395, 0.0463336185, 0.1375032216, -0.0164735354, -0.0050109676, -0.3449661732, 0.0934672579, 0.0256474838, -0.0531720780, 0.1075199842, -0.1465649456, 0.0562301055, 0.1005604938, -0.0135668265, 0.1683239192, -0.2809017897, 0.0482982397, 0.1392152905, -0.1410287768, -0.0093153128, -0.1475506574, -0.0671018064, 0.0137062157, -0.0746334568, 0.1184514910, -0.2202290744, -0.0328762010, 0.0560292639, -0.0425681472, 0.0694618747, -0.2135275751, -0.0219112709, 0.0153035531, -0.0482828617, 0.1836625636, -0.3487919867, -0.0460374653, 0.0557532534, -0.2793886662, 0.1600757688, -0.2685222030, -0.2035052925, -0.3904528916, -0.0025024128, 0.4008665085, -0.3258893788, -0.0954324827, 0.1792723984, -0.3953880370, -0.1915464252, -0.4809462428, -0.5883207917, -0.5817593336, -0.0050082989, 0.4957436621, -0.4303247035, -0.2784525752, 0.0104432022, -0.4536069334, -0.5349185467, -0.4085562825, -0.5682819486, -0.5853830576, -0.0938881487, 0.4894535542, -0.5429553390, -0.4658427835, 0.0106506227, -0.3822337687, -0.3337662518, -0.2818194330, -0.3274748027, -0.1880465746, -0.1511137486, 0.3342856467, -0.2405550331, -0.1755899638, 0.1369446516, -0.2771725655, -0.2098662108, -0.0755044669, -0.1454375237, -0.0182353016, -0.0695265979, 0.0098454338, -0.1017479375, -0.0976140574, 0.1061963290, -0.1799135506, -0.0026203608, -0.0317161977, -0.1055689827, -0.0908516049, -0.0661530793, -0.1101556122, -0.0711456463, 0.0217569657, -0.1222428307, -0.1236572340, -0.0756892636, -0.0454312190, -0.0435498692, -0.0594545826, -0.1203555018, -0.1176732257, -0.1619713604, 0.0886683762, -0.1499782205, -0.0911385939, 0.0217625462, -0.0078511806, -0.0916893110, -0.0658764765, -0.1796788126, -0.1269135624, -0.1290714741, 0.2036706954, -0.1078525037, -0.2187280953, -0.0150434570, -0.0382099338, 0.0286225267, 0.1600288600, -0.2167119384, -0.4916438460, -0.2468674332, 0.1664719731, -0.1746784300, -0.3061146140, -0.1951875985, -0.1536713988, 0.1214931086, 0.1954682320, -0.1547519714, -0.4263876081, -0.1991837621, 0.1838538796, -0.0763729811, -0.3349558711, -0.1309839636, -0.2528537214, 0.1337162554, 0.1491869837, -0.0829874054, -0.2019928396, -0.3119793534, 0.1599632055, 0.0013215452, -0.0716702417, -0.1454862058, -0.2761612833, -0.0204888973, 0.1624282151, -0.1443891376, -0.1958358735, -0.1090077981, 0.0918576047, 0.1031972840, -0.0752990320, -0.0615215302, -0.1493659019, 0.0457704961, 0.0170903914, -0.0415592566, 0.0096948938, -0.0808059946, 0.0140208844, 0.0613180920, -0.0668066368, -0.1034515500, -0.1970841140, -0.1220119745, 0.0037371679, -0.0489625633, 0.1489817649, -0.1150823906, 0.0084967092, 0.1079767942, -0.0806535184, -0.0671278760, -0.2913310528, 0.0562141053, -0.1363896430, -0.0449379422, 0.0372747630, -0.0906666815, 0.0923811719, 0.1350879669, -0.0841564387, 0.0094940234, -0.2241781056, 0.0117940083, -0.1971515119, -0.1123467535, 0.0825590044, -0.1620735228, 0.0318147503, 0.1005071625, 0.0453065597, -0.1230260506, -0.1315050721, 0.0803497583, -0.3087068796, 0.0063376552, 0.2194052041, -0.1225663796, 0.0807087421, 0.1159541979, 0.0020014469, 0.0033852044, -0.1782941222, -0.0076577398, -0.2029205412, -0.1029463857, 0.1264804751, -0.1299597174, 0.1200182214, 0.0281715617, 0.0515040606, 0.0196148101, 0.0484410264, 0.0546614341, -0.1238225177, -0.1520268023, 0.0571298338, -0.1518267989, 0.1472026855, -0.0168459844, 0.0108569805, 0.0730465278, 0.2333153933, 0.0117772073, 0.0825019106, -0.3968600929, -0.0214639939, -0.1176651493, 0.2522704303, -0.1003142744, 0.0179641545, 0.0911394432, 0.2704078555, 0.0929618105, 0.2840644419, -0.4405151904, -0.2271918207, -0.2379637659, 0.2321581841, -0.2111829072, 0.0792033896, 0.1116140336, 0.1693325341, 0.1538281441, 0.1683718562, -0.0778139234, -0.1871844083, -0.3296203911, 0.2884319723, -0.0797193870, -0.0065504685, 0.2328573912, 0.0317393690, 0.0267144311, 0.1415200680, -0.0592250712, -0.2154504657, -0.4331280887, 0.2403485030, -0.0885316506, -0.0539210737, 0.2702725530, -0.1643555164, 0.0166439004, 0.1140881851, 0.0305923335, -0.1026514098, -0.3716576695, 0.2326649576, 0.0331241712, 0.0258697737, 0.1602002382, -0.1962306499, 0.0805691108, 0.0645102262, -0.0149043323, -0.0650629029, -0.2879444659, 0.1607821733, 0.0882699788, -0.0196389798, -0.0110199153, -0.1340899020, 0.0329572484, 0.1743272096, -0.0591674037, 0.0116019761, -0.3506291211, 0.1368057877, 0.1138575673, -0.1212002933, 0.0647612512, -0.2422899306, -0.0349242426, 0.0797970667, -0.0847179294, 0.0975143313, -0.1925121546, 0.0512873158, 0.1266332716, -0.0725020841, 0.0391516760, -0.3925203085, -0.1157085299, -0.0075130612, -0.1117705107, 0.1592517048, -0.3201795220, 0.0056049312, 0.0424709022, -0.1705105603, 0.1413342357, -0.5186792016, -0.2146219313, -0.2336423993, -0.1060310528, 0.3639147282, -0.2700638771, -0.1342669725, 0.1233921349, -0.2630818486, 0.0691259354, -0.5208315253, -0.6114453673, -0.8056738973, -0.2839537859, 0.6996069551, -0.3574217856, -0.2831501961, -0.0413340181, -0.4814548492, -0.6131994128, -0.5102992058, -0.4452923834, -0.3832324743, -0.3292177022, 0.6062368751, -0.5151475668, -0.3507796228, -0.1348717511, -0.4720359445, -0.4877216220, -0.3133578002, -0.1191048399, -0.2266145945, -0.2753522992, 0.3638878167, -0.3508169055, -0.1687907279, -0.0413802601, -0.3987628520, -0.2120438069, -0.1768045425, -0.0571639501, -0.0800299719, -0.1786799431, 0.0511466153, -0.1284716725, 0.0054028002, -0.0126895057, -0.0470632985, -0.0002608880, 0.0406222455, 0.0031529933, -0.0708025172, 0.0299228616, -0.0598577261, -0.0672784671, 0.1099692807, 0.0477495678, -0.0042943857, -0.0815330222, 0.0263555702, -0.0703713372, -0.1503169537, -0.1036384255, -0.0405465402, 0.0197357703, 0.0575448275, -0.1309828758, -0.1046639234, 0.0433936417, -0.1258822232, 0.0654979646, -0.0818193033, -0.2321558893, -0.2015132308, -0.1175859571, 0.2820750475, -0.2039834708, -0.2786920369, -0.0451511405, -0.1825786233, 0.1361117512, 0.1236389875, -0.1427205652, -0.3138951659, -0.2378907800, 0.2480928600, -0.2379030287, -0.1931460649, -0.2240411341, -0.1540008485, -0.0546177067, 0.1550367177, -0.1194982380, -0.2464001626, -0.1493635178, 0.2135045677, -0.0206908528, -0.2173413038, -0.0960634723, -0.3437793255, 0.0069003855, 0.0331814960, -0.1666434854, -0.1620048732, -0.1178650260, 0.1362484843, 0.0717908740, 0.0008905746, -0.0361953117, -0.2099597752, 0.0212514549, -0.0813717097, -0.1615477651, 0.0292434953, -0.0804314539, 0.0725950226, 0.1100825816, 0.0488106050, -0.0334138535, -0.1273919195, -0.0767499506, -0.1656925678, -0.0773027390, 0.0581986383, -0.0628598407, 0.0791106597, 0.1996216178, 0.0370606743, -0.0433759876, -0.0894952640, -0.2005847991, -0.2598767281, 0.0067391749, 0.1513931304, 0.0150636882, -0.0114724888, 0.1352935582, 0.0665068477, -0.0018879675, -0.1701030135, -0.0831681341, -0.3806445003, 0.0036015783, 0.2570421696, -0.0926961005, -0.0026110488, 0.1587871611, 0.0131611489, -0.0369485393, -0.2338432968, -0.2053907365, -0.4146379530, 0.0434791893, 0.1457132846, -0.0352477916, 0.0893760547, 0.1194561273, 0.1094133854, -0.0356331393, -0.0858486220, -0.1421595961, -0.4423178732, 0.0241315588, 0.1743580848, -0.1062661111, 0.0460609607, 0.1150862947, 0.0593985543, 0.0780966729, -0.1007934585, -0.2197828293, -0.2601794302, 0.0613464005, 0.2413619161, -0.0641614944, 0.0506128557, 0.0383329429, 0.0964728221, -0.0402393006, 0.1795221865, -0.2252187878, -0.0377506018, -0.1505974084, 0.1038408726, -0.1034105644, 0.1721402109, 0.0195967630, -0.0274619926, 0.0302457195, 0.3420299590, -0.1742772013, 0.1653337777, -0.4998646080, -0.0184748601, -0.1744073778, 0.2261939496, -0.2133844644, -0.1497929990, -0.1488450170, 0.3698658645, -0.1480463147, 0.1315559298, -0.2349994332, -0.1452746540, -0.3572692871, 0.3626691699, -0.2323806733, -0.0735920146, -0.1343698949, 0.2143899947, -0.0247007161, 0.1677713394, -0.0176132638, -0.1434712708, -0.3546978533, 0.3487162888, -0.2218273729, -0.0015637348, 0.0180266369, 0.0218770541, 0.0469739363, 0.1186356917, 0.0351874344, -0.3057493269, -0.3950269520, 0.3759178221, -0.1593903005, -0.0362962447, 0.1502205878, -0.0743004754, 0.0560679398, 0.1141654626, 0.0187470801, -0.2724143267, -0.3165818155, 0.2396253049, 0.0191849526, 0.0270549171, 0.1735038310, -0.0937982351, -0.0603782721, 0.2153676152, -0.0181980561, -0.1535266638, -0.3068598211, 0.2037240565, 0.0791022182, -0.0039274991, 0.1270108372, -0.2696490288, -0.0089777466, 0.2187263370, -0.0274044536, -0.0851758868, -0.1860505193, 0.1449005753, 0.0131337764, 0.0532260165, 0.0918518603, -0.3315852582, -0.1286033839, 0.1171320304, -0.0139153600, -0.0395912491, -0.1886140704, 0.0658674985, 0.1324393898, 0.0607978590, 0.1108276397, -0.4399598241, -0.0380753130, -0.0186013803, -0.1397053599, 0.0484316684, -0.1075932607, 0.0679275766, 0.0476436317, -0.1184027046, 0.1598671079, -0.5483738780, -0.1938516647, -0.1421833336, -0.3294293284, 0.2163902223, -0.1521649063, -0.2191501856, 0.1204342693, -0.1174847409, 0.0261638407, -0.4860711992, -0.3990757465, -0.6071582437, -0.3532604575, 0.5390796661, -0.2818678916, -0.3629225791, -0.1740407646, -0.3378388584, -0.4926754236, -0.1969984770, -0.1914743483, -0.3377797902, -0.3370078802, 0.7145315409, -0.4707236886, -0.2565510869, -0.2243405730, -0.3800222576, -0.2877050340, -0.2484145761, -0.1107764915, -0.3261010945, -0.3596497774, 0.3512052596, -0.4162275195, -0.1277287304, -0.0343448408, -0.2529602647, -0.0824868083, -0.0446714424, -0.0250698440, 0.0294865649, -0.1111326218, 0.1623578519, -0.1450609565, -0.0414958671, 0.0043701497, -0.0353994593, -0.0591099076, -0.0420709886, -0.1046251729, -0.0334463641, -0.0194505788, 0.0098194880, -0.0151600484, 0.0496263430, 0.0030051740, -0.1255852282, -0.0100598503, -0.0799130648, -0.0304615423, -0.0661965311, -0.1658251584, -0.0696771815, -0.0746856928, 0.1229779646, -0.1262009740, -0.1978393197, -0.0790905058, -0.0701782852, -0.0512009151, 0.0337286964, -0.2202443033, -0.2182080448, -0.1009980515, 0.2208677530, -0.2407753468, -0.2514700592, -0.1135561764, -0.1255970001, -0.0771776065, 0.1436842680, -0.2330245376, -0.4133155048, -0.1671376675, 0.3211777210, -0.1650140882, -0.2107383162, -0.1492589116, 0.0172667652, -0.1531757563, 0.0309416782, -0.1928783655, -0.1401958019, -0.0605231188, 0.2464520037, -0.0015354073, -0.0696730018, -0.1005312726, -0.2087084800, -0.0658206046, -0.1044896692, -0.0367376544, 0.0068594795, -0.1514172256, 0.0294462815, 0.1440141797, 0.1430543512, -0.0243433062, -0.1648693979, -0.2081544995, -0.2395875901, -0.0917463154, 0.0637665838, -0.0145840682, 0.0130886678, 0.1522185951, 0.1745707989, -0.0742542222, -0.2137666643, -0.4103230536, -0.4057299495, 0.0812834427, 0.0623160489, 0.0873854756, 0.0334480070, 0.1514822543, 0.1649421751, -0.1006716713, -0.2188591212, -0.3424271941, -0.3054622412, 0.0627790838, 0.0572304055, 0.0147967227, -0.0162276533, 0.1407232732, 0.2191448659, -0.0389527008, -0.2102433443, -0.3833346069, -0.3594760299, 0.1300941110, 0.1038068458, 0.0083663957, 0.0157166310, 0.1418689042, 0.1289429516, -0.1306075454, -0.1430370808, -0.3835256994, -0.3411639929, 0.1896960139, 0.2030760944, -0.0285199042, 0.0539081097, 0.0590341054, 0.1486394107, -0.0085335253, -0.2584557831, -0.4532022476, -0.2524995208, 0.2047439665, 0.2445784956, -0.0597725585, -0.0533684716, 0.0968073532, 0.0743987933, -0.0029849545, -0.2031424195, -0.5559228659, -0.1359328032, 0.2487874776, 0.3084614575, 0.0613967963, -0.0817718580, 0.1577356905, -0.0992505327, -0.1021765098, 0.0893331617, -0.5298103690, 0.0610703789, -0.3369502127, 0.2327091843, 0.0934846774, 0.0336893275, 0.2255465090, -0.1643313169, -0.2744726539, 0.4154620171, -0.3870630562, 0.1376746744, -0.4048930705, 0.1172588095, -0.2159052491, 0.0086815208, 0.0799497366, -0.0821320415, -0.4015364647, 0.4120665193, -0.3031791747, 0.1687516421, -0.0919362083, -0.1800810695, -0.3793727160, 0.2034192979, -0.1274945140, -0.0379865691, -0.4077536166, 0.2206126302, -0.1246744245, 0.0519346930, 0.1927555650, -0.1874346733, -0.2695160210, 0.2981613278, -0.0733053088, 0.0397422388, -0.0711753070, -0.0381880663, -0.1971963346, 0.1389184147, 0.1173349842, -0.2749401331, -0.2833081782, 0.2313344628, -0.1509801149, 0.1018548161, -0.0290707219, -0.1545904279, -0.0033616116, 0.1200056374, -0.0231186207, -0.2421901673, -0.2528588474, 0.2790975273, -0.0451385155, 0.1967273057, 0.0630191267, -0.1781024933, -0.0235686619, 0.0644528419, -0.0059825066, -0.3821016848, -0.1479538828, 0.1335431486, 0.0321584418, 0.1714625955, 0.1090538800, -0.1906074286, 0.0043923687, 0.0285375006, -0.0823966563, -0.4382434785, -0.0768928379, 0.0172157492, 0.1385556608, 0.2765191197, 0.0817959532, -0.1968188584, -0.0287455376, -0.0517940558, -0.0069422163, -0.3729497790, 0.0931201205, 0.0690413564, 0.1765209734, 0.1708085239, 0.1648672223, -0.2647221982, -0.0555049628, -0.2118671238, -0.0497113131, -0.3835642040, -0.0007240576, -0.0228376538, 0.1579219103, 0.0737881884, 0.2189153582, -0.2794021666, -0.1088893563, -0.2043253928, -0.2969299853, -0.1381595284, 0.1828622222, -0.1798487306, 0.1820877194, -0.1669952422, 0.1975527406, -0.3903260529, -0.1917526722, -0.4972614050, -0.3996430039, 0.1636038125, -0.0466118455, -0.3116399944, 0.0977827981, -0.3304734230, -0.2436108440, -0.2168635726, 0.0665779859, -0.0749644712, -0.4540488124, 0.4737137258, -0.2897585332, -0.4254487157, -0.0288931224, -0.3656509817, -0.2192135006, -0.1998264045, -0.0839094445, -0.1410445422, -0.1984051913, 0.2226051390, -0.2329780757, -0.1456509978, 0.0470994748, -0.1559886038, 0.0094632246, 0.0599983968, -0.0198749043, -0.1102477610, -0.0205708928, 0.0558642372, -0.1060366631, 0.0002113152, 0.0709831491, -0.1125180796, -0.0102254283, 0.0671128854, -0.0857690722, -0.0804589093, 0.0231941324, -0.0061553833, -0.0085769026, 0.0697017536, -0.0387214087, -0.0814910531, -0.0069151837, -0.1215844974, -0.1066613570, -0.1834212393, -0.0883484632, -0.0773995221, -0.0579315685, 0.0940438136, -0.1351732016, -0.2774994969, -0.0461111404, -0.0000316295, 0.0199677907, -0.1427495182, -0.2452853322, -0.1679696292, -0.1432459354, 0.2475956529, -0.2642114758, -0.3253549337, -0.1578609496, -0.0966170356, -0.2917505503, -0.0357508771, -0.2034298480, -0.0180228967, -0.1503551900, 0.3119487762, -0.0346684568, -0.1407233179, -0.1859939396, 0.0374499708, -0.2333040088, -0.1428262293, -0.2128433883, -0.0921266526, -0.1794044226, 0.2059549838, -0.0796788335, 0.0360526703, -0.0948917568, -0.2286785841, -0.3959627151, -0.2980461121, -0.0727494434, 0.0469938628, 0.0218972713, 0.1341911107, 0.0718372837, 0.1987036318, 0.0577003695, -0.1437025368, -0.5361843109, -0.3408901095, 0.0097380243, 0.0971892178, 0.0148428446, 0.0395477973, 0.0715312883, 0.2465229332, 0.0938828886, -0.0307559539, -0.5810433030, -0.2815530002, 0.1134438142, 0.0913099572, 0.0664972514, 0.1084739789, 0.0240061916, 0.0925013497, -0.0038643701, -0.1604231149, -0.3826865852, -0.3451383412, 0.1268882602, 0.0254500378, 0.0521683842, 0.0231095888, 0.0262666550, 0.0557098463, -0.0509420745, -0.2241036594, -0.4920793772, -0.2288461924, 0.2032978237, -0.0314613208, 0.1298289299, -0.0600181818, 0.1094344854, 0.1565942317, 0.0395343490, -0.3365513980, -0.4728257954, -0.1361456960, 0.2113398463, 0.1586534977, -0.0139173893, -0.0662210062, -0.0920798928, 0.0995844752, -0.0330898091, -0.3546059132, -0.4850896299, -0.1098668501, 0.3424466550, 0.2098352164, 0.0470479839, -0.1705610901, -0.0785767585, 0.0654685870, -0.0682651103, -0.1980225146, -0.4978366494, -0.0110493777, 0.2410464287, 0.2712764442, 0.0536301583, -0.4211269617, 0.1357305795, -0.1489766687, -0.2355089039, 0.1768594235, -0.4456542134, 0.0639297813, -0.0865256190, 0.2608612478, -0.0423143841, -0.4152083695, 0.1976532936, 0.0028308728, -0.4437147975, 0.4965636134, -0.3796715438, 0.0989590287, -0.3282268345, -0.0951708853, -0.2242398262, -0.2893650234, 0.1212460175, 0.1727139056, -0.5271270275, 0.3058430254, -0.3097848892, 0.1248985007, 0.0208592899, -0.1348083466, -0.2918404639, 0.0731750503, 0.0317600891, 0.1567345560, -0.5334109068, 0.0227037463, -0.1388731152, 0.0849853083, 0.2142756879, -0.2280273139, -0.1479739398, 0.2109455913, -0.0183012653, 0.2371012419, -0.1477471143, -0.1808280647, -0.2188071907, 0.0150670540, 0.1679554880, -0.3512374461, -0.1210190505, 0.1452005059, -0.0503181182, 0.2780889571, -0.1545465291, -0.1238948777, -0.0622259527, 0.0330505483, 0.0068380404, -0.2439780384, -0.1324496269, 0.1591043323, -0.0034035607, 0.2224513888, 0.0454932228, -0.1321919560, -0.0429422222, 0.0078293299, 0.0547034219, -0.3301098645, -0.0630276054, 0.0609474927, 0.0126629658, 0.2148741484, 0.0737322196, -0.2213962078, 0.0017920752, -0.0922347680, -0.0850174353, -0.3349160552, -0.0670621246, 0.0425503142, 0.1073935404, 0.2235082835, 0.1664436460, -0.0860780925, -0.1026514247, -0.2897037268, 0.0177886579, -0.5678147674, 0.0842455104, 0.0052959775, 0.1331717372, 0.3256593347, 0.2242645025, -0.2035738826, -0.1761294007, -0.3361681402, -0.0777008012, -0.6826972365, 0.2772593796, 0.0112093296, 0.2157365680, 0.1615814716, 0.3046178222, -0.1786856502, -0.3339860439, -0.3671958148, -0.2278923541, -0.5782234669, 0.2628639936, -0.1758118719, 0.2092687637, 0.0809534416, 0.2716868818, -0.2535227835, -0.0176529307, -0.4040293097, -0.1221461967, -0.5054786205, 0.2238899916, -0.1969113797, 0.1834456921, -0.3515278399, -0.0686975271, -0.2313423604, 0.1594371498, 0.0667209998, -0.1403705478, -0.0090407431, -0.1585097015, -0.0351013467, 0.1021126285, -0.3563782275, -0.1126163006, -0.0670381933, 0.1507008076, -0.1183249652, -0.0636736155, 0.0894989371, -0.2117705345, 0.0750524178, 0.0404819623, -0.2840165496, -0.0707655698, -0.0452235155, 0.0897290707, -0.0073825358, -0.0843723938, -0.0782934651, -0.1379032135, 0.0630093217, -0.1022987738, -0.0345579125, -0.0394041166, 0.0066851405, -0.0351060964, 0.0224283636, -0.0757637545, -0.0521078072, 0.0153251728, -0.0731159598, -0.0006959434, -0.0159222875, 0.0746406764, -0.0852506757, -0.1210498065, -0.1299824268, -0.0331057757, -0.0452332310, -0.1080902815, 0.1041701213, -0.0132386982, -0.0988248661, 0.0325301513, -0.0276682284, -0.0491300672, -0.1737674773, -0.1822799891, -0.0431657024, -0.1363939643, 0.1290148050, -0.1537036598, -0.1871975064, -0.1157849506, 0.0048138751, -0.2472018003, -0.1185495257, -0.1697937846, -0.1129327416, -0.2306391299, 0.2793600261, -0.1533029675, -0.1133564636, -0.1578851342, 0.0414347425, -0.4186868966, -0.1869763732, -0.0079979114, 0.0619057342, -0.1516861916, 0.2430924624, -0.1456809640, 0.2079775929, 0.0139304092, -0.1810701787, -0.4815733135, -0.2799106538, -0.0016961085, 0.0256989449, 0.0104731228, 0.0243476797, -0.0855745599, 0.1639863700, 0.0396146514, -0.1196495369, -0.5798921585, -0.2593345344, 0.1869955063, 0.0018862244, 0.0719176978, -0.0397691466, -0.0910069048, 0.1323479712, 0.1271738410, -0.1181921065, -0.5254265070, -0.3373326361, 0.2655115426, 0.0481629595, 0.1342768967, -0.0573072545, -0.1167101189, 0.0949426740, -0.0476066023, -0.0243262313, -0.4205021560, -0.1922770292, 0.2305826396, 0.0502824709, 0.0498234034, 0.0083485665, -0.1396623999, 0.1321301758, 0.0756021291, -0.2434433401, -0.3426434100, -0.1686441898, 0.2837087512, 0.0872178897, 0.0372512527, -0.1818708777, -0.1730097085, 0.0800477788, -0.0226619896, -0.4554389119, -0.2568931282, -0.1623991579, 0.3535803258, 0.2298057526, 0.0955887213, -0.2158588767, -0.1276790649, -0.0158221275, 0.0874846280, -0.5100724101, -0.2489005625, -0.1317295879, 0.3745013475, 0.2047419697, 0.1424069107, -0.4773521423, -0.0574631207, -0.0859534740, -0.1458306313, -0.2668539584, -0.1565012485, -0.0267866645, 0.1998979896, 0.1819294393, 0.0387334749, -0.6862388253, 0.1316083521, -0.1122137085, -0.2608847618, 0.2431547642, -0.1119185090, 0.1391789466, -0.0528539419, 0.0895163119, 0.0127891665, -0.7304143310, 0.2601947486, -0.0077237431, -0.5913400650, 0.4682429433, -0.1828432828, 0.1349183619, -0.1497426480, -0.0423651114, -0.1685546637, -0.2958343327, 0.0301490631, 0.1095965132, -0.5748972893, 0.4010189474, -0.2460319549, -0.0597252026, 0.1521797627, -0.2682241201, -0.0731900260, -0.0820368752, 0.0565904789, 0.2141501307, -0.4757989645, 0.0267195776, -0.2628344595, -0.0143032623, 0.1537964642, -0.3083593547, 0.0057961158, 0.0955234468, 0.0685470626, 0.2329518497, -0.2723416388, -0.0482439026, -0.1430199146, 0.1001360416, 0.3219010234, -0.2049083859, -0.0473573506, 0.1065665409, -0.0810094103, 0.2932735085, -0.1137845516, -0.2226720601, -0.1952006966, -0.0147836078, 0.1774243116, -0.1528782696, -0.1167385057, 0.1092036739, -0.0815891027, 0.2822996974, -0.0656219423, -0.2602618635, -0.0619631298, -0.0801455751, 0.1459686905, -0.1512084007, -0.1312029362, -0.0168273952, -0.0573786832, 0.2426566035, -0.1006492674, -0.2677558661, -0.0581192747, -0.2669407725, 0.1753531396, -0.1117793396, 0.0743271485, 0.0735493526, 0.1082308963, 0.2095083296, 0.1170480847, -0.0954577401, -0.1523880959, -0.3194774389, 0.0797838047, -0.2790104151, 0.1602481157, -0.0741444677, -0.0325720944, 0.1127635390, 0.1105137542, -0.2756025195, -0.1603665054, -0.3561549187, 0.0221143290, -0.4559957981, 0.1833458245, -0.0593212172, -0.0199178644, -0.0311523005, 0.2571663260, -0.2845132351, -0.2171493769, -0.2411647290, -0.0182453562, -0.5245487690, 0.4000816047, -0.0822111815, 0.0227268003, -0.1678155512, 0.1758695096, -0.4281995893, 0.0912768990, -0.3639296591, -0.2041421533, -0.5470631719, 0.2169809937, -0.1139781028, -0.0285871122, -0.4423233569, 0.0032228800, -0.2854062915, 0.2851829827, -0.0265464485, -0.0821285844, -0.1713016033, -0.0473421142, -0.0456814431, 0.0707288906, -0.4613105953, -0.0879674330, -0.1263804883, 0.3270000219, -0.1422049254, -0.0310179461, -0.0149757182, -0.2666870654, -0.0182713587, 0.0087875286, -0.2093354762, -0.0095365644, -0.0612023547, 0.0141023109, -0.1145715863, -0.0635848343, -0.0868351310, -0.1074656248, -0.0528192110, -0.1529714763, 0.0151712075, -0.0684071928, -0.0674056187, 0.0232915394, -0.0708314329, -0.0947270021, -0.0411472581, -0.0902308598, 0.0593427606, 0.0147455437, -0.0250527896, -0.0888628885, 0.0026762907, -0.1049989536, 0.0858617574, -0.0227695815, -0.0114236791, -0.0664434060, -0.0065944297, -0.0504965335, -0.1060732529, -0.1369182318, 0.0161879454, -0.0412856191, -0.0890529603, -0.2150905281, -0.0877342075, 0.0480787605, 0.1066816747, -0.1503982693, -0.1442018151, -0.1837110370, -0.0388111547, -0.1646061391, 0.0451708809, -0.1131364480, -0.1070816144, -0.2280820608, 0.0776193440, -0.2801739275, -0.0929676518, -0.1826114357, -0.0406409539, -0.2775180340, -0.0837429538, 0.0906620249, 0.0155876875, -0.4181908071, 0.0280693211, -0.1999809593, 0.0810915083, 0.1754428446, -0.0651091486, -0.3845925629, -0.2548544109, 0.2163130045, 0.0035170615, 0.0072582751, 0.0949187502, -0.2278010249, 0.1519826204, 0.0955365002, -0.1812457740, -0.3420504928, -0.2907534242, 0.2407696694, -0.0633855313, 0.1317858696, -0.0773967505, -0.2762378454, 0.0452535674, 0.1205910295, -0.0722670183, -0.2433802038, -0.3359998465, 0.2271192670, -0.1114779264, 0.0467964001, -0.0287973508, -0.3062627912, 0.1025733426, 0.0402924307, -0.1338335276, -0.2043019384, -0.1469842494, 0.2180203199, -0.0020782996, 0.0539493859, -0.0966146737, -0.2244162858, 0.0803355575, 0.1635464132, -0.1876143217, -0.0454720333, -0.1671769172, 0.2385229617, 0.0781170428, 0.0570132062, -0.1761466414, -0.1819185764, 0.0356299840, 0.0494309515, -0.4240994453, 0.0050960565, -0.1722722650, 0.2395008057, 0.1207128167, 0.1686130911, -0.3330189586, -0.1788354665, -0.0082139028, 0.1200324371, -0.4828918874, -0.0443927646, -0.0463024192, 0.2929285169, 0.1391862631, 0.1784932762, -0.5257599950, 0.0583558232, -0.0807822645, -0.1580327451, -0.0887302905, 0.0082870675, 0.1214494556, 0.1420851797, 0.1690185368, 0.0038189930, -0.6773742437, 0.2175043523, 0.0041207601, -0.4530218244, 0.2594597936, -0.0099155456, 0.0134033505, -0.0517111458, 0.0625834689, -0.0449564643, -0.4597412646, 0.2080352306, -0.0142715694, -0.5911162496, 0.3392668664, -0.0359078795, 0.0642164946, -0.0605418868, -0.1362811923, -0.0426649190, -0.3156188130, 0.1083593741, 0.0151065746, -0.6488901973, 0.3642913401, -0.0780118406, -0.0417464301, 0.0526401028, -0.1916951984, 0.0906779319, -0.1162881404, 0.0364438966, 0.0703772753, -0.4612506330, -0.0633820668, -0.0762300640, 0.0507736169, 0.2812720835, -0.2521035671, 0.0856969580, 0.0624681339, 0.0559681170, 0.2409937233, -0.1517277658, -0.2195243388, -0.0611944422, -0.0012726374, 0.2774985135, -0.2167171836, -0.0928909332, 0.1406131238, -0.0556051843, 0.2134123594, -0.1005992517, -0.2827132344, -0.0176063888, 0.0728719980, 0.2441394329, -0.0762207657, -0.0948720276, 0.2100653648, -0.1257387847, 0.1392098516, -0.0198315699, -0.3822670281, -0.0472560972, -0.0726683289, 0.2251164317, -0.1012576520, 0.0045110690, 0.2765969038, -0.1145409197, 0.0696156844, -0.0790034384, -0.2647797763, -0.0719421655, -0.0281903297, 0.1395976990, -0.0906786248, 0.0313831344, 0.1939890832, -0.2135190517, 0.0629139170, 0.0890773758, -0.2524686158, -0.1517790109, -0.1484453082, 0.1156408340, -0.1539821178, 0.1096352860, 0.0423527248, -0.1727852821, -0.0336033106, 0.1716133803, -0.2446300536, -0.1989111453, -0.1763546318, -0.0458232127, -0.0818134174, 0.1902392358, 0.1312455982, -0.2905110717, -0.0545285307, 0.1680584103, -0.2451556027, -0.1813781410, -0.1449463964, 0.0091249486, -0.2438933253, 0.2482417673, 0.1095492020, -0.2648737133, -0.3577422500, 0.2730795741, -0.1811809391, 0.1208412126, -0.2454447299, -0.0781658813, -0.1743646711, 0.0982139707, -0.0792020410, -0.1836048216, -0.5023272634, 0.0379718654, -0.0874527022, 0.3040007055, -0.2380117476, -0.1178558916, -0.3356199563, -0.0076497067, -0.0004142341, -0.0289704017, -0.3424963951, -0.1629042774, -0.0462408401, 0.3605350554, -0.1485332847, -0.2092960626, -0.1133577675, -0.1950782239, -0.1787579209, -0.2932631969, -0.1183761954, -0.1632493734, -0.1524369121, 0.1024231315, -0.1644260287, -0.0921302065, -0.0529641770, -0.0416915379, -0.1116247103, -0.0443844721, -0.0613218248, -0.0614237227, -0.0192220565, -0.0154925622, -0.0242917966, -0.0182484593, 0.0681589246, 0.0014548947, -0.0023579141, -0.0009760179, -0.0949014947, -0.0837390199, -0.0784746334, -0.0944058225, 0.1062882692, -0.0403738730, -0.1365236938, -0.0561509244, -0.0031701708, -0.1215414852, -0.0007076724, -0.0889390260, -0.0309314579, -0.0270737261, 0.1551626921, -0.0633718148, -0.1427349448, -0.0855746269, 0.1437474936, -0.2446861714, -0.1792064607, -0.2358797044, 0.0631800964, -0.0462844372, 0.1208176836, 0.0502933972, -0.0525581613, -0.2867252231, 0.0358243696, -0.1475424320, 0.0322338492, 0.0126925614, -0.0324178115, -0.0029111404, -0.0461701602, 0.1603185087, -0.1265045106, -0.5062988400, 0.0694776103, -0.3678370118, 0.1284076422, 0.0580807701, -0.1786296368, -0.1031337678, -0.1615490466, 0.1394724995, -0.2323002964, -0.0311874114, -0.0645183995, -0.3900589049, 0.0230151452, 0.0614949279, -0.3159732819, -0.0221336298, -0.2176047564, 0.1389996558, -0.1363757998, 0.0844507739, 0.0784479380, -0.3288665712, 0.0657279864, 0.1626598835, -0.2246088684, -0.0316680297, -0.3109644949, 0.2562756240, -0.1848380864, 0.0656894371, -0.1085420251, -0.2079085410, -0.0494725779, 0.0907470286, -0.0653575957, 0.0249880962, -0.2432841659, 0.1905507147, -0.1691338420, 0.0815185681, -0.1682286561, -0.2050926685, -0.0030918941, 0.1392170340, -0.2370793819, -0.0106792916, -0.1907461286, 0.1812979579, 0.0667837486, 0.1260095984, -0.2246669531, -0.1616698653, -0.0609208643, 0.2130946517, -0.3213192225, -0.0003913081, -0.1199007332, 0.1443476528, 0.1039269939, 0.2005823255, -0.2647835314, -0.1015370712, 0.0503873415, 0.0154384207, -0.2823142409, 0.0819419920, -0.1170552149, 0.2331946343, 0.0352412909, 0.2393916845, -0.4582410753, 0.0637207255, 0.0169574805, -0.2315848917, 0.0276257992, 0.1179897934, 0.1217130199, 0.1609904617, 0.0824444070, 0.1628556997, -0.4648715556, 0.2198079377, -0.0160777196, -0.4766186178, 0.3273873627, 0.1540171206, 0.0046672141, -0.0535393022, -0.0897244662, -0.0376294330, -0.3306062222, 0.2081751227, -0.0729401186, -0.5526203513, 0.3410964310, 0.0775514618, 0.0021200215, 0.1415906996, -0.2446468174, 0.0953701958, -0.1542707533, 0.0998673886, -0.1085695699, -0.5193112493, 0.2627646029, -0.0180087481, 0.0582427755, 0.2503809631, -0.2417375594, 0.0914029852, 0.0494006798, 0.1049737185, 0.1264581233, -0.3327870071, -0.1089106649, 0.0352551043, -0.0752394274, 0.2868379653, -0.2250171900, -0.0209491532, 0.0717016682, -0.1241731420, 0.1635179669, -0.2832650840, -0.4111135006, -0.0879218802, -0.0908999667, 0.2960403860, -0.1679091901, -0.0692337304, 0.2511040866, -0.0996057019, 0.2108684331, -0.0032031066, -0.3400792181, -0.1166270524, 0.0771569535, 0.1896034479, -0.0537934080, -0.0581783243, 0.1902588904, -0.1491179317, -0.0246520750, -0.0530271605, -0.3304560483, -0.1000131294, 0.0264317673, 0.2285528630, -0.0523435734, 0.0151133100, 0.3106666505, -0.1333411336, 0.0154178459, 0.1195504367, -0.4137823582, -0.0769052431, 0.1514478028, -0.0001180708, -0.0262898747, 0.0654585212, 0.2549003959, -0.3208141327, 0.0225814208, 0.0128556797, -0.1903435588, -0.0920836553, 0.1037015840, 0.0434993766, -0.0720906109, 0.0409117900, 0.1520724148, -0.2712301314, -0.0734598786, 0.1987905800, -0.2349139303, -0.1628677696, 0.0388483778, 0.0623275153, -0.1081587449, 0.1275007129, 0.2705868483, -0.1713752151, -0.2428893596, 0.2100845277, -0.3388956785, 0.0088646840, 0.0949058980, -0.1231795624, -0.0900285393, 0.1164859310, 0.0943243429, -0.2200712860, -0.3154761791, 0.2193092406, -0.3321660459, 0.2322312742, -0.0999704227, -0.3016076088, 0.0008851346, 0.0306594539, 0.0346249081, -0.2117650211, -0.4808393717, -0.1075042635, -0.2602263093, 0.3743528128, -0.3275120854, -0.2495822459, -0.2400684059, -0.0900670588, -0.2040297389, -0.1461472511, -0.2809499502, -0.3576200306, -0.0971710011, 0.3708476126, -0.0879668072, 0.0055554057, -0.2098559439, -0.2631363273, -0.1361255795, -0.2741053402, -0.1492190063, -0.1540565491, -0.0926704705, 0.0904550552, -0.1927573383, -0.0373535417, -0.1330365390, -0.2093776166, -0.0850647986, -0.1289460808, -0.1051668525, 0.0356211364, -0.0950268283, 0.0784225687, 0.0497151129, -0.0589637794, 0.0139484992, 0.0402654558, 0.1040557697, -0.0366556160, -0.0579643548, -0.0296791606, -0.0084780660, -0.0864812583, 0.0334626064, 0.0471645184, -0.0787093192, -0.0690928549, -0.0270290263, -0.0774595961, -0.0480768196, -0.1515897065, -0.0302166902, 0.0357114710, 0.2084797621, -0.0770893767, -0.1899346709, -0.0632305741, -0.0117666237, -0.0644714162, -0.1953408420, -0.2876752913, -0.1673928052, 0.0495424345, 0.1356699467, -0.1732171625, -0.1231049076, -0.3873901665, -0.0848161131, -0.0288868994, -0.1699229330, 0.0003193615, -0.1159326509, 0.2153306156, 0.0752054229, -0.1764148027, -0.1116076559, -0.3939554095, 0.1417819411, -0.3986321986, -0.0400094092, 0.0986901671, -0.1975290477, 0.1981877387, 0.0816078186, -0.0853991881, -0.1175941154, -0.0638054535, 0.0212859102, -0.2797785103, -0.0463311188, 0.0907177851, -0.3410581648, 0.1616248935, -0.1262901425, 0.1499293298, -0.2108932287, 0.0210137405, -0.0536785424, -0.2094118297, -0.0070081493, 0.2032828182, -0.2885541022, -0.0064838035, -0.1442388445, 0.1366765797, -0.2472978085, 0.1409944147, -0.0666679963, -0.1301558912, 0.0431148633, 0.1531016827, -0.2870564759, -0.0523159094, -0.2592991590, 0.2668445706, -0.2608069777, 0.0704262331, -0.2252316177, -0.0826267377, 0.0079365084, 0.1691053659, -0.1568665355, 0.0921063945, -0.3059594333, 0.2084604502, -0.1937142611, 0.1770438850, -0.2126934826, 0.0350527279, 0.0254222825, 0.1148524657, -0.2223411500, 0.0341681913, -0.2861093581, 0.0621675476, -0.2297202349, 0.3082838058, -0.3538331687, -0.0403500162, 0.1077924073, -0.0733789653, -0.1520186961, 0.1631685644, -0.1127389073, 0.0279554464, -0.1002002507, 0.3271796405, -0.3098011613, 0.1175879166, 0.0001868691, -0.2843459547, -0.0047717476, 0.2539917529, 0.0006607503, 0.0135074658, -0.0696220100, 0.0865212232, -0.2301623672, 0.1314683110, -0.0390622206, -0.5300061703, 0.2577228248, 0.0870421305, -0.0498365164, -0.0049982709, -0.2417653948, -0.0380578637, -0.1862276345, 0.1246721074, -0.1608029604, -0.6323673129, 0.4330569804, 0.0600560457, -0.0356864221, 0.1476347595, -0.2156732827, 0.0530255698, -0.1405252665, 0.0520681441, -0.1833708137, -0.4366556406, 0.0365493670, 0.0645975247, -0.1656379104, 0.3704963028, -0.1701040566, -0.0113328202, 0.0912959054, -0.0724056140, -0.0054902760, -0.3123601377, -0.2450545281, 0.0315560400, -0.0713455379, 0.3667554855, -0.1504324079, -0.0330997035, 0.0086735450, -0.0187790208, 0.2164781839, -0.0665530264, -0.3524387479, -0.0189233311, -0.0444747582, 0.2081495523, -0.0044085146, -0.1396026015, 0.2388896793, -0.1303371638, 0.0891787335, 0.0092256786, -0.4566306770, 0.0167814456, 0.0522251129, 0.0704775080, -0.0100535033, -0.0149635058, 0.1848623157, -0.1852629334, 0.0005725857, 0.0687523559, -0.3446909487, -0.0108419685, 0.1430700421, 0.1064106151, 0.0320871547, -0.0094110621, 0.2039315701, -0.3136740923, -0.0997233689, -0.0076052817, -0.3000916243, -0.0517563410, 0.0719335601, 0.0734230801, 0.0431167260, 0.0196425971, 0.1915545762, -0.2515708804, -0.1469954997, 0.0378855541, -0.1431360394, -0.0157906190, 0.1168187410, 0.0235496275, -0.0730047822, 0.0046856534, 0.1043300927, -0.2098078728, -0.2200333178, 0.1293043941, -0.3170596361, -0.0199961849, 0.1010872647, -0.1012835503, -0.0092505114, 0.0127097042, -0.0339578539, -0.3200021982, -0.2471784055, 0.0905893594, -0.3381535709, 0.0688038990, 0.0804539770, -0.1081985906, 0.0699800849, -0.0269695353, -0.0950160474, -0.1818467528, -0.3166575432, 0.0844687000, -0.2255024314, 0.1559050083, 0.1050857678, -0.2150493264, 0.0539927296, 0.0671332255, -0.1299683452, -0.0570758842, -0.5240426660, -0.1304882765, -0.2947185636, 0.4739849567, -0.4127373993, -0.2256322950, -0.1897774637, -0.1390178055, -0.2621888816, -0.2138469219, -0.3216893971, -0.2095825076, -0.1663003564, 0.3558251262, -0.2379158437, -0.1462484896, -0.2211668789, -0.3809903860, -0.1894268990, -0.3985544145, -0.1570223570, -0.1466851085, -0.0294417478, 0.1661981195, -0.1822344214, -0.0060554710, -0.0246492233, -0.1682704538, -0.0700220466, -0.0676314086, -0.1136391088, -0.0831046775, -0.0650227144, 0.0558280721, -0.0608860031, 0.0720403418, -0.0730971694, -0.0379087813, 0.0170416012, -0.0052340254, 0.0856508687, -0.0542300716, 0.1156250983, -0.0657983348, 0.0359885022, 0.0440946296, 0.0610139668, 0.0377683789, -0.0367117077, -0.0983266011, 0.0098361224, -0.1687407792, 0.0347343907, -0.0493349768, 0.0572756268, -0.1123419628, -0.2451934367, -0.1283534914, -0.0106116049, -0.0669906288, -0.0989635065, -0.2822588086, -0.0973870456, 0.1391350925, 0.3207973838, -0.2157513648, -0.0482620746, -0.2922381759, 0.0306092389, -0.2421869040, -0.0591939948, -0.0991516039, -0.1880578101, 0.1303205192, 0.2042359561, -0.1899324656, 0.0578564368, -0.5082090497, -0.0465059727, -0.2947338820, -0.0850051641, 0.1268575788, -0.2679253519, 0.1684964299, 0.0948057547, -0.0989756212, 0.0272416789, -0.0943828598, -0.0646765232, -0.2844586670, -0.1583591700, 0.1585578471, -0.4740788341, 0.1974228323, -0.0378038622, 0.0413323566, 0.0573564656, -0.0423945896, -0.1043085381, -0.1109799221, -0.1205925271, 0.1063639820, -0.2891165316, 0.1108027771, -0.1386246979, 0.1436101198, -0.1491433233, 0.0185676441, -0.1192361414, -0.0335749872, -0.0166874230, 0.1131551638, -0.2719462216, 0.0375776738, -0.3148185909, 0.0909004882, -0.3500352204, 0.1852247566, -0.1050408185, 0.0739185959, 0.0093345260, 0.2054097205, -0.1558346301, 0.0463223681, -0.4055426121, 0.0940755680, -0.3993032277, 0.2064875364, -0.2763819098, 0.1020360067, 0.0181426574, 0.1724757254, -0.1327643394, 0.0503474027, -0.4139985442, -0.0508563779, -0.2949654162, 0.3189384639, -0.2421738803, 0.1737230122, 0.0545780063, 0.0326666944, -0.0470778719, 0.2278778553, -0.3191138804, -0.0809424445, -0.3250346482, 0.3192027807, -0.2873853147, 0.1391379088, 0.0141795110, -0.2894328535, 0.0425097197, 0.2269289345, -0.3056252599, 0.0595290773, -0.2707284689, 0.0924192965, -0.1414723545, 0.2121913433, -0.0537890196, -0.5760905147, 0.3440493643, 0.1171653718, -0.1769302040, 0.1337008327, -0.3376069069, 0.0294843800, -0.0102327121, 0.0686825365, -0.1411512792, -0.4257622957, 0.2265731543, 0.0756545812, -0.2361776233, 0.3171069026, -0.1601897925, 0.0003762357, 0.0559759513, -0.1213424206, -0.0212577973, -0.3643003702, 0.0303027108, 0.0067652804, -0.1253652275, 0.2199329436, -0.0617865101, -0.0809984803, 0.0778643042, -0.1345382780, 0.0880627111, -0.1500843763, -0.3011130393, 0.1107432619, 0.0101259705, 0.2520725727, -0.0508171581, -0.0809113607, 0.0773910657, 0.0365494750, 0.0206326135, 0.0283802971, -0.3951149881, 0.0128424112, 0.0875379741, 0.1455243677, 0.0475182869, -0.0665136352, 0.0549632460, -0.1078455150, 0.0362576991, -0.0523503162, -0.2476505488, 0.0818994418, 0.1527735740, 0.1003839225, 0.0617140159, 0.0667432994, 0.0838054866, -0.1537342221, -0.0660707727, -0.0549683049, -0.2919220030, -0.0421080738, 0.0963088274, -0.0338421166, 0.0115297511, 0.0417773537, -0.0122448793, -0.0947668999, -0.0738268644, 0.0771137774, -0.1783369482, -0.0344643705, 0.1440156549, 0.0009595996, 0.0076732142, 0.0565883256, 0.0535946041, -0.1677568555, -0.0992458910, 0.0358180031, -0.1926518530, 0.1338784546, 0.0790461227, -0.0579957366, 0.0937485024, 0.0339744873, -0.0880642384, -0.1074570939, -0.1881961524, 0.0377064049, -0.0964963734, 0.1012137458, 0.2102348953, -0.1309415251, 0.0868868381, -0.0726020858, -0.0949470475, -0.0928651094, -0.3303691149, 0.0123295253, -0.1592235267, 0.1490415633, 0.0829484537, -0.2112519443, -0.0178864338, 0.0341569632, -0.1401433945, -0.1290461719, -0.3886139691, -0.0869495422, -0.0288828909, 0.3345016241, -0.1947588474, -0.2347073555, 0.0050055236, -0.0667975545, -0.1343305856, -0.1228670552, -0.5019649863, -0.0511166565, -0.2768782377, 0.4983386993, -0.4032394886, -0.2646834850, -0.2939168811, -0.1553832889, -0.0583411530, -0.4402790666, -0.3937469423, -0.2529769540, -0.1791034341, 0.2836823165, -0.1504943967, -0.2044402063, -0.3358891904, -0.3761955798, 0.0613508113, -0.2987951338, -0.1560334265, 0.0631462857, -0.0703270957, 0.1786637604, -0.1878624707, -0.1308283061, -0.0501928106, -0.1167449355, -0.0938212201, -0.1459866166, -0.1354778558, -0.1054957435, -0.0008882426, -0.1529149711, -0.1386800408, -0.1045532972, -0.1460546404, -0.0031676213, 0.0518995933, -0.0439941473, 0.0206633788, -0.0473836474, -0.0817389488, -0.0938605815, 0.0472410582, 0.0370669328, -0.0137568396, -0.0183455590, 0.0275267661, -0.0024415287, -0.1109556034, -0.1638422459, 0.0429861881, -0.1575073302, 0.2039406002, 0.0133366911, -0.2071998566, -0.1070150509, 0.0021714736, -0.1224181131, -0.1259869486, -0.3436304033, -0.1580481231, 0.1161816493, 0.3284708261, -0.1623461396, -0.0375596844, -0.3092848361, -0.0566038676, -0.4471370876, -0.2775449753, -0.0361803994, -0.3710820079, 0.1704968661, 0.1885055155, -0.1434983015, 0.0290429387, -0.3989256918, 0.0360927023, -0.3174157143, -0.1851201653, -0.0098942136, -0.4307784140, 0.1973109245, 0.2333518267, -0.2094860375, 0.1210792884, -0.3306070268, -0.0360188633, -0.1872879863, -0.1623798460, 0.0631608367, -0.5288932323, 0.2077277601, 0.0763758719, -0.2046812624, 0.1761785001, -0.1289982349, -0.2763459980, -0.0968485475, -0.0779465660, 0.0602849610, -0.3649716675, 0.1767920107, -0.0591465719, -0.0139507437, 0.0711664930, 0.0594736412, -0.3285675347, -0.0162949637, -0.1178803444, 0.1822762936, -0.2025887370, 0.0615664199, -0.0955958217, -0.0633104220, -0.0577898845, 0.0422347412, -0.2534331679, 0.1585047990, -0.1184620932, 0.2245630622, -0.0035315123, 0.1095574796, -0.2825622559, -0.0776172057, -0.1757239252, 0.0840353221, -0.2572821677, 0.1446412504, 0.0092093460, 0.1351968050, -0.0682082251, 0.0981159732, -0.3381265104, -0.1703897715, -0.3076575696, 0.1582659185, -0.2554061413, 0.1353055388, -0.0552015491, 0.0231979284, -0.0598161668, 0.1183506548, -0.3469841778, -0.1612001061, -0.1820914894, 0.2215076834, -0.1475103199, 0.1303093135, 0.0055640931, -0.2880947888, 0.0538694151, 0.2192173749, -0.4050185382, -0.0067903385, -0.2171688527, 0.2316974252, -0.1159458980, 0.1177571788, -0.1777388602, -0.3717185557, 0.2307769060, 0.2329738140, -0.2947571278, 0.1841350794, -0.0254741367, 0.1603946388, 0.1115039364, -0.0286710225, -0.1219172776, -0.2856211364, 0.2072996348, 0.1025118306, -0.2738696337, 0.2436246127, -0.0455052145, 0.0596564189, 0.0071935006, -0.1009024233, -0.0373420343, -0.2059044838, -0.0115054250, 0.0314305983, -0.0660532787, 0.2003536969, 0.0671442300, -0.0120806377, 0.0464600734, -0.0695809498, 0.0717664659, -0.0277914442, -0.1914748102, 0.1198962182, 0.1355189681, 0.1080399007, -0.0236780774, 0.0986811444, -0.1214347929, -0.0807735994, -0.0439853705, -0.0703096688, -0.1478771418, 0.0680388361, 0.0898064598, -0.0299993418, 0.0683202967, 0.1358395517, -0.0130066872, -0.1525470167, -0.0331047736, 0.0137170963, -0.1991264969, -0.0109188259, 0.1626245528, -0.1260274500, 0.0381484479, 0.1130211949, -0.0283051599, -0.1264777184, -0.0622247271, -0.0127277579, -0.0350401290, 0.0373034067, 0.1819846928, -0.1543123424, 0.0321853235, 0.0723602697, -0.0983960629, -0.0726184025, -0.0532606579, 0.0181987807, -0.0238002967, 0.0390990227, 0.0722613558, -0.0702161342, 0.0284683499, -0.0350434780, -0.1497729719, -0.1231247485, -0.1062736660, -0.0129416594, -0.0731582418, 0.0196031239, 0.1183177903, -0.2071919143, 0.0042378469, -0.0184207596, -0.1486128420, -0.1572076976, -0.2082023025, 0.0939962640, -0.1372662187, 0.1322537512, 0.1271068156, -0.2078489214, -0.0124078291, 0.0382038914, -0.2314381897, -0.0562078431, -0.2544088960, 0.0212376360, -0.1313692182, 0.2452607155, 0.0718468204, -0.1864686161, 0.1210094392, -0.1149043143, -0.2469070256, 0.0073031704, -0.3988987207, -0.1364604980, -0.1275467575, 0.3343152106, -0.1784118861, -0.3352995217, 0.0900541022, -0.0502140336, -0.2531489432, -0.1765081286, -0.4709639251, -0.1445195526, -0.1047623456, 0.4109400213, -0.3736827672, -0.2610631883, -0.2589888871, -0.0550248846, -0.0742614269, -0.4328714609, -0.1826063693, -0.0551459230, -0.0818151459, 0.1551382393, -0.2183855623, -0.1780853420, -0.1421740949, -0.2309703082, 0.0258666128, -0.2847612500, -0.1577740759, -0.0380130745, -0.0102548748, 0.1655466855, -0.0254901033, 0.0350386389, -0.0520637631, -0.1512087137, -0.1548514068, -0.1617162377, -0.1038144752, -0.0176040474, 0.0486844368, -0.1073748544, 0.0455443226, -0.0082071880, 0.0591404364, 0.0774021000, -0.0827450827, -0.0598216392, -0.0433390401, 0.0712815449, 0.0835291743, -0.0021769204, 0.0734338090, -0.1604791880, -0.0007659824, -0.0911666602, 0.1139117852, -0.0602840036, -0.0115916496, -0.1117932573, -0.1030569524, -0.1143118888, 0.0049793907, -0.0715755373, -0.0163702201, -0.0613721237, 0.0164018068, -0.0864051878, -0.2727384865, -0.2091392279, -0.2022853643, -0.0743337572, 0.4083557427, -0.0985509902, 0.0092352312, -0.3824798167, -0.1104113087, -0.3438492119, -0.2225632519, -0.0445514694, -0.4047022760, 0.1132103801, 0.2650616169, -0.1585185528, 0.1056071594, -0.2415307611, 0.0047886404, -0.2061727494, -0.2146604657, -0.0377057865, -0.5811895728, 0.1520450860, 0.1629478186, -0.1665793508, 0.1423909813, -0.3402369022, -0.2996115685, -0.0235671569, -0.2102321684, 0.0407053605, -0.2298561037, 0.0544725917, 0.0727063566, -0.1920111328, 0.2419559509, -0.2558296919, -0.2482080013, 0.0095827272, -0.2025920451, 0.0596849211, -0.0983630270, 0.1763893068, 0.0958696902, -0.2715500295, 0.1738757044, -0.0209899116, -0.3622865379, 0.0160682630, -0.1010668874, 0.0422576666, -0.0895998031, 0.1775592119, -0.0359858200, -0.3780389726, 0.1523160934, -0.0097601060, -0.3148571253, 0.0183171816, -0.2414107770, 0.1391035020, -0.0275253579, 0.1118039787, -0.1279787868, -0.3485618532, 0.0757385343, 0.1610865593, -0.3449456990, 0.1300487071, -0.2091157734, 0.1693319529, -0.0669514090, 0.1403343827, -0.2563510239, -0.3084982634, -0.0898466483, 0.2725199759, -0.2104701400, 0.1161166728, -0.1967788935, 0.1117503271, -0.0277438369, 0.1692857891, -0.2948880196, -0.2340956181, -0.0693733767, 0.2735180259, -0.1778810769, -0.0528140664, -0.3485153615, 0.0021026237, 0.0711924881, 0.1105384678, -0.2405950874, -0.2777785063, -0.0727203041, 0.2979595363, -0.0345700681, -0.1166818663, -0.3000027537, -0.1860614270, 0.1748144180, 0.1922827214, -0.2444860637, -0.0878593028, 0.0049176537, 0.1130775511, 0.1019963697, -0.0928755626, -0.0918316692, -0.1639550477, 0.1023937166, 0.0175312143, -0.1291968673, 0.0571846589, -0.0285284389, 0.0762955248, 0.0531970263, -0.2228916436, -0.0539747886, -0.0392207429, -0.0948823169, 0.1030009538, 0.0579597875, 0.0506778769, -0.0228133015, 0.1118362248, -0.0009752085, -0.1029832289, -0.0832337290, -0.0415588096, -0.0791087672, 0.0586507618, 0.1306504756, 0.0273895152, 0.0488940626, 0.1176946610, -0.1271242052, -0.1149030179, -0.1261349767, -0.0520542897, -0.0113706253, 0.0588661432, 0.1950956732, -0.1813112199, 0.0046851602, 0.2085900009, -0.2050789595, -0.0469029695, -0.1748103499, -0.0725459903, 0.0241787918, 0.0270889830, 0.0936988369, -0.0614870079, 0.0273127630, 0.0233864430, -0.2424515784, -0.0710711703, -0.1259168983, -0.0293016117, -0.0551742353, 0.0341778882, 0.1355468929, -0.2195888460, 0.0046740808, -0.0150552653, -0.2416945845, -0.0473239385, -0.1312002391, -0.0849740878, 0.0754073411, 0.0878435001, 0.1523992121, -0.2150572240, 0.0509590209, 0.0283409990, -0.2913071513, 0.0133318789, -0.0914473534, 0.0143927559, 0.0044787838, 0.0552092157, 0.1405499876, -0.1142490581, -0.0091162724, 0.0192624256, -0.3019843102, -0.0444195755, -0.1669389606, 0.0117415460, -0.0781186819, 0.1171319038, 0.0961327925, -0.4438399971, 0.0200872160, -0.0164159425, -0.2971053123, 0.0682762116, -0.3079147339, -0.0799639001, -0.1315388381, 0.2288378328, -0.1240430698, -0.3595985770, 0.0408307128, -0.0405613706, -0.4147500694, 0.0091575272, -0.2182065547, -0.0096058976, -0.0835738257, 0.2394488454, -0.3000542223, -0.4067969918, 0.1128413156, -0.1713818610, -0.1968620718, -0.1032144427, -0.1901502162, -0.3101593852, 0.0289396401, 0.4677112401, -0.4484795332, -0.3380838335, -0.1113097593, -0.2855888903, -0.1607046276, -0.4796694219, -0.2238236517, -0.2444647700, -0.0255342498, 0.2635486126, -0.0777045265, -0.0138303479, -0.1172938868, -0.2522536218, -0.0275241658, -0.2487552613, -0.0732170790, -0.0330525041, 0.0836417079, 0.1411345899, -0.1326403022, -0.0437998436, -0.0322205238, -0.0958641246, -0.0988867134, -0.0484844930, -0.0739445686, 0.0018472224, 0.0472827330, -0.0255845152, -0.0245755576, 0.0769773796, 0.0066948831, 0.0278794914, -0.0274811089, -0.0198686272, -0.0344780423, 0.0720269307, -0.0045886287, -0.0003348629, 0.0453664325, -0.1024240702, -0.0658928975, -0.1357011199, -0.0396352522, -0.0763238594, -0.0531937741, -0.0902668238, -0.0831320211, -0.0500998348, 0.1082499251, -0.0948774815, 0.0788680017, -0.0475315414, -0.0500039719, -0.1392273456, -0.1155641600, -0.2290807515, -0.1883184165, -0.0724992007, 0.3066446483, -0.1758362055, 0.0524606854, -0.3136776388, -0.1725720316, -0.3435477018, -0.2189932317, -0.0344754979, -0.2008402050, 0.1989004612, 0.3178051412, -0.1692001969, 0.0921750292, -0.3550549150, -0.1943196356, -0.1289252639, -0.1618456244, 0.0009039320, -0.2431724370, 0.1611362100, 0.2876734436, -0.2524977922, 0.1244402602, -0.3585721254, -0.3208751380, -0.0977703854, -0.1688415110, -0.0266014095, -0.1567493081, 0.0614732616, 0.1323058009, -0.3029607534, 0.0248358678, -0.2217260897, -0.4428857565, -0.0610146448, -0.1554576457, 0.0601756759, -0.0883697197, 0.2017591596, 0.1168973148, -0.3197317421, 0.1210893169, -0.1772013903, -0.3534086645, 0.0239474252, -0.2195044160, 0.0035598860, 0.0413151570, 0.1617605984, 0.0840546265, -0.4316533804, 0.0948552862, -0.0206029005, -0.3117982149, 0.0719271600, -0.3150763214, 0.1744786650, 0.0036507198, 0.1068795100, 0.0858727843, -0.3958044052, 0.1488624215, 0.0350724719, -0.1560872495, -0.0585767739, -0.3475792408, 0.2783285677, 0.1057898402, 0.2095785588, -0.0697292760, -0.3860683739, 0.1334518641, 0.2068804055, -0.1384402663, -0.0198621526, -0.3117817640, 0.1660075337, 0.0672175437, 0.0859188363, -0.1794605553, -0.2199171931, 0.1299905777, 0.2545180917, -0.1575911343, -0.0838653818, -0.3720475137, 0.0640126616, 0.0732045025, 0.0584761277, -0.1728866547, -0.2721650302, 0.0008712504, 0.2512993813, -0.0705356225, -0.1335105598, -0.2930147350, 0.0781114995, -0.0532776043, 0.0909365565, -0.0715120584, -0.1794621348, 0.0072261118, 0.3096237183, 0.0949752703, -0.1747535318, -0.0611266531, 0.0334585458, 0.0459755324, -0.0804354772, -0.0279584043, -0.0815657079, 0.0343053341, 0.2114326805, -0.0564689860, -0.0589683168, -0.1648396105, -0.0546777807, 0.0296113286, -0.0570501871, -0.0348479673, 0.0161467139, -0.0304541290, 0.1647356749, -0.1063270569, -0.0892126039, -0.0895142108, 0.0058576344, -0.0656742230, 0.0096837766, 0.0681473687, 0.0118418308, 0.0950231180, 0.1875020117, -0.1290156692, -0.0905726105, -0.0553167760, 0.0047851843, -0.0038842109, 0.0550283268, 0.1234587431, -0.0313749723, 0.0177468341, 0.0355556905, -0.1641937494, -0.0983554423, -0.1334770769, -0.0397175401, 0.0526209623, 0.0229451731, 0.2278571427, -0.1148119867, 0.1071953103, 0.1311196536, -0.3120319843, 0.0143764382, -0.1568202674, -0.1074301973, 0.0432522036, 0.1319480240, 0.1637331843, -0.1725436151, 0.0773216933, 0.1097139418, -0.1966405660, -0.0182482433, -0.1385214180, -0.0530644767, -0.0028563403, 0.0666939765, 0.0830962956, -0.1731049716, 0.0711965188, -0.0503869168, -0.4225909114, -0.0657421425, -0.0718527436, -0.0664947852, 0.0023341272, 0.1556094140, -0.0312362686, -0.1331457347, -0.0248059593, -0.1384873390, -0.4571648836, -0.0432187133, -0.2603973746, -0.0261359643, -0.0867183432, 0.0872117877, -0.0160055738, -0.2996202707, 0.1894333214, -0.1595457345, -0.5089976192, 0.0329268277, -0.2142828405, -0.1463846564, -0.0759808645, 0.1810102910, -0.0632597953, -0.1922487170, 0.1716389656, -0.0548133813, -0.4085049629, 0.0148260379, -0.1311957985, -0.1282829791, -0.0336332247, 0.1798320264, -0.2546452284, -0.1563697308, -0.0442382656, -0.2493114322, -0.1320363283, -0.1047390327, 0.0618604384, -0.2083901614, 0.0547683425, 0.3053669333, -0.2880848050, -0.1739868224, -0.0353219807, -0.2445773333, -0.0639285967, -0.3011707067, 0.0155970370, -0.1309585720, 0.0259059221, 0.1303756684, -0.0139518511, -0.0433154926, -0.0882013291, -0.1619945019, 0.0227178298, -0.2365264148, -0.1591914296, -0.0554039739, 0.0025130589, -0.1275937706, -0.0606589392, -0.1035919487, 0.0500784181, -0.0136081185, -0.1129409000, -0.0535106324, -0.0102827195, -0.0421943329, -0.0338886306, 0.0037398185, 0.0129612330, -0.0561507232, 0.0038807145, 0.0648579895, 0.0290547125, -0.0017528402, -0.0766527355, -0.0642877445, 0.0411514156, -0.0831996053, 0.0506230891, -0.0738450661, 0.0404135101, 0.0400097147, -0.0802413449, 0.0458792783, 0.0288740862, -0.1035550386, -0.0906837210, 0.0405689217, 0.0427293070, -0.0943994224, -0.1873083264, -0.1104661077, -0.2413533181, -0.0829900727, -0.1965295076, -0.1587246358, -0.0877447352, 0.1008822694, 0.2115000635, -0.2073070407, -0.0898250863, -0.2936575413, -0.2392276525, -0.2998282313, -0.2071218789, -0.0775056779, -0.0342286900, 0.1274021715, 0.2486658543, -0.2482069284, 0.0296677891, -0.3330952525, -0.2376300395, -0.1678017676, -0.0658010021, 0.0419237763, 0.2094692737, 0.0484742895, 0.2011097819, -0.2328002602, 0.0443202369, -0.3147065639, -0.2358174920, -0.0254964121, -0.0840540677, 0.0171848089, 0.0689812899, 0.1134500280, 0.1691954732, -0.4232575893, 0.0167727768, -0.3819683790, -0.2920468748, 0.0521444082, -0.2025507689, -0.0154180815, 0.0264001805, 0.0330505706, 0.0587536208, -0.3608322740, 0.0642320216, -0.1402902901, -0.2220701724, 0.0363127701, -0.2053129375, 0.0535204932, 0.0810103267, 0.1173292100, 0.1304939091, -0.3019361496, 0.1043812558, -0.1264047176, -0.0949176475, 0.0910928547, -0.2240816802, 0.1062237173, 0.0150533589, 0.1125161722, -0.0471522361, -0.2306542844, 0.0881544948, 0.0373079479, -0.1297311336, -0.0200916734, -0.1911981404, 0.0808851644, -0.0099254455, 0.1572689563, 0.0072514503, -0.2360656112, -0.0047606169, 0.0210045110, -0.0561508127, -0.0431092829, -0.2150236815, 0.2001088113, -0.1366690993, 0.0290071219, -0.1365313977, -0.1268147081, 0.1162706837, 0.1867995560, -0.0445259027, -0.0996621847, -0.2217381597, 0.1588322669, -0.0833125338, 0.0112056024, -0.0931743234, -0.2060190886, 0.0539397374, 0.2229158729, -0.0007635751, 0.0482170433, -0.2061721236, 0.0526341312, -0.1386615187, 0.0197951142, 0.0073358915, -0.1851743609, 0.0649107024, 0.2986903787, 0.0059776045, -0.0325567350, -0.0910916254, 0.0223694034, -0.0707799345, -0.0663655922, -0.0327361077, -0.1377943158, -0.0467257835, 0.3237689734, -0.0081647076, -0.0855707452, -0.1681882739, 0.0308973920, -0.0216499697, -0.0476365834, 0.0573829114, -0.1097851023, 0.0335521474, 0.2149531096, -0.0227354690, -0.0809812173, -0.0399537534, -0.0877892971, 0.1206915081, 0.0350967161, 0.0752407834, -0.0572960302, 0.1206790656, 0.1942968965, -0.1720276922, -0.0062186061, -0.1341137141, -0.0397607610, 0.1255953908, 0.0774391890, 0.0146638313, 0.0460173413, 0.1008518040, 0.0973007604, -0.2179330736, 0.0028193805, -0.1320997030, -0.1028900519, 0.1202757582, 0.1181351095, 0.1353983581, -0.0478947535, 0.0750955492, 0.1128704995, -0.2064692825, -0.0908946395, -0.1840280294, -0.1093959957, -0.0366869606, 0.2249311358, 0.0598300062, 0.0328179449, -0.0548639968, 0.0043355539, -0.3755373657, 0.0183432419, -0.0641535595, -0.0907858387, 0.0047613368, 0.0752095506, 0.0277059935, -0.0030799904, 0.0230268929, -0.0419640318, -0.2676932514, 0.0467099659, -0.1461390257, -0.0513461605, -0.0821569413, 0.0553241260, -0.1385293901, -0.0295050424, 0.0837694481, -0.1758266985, -0.4329742193, -0.0607197434, -0.1059130728, -0.0317636132, -0.2138774991, 0.1208979934, -0.1081938148, -0.1002965868, 0.1869656742, -0.2089398801, -0.4138816297, 0.0164118670, -0.1303525716, -0.0631097853, -0.2537846863, 0.2885404229, -0.2565136850, -0.1211988628, 0.1374017298, -0.1351245940, -0.4006788433, -0.0860473961, -0.0009912279, -0.0978784561, -0.0294879712, 0.1764578074, -0.2920307517, -0.1934520900, -0.0081832418, -0.2071190625, -0.0839083120, -0.2633328736, 0.0163977202, -0.0753192455, -0.0482433103, 0.2412010133, -0.3009505868, -0.2126495093, 0.0378052779, -0.0831633955, -0.1119067520, -0.2467483282, 0.0145061137, 0.0344013385, 0.0051288940, 0.0756828561, -0.0226756316, -0.1171986088, 0.0162193831, -0.0286008622, -0.1116672456, -0.1523940563, -0.0797716603, 0.1052206904, 0.0218525156, -0.0555134490, -0.0634670779, -0.0196832716, -0.0440852046, -0.0878447518, -0.0293554775, -0.0708880201, -0.0352833755, -0.0216425322, 0.0183837004, -0.1148447394, 0.0110315662, 0.0250858795, -0.0385662317, -0.0958227739, 0.0563115627, -0.0222162493, -0.0561966598, 0.0117693115, 0.1039094552, 0.0288926568, 0.0028159325, -0.0849443376, -0.0206443798, -0.0067000166, 0.0291863885, -0.0940882638, -0.0507315770, -0.0599864535, -0.1459715813, 0.0572166182, 0.0492607094, 0.0208429229, -0.1834967285, -0.0760790706, -0.1735105217, -0.0907058492, -0.0591651499, -0.2408607900, -0.0556295887, 0.0195518415, 0.1520017982, -0.1872108430, -0.0138284434, -0.1975391507, -0.3222849667, -0.1917209327, -0.0894432813, -0.2324891239, 0.1422712654, 0.1655206680, 0.1677207500, -0.2375613451, 0.0935507491, -0.2239703238, -0.2403911650, -0.1537551433, -0.0438336357, -0.0320052058, 0.3050639033, 0.0164264683, 0.1435320824, -0.3657630980, -0.0682929456, -0.3791843951, -0.0793550536, -0.1167241782, -0.2641385794, 0.0043679690, 0.2255881727, 0.1074728668, 0.1161554605, -0.2224995196, -0.0903607160, -0.5406274796, -0.0291446038, -0.0007607670, -0.1261810958, 0.0609272197, 0.1672130227, 0.1272956133, 0.0972517878, -0.3190116584, -0.0711000487, -0.2236061394, -0.0145038962, 0.0635569319, -0.1838808656, 0.1163349375, 0.0381216928, 0.1126113832, 0.1021613330, -0.2104358524, 0.0592210479, -0.1178500950, 0.0203934517, -0.0781762972, -0.0627634078, 0.0404524021, 0.0826551914, 0.2035077661, -0.0194754843, -0.1837275475, 0.0918592364, -0.1350377351, -0.1054967791, -0.0053952034, -0.0724458396, 0.1270617545, -0.1069070324, 0.0879014432, 0.0385071598, -0.1140094548, 0.0826868713, 0.0030099591, -0.0433420315, -0.0054888641, -0.1065288484, 0.1681806743, -0.1897606552, 0.1227201000, 0.0873245373, -0.1801139265, 0.1256812364, -0.0880830064, -0.0145031437, 0.0937146395, -0.1407906264, 0.1375805587, -0.2970898747, 0.0078094616, -0.0882120058, -0.0830803365, 0.0630405322, 0.0927783325, -0.0701850876, 0.1503935456, -0.0317739397, 0.1110780984, -0.2284957618, 0.0116268694, -0.0694247410, -0.0950371549, 0.1389088631, 0.0886857733, -0.0729374439, 0.1919050068, -0.1845840663, 0.1207743660, -0.1193316355, -0.1231847107, 0.0281094853, -0.1934998930, 0.0753438398, 0.0468690991, -0.0589339286, 0.0949233398, -0.1077066287, 0.0964895412, 0.0681743622, -0.0788574591, 0.0221334994, -0.0332544483, 0.1537871957, -0.0330184139, 0.0158428885, -0.0052943984, -0.2004498690, -0.0237605684, 0.0384168811, -0.0463132635, 0.0404423028, -0.1234565154, 0.0485143363, 0.0394437723, -0.1033236235, -0.0258327480, -0.1894634366, -0.0640442818, 0.1302171499, 0.1136007831, 0.0394254141, -0.0103156576, -0.0061454033, -0.0273598824, -0.1788565516, -0.0421663038, -0.0709943399, -0.1267701387, 0.1222963780, 0.1172801554, 0.0673777089, 0.0396065675, 0.0569692552, -0.1550967991, -0.2145129293, 0.0145123648, -0.1843496561, -0.0026143268, 0.0777011663, 0.0793666244, 0.1182339117, 0.0246245209, 0.0786010921, -0.1243149191, -0.2645348907, 0.0349576138, -0.0667665228, -0.1623224318, -0.0492578186, 0.1669505686, 0.0440207422, 0.1220337152, 0.0266547762, -0.0318638682, -0.2710989118, -0.0282885432, -0.0493883379, -0.0403095298, -0.0776318833, 0.2193512619, -0.1854666620, 0.0074268631, 0.0312295444, -0.0946073607, -0.4133742154, 0.0776847973, -0.0125707509, -0.0734686777, -0.2166039050, 0.1954565346, -0.1788321882, 0.0357287191, -0.0040636198, -0.2718038857, -0.3622845709, 0.0894704163, 0.0926771909, -0.1137115583, -0.0973321274, 0.0770290419, -0.2490255684, -0.0915463120, 0.0735658035, -0.1887036115, -0.3966999650, -0.0861200467, 0.0228294153, -0.1231891736, -0.0545958169, 0.2450664490, -0.2389170527, -0.0853052139, 0.0622525737, -0.2949455082, -0.1639592946, -0.1635419875, 0.0377071090, -0.0393797085, 0.0623251945, 0.0758136734, -0.1600770652, -0.1331813186, 0.0479745604, -0.1756232679, -0.1099187136, -0.1698261350, 0.0696554631, -0.0300886035, 0.0017011110, 0.0287761483, -0.1397596151, 0.0256579779, -0.0407771990, -0.0369700789, -0.0643314049, -0.1592800468, -0.1106489673, 0.0726498961, 0.0363253802, -0.0842444673, -0.0511838458, 0.0469109714, 0.0119110756, 0.0685996190, 0.0128374426, -0.0256498884, -0.0298538059, -0.0164738894, -0.0675613657, -0.0062503368, 0.0104684830, 0.0341812745, -0.0625311583, 0.0596228465, -0.0295781791, 0.0672966763, 0.0047420412, 0.0530992374, 0.0237855017, 0.0523161218, 0.0095947534, 0.0339516178, 0.0834161416, -0.0298361294, 0.0243716165, 0.0795490667, -0.0220975727, -0.0994299129, -0.0591959916, -0.0169429779, 0.1466364712, -0.0279829502, -0.0324629210, 0.0041462299, -0.1035759971, -0.0643792897, -0.1798367649, -0.2815541029, -0.2379025221, -0.0964243785, 0.2551958561, -0.1471350342, -0.0167911742, -0.1104163826, -0.1947359592, -0.2260231376, -0.1379988343, -0.2201469094, -0.0955884904, -0.0594591610, 0.2454108447, -0.3119606972, 0.1016488001, -0.1259244233, 0.1541543752, -0.2950995564, -0.2663143873, -0.1799616963, 0.1294295341, -0.0847303495, 0.2077638954, -0.3886538446, 0.0657644644, -0.1490477026, 0.0584133118, -0.3710448444, -0.2344984263, -0.0118146678, 0.2533217669, -0.0343095250, 0.1587311327, -0.1296440661, -0.0658752397, -0.2788413763, 0.2383552492, -0.3088647723, -0.1756670624, 0.0207281914, 0.0125618335, -0.0261556786, 0.1778670251, -0.1282988787, -0.0984151661, -0.3096655309, 0.1697512865, -0.0644002855, -0.1225171983, 0.0343760103, -0.0221667569, 0.0659906045, 0.0131890355, -0.1106072068, 0.0061057424, -0.3926642537, 0.0506203435, -0.0412290320, 0.0395870656, 0.1173256114, 0.0319053866, -0.0649110228, 0.1080951914, -0.0429065526, -0.0118369982, -0.3073755801, -0.0739942491, 0.0553447567, -0.0522964485, 0.1719474941, -0.1765497923, 0.0120884636, 0.0728799254, -0.0827948451, 0.1098416001, -0.3611452281, 0.0279111434, -0.0116983466, -0.0216482766, 0.1886479557, -0.1673682332, -0.0572478883, 0.0824767277, -0.0265292823, 0.1628227234, -0.3291947246, -0.0897350386, 0.0705430061, 0.0108445091, 0.1579278708, -0.1569964588, -0.0198017098, 0.0369707383, -0.2084904760, 0.1054642126, -0.1883942485, -0.0815601125, 0.1650540531, -0.0577744097, 0.2295768857, -0.1683771610, -0.1645705253, -0.0223568901, -0.1167436689, 0.0921400189, -0.1753759682, -0.0141205257, 0.1602259427, -0.0786296055, 0.1876166314, -0.0834788829, -0.0773926377, -0.0489826053, -0.0143895233, 0.0624173321, -0.1851361245, 0.0147995846, 0.2407440990, -0.0422039814, 0.1053304002, 0.0593154915, -0.1751986146, -0.0324829370, -0.0403177068, 0.0342387408, -0.0987909883, -0.0849852413, 0.2017593682, -0.1817073375, 0.0061914320, 0.1296306998, -0.0350725986, 0.0274199154, -0.0008096170, 0.0546430461, -0.2280878276, 0.0185574051, 0.0849828348, -0.0665492862, -0.0136837643, 0.2429754287, -0.0906114280, -0.0098642297, 0.0507594310, 0.1046369597, -0.2520613670, -0.1580787450, 0.0593756735, -0.0490759313, -0.1795725524, 0.1124258116, 0.0835483819, 0.0503686778, 0.0770080760, -0.0301971640, -0.1932303756, -0.1470767558, 0.1207968593, -0.1061170846, -0.1742162853, 0.0549586080, 0.1418632865, 0.0179031324, 0.1342056990, 0.0733549148, -0.0888374448, -0.2051240951, -0.0059454008, -0.0180985611, -0.2656013668, -0.0240292512, 0.1254155040, -0.0167608988, 0.1083515435, 0.0294989664, -0.0672648549, -0.3552787602, 0.1244860739, 0.0075006848, -0.2282716930, -0.1597409248, 0.1281920522, -0.0837665424, 0.0953599960, 0.0162342116, -0.2174734473, -0.2957243323, -0.0164580327, 0.1267375797, -0.2037868500, -0.1151134893, 0.1835214049, -0.2662709653, -0.0992683694, 0.0394959487, -0.2738705873, -0.2256303281, 0.0193558149, 0.2528279424, -0.1314568818, -0.2335118353, 0.1051317379, -0.1944148690, -0.1785048991, 0.0984344929, -0.2567979097, -0.4085177481, -0.0149368877, 0.0756267458, -0.0908384919, -0.0864486098, 0.1784010828, -0.1408095211, -0.0356270596, -0.0018411230, -0.2083604336, -0.0404189974, -0.0649319366, 0.1179265827, -0.0152105456, 0.0490964800, 0.0836051777, -0.0891148522, 0.0552237630, 0.0587628260, 0.0012987318, -0.1330168843, -0.1492284238, 0.0370156877, -0.0222164840, 0.1373026669, -0.0680454150, 0.0751694739, 0.0952664465, -0.0203361623, 0.0495360047, -0.1132792458, -0.0630101785, -0.0895187408, 0.0174833462, 0.0404631570, -0.0210172981, 0.0022202656, 0.0546804890, 0.0203564838, -0.0766883045, -0.0817970634, -0.0654824078, -0.0677818432, -0.0314780883, 0.0642638132, -0.0468757600, 0.0781935081, -0.0305107869, 0.0050498769, 0.0028013214, -0.0040779337, 0.0789238885, 0.0348803028, -0.0031075403, -0.0513094664, -0.0319570117, 0.0724476054, 0.0689549819, 0.0214827508, 0.0209137499, -0.0696860626, -0.0179819986, -0.0433377698, -0.0824632421, -0.0315186121, -0.0754062906, 0.0872459412, -0.0095700575, -0.0178292189, -0.0323648490, 0.0282957014, 0.0689271241, -0.1462489069, -0.0219758246, -0.1415624768, -0.1514236331, 0.2592409551, 0.0040233727, 0.0281686839, -0.0969143957, -0.0148889646, -0.1325693578, -0.1617209762, -0.0728769973, -0.0512149557, -0.2892093956, 0.1915441304, -0.2902432680, -0.0491630882, -0.0563506484, 0.2322148681, -0.2883475125, -0.0472009517, -0.1516953707, 0.0594693162, -0.2893540561, 0.2159280628, -0.1101149097, -0.0617914833, -0.0908575132, 0.1779335886, -0.4809121788, 0.0818351880, -0.1095354706, 0.0837236270, -0.3705048859, 0.2678326964, -0.1264355779, -0.1142455712, -0.1415437758, 0.2776886225, -0.3329826295, 0.1039543301, -0.2320415527, -0.0159987416, -0.1899144351, 0.2290947586, -0.1043824479, -0.0341003463, -0.2278115451, 0.1975446641, -0.2355579585, 0.0756045431, -0.1208273917, -0.1245656610, -0.2918011844, 0.2866550088, -0.0640520081, 0.0041707116, -0.4386650622, 0.2391511351, -0.1287203282, 0.0849884972, -0.0222862326, -0.1600066870, -0.2093923539, 0.1655476391, -0.0985776260, 0.1471078396, -0.3671332598, 0.1684882641, -0.0806175098, -0.0071475594, -0.0914169997, -0.2174759656, -0.1843795329, 0.2004311383, -0.0655566081, 0.1007237285, -0.3501011431, 0.1518514305, 