float layer_weight[7840]={-0.03768451, -0.019040518, -0.06537735, 0.07753753, -0.07906044, -0.023560502, -0.023286574, 0.05417254, -0.06718124, 0.024589464, 0.007260293, -0.07138139, -0.0785342, 0.074378945, -0.030861005, -0.025511604, -0.065334655, 0.026250407, -0.041784514, -0.07780491, 0.0038726479, 0.05757486, -0.076167405, 0.05314795, -0.06763701, 0.07465472, -0.054516803, 0.029482014, -0.0152768865, -0.027252942, -0.08495509, -0.047010228, 0.06332997, -0.062293224, 0.030047506, 0.032251894, 0.05715307, -0.021390378, -0.07522512, -0.00078991055, -0.07201399, 0.072685756, -0.009568244, -0.06410024, 0.070094846, -0.038828332, 0.057698213, 0.04474903, 0.02527152, -0.041641116, 0.018391244, -0.010687716, -0.08223654, 0.034137025, 0.04875026, -0.027576488, 0.05681301, 0.02115307, 0.08426965, -0.077835664, -0.014946848, 0.024802811, -0.019656561, -0.0163479, -0.06580672, -0.048191667, 0.03864447, 0.007855639, -0.031490978, -0.03892402, 0.07517872, 0.03643495, 0.013583779, 0.013079837, 0.045487754, -0.026550077, 0.008994214, 0.0051863715, -0.0021994933, -0.0010059774, -0.015150771, -0.08298281, 0.009243995, -0.017763473, 0.04210574, -0.07626188, -0.059413914, 0.029613264, -0.06075985, -0.012785099, 0.0030140504, -0.07317757, 0.074430026, -0.05118043, 0.01663503, -0.08660028, 0.04293021, 0.044851713, -0.040325977, 0.071956255, 0.083060555, 0.07812863, -0.06298898, 0.02911666, 0.012875609, -0.03192327, 0.08374221, -0.033013288, 0.06570611, -0.023581728, 0.07893302, -0.05790928, 0.032717638, 0.043854065, -0.009148434, -0.08508792, 0.07392574, -0.07676849, 0.062012725, -0.040934645, -0.036244687, -0.090675876, -0.0194857, -0.053121164, -0.16477726, -0.13975336, 0.006912435, -0.06816803, -0.14098787, -0.12519765, 0.018251846, -0.021426262, -0.010485482, -0.17475012, -0.15844996, -0.16469671, 0.09392696, 0.016503887, -0.052277245, -0.0659906, 0.036607012, 0.051734548, 0.11549649, 0.0028093725, 0.03940307, -0.052008834, -0.0891305, -0.025013592, -0.07831601, -0.073469125, -0.06750963, 0.0740583, 0.03968794, 0.0040260903, -0.03552364, -0.04710295, -0.11418255, 0.07290522, -0.03165924, 0.062439214, -0.08404808, 0.02874244, 0.040997572, -0.08454895, 0.038515456, 0.07910479, 0.076344244, 0.042861827, -0.04395941, 0.022920206, 0.04023265, 0.041848622, 0.07955871, 0.082333975, 0.07750862, 0.07225268, 0.018943124, 0.07324546, 0.016081885, 0.06803752, -0.08480885, -0.080470085, -0.048394382, -0.049622595, 0.035626777, 0.079394646, -0.046870124, 0.034767665, 0.0133254975, 0.026486635, -0.03847658, 0.0109784305, -0.03440484, 0.077452995, 0.067216344, -0.024801131, -0.059475444, 0.009355731, -0.008831374, 0.027549416, 0.07134212, -0.06585901, 0.01506146, 0.0859733, -0.030767739, 0.017223924, -0.06370853, -0.06367226, -0.06489563, -0.016815402, 0.02480971, -0.057125464, 0.08151119, -0.06452876, -0.057014808, -0.034332283, -0.00990247, 0.0688717, 0.021327324, -0.06169977, 0.026326135, -0.016962163, 0.013712004, -0.047374353, 0.0293011, -0.008319117, -0.02225446, 0.04345358, 0.0012634248, 0.06404627, 0.019417599, -0.074802466, 0.07560239, -0.016655296, -0.0064742416, 0.008840263, 0.066318356, -0.0583983, -0.05292359, 0.073213704, -0.027510393, 0.06584179, -0.04235855, -0.072519965, 0.03204354, 0.042713605, -0.040075283, -0.041524928, 0.060921542, 0.0587262, -0.067687936, 0.017588027, 0.031375602, -0.06498732, -0.04485987, -0.014635496, -0.0031614527, -0.08592299, -0.0548012, -0.08146089, 0.019195296, 0.027767159, -0.025431998, -0.00545875, -0.039743632, -0.08110309, 0.029661454, 0.013038546, -0.0426194, 0.013760209, -0.07034062, -0.070419475, 0.07982855, 0.016674802, -0.079526745, -0.04992811, -0.08031065, -0.06999647, 0.041014306, 0.023685768, -0.029998556, -0.061526716, 0.07806807, -0.034165297, 0.028900415, -0.043032587, 0.06424252, 0.035140745, 0.04588332, 0.029020518, 0.057040073, -0.024845839, 0.030558452, -0.0027993992, -0.052524168, 0.084091984, 0.039051674, -0.05835291, -0.041791003, -0.047530025, 0.07235166, -0.07713668, 0.04863242, 0.0813177, -0.017578848, -0.0660011, -0.044838775, 0.03051947, -0.028269362, 0.01806049, -0.07370408, -0.032321908, 0.0052617565, 0.049039416, -0.0013525262, 0.08063946, -0.040698063, 0.052732848, -0.084367126, 0.027306661, 0.055996288, 0.08334991, 0.01098899, 0.08159989, 0.035309143, -0.08152956, 0.05314328, -0.020255232, -0.076412804, 0.009141813, 0.058247324, 0.0034283125, -0.13223784, 0.034764837, -0.13037172, -0.03523906, 0.16179161, 0.06357649, -0.09136254, -0.062391195, 0.02123533, -0.0041286536, -0.06462162, 0.009684558, -0.22249258, 0.013919215, 0.16644433, -0.07372183, -0.015483598, -0.10030264, -0.010274758, -0.06750475, -0.13741817, 0.011038422, -0.11846197, -0.06262228, 0.20056744, -0.10362812, 0.015277265, -0.032521136, -0.05303759, -0.15919189, -0.005099229, -0.023662454, -0.25566652, -0.053637195, 0.10210666, -0.056954615, -0.1566106, -0.06888614, 0.0018034168, -0.1529056, -0.1031125, -0.09906707, -0.17975865, -0.0055409586, 0.23978056, -0.16446503, -0.05767856, -0.07791511, -0.14663805, -0.1525419, -0.12854946, -0.027842782, -0.26394215, -0.13035245, 0.25217086, -0.14924996, -0.09645503, -0.13250232, -0.0271009, -0.2169569, -0.29054216, -0.07899466, -0.30633122, -0.085199974, 0.34291655, -0.28648746, -0.25893816, -0.3528683, 0.051780816, -0.11897886, -0.3787261, -0.17776148, -0.4196321, -0.11484745, 0.27095816, -0.23064628, -0.15940644, -0.2392086, 0.09455157, -0.058790024, -0.24371128, -0.16919321, -0.30384973, -0.16071343, 0.33760667, -0.20110583, -0.21312231, -0.2983033, -0.07947387, 0.053136952, -0.09749657, -0.18887874, -0.20692575, -0.16153976, 0.0038712067, -0.059733413, -0.094378814, -0.15876476, -0.041721247, 0.16626316, 0.08811865, -0.16579, -0.24310645, -0.17304906, 0.12876908, -0.11060368, -0.19985047, -0.22770171, 0.06274597, -0.077709205, 0.19776516, -0.29452345, -0.42124608, -0.29124802, -0.047707908, -0.18272421, -0.20351474, -0.1938523, -0.081638, -0.29477704, -0.0076717446, -0.25554663, -0.48457423, -0.37251315, 0.21394971, -0.23775317, -0.1536296, -0.2530155, -0.049425572, -0.1628115, -0.28636375, -0.17164357, -0.37199736, -0.16888121, 0.3428397, -0.11776662, -0.23048085, -0.23338471, -0.0070228954, 0.04304491, -0.24690127, -0.007830802, -0.11409737, -0.22310577, 0.16341399, 0.06176396, -0.015714139, -0.15074123, -0.09748136, -0.039404858, -0.23799422, -0.13603823, -0.19457108, -0.14106016, 0.16113932, 0.029730665, -0.13001205, -0.1262702, -0.047388896, -0.0017592506, -0.16802959, -0.09619218, -0.08273471, -0.06563458, 0.17325805, -0.06838954, -0.05341083, -0.09624781, -0.07270175, -0.035966787, -0.07479681, 0.06596038, -0.12078353, -0.01056698, 0.03494118, 0.030176073, -0.0604664, -0.039798032, 0.042212613, 0.077396594, -0.056660645, 0.036950607, -0.17029078, -0.022208368, 0.12828268, -0.093034424, -0.04674834, -0.119493365, 0.076840185, 0.02076082, 0.0065025464, 0.018805325, 0.044005506, 0.023892798, 0.04750333, 0.0012222081, -0.04528155, 0.06605039, 0.076257564, 0.063264884, -0.0029107928, 0.027833834, 0.054873012, 0.06084702, -0.08173306, -0.026428375, 0.08656802, 0.009381883, 0.051630087, 0.007200107, 0.0408101, -0.051986717, -0.051536266, -0.022057943, 0.06575694, -0.06270875, 0.031024694, 0.05987387, 0.07794874, 0.012398712, -0.03916456, -0.0070518404, -0.07001236, -0.007770039, -0.0026869625, 0.08020366, 0.07657979, 0.05768112, 0.056111075, -0.03203523, 0.04123058, -0.018190026, -0.086869135, 0.049752064, -0.055290964, -0.02003669, 0.06137728, 0.00924696, -0.05186309, -0.08631369, -0.048372786, 0.05936896, 0.05012379, -0.07416126, -0.012416266, -0.05027543, 0.04629139, -0.016849622, 0.033486642, 0.03049161, 0.05559053, -0.068234384, 0.019271625, 0.015973609, 0.043667544, -0.034542944, -0.017959826, -0.07954678, -0.010352224, 0.04635986, 0.005782177, -0.10971772, -0.11944722, -0.0297209, -0.0076916427, -0.011519752, -0.037532497, -0.040833585, -0.009594088, -0.078029424, -0.14560518, -0.004576018, -0.11767834, -0.15399295, 0.033800956, -0.071018435, -0.01799258, -0.04180886, -0.054494787, -0.10999382, -0.09782688, -0.16308804, -0.06720512, -0.027565362, 0.052008398, -0.010928908, -0.099825196, -0.062857255, -0.1473122, -0.0101536615, -0.10345064, -0.087918006, -0.17380086, 0.022334924, 0.14224473, -0.057595357, -0.10352112, -0.021588193, -0.12177562, -0.10837006, -0.1613882, -0.26901746, -0.2260161, -0.16005696, 0.35452983, -0.23457876, -0.10667087, -0.10506054, -0.2857668, -0.09897781, -0.011847773, -0.19003919, -0.384594, -0.24207903, 0.29709196, -0.12535006, -0.2120054, -0.17376481, -0.3336378, -0.13399258, 0.09036676, -0.26968414, -0.51306665, -0.22494711, 0.21708554, -0.10430004, -0.29581374, -0.1795507, -0.3769505, -0.23579192, 0.06743423, -0.2149545, -0.65123254, -0.14346579, 0.32761845, -0.33377498, -0.3303018, -0.26948184, -0.14138912, -0.1549684, 0.020957127, -0.009740542, -0.7982818, -0.17655186, 0.2881405, -0.32648775, -0.4876215, -0.41459435, -0.12480492, -0.09418224, 0.05271883, -0.06381689, -0.6776641, -0.34641826, 0.28639817, -0.24831796, -0.4565478, -0.3987607, -0.30963776, 0.0056140115, 0.0025310307, -0.076164834, -0.48071972, -0.5112437, 0.27512988, -0.2788593, -0.454575, -0.3799808, -0.4481943, 0.05352853, 0.110460125, -0.044759534, -0.3902372, -0.57488346, 0.23312454, -0.24296886, -0.5370597, -0.3424893, -0.49056578, 0.17290123, -0.011250214, -0.13572557, -0.40909466, -0.37882164, 0.21650779, -0.22754383, -0.5130298, -0.4144781, -0.4102106, 0.0909258, 0.15250959, -0.21831717, -0.5148376, -0.15785344, 0.08513785, -0.2445313, -0.6014477, -0.4162623, -0.4194954, -0.0698112, -0.040191725, -0.21589392, -0.40426585, -0.06769216, 0.19907227, -0.21504866, -0.42461494, -0.39830232, -0.5603032, -0.04971155, -0.11903755, -0.17821628, -0.5160381, -0.051289212, 0.19311784, -0.017033031, -0.16362178, -0.26303077, -0.32019743, -0.025576256, -0.13629857, -0.18701883, -0.37973067, 0.018880751, 0.26095748, 0.021987844, -0.47432467, -0.27599093, -0.39138445, -0.12898664, -0.13924222, -0.3081129, -0.25099525, -0.15790647, 0.3170316, -0.044778466, -0.39218697, -0.2632912, -0.3572909, -0.16096075, -0.23899499, -0.2440048, -0.3252934, -0.20570724, 0.24497788, -0.01138829, -0.29489648, -0.14541799, -0.22200298, -0.22326797, -0.25582168, -0.3018286, -0.15555657, -0.08447822, 0.20784393, 0.015960665, -0.18083479, -0.15386961, -0.120178126, -0.06463938, -0.08925673, -0.13992138, -0.23393421, -0.15964209, 0.1585956, 0.0005714252, -0.27455357, -0.0076629044, -0.15182868, -0.06288765, 0.12629178, -0.1447373, -0.20208758, -0.2079444, 0.02548802, -0.029836627, -0.1413749, -0.10081312, -0.11667229, -0.0072066, -0.013620274, -0.038026582, -0.0453544, -0.09568684, -0.06665546, -0.009976903, -0.0376858, 0.03619778, 0.009814635, 0.06764055, -0.0061750263, 0.015952326, 0.07406419, 0.05570904, -0.001202181, -0.059054986, -0.049332295, 0.08361604, 0.043091677, 0.084321715, -0.036283486, 0.0339849, -0.034280073, 0.040845938, -0.017042309, -0.043796983, -0.07598672, 0.06445689, -0.016074836, -0.068335816, -0.029951073, 0.031151764, 0.019523524, 0.0273254, 0.08046847, 0.042611398, -0.04085562, 0.055840082, -1.4364719e-05, -0.004751183, 0.07558607, -0.011366352, -0.08455066, 0.05563668, -0.08421102, -0.04411195, -0.033054948, 0.08199977, 0.045726568, 0.13003546, 0.0025466813, -0.07662493, -0.03381631, 0.019188665, -0.13537975, -0.040790036, -0.07634914, 0.027407244, -0.051350106, 0.14374186, -0.069813505, -0.096226014, -0.19084755, -0.062481947, 0.12909979, -0.14244942, -0.09787617, -0.12125167, -0.07193469, -0.09176451, -0.07549694, -0.06976407, -0.111523144, 0.06303547, 0.14830789, -0.14943309, -0.07573691, -0.1433599, -0.1852613, -0.15960266, -0.007954839, 0.15679625, -0.0837545, -0.17545676, 0.17057146, -0.1584991, -0.14142397, -0.12985781, -0.27888224, -0.06567636, 0.068141155, 0.08310496, -0.19965373, -0.112041175, 0.21615736, -0.033297066, -0.20861448, -0.10865377, -0.23374705, -0.21700738, 0.0739509, 0.08037026, -0.2690086, -0.347427, 0.21814896, -0.25463724, -0.20772003, -0.19250137, -0.15562353, -0.28076565, 0.15923661, 0.08254543, -0.45238385, -0.25105423, 0.22028406, -0.2945109, -0.19856513, -0.24844585, -0.18987113, -0.27526534, 0.24096362, 0.014544436, -0.49240205, -0.22621922, 0.14538571, -0.43155402, -0.3084321, -0.24597047, -0.21328704, -0.35804492, 0.19298883, 0.00972084, -0.4756126, -0.21188915, 0.24253902, -0.47563744, -0.36049712, -0.46324742, -0.024757553, -0.41148895, 0.24504347, 0.2332208, -0.6630917, -0.19090728, 0.13976985, -0.50759506, -0.25844622, -0.60651463, -0.14212032, -0.34492207, 0.28287044, 0.16918138, -0.6258515, -0.11345207, 0.15649226, -0.3926539, -0.27105063, -0.5866179, -0.15282542, -0.057544332, 0.2439413, 0.2012172, -0.73462623, -0.1580111, 0.14586952, -0.47048512, -0.32223582, -0.64851063, -0.08442522, -0.15964347, 0.1527477, 0.24633132, -0.4965395, -0.100442335, 0.13534711, -0.4244125, -0.31665733, -0.7387685, -0.12083435, 0.013297677, 0.08216375, 0.27314386, -0.49049366, -0.034074727, 0.16996126, -0.45369354, -0.29561237, -0.8760772, -0.013831556, 0.031815674, 0.13359296, 0.15591201, -0.43921944, -0.04021795, 0.13616526, -0.28918338, -0.26108024, -0.6679947, -0.13531688, -0.14069207, 0.077776, 0.14202979, -0.3154808, 0.036234736, 0.137062, -0.23774931, -0.2505128, -0.5568183, -0.27490464, -0.38921398, -0.15390195, 0.16317151, -0.350323, 0.11691538, 0.16638833, -0.24778804, -0.22711505, -0.3491997, -0.24445786, -0.24048156, -0.22276703, 0.16267322, -0.13441479, 0.06871654, 0.16040215, -0.22125655, -0.3164063, -0.44716778, -0.2055175, -0.32212782, -0.15063667, 0.10028696, -0.009631294, 0.21602674, 0.2070439, -0.29432073, -0.23877217, -0.49352065, -0.3486622, -0.34255388, -0.20815419, -0.1468659, 0.065176725, 0.088184536, 0.1844068, -0.27908924, -0.1312818, -0.25778764, -0.2492778, -0.36357328, -0.30142862, -0.37998217, 0.008107859, 0.018469408, 0.23823336, -0.07913617, -0.09752498, -0.20652422, -0.25878575, -0.34889868, -0.53392303, -0.28863904, -0.07112363, -0.045715608, 0.31730396, -0.15464228, 0.022753403, -0.2843324, -0.1783057, -0.27089643, -0.0956239, -0.12687097, -0.06773309, -0.0354781, 0.14107598, 0.01764858, -0.01420654, -0.12853415, -0.09773357, -0.19747452, 0.045473263, -0.16124153, -0.14153461, 0.051153917, -0.06375677, -0.12937751, -0.089305244, -0.060855143, -0.07997879, -0.03493504, -0.0019148852, -0.019823713, -0.11477657, -0.016226718, 0.071156174, 0.050436046, -0.05093525, 0.022486985, -0.046588898, 0.04056137, -0.08356464, -0.044174127, -0.032314092, 0.04958906, 0.024018206, 0.084770255, -0.0039590523, 0.07590584, 0.022413865, 0.0023193955, 0.029323563, 0.0030519962, -0.035771668, -0.04274962, -0.009781033, -0.08657633, 0.07662795, 0.016269475, 0.08307965, -0.06917653, 0.011124896, 0.006001819, 0.031945743, -0.100795604, 0.07235592, -0.03094295, -0.058130115, 0.02931744, -0.002766958, 0.07767633, -0.16440077, 0.12334224, 0.048741385, -0.04871245, -0.084309116, 0.052762516, -0.033870813, 0.015545493, 0.045162484, -0.020399088, -0.17864276, 0.11867321, -0.1167111, -0.1245881, -0.064712904, 0.061053403, -0.032180868, -0.052741095, -0.21457669, 5.6694396e-05, -0.24851486, 0.23245166, 0.10524722, -0.28053114, -0.017208034, -0.13394217, -0.32920718, 0.00030866548, -0.1852161, 0.10953369, -0.004086108, 0.2127202, 0.0176421, -0.25175947, -0.022875277, -0.26346195, -0.3729368, -0.069483265, -0.20253842, -0.018882176, 0.15869783, 0.22279753, -0.12279324, -0.28946027, -0.08015021, -0.3215619, -0.2273839, -0.2621624, -0.093497686, -0.21161608, 0.04788491, 0.23963034, -0.18727024, -0.18655434, -0.037662815, -0.39189228, -0.24839853, -0.29521856, -0.06854285, -0.10105045, 0.107791536, 0.16186187, -0.24494162, -0.36119384, 0.056918096, -0.51983607, -0.05039375, -0.4898175, 0.00016131502, -0.23083723, 0.22645366, 0.180684, -0.23056662, -0.18886502, -0.053793024, -0.5658038, -0.14560935, -0.5755192, -0.11489731, -0.07413927, 0.22611056, 0.141481, -0.34738314, -0.13105352, -0.013119498, -0.6381666, -0.017829048, -0.4330516, -0.072420366, -0.21862313, 0.17263113, 0.23693982, -0.38041157, -0.13354386, -0.16773938, -0.45794067, -0.06469401, -0.36120853, -0.050956197, -0.023335328, 0.19069609, 0.26351947, -0.28380084, -0.0641602, -0.18093476, -0.46052092, 0.060756043, -0.4027182, -0.11887093, 0.046034697, 0.16667506, 0.19119452, -0.2676248, -0.25981513, -0.12811613, -0.4625599, -0.014862548, -0.42398703, -0.014698686, 0.043539513, 0.12524325, 0.11231685, -0.2716308, -0.061834693, -0.095493585, -0.43290108, 0.052893408, -0.34015384, 0.038692918, 0.1118248, 0.0986651, 0.18567872, -0.27574784, 0.0096180625, -0.08887095, -0.47095025, 0.13996245, -0.45265952, 0.018046753, -0.034906182, 0.1617653, 0.14699717, -0.20605135, 0.1186298, 0.03772429, -0.53672487, 0.08861047, -0.51267457, -0.013563148, -0.037603978, 0.04204302, 0.10976196, -0.08607955, 0.07981558, 0.119249076, -0.65431124, -0.046682198, -0.5217306, -0.08841167, 0.006193396, -0.0461349, 0.11522199, -0.19222797, 0.10301501, 0.10882932, -0.4661458, 0.023161102, -0.44136623, -0.118474975, 0.019382063, -0.106115974, -0.07034209, 0.02751918, -0.0068916413, 0.22241464, -0.42023128, -0.08011997, -0.46483356, -0.12258947, 0.05846137, -0.18002906, -0.11656082, 0.1921263, -0.04897008, 0.27166674, -0.42037326, -0.031064501, -0.49013087, -0.124601915, 0.13065737, -0.18087986, -0.18829475, 0.13151525, 0.058196094, 0.22044365, -0.20267808, -0.099049866, -0.65603524, -0.108773045, 0.007761695, -0.40789855, -0.29437613, 0.21671925, 0.10386733, 0.35781375, -0.28950027, -0.0626364, -0.62057203, -0.09803295, -0.090168566, -0.5041934, -0.54514575, 0.15333897, 0.17375945, 0.22567442, -0.34863925, -0.2114969, -0.36058578, -0.27504313, -0.23642834, -0.38474593, -0.35055482, 0.23075682, 0.18235788, 0.053791303, -0.22578704, -0.017736167, -0.21950635, -0.17488249, -0.24115622, -0.1349545, -0.15826471, -0.04326539, 0.21000697, -0.008593636, -0.15753508, 0.0880222, -0.17787641, -0.21206519, -0.1571375, -0.14351743, -0.046951417, -0.073281765, -0.000462355, 0.022571754, -0.1461895, 0.07678834, -0.047301702, -0.08361585, -0.16685401, -0.049773645, -0.14015055, -0.06048361, -0.21510155, 0.1295493, -0.1186713, -0.026479375, -0.04975749, -0.00091028214, 0.068002336, -0.038095478, 0.06951902, -0.008249089, -0.015019745, -0.006023936, -0.07488267, 0.08595582, 0.002368696, -0.068758614, -0.049787965, 0.055380203, 0.024839208, 0.015587911, -0.042605825, 0.08283479, 0.039551057, 0.07097656, -0.016717575, -0.17305306, 0.11356824, -0.10954122, -0.046200477, -0.11007127, -0.13156109, -0.0038274978, -0.039747346, -0.09403455, -0.072089486, -0.06808588, -0.0100539075, 0.026809644, 0.11796228, 0.033091974, -0.24283831, -0.23063867, -0.013671726, -0.09067648, -0.048194557, -0.17914073, 0.18135121, 0.056286726, 0.3254465, 0.025333276, -0.3240495, 0.024023067, -0.17510754, -0.4432207, -0.24914975, -0.34751526, -0.025040196, 0.057557452, 0.22427215, 0.0062079956, -0.3966133, -0.05815106, -0.005045356, -0.37625548, -0.25802365, -0.09857746, 0.0007233201, 0.0029631506, 0.17173961, -0.04820359, -0.17455907, -0.020280534, 0.053223234, -0.23853034, -0.6287048, -0.11060644, -0.23696548, 0.14784037, 0.15193453, 0.06761237, -0.1668434, -0.0834551, -0.04453453, -0.04814865, -0.5293099, -0.072446026, -0.2980016, 0.092245266, 0.07281125, -0.05149287, -0.15936236, -0.009976767, -0.03161833, -0.05593511, -0.40375835, -0.030083764, -0.26144186, 0.09570218, 0.16067658, -0.042413194, 0.06331506, 0.007513156, 0.022957314, -0.09153069, -0.3634629, -0.0015641274, -0.11597074, 0.2077496, 0.12022093, -0.115358286, -0.05877651, -0.068171896, -0.10696764, -0.16310343, -0.21218364, -0.023171734, -0.17621702, 0.11414902, 0.06329356, -0.17220338, 0.030731646, -0.1999781, -0.15399839, -0.019042393, 0.029079944, 0.04392951, -0.1174179, 0.21997611, 0.0649784, -0.1137634, -0.060721077, -0.17229542, -0.18698187, 0.12523039, 0.010350574, 0.028513726, 0.0021053744, 0.18895118, 0.09511992, -0.2568112, -0.07824062, -0.15232497, -0.32042065, 0.11504286, -0.06202224, 0.11632464, -0.035487965, 0.1200305, 0.035628244, -0.10389168, -0.13105917, -0.08980864, -0.29198515, 0.11716338, -0.17928879, 0.043475363, 0.021825533, 0.23467277, 0.070950545, -0.048604738, -0.041032873, -0.046037074, -0.30771953, 0.066869274, -0.24056737, 0.024990605, -0.1636119, 0.22994588, 0.13483645, 0.033148203, -0.029773725, -0.03596024, -0.27485898, 0.1373459, -0.36269575, 0.1801621, -0.15679966, 0.15133254, -0.04155873, -0.0035722652, 0.0506472, -0.05270356, -0.43408892, 0.15141478, -0.3936999, 0.07643958, -0.101804696, 0.10979691, -0.048141826, 0.108314514, 0.12524894, 0.06511189, -0.36907247, -0.008292845, -0.32007197, 0.1323112, -0.02818212, 0.00046456757, 0.03591294, 0.103157125, 0.012632185, 0.14473385, -0.5473769, 0.0034587793, -0.33777872, -0.06590879, 0.11576834, -0.10294522, -0.13185892, 0.11803439, 0.109435715, 0.10808809, -0.569788, 0.08679326, -0.30330905, -0.05484655, 0.13047351, -0.08279001, -0.19420508, 0.025766853, 0.08565937, 0.18118767, -0.54588854, 0.06244695, -0.34971857, 0.036231402, 0.14335962, -0.08378171, -0.25822, 0.19482413, 0.11267023, 0.09672507, -0.5379514, -0.15682945, -0.6754711, -0.23422809, 0.08436386, -0.26841518, -0.42727092, 0.2935941, 0.20497051, 0.25351498, -0.51748884, -0.16442017, -0.7947117, -0.3274583, -0.029010408, -0.38200966, -0.3370781, 0.20401031, 0.2158348, 0.15292832, -0.33359227, -0.101879686, -0.6329669, -0.525477, -0.3939274, -0.2253115, -0.3909341, -0.09291412, 0.30439064, 0.048569705, -0.21400292, 0.049926627, -0.33741748, -0.36629045, -0.17277238, -0.09199348, -0.18815649, -0.20623556, 0.22908388, -0.07544469, -0.18865195, 0.055081833, -0.10858742, -0.135854, -0.12361551, -0.021985434, -6.0066814e-05, -0.19636706, 0.11908483, 0.040972907, -0.07961831, -0.10863682, 0.013349576, -0.006086983, 0.029928893, 0.08062733, -0.0082746, 0.055744894, -0.07311031, 0.0795927, 0.049731337, 0.06868348, -0.054140367, 0.027894724, 0.04169119, -0.06579639, 0.17534044, -0.09139333, -0.025046594, -0.008382291, -0.11464917, -0.06614083, -0.07227066, -0.08586936, -0.1712328, 0.01792182, -0.046271976, -0.099694364, 0.05322542, -0.0005381665, 0.05773555, -0.16556051, -0.27430147, -0.10437547, -0.018042853, 0.00044275293, 0.24230537, -0.17403086, -0.33215562, -0.28576133, 0.13027583, -0.20480709, -0.20222427, -0.3289112, -0.03344795, 0.10262206, 0.17113268, 0.07943337, -0.41133347, -0.05801032, 0.00918434, -0.27706155, -0.34240073, -0.057737663, -0.13195392, 0.044345584, 0.21087536, 0.09978904, -0.23590976, -0.23249364, 0.10318486, -0.3001193, -0.65470916, -0.10301288, -0.14393121, 0.09447344, 0.23906936, -0.0040009776, -0.14053826, -0.20502283, 0.1761024, -0.15458854, -0.4080135, -0.11016878, -0.21555747, 0.14615224, 0.13510081, 0.009033399, -0.098152004, 0.018838782, 0.13428491, -0.12286641, -0.3360162, -0.18875237, -0.31407163, 0.13060682, 0.08471626, -0.028856738, 0.016130071, -0.08436444, 0.19353817, -0.06327114, -0.2566471, -0.11142443, -0.41789082, 0.086316586, 0.16354235, -0.00073030114, -0.01318014, -0.093152516, 0.105015226, -0.06646826, -0.058459558, -0.008632704, -0.21478572, 0.13195291, 0.14963107, -0.042012822, 0.043277606, -0.20270815, 0.1017158, 0.0076110354, -0.058120772, -0.052153863, -0.14178783, -0.011764786, 0.14844401, -0.23025073, 0.108643435, -0.15980875, 0.11046787, 0.040387396, 0.0397118, 0.022136474, -0.14552148, 0.0017287494, 0.04252572, -0.22167197, -0.03480889, -0.031660113, -0.040069774, 0.039586674, 0.12481595, 0.14383177, -0.13615686, 0.104010604, 0.09466961, -0.3204749, -0.030062882, -0.2233363, -0.070961855, 0.016972318, 0.14978, 0.12190482, -0.1614405, 0.05018473, 0.16959813, -0.39883754, 0.0797092, -0.11683603, -0.07710252, 0.08341124, 0.2502396, 0.101507075, -0.22152847, 0.06781687, 0.083580084, -0.30908382, 0.0014025051, -0.10100906, -0.092796616, 0.12269814, 0.20815766, 0.15042062, -0.19548373, 0.038512755, 0.15566161, -0.25226894, -0.0799141, -0.1542884, -0.112478495, 0.1237342, 0.20181666, 0.21615781, -0.30448958, -0.04587658, 0.048479732, -0.2935883, 0.08855705, -0.003713468, -0.07529345, 0.07279548, 0.16592641, 0.12869325, -0.15236142, 0.0006148584, 0.10085649, -0.21602224, 0.12503213, -0.017608203, -0.060806777, -0.005508973, 0.08568467, 0.072008416, -0.05987855, 0.00491264, -0.017897842, -0.09176033, 0.0425418, -0.010513829, -0.15874851, 0.08594629, -0.009940801, 0.060713902, -0.051940676, -0.13236116, -0.025893053, -0.10142852, 0.17089139, 0.04035005, -0.06793302, 0.09682511, -0.03801067, 0.19791245, 0.054096878, -0.039524354, -0.057398267, 0.004429351, 0.11025359, -0.053496983, -0.12177305, 0.04595414, -0.19815582, 0.084269024, -0.023304848, -0.20752186, -0.1666266, 0.1793587, 0.072422564, 0.05322958, -0.124545835, -0.08690556, -0.31314594, -0.10287558, -0.06974302, -0.34210676, -0.39107388, 0.29244205, 0.23874514, -0.008137956, -0.35487896, 0.061862066, -0.5237606, -0.38039765, -0.065958224, -0.4430416, -0.45277023, 0.08317322, 0.47194073, 0.046297606, -0.4160246, -0.045381665, -0.4983089, -0.74594736, -0.5774778, -0.36291903, -0.6211172, -0.13941395, 0.45246035, -0.06654836, -0.33362105, 0.07542447, -0.3839423, -0.48714837, -0.15607958, -0.19754314, -0.101695895, 0.052259088, 0.26576525, -0.18046996, -0.18489678, -0.1009016, -0.34586826, -0.15593788, -0.17001808, -0.108222835, -0.08711573, -0.27629507, 0.15260738, -0.014422934, -0.096300334, -0.052401762, -0.08373099, 0.06456664, 0.03446295, -0.06979798, -0.049229212, 0.07781973, -0.0057890974, 0.028351786, 0.11930086, -0.03283385, 0.04846074, -0.099471666, -0.029751472, -0.08340152, 0.08265976, -0.19683062, -0.124972776, -0.06775143, -0.0017242292, -0.18725309, -0.119116694, -0.064958476, -0.118604966, 0.06767292, -0.15518093, -0.15883991, -0.005136529, -0.1438975, 0.240125, -0.31745243, -0.2099239, -0.15008605, -0.22035429, 0.045347825, 0.022916863, -0.045480512, -0.3771077, -0.3024123, 0.2152812, -0.34873408, -0.4442331, -0.25719368, -0.050448243, 0.20074062, 0.24844235, 0.07399018, -0.49745283, -0.16780332, 0.062059835, -0.1410525, -0.59498465, -0.16195641, -0.29416713, 0.12266169, 0.19528224, 0.13530742, -0.29905245, -0.13939221, 0.071326226, -0.09978249, -0.572193, 0.047110405, -0.261975, 0.06691187, 0.13702473, 0.008867181, -0.16930938, -0.20616964, 0.20625517, -0.029728008, -0.27370834, -0.092528276, -0.26502138, 0.0052613085, 0.03362318, 0.0056701275, 0.03002537, -0.09414583, 0.15765569, -0.053893257, -0.36400768, -0.092369564, -0.32555094, 0.083304346, 0.050418086, -0.049260218, 0.07387024, -0.093775906, 0.16421296, -0.016331783, -0.15908965, 0.014782385, -0.26495126, -0.010403845, -0.023393264, -0.062821805, 0.12123308, -0.109965, 0.27422032, 0.022846092, -0.10403437, -0.047933456, -0.29378024, -0.027081031, 0.045122612, -0.19802856, 0.0434804, -0.17847197, 0.15631056, -0.022795696, -0.039868552, 0.009890798, -0.15849744, 0.090393506, 0.04604955, -0.22829174, 0.12390767, -0.17775999, 0.22675173, 0.02943905, -0.011990876, -0.02678683, -0.078750156, -0.045496784, 0.058407888, -0.38818002, 0.019795772, -0.18838191, 0.20045252, -0.085907444, 0.2009837, 0.07021655, -0.09192317, -0.0061003426, 0.07847825, -0.3693973, 0.034742504, -0.15898383, 0.043353647, 0.03506251, 0.15645802, -0.005666215, -0.1055117, 0.08941161, 0.14848267, -0.38912028, -0.028623028, -0.17630154, -0.07769613, -0.16610208, 0.31191117, 0.13429539, -0.18506508, -0.0147177, 0.16360427, -0.40876573, -0.060365133, -0.14385003, 0.038895413, 0.07638054, 0.4421343, 0.16709487, -0.24105282, -0.050234735, 0.056479182, -0.4831124, -0.024739133, -0.21700011, 0.14030093, 0.015343116, 0.3659138, 0.18179125, -0.17182554, -0.026833832, 0.06069442, -0.2066685, 0.091079585, -0.20339553, 0.1443583, -0.092218265, 0.16823158, 0.20932719, -0.10215462, -0.14289246, 0.046245486, -0.22789346, 0.09708868, -0.28396413, 0.092431046, 0.080811426, 0.07337166, 0.110361, -0.042862464, -0.04448344, 0.048608873, -0.14444342, 0.051924083, -0.20491338, 0.11352888, 0.05768819, -0.015267121, -0.03013508, 0.0470024, -0.12533994, 0.04734483, -0.07820287, 0.13755903, -0.24078283, 0.05867394, -0.056900844, -0.039591413, 0.10001191, -0.07920902, 0.04816643, -0.09428566, -0.0049329503, 0.11617058, -0.06639408, 0.03906577, 0.107510395, -0.003620224, 0.02156828, -0.006894697, -0.04922097, -0.12540333, 0.109161064, 0.14175051, -0.10573253, -0.02117478, 0.0098822415, -0.18470621, 0.11671272, -0.18012789, -0.39162084, -0.2607687, 0.16615681, 0.23621, -0.27045417, -0.15977176, 0.15328017, -0.46093667, -0.2719143, -0.44370833, -0.6386967, -0.50239825, 0.035178285, 0.5045133, -0.098158464, -0.33689895, 0.055732366, -0.44984403, -0.57764107, -0.6005235, -0.29996675, -0.4907534, -0.04775004, 0.4962481, -0.19850755, -0.36312857, 0.03457444, -0.5277642, -0.43641424, -0.15514512, -0.3266851, -0.20221294, -0.059389554, 0.21615362, -0.112011895, -0.19449702, 0.026524972, -0.4256871, -0.09256712, -0.10690112, -0.13236208, -0.0152678825, -0.2884289, 0.13846959, 0.00809384, -0.16942452, -0.045265794, -0.2658363, 0.14045097, 0.00078241527, -0.021161389, -0.1625404, -0.1561917, -0.06672244, -0.037432134, -0.13856672, -0.08271931, -0.07869467, -0.050698966, -0.092179716, 0.081601985, -0.13847008, -0.24354757, -0.07975669, -0.018237514, 0.14735346, -0.06476391, -0.21529397, -0.011803244, -0.15834917, -0.033976067, -0.17078301, -0.14895286, -0.30153236, -0.057957202, 0.21399187, -0.25453597, -0.41368458, -0.14142436, -0.16431952, 0.01574124, 0.08926802, -0.16458881, -0.48475546, -0.41133198, 0.34445688, -0.02664776, -0.5407752, -0.38481414, -0.058039743, 0.19277218, 0.22247773, -0.122753374, -0.6676804, -0.15201978, 0.13708538, -0.0015350161, -0.45615873, -0.02924093, -0.31575632, 0.17560682, 0.13214836, 0.054251038, -0.32838875, -0.07147636, 0.15186226, -0.03771783, -0.3368769, -0.11159879, -0.2468836, 0.031188456, 0.07686518, -0.072678864, -0.13453397, -0.09358214, 0.24752145, 0.05485772, -0.16175298, -0.14732291, -0.24954998, 0.003658453, 0.05512209, 0.012862101, -0.0838556, -0.10135096, 0.3046333, 0.14163224, -0.16538978, -0.15009938, -0.300954, 0.07857569, 0.04603816, -0.11907511, 0.065957725, -0.06666074, 0.23258765, 0.08187029, -0.010276301, -0.016201409, -0.3549816, 0.058998935, 0.013684238, -0.036751434, 0.079698935, -0.053585, 0.18448475, 0.14092709, -0.09969431, 0.09265965, -0.2050371, 0.1660255, 0.053287268, -0.085940495, 0.120591156, -0.18902273, 0.10370665, 0.036981825, -0.098278865, -0.007018983, -0.16726352, 0.110397294, -0.078185536, -0.088192046, 0.11413927, -0.10821297, 0.12537922, -0.0011540472, -0.07704393, 0.08448996, -0.05839716, 0.0018882782, 0.048235442, -0.13953842, 0.065834105, -0.116666295, 0.21386608, 0.057778586, -0.04961937, 0.09554868, -0.06709542, 0.022172237, 0.052571926, -0.27774876, -0.08212917, -0.22433649, 0.12136032, 0.052629016, 0.10587095, 0.10657965, 0.010974888, 0.064858764, 0.15223636, -0.44069627, -0.12575296, -0.16103527, 0.10434991, -0.024128588, 0.25762787, 0.12688525, 0.038645927, 0.064961396, 0.094245076, -0.4120568, -0.116496146, -0.13464476, 0.18717766, -0.15310767, 0.16869448, 0.16886167, -0.15875351, -0.022092186, 0.042902682, -0.2866298, -0.078072265, -0.33210018, 0.23388296, -0.025946505, 0.097843826, 0.24299236, -0.003429043, -0.06340003, 0.067673855, -0.19834086, -0.113267, -0.2728624, 0.17024824, 0.010062908, 0.02290458, 0.16548936, -0.036533784, 0.0037869213, 0.11855507, -0.091208085, 0.001940843, -0.45335886, 0.26722625, 0.004228618, 0.022657892, 0.124339074, -0.07604316, 0.02733976, 0.08860193, -0.108756, 0.029607747, -0.43669838, 0.110968314, 0.05296216, -0.04656454, 0.05426212, -0.18468449, -0.09621538, 0.091268264, -0.053715132, 0.11417282, -0.3122963, 0.06875428, 0.05443736, -0.074873544, 0.019447323, -0.22730352, 0.03796549, 0.10106151, -0.006571561, 0.21143831, -0.2313911, 0.01505493, 0.12754242, -0.037853252, 0.10578011, -0.26292872, -0.054044336, 0.029167177, 0.010353367, 0.1356796, -0.339691, 0.03389605, 0.118561134, -0.231341, 0.17937426, -0.39358717, -0.18926877, -0.40954772, -0.081425756, 0.4300111, -0.41347033, -0.18367006, 0.076525606, -0.34587982, -0.021214942, -0.58224446, -0.77263826, -0.8034796, -0.086817674, 0.56869, -0.47430682, -0.38320458, 0.12997182, -0.32474157, -0.8063723, -0.4841367, -0.61156094, -0.6938762, -0.06978655, 0.6476385, -0.5311219, -0.4446381, -0.03978998, -0.49851337, -0.591797, -0.18727121, -0.4440105, -0.21171354, -0.2197886, 0.2871393, -0.26751518, -0.36429766, 0.053147443, -0.4858586, -0.12986435, -0.08754017, -0.19404791, -0.14996436, -0.18972407, 0.037724342, -0.21539, -0.20639881, 0.15468141, -0.08216669, 0.0005653741, 0.023230735, -0.079740115, -0.015030284, -0.14639422, -0.022994082, -0.0064291935, 0.12522687, -0.15143572, -0.04224603, -0.03372463, -0.0057869726, -0.14943728, -0.06070884, -0.11124652, -0.14422682, -0.09647701, 0.16794492, -0.17974827, -0.14456166, -0.030470047, -0.1337869, -0.049516678, 0.033310298, -0.102808625, -0.13040937, -0.09378997, 0.2665681, -0.2555521, -0.3572193, -0.031979803, -0.09933376, -0.005904901, 0.08821219, -0.29905173, -0.43246722, -0.33816034, 0.22829448, -0.14096454, -0.26793322, -0.15515314, -0.17479055, 0.14708576, 0.30024752, -0.21892355, -0.3851513, -0.20039988, 0.24697362, 0.042360518, -0.34750813, -0.10848724, -0.25454625, 0.17105764, 0.05650824, -0.07341682, -0.2660926, -0.28546646, 0.118360996, 0.09841613, -0.11635203, -0.084270984, -0.27858397, -0.011149374, 0.12114392, -0.15295106, -0.10933547, -0.2577671, 0.06763484, 0.12988776, 0.0014241314, -0.15450239, -0.10260454, 0.059591956, 0.076059975, -0.1473121, 0.029019414, -0.09548089, 0.04103743, 0.15605424, -0.11296791, -0.0048422366, -0.20900029, -0.09759828, -0.061907616, 0.024305752, 0.11273445, -0.034849938, 0.05441312, 0.18416363, -0.010223148, -0.0046454133, -0.19278552, 0.0224546, -0.06534933, -0.012751814, 0.10823834, -0.17426553, 0.0678987, 0.1879702, 0.012145233, -0.0385216, -0.19960128, 0.04039046, -0.21740739, -0.13850337, 0.087997414, -0.13849312, 0.031363238, 0.100428134, -0.03460921, -0.051037803, -0.13801642, -0.017661694, -0.29822186, -0.12929337, 0.21212767, -0.2326889, 0.119909205, 0.14438184, 0.060687646, -0.0082853725, -0.13029678, 0.057650343, -0.31276122, -0.082951784, 0.146204, -0.09223196, 0.16537046, 0.031155698, -0.0006640152, 0.10322773, 0.016556099, 0.04789653, -0.11518012, -0.23755, 0.016833711, -0.2176882, 0.12030902, -0.07720372, -0.05391653, 0.06356791, 0.20309253, 0.028843243, 0.0826691, -0.43807852, -0.082822725, -0.14956951, 0.22642536, -0.14502949, 0.08971026, 0.024722781, 0.32788995, 0.13704078, 0.20838888, -0.40901634, -0.31398544, -0.344057, 0.26370916, -0.29616553, 0.028429983, 0.06205822, 0.18648103, 0.022818265, 0.18599156, -0.17815423, -0.30825362, -0.42343464, 0.29990834, -0.15273082, -0.06454442, 0.30081567, -0.014813872, -0.013934593, 0.13661835, -0.070927985, -0.19941556, -0.5587765, 0.31111148, -0.029509302, -0.046680037, 0.19908823, -0.0816498, -0.031998243, 0.11701218, -0.078212574, -0.07647008, -0.48784414, 0.23054941, -0.020943591, -0.027465634, 0.1415129, -0.24502017, 0.01267112, 0.11871463, 0.010673925, -0.1501935, -0.4531195, 0.14695315, 0.07991664, -0.115820155, 0.12736982, -0.26379633, -0.010929794, 0.20224813, -0.061912093, 0.026476769, -0.22969353, 0.13656372, 0.104741015, -0.08919058, -0.02301194, -0.24945383, -0.13740702, 0.17459057, -0.11650018, 0.14295478, -0.28186423, 0.05757116, 0.122355066, -0.15160449, -0.016612405, -0.40291324, -0.10010688, 0.040096484, -0.16098946, 0.12280822, -0.25367826, -0.07861751, 0.1038893, -0.14118795, 0.21051416, -0.5066967, -0.17269982, -0.26916483, -0.17484361, 0.4398991, -0.38617256, -0.09365642, 0.09257929, -0.36240092, 0.035898864, -0.5539766, -0.75541043, -0.99978995, -0.3616878, 0.77654576, -0.5811448, -0.34313652, -0.07162639, -0.4502045, -0.6346275, -0.47756532, -0.7214377, -0.47760028, -0.4773334, 0.8996854, -0.6130614, -0.3302602, -0.040158357, -0.5755761, -0.52304965, -0.39129823, -0.17620128, -0.2057013, -0.26529995, 0.47984412, -0.37588406, -0.09453073, 0.03414825, -0.59749776, -0.11853847, -0.14218785, -0.1890678, -0.056642946, -0.15196137, 0.14552933, -0.20247297, -0.026985675, -0.08099318, -0.2319789, -0.040987097, -0.046821877, 0.0016069753, -0.13507141, -0.1844582, -0.013862918, 7.3374045e-05, 0.017479315, -0.15486328, -0.1567649, -0.034022864, -0.018751651, -0.17278403, -0.16683374, -0.07102243, -0.18019038, -0.011133523, 0.17121536, -0.22517492, -0.25312585, -0.015770921, -0.09354194, -0.09609084, 0.021623647, -0.3239473, -0.2954021, -0.047598395, 0.30384102, -0.1638857, -0.39185813, -0.0046960847, -0.20611866, 0.10936712, 0.17647444, -0.37712416, -0.5252375, -0.38336065, 0.2968745, -0.347925, -0.34031108, -0.13399781, -0.081653506, -0.07501995, 0.10389488, -0.17847647, -0.28415173, -0.2589515, 0.2906194, 0.017985513, -0.21634194, 0.009764553, -0.2538207, 0.17259777, -0.07310324, -0.24379352, -0.11216295, -0.10830332, 0.24350087, 0.017349843, 0.051560547, -0.0985496, -0.37323055, -0.0070309998, 0.011389054, -0.1689515, 0.04086753, -0.07629937, 0.02475185, 0.1847187, 0.11480724, -0.001870102, -0.12710036, -0.09956647, -0.2161829, -0.09900222, 0.14482643, 0.014960738, -0.009103981, 0.16677818, 0.061573494, -0.074246734, -0.09905231, -0.115654245, -0.26189938, 0.011229913, 0.13730128, -0.0903414, -0.026853936, 0.16235861, 0.1017487, -0.036462378, -0.25289413, -0.14907533, -0.42966238, 0.09153308, 0.22953512, -0.027875055, -0.05769096, 0.22446422, 0.08832446, -0.083779946, -0.16704217, -0.18837143, -0.4612399, -0.016692596, 0.22789986, -0.066138655, 0.0367928, 0.2081727, 0.04998487, -0.038650244, -0.083323985, -0.15409347, -0.4002346, 0.07076246, 0.19781877, -0.089940615, -0.059470117, 0.15937243, 0.087046415, -0.010304506, -0.16615658, -0.24666542, -0.41651648, 0.13199435, 0.21214141, -0.1042031, -0.08622825, 0.099620126, 0.051190093, -0.01789892, 0.19868657, -0.32817534, -0.0017439503, -0.27077842, 0.14928135, -0.07918597, 0.16049866, 0.025890326, -0.11186587, -0.08655122, 0.35484096, -0.20079345, 0.14742975, -0.54864573, 0.012136835, -0.15262903, 0.25230443, -0.13461636, -0.06896973, -0.12764168, 0.44806147, -0.09773767, 0.1400201, -0.2501872, -0.18940476, -0.3377884, 0.3086225, -0.2924135, -0.093080565, -0.053935338, 0.23070385, 0.027280876, 0.14064603, -0.03308576, -0.24171215, -0.34913257, 0.4646714, -0.26698488, -0.065701894, 0.09418363, -0.013664295, 0.06773088, 0.12195174, 0.06521488, -0.27662683, -0.4116871, 0.27925256, -0.10957994, 0.057255033, 0.17179467, -0.1266187, -0.03210329, 0.08623316, -0.037887104, -0.34018952, -0.34258717, 0.22845516, 0.008386842, 0.01916271, 0.062148448, -0.2159299, -0.009518083, 0.15876956, -0.04023185, -0.25530118, -0.34440446, 0.20809467, 0.012061826, 0.02503746, 0.06537274, -0.21378757, -0.008124735, 0.18262562, -0.12174127, -0.19293398, -0.2525159, 0.14040637, 0.00092688185, 0.054349836, 0.039586633, -0.36101252, -0.107891575, 0.046437442, -0.043530155, -0.067048535, -0.20520906, 0.14683136, 0.037585348, -0.040241674, 0.17297857, -0.41175997, -0.10293796, -0.05030196, -0.18888396, -0.060977396, -0.17795742, 0.12716655, 0.04906836, -0.10744677, 0.20289232, -0.5133307, -0.11972898, -0.064841956, -0.32950416, 0.35283953, -0.14716652, -0.24274309, 0.17108558, -0.16766195, 0.10541305, -0.6753999, -0.47785148, -0.8100451, -0.35722384, 0.747821, -0.23299472, -0.4882768, -0.1764946, -0.49116346, -0.4774593, -0.36387324, -0.24358971, -0.29268232, -0.46072632, 0.81970376, -0.6145772, -0.36474493, -0.27444038, -0.5038829, -0.46327287, -0.2659055, -0.06980215, -0.36899096, -0.3687106, 0.4969246, -0.5385455, -0.1639138, -0.061846808, -0.49474344, -0.068020396, 0.01149996, -0.12849855, -0.090484746, -0.14664912, 0.10472755, -0.1503532, 0.06733809, 0.02006029, -0.12942988, -0.08914703, -0.09047316, -0.09276984, -0.21011157, -0.18020378, -0.17126879, -0.058163498, 0.09460633, -0.16415992, -0.16430604, 0.07328823, -0.017900229, -0.19571811, -0.10498102, -0.1925779, -0.23727173, -0.10075423, 0.17834963, -0.16984065, -0.3203143, -0.026850527, -0.02185701, -0.19651596, 0.030610865, -0.31470227, -0.21604648, -0.052252706, 0.34005126, -0.26626375, -0.4476505, -0.13919157, -0.19661345, -0.13376218, 0.30368215, -0.22511137, -0.45148084, -0.22114226, 0.43958893, -0.15879804, -0.18686534, -0.23729831, -0.13178393, -0.11554639, 0.06459385, -0.3148995, -0.12955153, -0.25839964, 0.2774669, 0.03642783, -0.09585152, -0.0641955, -0.19187202, -0.08603989, -0.14777382, -0.1728531, -0.08005593, -0.03342464, 0.12754901, 0.14410031, 0.19103608, -0.08130137, -0.25831887, -0.28853896, -0.2549795, -0.05371413, 0.04810144, -0.013077631, 0.040401593, 0.08708086, 0.159806, -0.010099057, -0.283702, -0.3725534, -0.36678728, -0.0018549708, 0.17635308, 0.052780736, 0.05637522, 0.22964787, 0.15783338, -0.037986357, -0.11786856, -0.334444, -0.4831772, 0.058386892, 0.13355304, 0.05421322, 0.03577084, 0.15508589, 0.18281808, -0.091955, -0.25667468, -0.46606606, -0.36571512, 0.1931983, 0.090860665, -0.032289308, -0.01026785, 0.19763508, 0.17204452, 0.017228825, -0.14043061, -0.47973588, -0.33228737, 0.22184934, 0.07967187, 0.054468457, 0.061190154, 0.10200366, 0.23904942, -0.018407393, -0.2569343, -0.4795639, -0.20069157, 0.24128942, 0.27565247, -0.07787919, -0.0018382262, 0.046163082, 0.13517201, -0.052580822, -0.122678004, -0.59901476, -0.20597637, 0.18482746, 0.2746267, 0.03135409, 0.026097348, 0.08090045, -0.011892879, -0.09175741, 0.12590203, -0.5831509, 0.052252077, -0.40638053, 0.21413393, 0.03715898, -0.046062026, 0.2045427, -0.1827591, -0.37218556, 0.5116731, -0.47951964, 0.08328906, -0.59812886, 0.13164951, -0.24077933, 0.17292948, 0.09674442, -0.064222746, -0.42776418, 0.5183256, -0.3706084, 0.15479806, -0.03804946, -0.15434414, -0.455449, 0.27944535, -0.06728926, 0.0067803613, -0.5028813, 0.19291423, -0.2212304, 0.10828065, 0.21092653, -0.14517796, -0.3100443, 0.42938074, -0.09161383, 0.12850417, -0.17566337, -0.09448618, -0.11184145, 0.08549196, 0.16972665, -0.21520072, -0.25372547, 0.37767863, -0.10582504, 0.18335463, 0.05879182, -0.14917982, -0.07890728, 0.17566727, -0.093748435, -0.31629407, -0.291936, 0.32675076, -0.07985793, 0.16192591, 0.03509046, -0.22358699, -0.014160132, 0.085421436, -0.046134684, -0.36944956, -0.13183792, 0.099202, 0.026474642, 0.11047309, 0.15122202, -0.16446444, -0.035900764, 0.12861352, -0.077083774, -0.43708318, -0.12528335, 0.20400222, 0.054288626, 0.25025746, 0.1227783, -0.21278839, -0.06957488, -0.06650519, -0.08886281, -0.4530441, -0.047692668, 0.04374803, 0.08180015, 0.20014, 0.23828141, -0.26376534, -0.07599446, -0.09237262, -0.10517797, -0.41118324, 0.033422485, 0.051203202, 0.20999889, 0.0793881, 0.19450876, -0.39748743, -0.1710237, -0.28309882, -0.42535624, -0.16333506, 0.13910705, -0.21652651, 0.14923441, -0.10538327, 0.18686746, -0.46547744, -0.22233832, -0.5702081, -0.6134897, 0.32802293, -0.116237424, -0.5168589, 0.15396777, -0.4250233, -0.35086417, -0.13862659, 0.07400422, -0.044074547, -0.45630684, 0.57837164, -0.37597513, -0.47276884, -0.07268253, -0.44199502, -0.32824832, -0.16386348, 0.0016972749, -0.21840626, -0.27558792, 0.40368548, -0.38429418, -0.16241968, 0.06354, -0.31706262, -0.09227997, 0.09571089, -0.18865687, -0.18993929, -0.16369615, -0.052226465, -0.10044001, -0.014676105, 0.09029333, -0.08456811, 0.033556033, -0.08595304, -0.013928327, -0.07496638, -0.02991358, -0.032948762, 0.019450476, -0.0011667624, 0.048716195, 0.009594956, -0.012989499, -0.08226612, -0.0653579, -0.21910635, -0.12741537, -0.13892065, -0.13887495, 0.2083421, -0.19417058, -0.30037042, -0.082678616, -0.08393252, -0.16854542, -0.2528071, -0.35022268, -0.17929974, -0.09936752, 0.37465537, -0.26213887, -0.4184318, -0.11067956, 0.041014094, -0.23141834, -0.05209426, -0.20266703, -0.20567502, -0.15267646, 0.4957302, -0.032603525, -0.20404051, -0.103179514, -0.03760519, -0.20888714, -0.11451008, -0.26382452, 0.06147293, -0.275816, 0.23725124, 0.0228079, 0.16488913, -0.07616724, -0.13956904, -0.4175724, -0.30060497, -0.10473742, 0.0030461554, -0.020367038, 0.09265076, 0.058607608, 0.25912383, 0.053945523, -0.08661525, -0.5375135, -0.43793184, 0.045008287, 0.18495236, 0.0155837685, 0.09623739, 0.1003598, 0.27308965, 0.027685622, -0.081364915, -0.68813586, -0.41966704, 0.12699713, 0.07019356, 0.13389541, 0.07019289, 0.09643405, 0.09450775, -0.0881139, -0.17947742, -0.5316042, -0.29399055, 0.2121277, 0.0050532725, 0.079389654, 0.072525404, 0.019645471, 0.11871617, -0.11922549, -0.17154552, -0.45777538, -0.15230788, 0.28738385, 0.048839588, 0.028901083, 0.046187617, 0.07017836, 0.18848914, -0.013210519, -0.27166277, -0.45981672, -0.18503523, 0.31772766, 0.17011723, 0.04822635, -0.11755621, -0.050737157, 0.0846623, -0.020862946, -0.40488607, -0.55853355, -0.15688542, 0.40360668, 0.21930437, 0.123261206, -0.15846117, -0.012830303, -0.017852075, 0.047091547, -0.19805695, -0.46405324, -0.021631544, 0.3450618, 0.24848786, 0.17393343, -0.39776728, 0.10637601, -0.1447509, -0.18529588, 0.21047927, -0.5310339, 0.1648923, -0.1414874, 0.21352215, 0.04795782, -0.49316955, 0.29384327, -0.08895257, -0.6326868, 0.5273713, -0.42340228, 0.16710615, -0.3306896, -0.073173754, -0.24603434, -0.2831936, 0.11767211, 0.16778155, -0.6005712, 0.39675748, -0.2668811, 0.062472526, -0.024602687, -0.20625252, -0.30593622, 0.07530922, 0.014486552, 0.17590718, -0.46883705, 0.14191122, -0.26652953, 0.06373463, 0.28864846, -0.3157681, -0.045576487, 0.2360773, -0.08096077, 0.25214362, -0.30695587, -0.119670436, -0.28257793, 0.13537003, 0.06200911, -0.34759763, -0.13766429, 0.18720959, -0.068095095, 0.35796663, -0.09328789, -0.116558485, -0.14776735, 0.012288075, 0.06310135, -0.23734124, -0.22464254, 0.11789574, -0.0793539, 0.24425595, 0.0007095741, -0.18801205, -0.029194754, 0.0003758903, -0.036322273, -0.34260455, -0.21460508, -0.0026820945, 0.083098575, 0.27917525, 0.061092056, -0.2619947, -0.03417617, -0.1519184, 0.067759626, -0.34485886, -0.03529213, -0.028845567, 0.13039361, 0.30271697, 0.13242644, -0.17507258, -0.042299636, -0.3573381, -0.016712245, -0.71092904, 0.099667996, 0.0137869865, 0.31325877, 0.31188276, 0.27462092, -0.20861924, -0.23562925, -0.4244163, 0.0003316087, -0.8496189, 0.2289193, 0.0069782445, 0.29973683, 0.21473245, 0.23921108, -0.087753996, -0.24032295, -0.45680788, -0.27532962, -0.7583876, 0.40360615, -0.13132767, 0.29555857, 0.12317845, 0.23529927, -0.34570208, 0.05926087, -0.39990887, -0.16855305, -0.6491116, 0.1316096, -0.34476376, 0.29059055, -0.448137, -0.057597555, -0.14838761, 0.23002024, 0.06431325, -0.17474027, -0.054926917, -0.18846697, -0.06248266, 0.093154185, -0.7421956, -0.18260555, -0.2345274, 0.20376906, -0.0042922045, -0.19095528, 0.18446228, -0.4566691, 0.065021545, 0.014907073, -0.4329109, -0.205274, -0.037847903, 0.09849639, -0.113046534, -0.09015433, -0.17517225, -0.07409463, 0.046077546, -0.07350531, -0.2710119, 0.06284973, 0.09328317, -0.089647464, -0.082698315, 0.03452496, 0.0057314364, -0.053125035, -0.090682, -0.07345285, -0.10454066, 0.10003812, -0.06878187, -0.010411722, -0.22238593, -0.122414835, -0.09725981, -0.075452864, 0.21820953, -0.084765464, -0.25773752, -0.042953957, -0.08546881, -0.10349569, -0.22151174, -0.3757254, -0.1638847, -0.04678521, 0.40934503, -0.24088863, -0.28464854, -0.22914152, 0.001468339, -0.26659867, -0.055148516, -0.17584059, -0.077912316, -0.19183724, 0.26575834, -0.003947503, -0.016300993, -0.08037531, 0.11503858, -0.39770782, -0.16966629, -0.109926246, 0.044125337, -0.29197943, 0.20486659, -0.065932296, 0.23986273, -0.067195766, -0.1405617, -0.5632271, -0.32935634, 0.10779815, 0.13362914, 0.037590176, 0.039248988, 0.046076834, 0.16227882, 0.062890545, -0.07100294, -0.6025631, -0.35882178, 0.20897095, 0.0389662, 0.19285457, 0.018296486, -0.08595733, 0.110738605, 0.18120165, -0.05893626, -0.6514973, -0.2850732, 0.22034517, 0.11164359, 0.115886986, -0.057481777, -0.004400935, 0.21861811, 0.08739964, -0.05894213, -0.37111336, -0.15373841, 0.31287685, -0.0439318, 0.05302186, 0.011107147, -0.11043235, 0.12018161, 0.07675237, -0.19446222, -0.357614, -0.17639938, 0.20236273, 0.07631185, 0.09693106, -0.140653, -0.0683829, 0.059123468, 0.06121561, -0.42046326, -0.22257492, -0.12490392, 0.3406033, 0.19401018, 0.10375172, -0.1598629, -0.13279712, 0.1065437, -0.01827229, -0.45877934, -0.12192665, -0.04999861, 0.44064924, 0.22200699, 0.20305036, -0.38893655, -0.030814553, -0.07826882, -0.08076382, -0.24166025, -0.15552254, -0.026052251, 0.26068014, 0.31864345, 0.046544507, -0.7926348, 0.13075456, -0.08584701, -0.4195955, 0.32974383, -0.12772319, 0.11960168, -0.10685764, 0.09419539, -0.06709222, -0.7736048, 0.25572374, 0.021526832, -0.6504273, 0.4683615, -0.22255063, 0.07209698, -0.122744106, -0.068209134, -0.1805956, -0.28390187, 0.016632432, 0.16274181, -0.64034456, 0.32482526, -0.24777137, 0.11106314, 0.08325985, -0.2029799, -0.021509647, -0.016832877, 0.19866064, 0.21782348, -0.6153722, 0.10272163, -0.2172524, -0.030423367, 0.23254067, -0.31024632, -0.071776405, 0.07498719, 0.056143906, 0.23507194, -0.2503608, -0.0134995235, -0.18993768, -0.016397355, 0.24745683, -0.28780845, -0.12344855, 0.2031957, -0.053550895, 0.27516732, -0.12397743, -0.27144048, -0.10292408, 0.06855271, 0.16806686, -0.110428855, -0.15760535, 0.07379876, -0.043138456, 0.2121234, -0.09376613, -0.25809765, -0.06032346, -0.10489269, 0.09482522, -0.2058309, -0.10682099, 0.066902146, -0.02544736, 0.26159745, -0.13234116, -0.20036067, -0.11777711, -0.28392, 0.22365278, -0.12933429, -0.040668007, 0.027634576, 0.06226158, 0.16947734, -0.02912494, -0.19220525, -0.04509103, -0.41352785, 0.18432558, -0.21129173, 0.10139083, 0.036962293, -0.06631499, 0.23141676, 0.16681615, -0.3248073, -0.20924658, -0.50724626, 0.0960069, -0.4661514, 0.3222977, -0.04587402, 0.062254764, 0.07816315, 0.25803542, -0.2562771, -0.1335486, -0.34266606, -0.10337283, -0.5590213, 0.4165244, -0.19204497, 0.014008601, -0.13039981, 0.34897593, -0.3295921, 0.14685939, -0.2775763, -0.1953483, -0.62853, 0.3248141, -0.06891666, 0.12227123, -0.5814235, 0.05327535, -0.19960381, 0.3503497, -0.13290761, -0.078219235, -0.193462, -0.13426667, 0.07555561, -0.03533319, -0.51381356, -0.22432266, -0.29429024, 0.3544863, -0.14542359, -0.092153884, -0.055213343, -0.42495003, -0.07455028, -0.04495908, -0.20614971, -0.09907192, -0.07147306, 0.0977627, -0.12119931, -0.076651335, -0.17633693, -0.14160901, -0.096832484, -0.05447748, -0.028217936, -0.04259779, 0.064007066, 0.03985892, -0.036023054, -0.09171133, 0.13587679, -0.045830246, -0.06404239, -0.0611359, -0.028400699, -0.19949876, -0.1450319, -0.22210953, 0.0720262, -0.061202213, -0.22642852, -0.02966831, 0.19821955, -0.16771768, -0.122172445, -0.14486042, 0.111900575, -0.17085731, 0.061697293, -0.17162809, -0.18644702, -0.034210633, 0.23591596, -0.17350139, -0.34588075, -0.22944972, 0.021311775, -0.18203673, -0.06785122, -0.07797446, -0.028413218, -0.19322626, 0.26484922, -0.1359797, -0.041331366, -0.15729485, -0.00046250515, -0.32803866, -0.08187633, 0.09604704, -0.0006843932, -0.42636836, 0.15604872, -0.3519862, 0.13551047, 0.18481946, -0.12984793, -0.4865873, -0.22852232, 0.22965388, -0.06425176, 0.13151771, 0.16363952, -0.12955593, 0.14819871, 0.17689474, -0.24972913, -0.29502457, -0.29135498, 0.27208987, -0.0184763, 0.18743767, 0.033416875, -0.19985974, 0.18291216, 0.14890634, -0.21568114, -0.21966715, -0.37248692, 0.18889132, -0.0033236134, 0.0379596, -0.06265944, -0.3569941, 0.0037827573, 0.07354956, -0.13471232, -0.1555156, -0.228651, 0.2890768, 0.011683459, 0.101621985, -0.1077368, -0.23167305, 0.078212276, 0.07044134, -0.25871345, -0.08578402, -0.1977642, 0.18341787, 0.07383403, 0.11421107, -0.21968885, -0.26390302, -0.04846337, 0.16458404, -0.43274385, -0.10160732, -0.14525826, 0.3043089, 0.1764503, 0.1473084, -0.25548387, -0.14929888, -0.04042796, 0.14128484, -0.4981421, 0.06795497, -0.11162949, 0.36675987, 0.16160895, 0.2707808, -0.5303096, 0.14763837, -0.006973553, -0.11597104, -0.16311876, -0.034338295, 0.061607722, 0.17695028, 0.12493918, 0.15094373, -0.75444156, 0.2070967, -0.098828785, -0.40097207, 0.27615047, 0.0032948432, 0.03113267, -0.14957277, -0.046008654, -0.1492204, -0.51784223, 0.23351917, -0.021324899, -0.73640406, 0.41627753, -0.009761018, 0.041431013, -0.08481105, -0.07491658, -0.14585559, -0.27011535, 0.083652586, -0.029072631, -0.739957, 0.31462476, -0.09366055, -0.032178946, 0.13595727, -0.27492413, 0.092323795, -0.06615702, 0.05515244, 0.13444883, -0.5051015, 0.01543442, -0.05631313, 0.03156253, 0.29673415, -0.30168027, -0.0018045616, 0.029461313, -0.021954639, 0.33572242, -0.18218233, -0.17248008, -0.23101656, 0.026538238, 0.3551776, -0.2282944, -0.14205986, 0.11453239, -0.08956443, 0.2838817, -0.07170173, -0.3488366, -0.07047659, 0.029430505, 0.1545514, -0.1840445, -0.12770377, 0.21592467, -0.1364275, 0.16776104, -0.08166408, -0.40259433, -0.07595077, -0.116727225, 0.22009254, -0.07343944, -0.07375598, 0.27941424, -0.02198814, 0.041042004, -0.019391425, -0.2889534, -0.053546596, -0.14404978, 0.13744691, -0.044801563, 0.005199594, 0.17968976, -0.26285884, 0.14842932, 0.07438523, -0.1932845, -0.1382428, -0.04712495, 0.08243741, -0.16548978, 0.07572266, 0.1303115, -0.16110879, 0.0885451, 0.097827055, -0.2582117, -0.10804674, -0.23852557, 0.010596997, -0.06631716, 0.153258, 0.18871394, -0.28614154, -0.08409587, 0.2085984, -0.13090345, -0.07303281, -0.081694774, -0.15922655, -0.12015607, 0.19343612, 0.09009504, -0.23792776, -0.2958329, 0.3149372, -0.20494658, 0.18392758, -0.18881047, -0.22297664, -0.26467887, 0.1173166, -0.08951053, -0.25207013, -0.6410946, -0.011749195, -0.19673008, 0.37372345, -0.29470524, -0.12029882, -0.3848769, -0.089630336, -0.052515857, -0.06181187, -0.5011231, -0.274006, -0.10916077, 0.38689247, -0.17396602, -0.25382614, -0.2732368, -0.35105038, -0.12166999, -0.19021913, -0.1732449, -0.15306088, -0.16618717, 0.23450193, -0.070021905, -0.08302739, -0.22309068, -0.19711734, 0.0050015184, -0.15247983, -0.15977168, 0.053629465, -0.07650562, -0.054176807, -0.058571797, 0.05474077, 0.046066314, -0.08120983, 0.12485003, -0.033105567, -0.1489169, -0.12162416, -0.011737299, -0.044687763, 0.09933441, 0.114176504, -0.033833865, -0.05101219, -0.08631097, -0.14335668, -0.083912686, -0.0888577, 0.011114556, -0.10930246, 0.124094136, 0.101887554, -0.3236471, -0.101161495, 0.16639383, -0.1676293, -0.35989103, -0.24039364, 0.054960035, -0.0036081648, 0.013858687, 0.027231617, -0.16570184, -0.43518874, 0.109864496, -0.2541043, -0.08180366, -0.044559497, -0.06292886, 0.08722848, -0.040217116, 0.04245182, -0.13765565, -0.54757065, -0.033681493, -0.35449076, 0.004356675, 0.1640267, -0.2627281, 0.05446695, -0.18379852, 0.14970638, -0.22031575, -0.054637402, 0.021276748, -0.31875885, 0.09788735, 0.0163943, -0.37716812, -0.05135734, -0.26873952, 0.13688566, -0.24413277, 0.045890983, -0.0075865705, -0.35952586, -0.0397535, 0.24789873, -0.14360848, 0.015086446, -0.25792786, 0.2840495, -0.2717146, 0.1370688, -0.09795595, -0.28902352, 0.026894895, 0.08318397, -0.13558617, -0.00052705914, -0.29930475, 0.27631226, -0.08008584, 0.19622451, -0.17440964, -0.18289481, 0.025786385, 0.17919698, -0.2034691, 0.0006718413, -0.15875493, 0.26087818, 0.08016074, 0.11440119, -0.33700156, -0.18908, -0.08920149, 0.09088496, -0.40094116, -0.031152893, -0.22178727, 0.14256535, 0.13379593, 0.23475555, -0.3054116, -0.039368752, 0.012637387, 0.078805536, -0.26917976, 0.106184915, -0.07807634, 0.22010398, 0.11755146, 0.3199015, -0.42423052, 0.041631136, -0.03478066, -0.13874996, 0.058764055, 0.13441812, 0.109094374, -0.0051004393, 0.07712137, 0.14581008, -0.56972736, 0.16221686, -0.017369382, -0.62068653, 0.32821584, 0.17503414, 0.07881021, -0.046911087, -0.12922709, 0.017623564, -0.3515637, 0.29702842, -0.11418353, -0.801172, 0.49524084, 0.011168892, 0.053850703, 0.060403902, -0.17237079, 0.089422725, -0.24445371, 0.15435307, -0.13685313, -0.58455473, 0.27018937, 0.0015091876, -0.057528116, 0.1878697, -0.28070295, 0.04289518, -0.0049386164, 0.0631555, 0.137715, -0.43165454, -0.15262224, -0.08637335, -0.11503564, 0.35770497, -0.21998909, 0.012174617, 0.085246585, -0.061694413, 0.18195392, -0.23210153, -0.42133465, -0.041253787, -0.11574672, 0.2899788, -0.10472135, -0.18272735, 0.2401372, -0.13729912, 0.15700252, -0.07949425, -0.532564, -0.15863694, -0.064683035, 0.19480601, -0.077199526, -0.05535499, 0.30975538, -0.1460409, 0.025654174, -0.066585645, -0.56430084, -0.04723587, 0.072823614, 0.14381681, -0.04684786, -0.0030052774, 0.30487376, -0.16623703, -0.04770389, 0.06852164, -0.4227333, -0.1814709, 0.060032252, 0.0015781696, -0.0022296212, 0.032871876, 0.3202338, -0.28136468, -0.018628497, 0.09654182, -0.31468108, -0.133357, 0.05451829, -0.0020970171, 0.023617554, 0.10041371, 0.23711509, -0.21033245, -0.11095029, 0.13019694, -0.3339257, -0.17721166, 0.016256912, -0.0002588058, -0.10263937, 0.15141158, 0.1773247, -0.23067363, -0.23935959, 0.26999256, -0.29464683, -0.15077357, -0.009761698, -0.10941814, -0.0052348073, 0.10853539, 0.026292782, -0.35805458, -0.376981, 0.1473367, -0.26088464, 0.25185686, 0.044354804, -0.3914146, 0.030557914, 0.08014325, -0.103196725, -0.21324708, -0.62950504, 0.03201438, -0.24397111, 0.3433984, -0.4408681, -0.35449857, -0.2969014, -0.10840893, -0.31135508, -0.15661038, -0.41971296, -0.3903248, -0.3004067, 0.47741458, -0.0790373, -0.17289515, -0.3733691, -0.31830767, -0.19796729, -0.38763618, -0.20284462, -0.17551017, -0.041732084, 0.12739617, -0.16517773, -0.03121868, -0.138157, -0.20759468, -0.007063739, -0.07082245, -0.018908031, -0.1212022, 0.07956371, -0.07784983, -0.027672082, -0.09574016, 0.0063934065, -0.027752122, 0.015400415, -0.11608625, -0.072359934, -0.028594758, -0.046338566, -0.12747203, 0.063582204, -0.06993808, -0.039310873, -0.051878277, -0.15330988, -0.11149619, -0.08288261, -0.26217434, 0.12516655, -0.023331927, 0.23697335, -0.14819272, -0.35304376, -0.12088501, -0.08662853, -0.15274163, -0.29514208, -0.2602394, -0.16455281, 0.11978155, 0.19546017, -0.1970452, -0.09053465, -0.45934126, 0.03897757, -0.08588769, -0.09872192, 0.051617958, -0.08419326, 0.17241354, 0.16978817, -0.1470472, -0.15184727, -0.46702698, 0.12680395, -0.37236372, 0.10492823, 0.13233739, -0.3596713, 0.2091585, 0.08794219, -0.037321772, -0.21523859, -0.060071744, -0.00038126274, -0.43644792, 0.04263503, 0.13094296, -0.4308956, 0.14145261, -0.21263798, 0.016134797, -0.19150999, 0.029027099, -0.049887143, -0.2156309, -0.14150879, 0.124284595, -0.30446836, -0.045239564, -0.14409442, 0.2588571, -0.3136357, 0.091275565, -0.024463823, -0.14037089, 0.017149584, 0.23455523, -0.26905227, 0.007625317, -0.3582075, 0.25471205, -0.3181061, 0.08335691, -0.13658823, -0.016334238, -0.009326895, 0.22815186, -0.23424205, -0.02963206, -0.22063208, 0.1562268, -0.30790257, 0.2728157, -0.15615179, -0.001025389, -0.0058947434, 0.21655782, -0.11108307, 0.09374353, -0.20774896, 0.10012841, -0.16103804, 0.32794562, -0.27062812, 0.011605803, 0.07759633, 0.0298783, -0.21566772, 0.08955399, -0.066382885, -0.07145974, -0.11267634, 0.38503158, -0.4703121, 0.06327546, 0.025284406, -0.38035905, 0.020416979, 0.2360248, -0.0787582, 0.0638482, -0.07799019, 0.005901616, -0.32161698, 0.17371838, -0.06604468, -0.61802465, 0.29804495, 0.12907496, 0.011284289, 0.03622944, -0.22698018, -0.012533673, -0.09853196, 0.18120895, -0.15568967, -0.6229782, 0.4404027, 0.0675661, -0.107212044, 0.12867568, -0.24801373, 0.0717029, -0.09904736, 0.058122464, -0.19167416, -0.42921063, 0.022927357, 0.024452759, -0.12064034, 0.45527503, -0.1700254, 0.01711931, 0.04988896, -0.0040619094, 0.034896467, -0.2805504, -0.25042486, 0.10073798, -0.14839981, 0.2855636, -0.22334838, -0.06844812, 0.018799245, 0.009458208, 0.13613874, -0.1510086, -0.45590195, -0.009905893, -0.07439921, 0.2664398, -0.10503925, -0.09320312, 0.20387666, -0.06338312, 0.04856481, 0.041420836, -0.47001195, -0.013167178, 0.04075224, 0.122987375, -0.0700818, -0.048322167, 0.16639331, -0.30220106, 0.035076514, -0.08539918, -0.40080675, -0.028327862, 0.18080689, 0.042877134, -0.02434689, 0.027312307, 0.22626442, -0.22910239, -0.07219739, 0.09920376, -0.38456753, -0.09329579, 0.17136548, 0.06882093, -0.054564126, 0.03938799, 0.17654371, -0.23898108, -0.17995533, 0.107358046, -0.20923305, 0.11205063, 0.044130743, 0.007887631, -0.033020895, 0.02538718, 0.17950404, -0.32747942, -0.2098777, 0.10875867, -0.336215, 0.0082849115, 0.15400618, -0.11708169, 0.034863766, -0.055857174, 0.04549787, -0.312794, -0.25275224, 0.067702666, -0.3161891, 0.15719116, 0.17226198, -0.13677187, 0.023654873, -0.009903351, -0.14078468, -0.09430789, -0.4005013, -0.01705597, -0.23154542, 0.30945045, 0.17896326, -0.23712274, 0.012931622, 0.04708841, -0.2617083, -0.17640814, -0.6307696, -0.23645566, -0.38807428, 0.572611, -0.46010867, -0.36952424, -0.28731567, -0.06665844, -0.512128, -0.3025029, -0.50211346, -0.3146857, -0.1229522, 0.46906927, -0.31570196, -0.3023663, -0.3619103, -0.51750773, -0.374711, -0.46819136, -0.3258523, -0.048686497, -0.14005834, 0.2052859, -0.20346154, -0.13734953, -0.15115634, -0.15652795, -0.13621122, -0.100893885, -0.22772036, 0.069223784, -0.048622217, 0.052731045, -0.07283603, -0.010134637, -0.06503107, 0.036579594, 0.0063939914, -0.01250381, -0.03200806, -0.07236434, 0.069617726, -0.19595383, 0.1841129, 0.024321042, -0.092766955, -0.07026921, -0.07387802, -0.15003441, -0.12118829, -0.23683393, -0.061436694, -0.044861086, 0.10962717, -0.010482753, -0.3015675, -0.22948779, -0.054230586, -0.20701507, -0.2373619, -0.3021767, -0.15453081, 0.15099625, 0.24308044, -0.32595846, -0.09944504, -0.34494743, -0.0070347814, -0.35230583, -0.1257442, -0.075683944, -0.23960258, 0.28180605, 0.16085039, -0.24384758, 0.053132683, -0.57748634, 0.08068325, -0.27669305, -0.22776973, 0.13159448, -0.44357687, 0.25242475, 0.06639614, -0.15915717, 0.124960266, -0.17578389, 0.021847596, -0.24253324, -0.18800613, 0.07169032, -0.4339534, 0.23043643, -0.019521467, -0.071363404, 0.15613374, 0.009034342, -0.1320183, -0.16761139, -0.06797867, 0.0948412, -0.40150103, 0.046046447, -0.1455465, 0.16617557, -0.2467102, 0.12752469, -0.20588788, 0.0499548, -0.065437, 0.1209226, -0.19843444, 0.0351061, -0.25286284, 0.156862, -0.2754899, 0.22893737, -0.1486521, 0.07057986, 0.05331255, 0.22597526, -0.10236668, 0.06506273, -0.35642755, 0.14721946, -0.3305001, 0.18398216, -0.1835397, 0.20759533, 0.092859656, 0.21758159, -0.11260275, 0.18015541, -0.4046396, -0.04848647, -0.34072217, 0.37392402, -0.3485351, 0.10815484, 0.014849602, -0.028287651, -0.16365603, 0.18554172, -0.37123704, -0.02478845, -0.3361439, 0.40396202, -0.20065485, 0.20331502, -0.009955101, -0.22225635, 0.110200465, 0.27656424, -0.3095774, 0.03718771, -0.3839925, 0.15916084, -0.1755242, 0.20322481, 0.03507816, -0.63219863, 0.20510903, 0.21645677, -0.19846426, 0.16079892, -0.37591177, 0.05917375, -0.072726786, 0.06971539, -0.15279691, -0.61125594, 0.35121664, 0.019892091, -0.3189043, 0.30032465, -0.21172005, 0.022882713, 0.048135854, -0.08828201, -0.013088323, -0.3418256, 0.0018151067, -0.0012949627, -0.13494001, 0.319374, -0.095168434, -0.02096179, -0.013173038, -0.1351351, 0.10699379, -0.09505464, -0.26610285, 0.041775998, -0.05590504, 0.2710947, -0.05747653, -0.10433524, -0.01342158, 0.014373958, 0.057697028, -0.028968334, -0.49415758, -0.021634758, 0.10443273, 0.12366116, 0.033169933, -0.05799131, 0.10835386, -0.21237443, 0.09756974, 0.008666412, -0.41220275, -0.046947304, 0.111721545, 0.04236553, 0.098470286, 0.10313018, 0.068798915, -0.24707875, -0.091190554, 0.03455523, -0.20007089, -0.015402882, 0.15173703, -0.060913455, 0.0055432715, 0.041173156, 0.0761779, -0.14124876, -0.15946747, -0.02342162, -0.15327398, -0.0031073838, 0.084316984, -0.027200302, 0.09993243, 0.0022262803, 0.04061222, -0.18123469, -0.040347587, -0.062489625, -0.115787, 0.103329346, 0.12114101, -0.044454016, 0.04680287, 0.051045153, -0.036456447, -0.15480015, -0.18832882, 0.102231696, -0.18109111, 0.1206725, 0.22124118, -0.1162603, -0.013009476, -0.034764186, -0.059270684, -0.10877373, -0.31453338, 0.04832677, -0.1705208, 0.1290775, 0.13697354, -0.23742005, 0.06916364, -0.013982563, -0.103771485, -0.054246925, -0.43925676, -0.056567244, -0.07409927, 0.34635636, -0.18310843, -0.24864987, 0.008516802, -0.109669, -0.057333097, -0.054557934, -0.5977892, -0.1992989, -0.25562412, 0.5842077, -0.55860746, -0.42453817, -0.4113903, -0.047136914, 0.019200709, -0.65107816, -0.3661789, -0.29996982, -0.08448347, 0.35149226, -0.3049747, -0.14836024, -0.3834974, -0.46074387, -0.014097936, -0.30253515, -0.24321596, -0.027296264, -0.24205121, 0.17897834, -0.11982812, -0.08862588, -0.13920428, -0.24175113, -0.18826133, -0.21738163, -0.13515897, -0.07595465, -0.102710314, -0.12561949, -0.074118555, -0.04842275, -0.13307653, -0.064566955, 0.121712305, -0.105189845, 0.043408997, -0.08049317, 0.019436331, -0.07017057, 0.14839886, 0.05631599, -0.112597555, -0.12036946, 0.022431217, -0.12079515, -0.037603915, -0.25936237, -0.050344486, -0.1747601, 0.2905789, -0.119396806, -0.25379717, -0.059907664, 0.035193186, -0.27427092, -0.22008987, -0.33456, -0.08026063, 0.0050725085, 0.5006073, -0.2447512, -0.009565496, -0.40168965, -0.022788234, -0.6119517, -0.3704441, -0.07354437, -0.42041525, 0.17245333, 0.29619297, -0.24233748, 0.06857054, -0.52121633, -0.003378957, -0.3771713, -0.26968265, 0.07618109, -0.5860884, 0.22035635, 0.21842542, -0.12965168, 0.24060774, -0.3032836, -0.048729327, -0.20930807, -0.2545526, 0.11257491, -0.7188664, 0.19158743, 0.08611424, -0.12711269, 0.27628344, -0.16176432, -0.31654465, -0.14926335, -0.15326786, 0.06491983, -0.29414856, 0.20309344, -0.14560054, -0.07757256, 0.10960113, 0.08018652, -0.24929743, -0.027520472, -0.11360373, 0.08962304, -0.12719214, 0.11913286, -0.14257497, -0.011410694, -0.15805732, 0.100533895, -0.2809616, 0.11195659, -0.10932202, 0.15075082, -0.010512342, 0.106678106, -0.32710606, -0.09157246, -0.15891516, 0.18937233, -0.28903186, 0.13017495, -0.05583159, 0.27548245, -0.061973415, 0.15775596, -0.4296057, -0.15578385, -0.18588418, 0.21410234, -0.30729786, 0.2000881, 0.14998393, 0.087926924, -0.06904197, 0.15824792, -0.41561398, -0.160892, -0.26121324, 0.32042834, -0.1937688, 0.20372537, -0.07599716, -0.30272117, 0.0062047835, 0.24493246, -0.47114792, 0.09087707, -0.13368624, 0.20566177, -0.16181585, 0.12384935, -0.15304267, -0.43930784, 0.25891146, 0.20524038, -0.33647892, 0.1435503, -0.17981115, 0.17683649, 0.019319108, -0.0021716622, -0.1737818, -0.39940938, 0.23635854, 0.038839176, -0.32478175, 0.20909801, -0.04112387, -0.035717007, 0.11096698, -0.13587022, 0.053784564, -0.15361823, -0.106589295, 0.08150402, -0.07586565, 0.19140765, -0.031841323, 0.042530477, 0.049380183, -0.04660337, -0.019547597, -0.08105682, -0.27017054, 0.07609453, 0.15785067, 0.1670874, 0.11722972, 0.101060316, -0.023473939, -0.10159394, -0.01620916, -0.042681195, -0.18100415, 0.16549936, 0.19820605, -0.07274897, 0.048915375, 0.18451418, -0.111988336, -0.07452063, -0.09754991, 0.0012565658, -0.15900056, 0.07629192, 0.12474814, -0.13574722, -0.030991955, 0.13068394, -0.08069823, -0.019078111, -0.1364259, -0.036878336, -0.041848022, 0.014196769, 0.21521306, -0.11307241, 0.06269581, 0.06376009, -0.13082714, -0.09202758, -0.027404182, -0.022072015, 0.015027996, 0.043337934, 0.11958448, -0.028735166, 0.07451102, -0.00018472498, -0.17360424, -0.08121009, -0.08003017, 0.053278018, 0.011437432, 0.12599078, 0.21356204, -0.07494242, 0.01020318, -0.04315882, -0.20588681, -0.100408144, -0.23682961, 0.04808117, -0.2129389, 0.09060089, 0.21135043, -0.22780122, 0.108323, -0.06773092, -0.31968117, -0.06326295, -0.26172617, 0.035165675, -0.24722555, 0.22277442, 0.046910018, -0.31222275, 0.109338656, -0.0027076215, -0.38001618, -0.00062047725, -0.38521412, -0.024350936, -0.059999414, 0.4346662, -0.21942309, -0.30311507, 0.1461972, -0.05178427, -0.24093904, -0.070117675, -0.5619924, -0.20599198, -0.04953394, 0.53966963, -0.5765557, -0.37135693, -0.28894603, -0.08435417, -0.19358583, -0.65140456, -0.22137171, -0.11602984, -0.022839157, 0.2867478, -0.27036044, -0.15649746, -0.26109174, -0.13146289, 0.041718807, -0.29597747, -0.29941636, -0.046440125, -0.009576216, 0.065508075, -0.0611958, -0.14746965, -0.1663913, -0.18607646, -0.11011594, -0.119905174, -0.25640598, 0.015098668, 0.07365009, -0.10831395, 0.043947544, 0.013012732, -0.08907918, 0.057280034, 0.0050781243, -0.0066651837, -0.02044052, 0.07907962, -0.0141345095, -0.17671125, 0.02292263, -0.18596496, -0.10642067, -0.14217708, 0.14655617, -0.11539231, -0.05165236, -0.16466771, -0.0024681406, -0.19407238, 0.09448339, -0.10908, 0.07446577, -0.08363076, 0.09726438, -0.16753931, -0.36848775, -0.24111252, -0.24981153, 0.0021738568, 0.41952345, -0.1559221, 0.042988267, -0.3387893, -0.17913744, -0.4020546, -0.2970331, -0.17236084, -0.49317834, 0.17204338, 0.19988728, -0.21616481, 0.14629118, -0.4365261, -0.09945091, -0.3321237, -0.35326162, -0.04786071, -0.64177686, 0.06907322, 0.20166932, -0.20493764, 0.06983911, -0.3735654, -0.21901375, 0.029502446, -0.20569807, 0.01723154, -0.29508057, 0.1684283, 0.13393125, -0.18507239, 0.24550466, -0.19430137, -0.30529994, -0.045798894, -0.14947116, 0.058490828, -0.15798308, 0.16247496, 0.09370994, -0.29105762, 0.08045754, -0.13805898, -0.47975418, -0.053247113, -0.16004215, 0.14936572, -0.17042688, 0.13570665, 0.020413522, -0.3271622, 0.21972927, -0.015791228, -0.3801892, 0.11864563, -0.11880428, 0.098720305, -0.03121022, 0.17746732, -0.040874697, -0.31795508, -0.008704988, 0.17903513, -0.29002374, 0.14187543, -0.3078026, 0.22751987, -0.09496229, 0.16969927, -0.1400179, -0.4399086, -0.06996828, 0.26832813, -0.24239197, 0.017248346, -0.17668685, 0.17509206, -0.062463835, 0.09540622, -0.30903777, -0.23649932, -0.006158739, 0.34730947, -0.15592386, 0.0010516444, -0.1990716, -0.009276867, -0.0026357349, 0.19477941, -0.215521, -0.23604763, -0.025924725, 0.37218884, -0.09433674, -0.0641979, -0.33097583, -0.21909124, 0.12785242, 0.19159637, -0.2777854, -0.058416955, 0.05297732, 0.16095679, 0.0638597, -0.19150092, -0.11711005, -0.107389405, -0.009537331, 0.060165696, -0.10104447, 0.113498524, -0.0014962277, 0.14453489, 0.020999227, -0.12878215, -0.1272601, -0.17458367, -0.0074688774, 0.06399007, 0.060588654, 0.045163702, 0.01729342, 0.16900182, -0.065983385, -0.1154342, -0.07752624, -0.009657102, -0.08357515, 0.10095582, 0.088887244, -0.04338133, -0.024396438, 0.15609741, -0.17432854, -0.067657694, -0.120538406, -0.071931124, 0.006846499, 0.033549868, 0.15500654, -0.069989465, 0.009009497, 0.15462893, -0.2022275, -0.052443303, -0.12056246, -0.028160956, -0.019225543, 0.10878899, 0.22911032, -0.1757103, 0.061747324, 0.14131442, -0.18017061, -0.065770835, -0.06931435, -0.011777973, 0.101903886, -0.0009681426, 0.12753317, -0.19892183, 0.09843727, 0.030532017, -0.12640299, 0.055392526, -0.04002435, -0.077043965, 0.044939253, 0.10257615, 0.049606267, -0.17331843, -0.010776561, 0.09646051, -0.31575933, 0.050943952, -0.10238091, -0.053945865, 0.008070968, 0.10222352, 0.15450574, -0.2489409, 0.111279584, -0.036450643, -0.35247704, -0.08205374, -0.22901294, 0.008936606, -0.042099696, 0.17309314, -0.010229714, -0.4804528, 0.052350797, 0.0381206, -0.4940874, 0.11813541, -0.35415855, 0.0049827313, -0.16420555, 0.19630805, -0.051158864, -0.36615166, 0.12068012, -0.11946201, -0.5605205, 0.039784, -0.253151, -0.121406965, -0.00828913, 0.22152999, -0.29597718, -0.4197062, 0.09845675, -0.21701577, -0.27644065, -0.09096597, -0.28989625, -0.20958939, 0.0127101345, 0.40418968, -0.61349666, -0.32440117, -0.16259506, -0.28556842, -0.24870485, -0.6256039, -0.15712398, -0.24184504, 0.059984196, 0.33821717, -0.19645494, -0.10064212, -0.26943007, -0.313281, -0.10335218, -0.22883943, -0.22384895, -0.113431625, 0.09889304, 0.1345423, -0.13958733, 0.0422222, -0.004053139, -0.119766146, -0.13920811, -0.16514398, -0.117474705, 0.052006967, -0.023418345, 0.0021329075, 0.05340559, -0.026321348, 0.007041499, -0.05928421, 0.062924735, 0.031690568, 0.039234422, 0.08405612, -0.047944013, -0.15205629, 0.04207789, -0.038735792, -0.19646603, -0.066218354, 0.08835478, -0.048663415, -0.06027496, -0.1320137, -0.20421828, -0.08869152, 0.005303068, -0.11650125, 0.122934155, -0.23750418, -0.1010062, -0.24564049, -0.2612126, -0.26025945, -0.103759415, -0.0945257, 0.3325288, -0.15703851, -0.076894596, -0.3729416, -0.2741568, -0.5327903, -0.40435866, -0.062883064, -0.19751666, 0.17349477, 0.20532727, -0.23932767, -0.028941037, -0.37414885, -0.43987727, -0.17145175, -0.17854927, 0.12628601, -0.3126195, 0.09668495, 0.24698716, -0.25012508, 0.17553683, -0.39330205, -0.28661326, -0.08742374, -0.034475096, 0.083821826, -0.04123116, 0.15716405, 0.2395222, -0.28414735, 0.047787793, -0.1906698, -0.5011878, 0.046833098, -0.13325652, 0.02380612, -0.014975135, 0.1630176, 0.08431802, -0.36373046, 0.11820203, -0.09623173, -0.3729173, 0.10440027, -0.2732787, -0.0098147, -0.03819168, 0.20296986, 0.085977554, -0.5180865, 0.10585645, -0.0048789247, -0.2831308, -0.016407084, -0.33893374, 0.16011147, 0.010408381, 0.115822926, 0.02508074, -0.39323753, 0.13553737, 0.03902821, -0.3050809, -0.04241461, -0.3664007, 0.20683962, 0.07525578, 0.13933176, -0.06977187, -0.47038254, 0.0462243, 0.21569706, -0.18862031, -0.030108653, -0.46055716, 0.33300212, 0.026767382, 0.17863807, -0.12331351, -0.23737763, 0.14248087, 0.18581165, -0.17806818, -0.12781757, -0.39435244, 0.17564866, 0.036720756, 0.050490156, -0.2161644, -0.26553458, -0.0023261257, 0.38049874, 0.02628792, -0.00619075, -0.25512493, 0.044943172, -0.050214536, 0.079582416, -0.08894887, -0.14205925, 0.045474198, 0.25525096, -0.005837523, -0.025875863, -0.2255088, 0.040593352, 0.026688244, -0.012355352, 0.045923762, -0.06706237, -0.07236556, 0.32577714, 0.027664352, -0.11431385, -0.12215769, -0.010853683, -0.008210953, 0.027732417, 0.023177937, 0.042836398, 0.05234973, 0.20751193, -0.01704163, -0.06621892, -0.21506548, -0.044335146, 0.121835396, 0.03711127, 0.11945933, -0.0020655408, 0.053674035, 0.15381368, -0.20595974, -0.11345852, -0.07676564, -0.04686914, 0.08959793, 0.04103374, 0.20927225, -0.024187049, 0.1605431, 0.13867867, -0.26155674, -0.023103187, -0.16405073, -0.16610846, 0.18372582, 0.022450758, 0.10989341, -0.028015032, -0.02003491, 0.08456772, -0.37715456, -0.00068270986, -0.123193786, -0.15350115, 0.060887232, 0.15197334, 0.093676336, -0.19747186, -0.018570794, 0.118548214, -0.26560602, -0.008639804, -0.07611529, -0.048355788, 0.0915858, 0.10826259, 0.14918618, -0.21533115, 0.071579576, 0.08045138, -0.46226883, 0.050325386, -0.1472237, -0.014624101, -0.04978379, 0.14559856, 0.05991591, -0.09574121, 0.0699963, -0.038305134, -0.44804448, 0.029843811, -0.20345579, -0.019238144, -0.08859623, 0.16644211, -0.05123479, -0.2689686, 0.124225065, -0.16838345, -0.46014404, 0.081826575, -0.2787588, -0.071221694, -0.06820468, 0.21620291, -0.04880228, -0.24825457, 0.21786797, -0.11145953, -0.53699195, 0.0077347415, -0.102665745, -0.16916677, -0.009866606, 0.28252736, -0.29797608, -0.25311685, 0.011738357, -0.1785623, -0.1260471, -0.18007833, -0.0659639, -0.341855, 0.084585205, 0.31557986, -0.55262387, -0.2595447, -0.0060108993, -0.14475827, -0.20208853, -0.56973374, 0.10931149, -0.121863484, 0.06786945, 0.1316557, -0.019718483, -0.03012265, -0.18954681, -0.23862557, -0.1638235, -0.1784289, -0.14552794, -0.026491795, 0.0060881088, -0.020325115, -0.10591575, -0.07348755, -0.038185, -0.093436204, 0.03054093, -0.111513026, -0.06858428, -0.042259946, 0.025136543, -0.056883894, -0.07595309, 0.018302089, -0.07989696, -0.07593746, -0.082134455, -0.021040373, -0.016950715, -0.049986165, -0.021881167, -0.022345375, 0.17267953, 0.016286712, -0.2192667, -0.07892712, -0.027347941, -0.13241085, -0.08933464, -0.16573682, -0.09797505, -0.026412038, 0.068471916, -0.14997324, -0.06685374, -0.07274702, -0.17467475, -0.32565957, -0.3032398, -0.13328463, -0.101697266, -0.023180502, 0.23250872, -0.16698177, -0.01973993, -0.38865593, -0.44979146, -0.36145484, -0.42458054, -0.17388299, -0.018450145, 0.050543215, 0.11785633, -0.25955832, 0.11465683, -0.47992906, -0.40110502, -0.21062651, -0.1485237, -0.024243765, 0.12483812, 0.02603729, 0.16686581, -0.29747602, 0.09057279, -0.38439307, -0.18611938, -0.040837254, -0.102177076, 0.06289219, 0.14254925, 0.08267432, 0.12284168, -0.42764992, 0.10428616, -0.4391968, -0.2755497, 0.099045604, -0.13651156, -0.04887238, 0.034567922, 0.11942451, 0.14949934, -0.4663461, 0.0020848839, -0.18087061, -0.21577694, 0.10328, -0.19192022, 0.018148953, 0.029179404, 0.025010506, 0.07571954, -0.26391274, 0.14498086, -0.11820621, -0.10132754, 0.082798935, -0.109265015, 0.021529268, 0.08339611, 0.1979447, -0.010203378, -0.17503756, 0.14131114, 0.029262114, -0.10735706, -0.027996866, -0.12035203, 0.19965135, 0.05818233, 0.09883199, -0.05304694, -0.27197555, 0.045506235, 0.15239967, -0.0960695, 0.018620344, -0.22075783, 0.19860764, -0.094638586, 0.16047314, -0.07184136, -0.16958365, 0.04641667, 0.2199364, -0.041290488, -0.08063712, -0.22970968, 0.1722097, -0.09227788, -0.010132117, -0.15136366, -0.12600249, -0.00819782, 0.31269878, -0.054084506, -0.011963685, -0.20025672, 0.034157567, -0.16207685, 0.07400418, -0.016470732, -0.19543777, 0.09812955, 0.38097546, -0.088175185, -0.001878941, -0.15421522, 0.0080238525, -0.03454088, -0.061851967, -0.059299484, -0.056694005, 0.0038549404, 0.3286025, -0.09170501, 0.03375428, -0.12719338, 0.09057468, -0.010448849, -0.07451927, 0.083757356, -0.04965344, 0.08773721, 0.27898204, -0.114017025, -0.016561013, -0.10825267, -0.051831968, 0.07673253, 0.05531831, 0.045972917, -0.13013504, 0.05930775, 0.13385583, -0.09737482, -0.051149424, -0.034762785, -0.07331235, 0.08540706, 0.093249634, 0.0401482, -0.07563432, 0.04207255, 0.14419903, -0.17831564, -0.040422175, -0.23215677, -0.15896088, 0.16987897, 0.12781215, 0.17778148, -0.11300125, 0.056733023, 0.100498915, -0.27275768, -0.03058642, -0.14365289, -0.13443093, 0.13218993, 0.2671915, 0.0848384, -0.07743685, -0.0044645593, -0.032132983, -0.40929252, -0.0029564742, -0.11406294, -0.090154566, 0.13259296, 0.10190818, 0.03265216, -0.025679152, 0.080154285, -0.0170357, -0.40855095, 0.07148327, -0.12123547, -0.0017094506, 0.10036026, 0.093756065, -0.036483485, -0.118233465, 0.09699298, -0.15971602, -0.3752382, -0.021357141, -0.041201275, -0.03805192, -0.19624363, 0.15712155, -0.18086527, -0.08617575, 0.19967803, -0.087921195, -0.4177845, 0.14666967, -0.12982929, -0.20597082, -0.1331588, 0.22168797, -0.2656552, -0.15317298, 0.06226862, -0.22571604, -0.55697566, -0.06576906, -0.047581624, -0.14842951, 0.09298818, 0.27122915, -0.38548037, -0.26034722, 0.11383236, -0.15483057, -0.22215573, -0.27372295, 0.017421253, -0.26266658, 0.1182522, 0.22042626, -0.4432227, -0.15934387, -0.030171975, -0.19460785, -0.24558963, -0.42029977, 0.069338135, 0.08273522, -0.08897788, 0.06773262, -0.087656245, -0.12480618, 0.01723985, -0.09380224, -0.08613527, -0.22143306, -0.20208594, 0.0111066885, -0.0067859865, 0.004641919, -0.04529006, 0.04441368, -0.002781498, 0.039297063, -0.06905933, -0.044320066, -0.0836517, -0.017645996, 0.136408, -0.14013663, -0.08570642, -0.02780601, -0.0010724644, -0.0091522, -0.038894698, -0.05175082, -0.07562632, 0.02760679, 0.079070814, -0.13310738, -0.03779547, 0.029670443, -0.04561544, -0.041047666, -0.019565579, -0.07759354, -0.05026801, -0.17452823, 0.009073391, -0.029433034, 0.1004503, -0.10601702, -0.15069361, -0.029417422, -0.17628154, -0.10616915, -0.26618162, -0.3325479, -0.085506804, 0.10420029, 0.25405255, -0.20467469, -0.062670544, -0.16080157, -0.37703353, -0.16682628, -0.102690995, -0.261186, 0.14653505, 0.030235754, 0.20265703, -0.32105756, 0.13618459, -0.28856266, -0.21312231, -0.28434837, -0.15272872, -0.056730084, 0.33186024, 0.021891942, 0.10490236, -0.36573043, -0.095449686, -0.58869946, -0.05322845, -0.18063717, -0.25006223, 0.03491462, 0.2735821, 0.16375661, 0.12704374, -0.31184518, -0.1487122, -0.63331294, -0.04567184, 0.0178143, -0.26054797, 0.004348453, 0.1412834, 0.16844253, 0.011887701, -0.37985662, -0.03790424, -0.27438086, 0.10892453, 0.060826614, -0.18963705, 0.070899256, 0.04774996, 0.121457875, 0.013338913, -0.26549318, -0.022468751, -0.17969851, -0.081652336, -0.011381802, -0.13066706, 0.12034913, 0.035757683, 0.23220687, -1.6994192e-05, -0.19956581, 0.011105068, -0.09945736, -0.15686561, 0.005867272, -0.0048937793, 0.06184128, -0.054062832, 0.07339497, 0.06816136, -0.14635845, -0.003793285, -0.00013213827, -0.11674239, -0.033703636, -0.087980404, 0.17227647, -0.29847553, 0.10040069, 0.027297072, -0.054127954, 0.1323317, 0.02399073, -0.11819759, 0.12359366, -0.06978642, 0.20562269, -0.32236832, -0.041016385, -0.023698274, -0.18600026, 0.12100627, 0.10951073, -0.0084724305, 0.11593778, -0.103133395, 0.15604909, -0.3150174, 0.0004321764, -0.09117326, -0.14143959, 0.097892635, 0.053786274, -0.10498395, 0.20143247, -0.04618675, 0.118493944, -0.11233777, -0.15481079, -0.054652464, -0.19930771, 0.14286695, -0.016960032, -0.06652276, 0.034078002, -0.089976184, 0.060294304, 0.01062578, -0.0786815, 0.001962314, -0.10082035, 0.031331833, 0.0789011, -0.052596457, 0.052482724, -0.23531571, -0.026402697, 0.09458448, -0.08642994, 0.041824725, -0.022505186, 0.16570947, 0.026940923, -0.115636475, 0.014571163, -0.03818533, -0.019888513, 0.19867325, 0.08087578, 0.025420194, -0.033341162, 0.022565544, 0.012195378, -0.12889045, 0.060155254, -0.16402082, -0.08929487, 0.20325759, 0.16681938, 0.13342677, 0.015938008, 0.13056816, 0.0042524496, -0.3174562, -0.001465342, -0.17860176, 0.0102484245, 0.0787606, 0.17859209, 0.10176139, 0.08634374, 0.031011736, -0.034444492, -0.22306956, 0.046527512, -0.20894498, -0.18289942, -0.010106827, 0.1765375, 0.055716638, 0.09662787, 0.13588645, -0.01131812, -0.31418684, 0.012895823, -0.076750405, -0.06634719, -0.020163914, 0.18181978, -0.19440542, 0.028219545, 0.009834241, -0.12605686, -0.43340287, 0.08914069, -0.07957256, -0.004461437, -0.23548746, 0.22937042, -0.08742516, 0.02065765, 0.1448677, -0.2762036, -0.44152087, -0.033435874, 0.09516775, -0.116736926, -0.24794298, 0.12591451, -0.21457967, -0.1413916, 0.104890265, -0.43402857, -0.4945969, -0.04966895, 0.05927189, -0.20376338, 0.013350143, 0.116782196, -0.32278982, -0.14165604, 0.012971645, -0.42469323, -0.24127614, -0.26311603, 0.15216663, -0.10694516, 0.02693236, 0.036823362, -0.15285552, -0.06916516, 0.010164239, -0.1447976, -0.096984416, -0.29125774, 0.024346938, 0.13978516, 0.11831648, -0.05538379, -0.13716048, 0.030630944, 0.0029934533, 0.042449553, -0.15140212, -0.19921455, -0.2134882, 0.058239542, 0.040811256, -0.1245018, 0.021502893, 0.019612957, -0.05818695, -0.050653968, -0.058636118, -0.0070132795, -0.0029352894, -0.041072655, -0.0625038, 0.029063374, -0.06596523, -0.00089766085, 0.020943925, 0.07394902, -0.04229055, 0.07117214, -0.07910154, 0.067682914, 0.06517918, -0.030369312, 0.031793818, -0.08437534, 0.07757283, 0.06912524, -0.06266172, 0.055908643, 0.054358087, -0.1583407, -0.036505982, -0.08064366, 0.24333477, -0.11288551, 0.012608272, -0.10906106, -0.1009709, -0.15362945, -0.2450141, -0.26907733, -0.19787073, -0.13065746, 0.38649362, -0.18173589, 0.07431425, -0.13827014, -0.31573144, -0.16317032, -0.20455578, -0.32322997, -0.019182151, -0.057964638, 0.2704635, -0.34986043, 0.14204615, -0.2184482, 0.06817636, -0.2824406, -0.25187713, -0.13281447, 0.32479933, -0.065237835, 0.2758476, -0.3472198, 0.11719021, -0.4191679, 0.20474528, -0.2984331, -0.21553816, -0.02923122, 0.23826432, -0.015214245, 0.22243436, -0.17321397, -0.06393506, -0.62784195, 0.2621061, -0.31104368, -0.121511795, 0.06407922, 0.07154172, -0.050783884, 0.15806282, -0.20628944, -0.07588304, -0.61777765, 0.16954014, -0.1543449, -0.024126776, 0.0001911304, -0.089283355, 0.0034851753, 0.101022474, -0.023991067, 0.053448226, -0.34546655, -0.07095596, -0.035642393, 0.05551051, 0.16833955, -0.09559804, 0.022469416, 0.072104365, -0.09367406, 0.07656325, -0.3722947, 0.011150502, 0.043465666, -0.10607729, 0.1646084, -0.11875196, -0.020285996, 0.07896626, -0.09729931, 0.12484852, -0.33819133, 0.005763504, -0.016625252, 0.009804852, 0.16221249, -0.17833391, -0.014451515, 0.097998425, -0.11089048, 0.15421402, -0.37985092, -0.103418775, 0.058723252, -0.071069516, 0.25041273, -0.11365075, -0.04142007, -0.0055347024, -0.089501046, 0.14918664, -0.18055987, -0.07603841, 0.20252717, -0.04853846, 0.15624067, -0.1390226, -0.07977813, 0.074095316, -0.12183803, 0.0886164, -0.10869131, -0.085919045, 0.25887498, -0.18363558, 0.1907063, -0.13999584, -0.07495195, -0.027340792, -0.11315384, 0.07822752, -0.17030458, 0.010220415, 0.22993164, -0.082024, 0.1228063, 0.053704176, -0.09420167, -0.008003241, -0.08125452, 0.01489774, -0.14010537, 0.009696557, 0.12484975, -0.16380039, -0.054032635, 0.13654515, -0.121579655, -0.046215355, -0.025554884, 0.0908664, -0.09873971, -0.021568358, 0.18064207, -0.15054153, -0.01722034, 0.2689586, -0.013283481, 0.035956502, 0.09797248, -0.015793454, -0.22327012, -0.15043725, 0.09874409, -0.040467225, -0.18729381, 0.1501689, 0.08414528, 0.094756775, 0.07337164, -0.019500853, -0.18916832, -0.22003007, 0.10490497, -0.082092255, -0.16789787, -0.045118313, 0.17363547, -0.066043615, 0.18092154, -0.036073428, -0.0981956, -0.29143268, 0.07324056, -0.013411428, -0.22558874, 0.03046663, 0.17470056, -0.05218032, 0.08233507, 0.03883388, -0.11492473, -0.42809537, -0.01703159, -0.00294115, -0.31080782, -0.2619901, 0.17962067, -0.17255221, 0.126362, -0.043134116, -0.173689, -0.45479828, -0.011923005, 0.08987275, -0.25647146, -0.24906811, 0.09453902, -0.18251537, -0.093701705, 0.030659864, -0.3200424, -0.44413927, 0.060344294, 0.18336186, -0.15942945, -0.29544142, 0.087230615, -0.17456147, -0.118269295, 0.0535848, -0.40070584, -0.5960295, -0.03288397, 0.20211859, -0.15055606, -0.17289518, 0.07070698, -0.12023861, -0.09092088, 0.08732999, -0.2704925, -0.22699161, -0.15700276, 0.08741986, -0.16562605, -0.014572749, 0.024276474, -0.17675062, 0.053155493, -0.02957228, -0.10965014, -0.24359022, -0.12990268, -0.10270288, -0.11743135, 0.14242528, -0.0983885, 0.06908041, 0.017674305, 0.06801923, -0.098372504, -0.084106416, -0.22607131, -0.08045159, 0.0004215166, 0.07095022, -0.021883272, -0.0072752982, -0.014976487, -0.02818996, -0.076412134, 0.04073467, 0.055802174, -0.006225489, 0.059565566, 0.07140718, -0.075046964, 0.044548117, 0.07606775, -0.010228336, 0.015849203, -0.07669595, -0.08158848, -0.0018683225, 0.036049433, 0.024747185, 0.04467679, 0.078296, -0.019672394, 0.038448997, 0.0734477, 0.08342133, 0.059602596, 0.059679367, -0.03247723, -0.03481026, -0.10913769, 0.00074529037, -0.14237352, -0.04325004, -0.07136168, 0.03684103, -0.094862886, -0.23207694, -0.1664974, -0.24695054, -0.377403, 0.2896633, -0.20210737, 0.04529944, -0.08728033, -0.023487434, -0.24336226, -0.3648189, -0.13664111, -0.2504758, -0.35722506, 0.3267195, -0.32678425, -0.020545956, -0.05010438, 0.17207381, -0.4922441, -0.12194401, -0.18422928, 0.022893816, -0.3677597, 0.22027895, -0.18474802, -0.038192414, -0.24877714, 0.3647997, -0.54993653, 0.02526185, -0.26868692, -0.06498528, -0.37263525, 0.2653071, -0.10092279, -0.07488566, -0.31481537, 0.28499424, -0.42775494, 0.08331949, -0.19005692, -0.1016198, -0.3399915, 0.34386867, -0.11914498, -0.11567878, -0.39770603, 0.2802573, -0.2572608, 0.009530224, -0.20437261, -0.17406467, -0.18700302, 0.17769006, -0.022832246, 0.030577939, -0.63555133, 0.18805984, -0.049881905, 0.12410567, -0.14407277, -0.18653771, -0.28871185, 0.14619009, -0.016878022, 0.13259877, -0.59511226, 0.011892806, -0.0151340375, -0.10291038, -0.03747079, -0.31986028, -0.17520349, 0.24086419, 0.004267006, 0.1352847, -0.73472625, 0.14751303, -0.006185848, 0.056090806, -0.042485803, -0.2678563, -0.25379455, 0.15524043, -0.059692107, 0.12533396, -0.60012, -0.0006275388, 0.11810718, -0.015954634, 0.16978322, -0.25398278, -0.02202273, 0.19471094, -0.15186118, 0.17759761, -0.5762701, 0.042856477, 0.13752623, -0.09959197, 0.094790176, -0.35180888, -0.049666118, 0.20923442, -0.07775487, 0.22991134, -0.5647882, 0.07980662, 0.0714823, -0.1254692, 0.00708366, -0.18804245, -0.061742187, 0.07442411, -0.09078483, 0.19419256, -0.5388212, 0.10301812, 0.15365008, -0.13500878, 0.03938149, -0.26402274, -0.13830873, 0.092119984, -0.06933031, 0.16455302, -0.36370823, 0.09151876, 0.12665667, -0.07325882, -0.091761954, -0.318287, -0.01744314, 0.06006001, -0.049971655, 0.049448047, -0.28298113, 0.09658093, 0.1994616, 0.0008346478, -0.16243944, -0.07165405, 0.009732213, 0.112538345, -0.0033560358, 0.07443662, -0.2895494, 0.07102749, 0.05287211, 0.08631374, -0.2628546, 0.04116186, 0.03773714, -0.06587008, 0.06204285, 0.12555267, -0.27090055, -0.07173352, 0.14863542, 0.020200716, -0.457811, 0.0035147807, -0.053987652, -0.20222495, -0.014002034, 0.034300193, -0.52289915, -0.22192486, 0.24433933, 0.12249813, -0.40169618, -0.093092114, -0.0008207505, -0.15424421, -0.022662476, -0.017258989, -0.47085947, -0.20394863, 0.056459747, 0.20052953, -0.5063765, -0.14165322, -0.052661814, -0.22754562, 0.008508103, 0.050523575, -0.5042908, -0.1911779, -0.13133755, 0.23759554, -0.36921367, -0.1726995, 0.03569107, -0.10652008, -0.0890181, 0.13577864, -0.4394314, -0.2886681, -0.12232178, 0.1957362, -0.17895775, -0.254561, 0.08900224, -0.18382232, -0.045884788, 0.0996747, -0.36899185, -0.4667174, -0.10970678, 0.16630414, -0.20892338, -0.16179372, 0.28213012, -0.13962233, -0.15574278, 0.001987638, -0.23337385, -0.21044849, -0.28799435, 0.018385304, -0.031383097, -0.03946683, 0.28708515, -0.074042805, 0.11548443, -0.20636635, -0.054326385, -0.07559146, -0.2567267, -0.09210625, -0.059160125, 0.12658349, -0.0014407287, -0.02253145, -0.034994237, -0.15259428, -0.04595616, 0.02335532, -0.14071068, -0.14381695, 0.011420712, 0.01332622, 0.051885925, -0.017707095, -0.0699706, -0.06940411, -0.05813515, -0.037777133, 0.030771323, -0.003156148, 0.035130464, -0.033933897, 0.050471865, -0.03996187, 0.06173774, 0.03493332, -0.048082337, 0.009964354, -0.03491846, 0.076157175, -0.047571786, -0.0066934526, 0.04912614, -0.04179268, -0.04072235, -0.078812875, -0.03133898, 0.009756349, -0.019994363, 0.011025727, -0.014211524, -0.03155271, -0.08168815, 0.16445966, -0.007774625, -0.030421609, 0.018699957, -0.077469826, -0.113907985, 0.049033046, 0.032466132, -0.21393436, -0.22180784, -0.026271718, -0.06465441, 0.036542792, 0.04006628, 0.12787583, -0.17245501, -0.15475595, -0.16777037, -0.27448574, -0.3578849, 0.09648814, -0.113120124, 0.020941637, -0.14674082, 0.2617108, -0.34859988, 0.042164277, -0.23159945, -0.49197027, -0.4203154, 0.1666714, -0.19098765, -0.19724156, -0.16644026, 0.10631255, -0.45998123, 0.16249004, -0.44545966, -0.45910856, -0.4385407, 0.24354345, -0.21489178, -0.07628328, -0.15464216, 0.20800582, -0.37003863, 0.22865978, -0.3961468, -0.5476002, -0.44258296, 0.2774177, -0.37198365, -0.066958375, -0.2602412, 0.11626978, -0.35854775, 0.13387766, -0.54515076, -0.3083745, -0.73083395, 0.3511418, -0.40770572, -0.07052831, -0.3252846, 0.27689114, -0.32811272, 0.21958974, -0.54698014, -0.47298038, -0.73897725, 0.4209105, -0.25149405, 0.08607797, -0.3574061, 0.2927787, -0.3036491, 0.12698384, -0.56039816, -0.6373087, -0.57805395, 0.42558756, -0.26692918, -0.004224401, -0.3136042, 0.13345931, -0.14628741, 0.12546429, -0.5448017, -0.69352746, -0.5392125, 0.29292572, -0.27126136, 0.18798134, -0.26158872, 0.24124832, -0.17480232, 0.0155381365, -0.64835507, -0.5356697, -0.45528585, 0.330729, -0.4226296, 0.11336799, -0.33950326, 0.2434974, -0.2377089, 0.101693876, -0.64241034, -0.54328114, -0.27014157, 0.2965242, -0.33345792, 0.16803399, -0.45830646, 0.23745154, -0.14141423, 0.06364806, -0.62617004, -0.48957145, -0.15951137, 0.2305909, -0.20643878, 0.10332373, -0.48456556, 0.18685438, -0.024123296, 0.13549282, -0.5336459, -0.5837116, -0.100309014, -0.010451147, -0.3742418, 0.14848652, -0.5090955, 0.2286084, -0.012008002, 0.09859363, -0.6578047, -0.69756573, -0.14424339, 0.09321785, -0.3866779, 0.15382473, -0.43255755, 0.14744338, 0.06525209, 0.15979499, -0.5353625, -0.5663505, -0.24566162, -0.0500776, -0.33756825, 0.117607825, -0.58778566, 0.16502716, -0.056974243, 0.20813355, -0.5023941, -0.5188396, -0.21834627, -0.040024627, -0.4293603, 0.10202699, -0.55978787, 0.11460471, 0.008478459, 0.23386888, -0.4927632, -0.38095063, -0.27400154, 0.08978222, -0.37054715, 0.012576181, -0.46949884, 0.11496281, 0.029860424, 0.28316143, -0.39961138, -0.2101164, -0.32707837, -0.069870345, -0.28049487, -0.088548146, -0.18821889, -0.10369402, -0.088596836, 0.40079284, -0.27924064, -0.14350997, -0.2117314, -0.11822721, -0.35714182, 0.10061724, -0.2615594, -0.023747515, -0.33906683, 0.40519533, -0.2772315, -0.16314535, -0.20308635, -0.18990943, -0.20509872, 0.14354765, -0.2245569, -0.10758604, -0.5144181, 0.097893596, -0.15354566, -0.20090584, -0.27151147, -0.25544494, -0.02606833, 0.11486584, -0.21090057, -0.2580073, -0.13844423, 0.14688073, -0.074535385, -0.18227991, -0.1557831, -0.25980392, -0.109595105, 0.20497794, -0.049060535, -0.08728356, -0.24047248, -0.09341384, -0.0066151246, -0.10317408, 0.06334105, -0.13485716, -0.045633227, -0.10261843, -0.06279894, -0.058204416, -0.11323568, 0.04010992, 0.028381696, 0.044724997, 0.1358632, -0.018872418, -0.14294118, -0.031996887, -0.081230104, 0.025401862, -0.079995975, -0.149544, 0.010660589, 0.05115927, 0.057914697, -0.05024515, 0.071405135, 0.07488587, -0.009408124, 0.040365584, -0.014465809, 0.08251957, -0.0037003309, -0.01906114, 0.07982778, -0.054606423, 0.058650233, -0.052703757, 0.00080677867, -0.059867118, 0.01472602, 0.0666864, 0.08666975, 0.039270945, 0.049405925, -0.032108847, -0.008280776, -0.014778353, 0.007463239, -0.08189453, 0.010704547, -0.038846526, 0.031865135, -0.040466767, -0.052091733, 0.04118211, -0.023697145, 0.051363684, 0.051144786, -0.030139633, 0.06751711, 0.047058232, 0.052265193, -0.014259231, -0.09110223, -0.08229698, -0.03533435, -0.052118592, 0.007397483, -0.1260654, -0.14929399, 0.1380794, -0.17008847, -0.20052138, -0.09236144, -0.16888447, -0.0034243087, -0.17956853, -0.08727854, -0.1768433, -0.15887418, 0.16494225, -0.19488394, -0.2572666, -0.12527603, 0.011057271, -0.1623017, -0.25740778, 0.017938232, -0.028327104, -0.34778714, 0.29462487, -0.16813281, -0.1710328, -0.27369326, 0.049223963, -0.2465617, -0.3670239, -0.027205762, -0.039918106, -0.38584045, 0.3468805, -0.19097884, -0.3029397, -0.28485525, -0.052632373, -0.5467335, -0.3857965, -0.09291613, 0.03127816, -0.14582193, 0.25259346, -0.44158974, -0.2891048, -0.38479817, -0.06962842, -0.55288106, -0.36139542, -0.16744731, 0.14448716, -0.29055578, 0.23653053, -0.57145005, -0.27643538, -0.3968067, -0.15571624, -0.70988, -0.23474981, -0.04852524, 0.2136805, -0.4028379, 0.32044333, -0.58097607, -0.3489171, -0.34643543, -0.038982898, -0.5743498, -0.0850241, -0.05841154, 0.22868092, -0.36818117, 0.19110934, -0.56206787, -0.36919874, -0.34512645, -0.15127544, -0.7057328, 0.0055245575, -0.119278125, 0.1164871, -0.40057734, 0.27171907, -0.41472685, -0.5434676, -0.4809162, -0.17104855, -0.71594507, 0.034941945, -0.2609513, 0.08420444, -0.39501697, 0.26230323, -0.38344598, -0.44944233, -0.49515384, -0.0720241, -0.8051124, -0.06653522, -0.16218957, 0.23618981, -0.46871656, 0.36196744, -0.3776509, -0.48249456, -0.56310517, -0.21574187, -0.9692016, -0.11113841, -0.18121563, 0.22456165, -0.41608906, 0.34973842, -0.45860106, -0.23277754, -0.36653084, -0.122827604, -0.706097, 0.007606013, -0.28949875, 0.2444643, -0.76789373, 0.19847691, -0.4596534, -0.3515049, -0.4966802, -0.0973295, -0.85379434, -0.07369682, -0.27532604, 0.31825384, -0.73160297, 0.216766, -0.30090427, -0.39546475, -0.36448982, 0.007426446, -0.806567, -0.13430515, -0.24581462, 0.30138716, -0.49335364, 0.25114065, -0.40826026, -0.13688171, -0.5575976, -0.009929647, -0.7622155, -0.20084733, -0.29871467, 0.36218283, -0.3158953, 0.18727274, -0.14974472, -0.1627102, -0.44207472, 0.015877068, -0.52615917, -0.16267596, -0.17860682, 0.2486091, -0.494499, 0.25745583, -0.32121488, -0.15187217, -0.3098859, -0.09298772, -0.5818162, 0.01658276, -0.103213705, 0.05033822, -0.40976557, 0.31034094, -0.17232865, -0.057340767, -0.34648347, -0.11968507, -0.43950662, 0.09835809, -0.09676349, 0.09377422, -0.26377058, 0.109096885, -0.15809983, -0.11959562, -0.20307828, -0.13810627, -0.26731583, -0.025130106, -0.057023976, 0.067165576, -0.15141498, 0.0869241, -0.053284284, -0.094852224, -0.11458368, -0.21466967, -0.12570058, -0.123937465, -0.085127056, -0.0015107734, -0.08481314, 0.14455453, -0.09775941, 0.048125196, 0.0019948771, 0.0016046035, -0.04742453, -0.11946053, -0.03428689, -0.12109851, -0.15097338, 0.060281295, -0.08168707, -0.011391316, -0.05000036, 0.055595018, 0.037256517, -0.0877808, -0.013253877, 0.018831791, -0.024873404, -0.05656872, 0.042570435, -0.06333953, -0.037199907, -0.040875163, 0.066243745, 0.020832546, -0.043411653, 0.026028745, 0.03700809, 0.03826443, 0.010742262, 0.058216147, 0.04983733, -0.07533486, -0.085794374, 0.005250953, -0.020778187, -0.0062615946, -0.05678061, -0.004427634, -0.041413467, 0.07982931, 0.04229986, -0.08110961, -0.018447869, 0.022565491, -0.0021041557, 0.010327011, -0.019230716, -0.08469281, -0.054788206, -0.008480281, -0.022743478, -0.06850411, 0.04186047, -0.060876347, -0.048807543, -0.06982679, -0.01756461, 0.0021606535, 0.064286895, 0.0141803175, 0.067374475, 0.04977358, 0.06856004, -0.020740896, -0.025037486, -0.00594151, 0.012172118, -0.04696776, -0.0654398, -0.06559099, 0.07608593, -0.047610253, 0.03578943, -0.040249914, 0.010725103, 0.07252521, 0.014844097, 0.022985332, -0.10765153, 0.009588986, -0.032942604, 0.029221434, 0.05099195, -0.0034760756, 0.022600813, -0.014390688, -0.02643077, -0.11636307, -0.12391507, 0.047074713, -0.041120548, -0.035958763, -0.068018824, -0.022576004, 0.040593237, 0.052439313, 0.0389501, -0.13655446, -0.073791966, -0.058960505, -0.065851696, -0.085015565, -0.13431028, -0.055648003, 0.012722052, 0.12733014, -0.13104953, -0.052552626, -0.15603846, 0.005276707, -0.06702154, -0.083039016, -0.07583375, -0.043736335, -0.036808956, 0.010375719, -0.070905715, -0.004177509, -0.08823865, -0.03629592, -0.043038197, 0.0057384535, -0.1922158, -0.018291555, -0.0028238336, 0.19574927, -0.1590693, 0.059986934, -0.106004514, -0.04606931, -0.07281728, -0.13606822, -0.26970634, -0.1183943, -0.06255497, 0.06488953, -0.11062955, -0.008670407, -0.058556978, -0.11551092, -0.07856687, -0.25836158, -0.2298396, -0.0120087825, -0.035988193, 0.25818577, -0.21198606, -0.054657005, -0.21262336, -0.1558462, -0.12280499, -0.3061298, -0.19361232, -0.03349837, -0.01439958, 0.06345864, -0.30207106, -0.014362357, -0.12983842, -0.18153818, -0.058496956, -0.20263167, -0.2653372, 0.074808076, -0.03187841, 0.16350119, -0.28115645, -0.112207085, -0.15146074, -0.15441044, -0.024655225, -0.31012034, -0.41744867, -0.040378824, -0.09601076, 0.4453918, -0.19149126, -0.29084748, -0.167579, -0.030564126, -0.048207138, -0.2748109, -0.34823504, -0.17768097, -0.10350224, 0.20784244, -0.25728694, -0.087584764, -0.21381661, -0.11070144, -0.14727585, -0.27664775, -0.26073277, -0.30788904, -0.12540786, 0.31250644, -0.25645903, -0.19345477, -0.24991815, -0.056351937, -0.19010368, -0.37309542, -0.2619764, -0.3351812, -0.07941891, 0.2664608, -0.2423284, -0.19451125, -0.18648128, -0.15957409, -0.025752516, -0.18675001, -0.3493116, -0.3587178, -0.06939131, 0.42178425, -0.27387932, -0.4006026, -0.1470614, -0.06260505, -0.16061938, -0.30633217, -0.37045085, -0.26910114, -0.06338414, 0.18076402, -0.25100952, -0.16733335, -0.04525441, -0.07997043, -0.17023464, -0.0782287, -0.25220168, -0.20252585, -0.12081269, 0.27150786, -0.24883342, -0.051425826, -0.029715799, -0.09482356, -0.22353035, -0.054978926, -0.14797367, -0.22995698, 0.004908636, 0.12861358, -0.0821238, -0.0064899293, -0.20489621, -0.06681913, -0.23908031, -0.18369244, -0.18419164, -0.14849766, -0.12947294, 0.08992479, -0.19942136, -0.129535, -0.09839998, -0.051908568, -0.019411052, -0.1412128, -0.14586276, -0.06961697, -0.034581374, 0.1294053, -0.059894998, -0.056355573, -0.14194821, -0.04423606, -0.007933454, -0.06489342, -0.14124496, -0.18032381, -0.007550017, 0.09857237, -0.020525053, -0.13629073, -0.029294696, -0.0386732, -0.021499187, 0.002478771, 0.0037023649, 0.008913964, -0.03176215, 0.079359464, -0.025619086, -0.06462617, -0.028823126, -0.018968016, 0.053284563, -0.036034323, 