float layer_weight[7840]={-0.0222594, -0.06747848, -0.025585737, 0.010746226, -0.021822423, -0.056361787, -0.07278241, 0.047771208, 0.032842368, -0.043954127, -0.07924542, 0.081662856, 0.08267825, 0.040134124, -0.013381787, 0.035892747, 0.03587608, -0.04371746, 0.01039283, -0.010194719, 0.033405624, 0.03357725, 0.066565074, -0.04774555, -0.01038193, 0.08175696, 0.036575966, 0.003976606, -0.0015941039, 0.055840544, 0.034328632, 0.032766715, -0.031211764, -0.081796296, 0.08059349, 0.08640667, 0.064017005, -0.008143887, -0.04792872, 0.02539488, 0.032156684, 0.06793248, -0.060896307, -0.02210752, 0.06112764, 0.030900173, -0.006787196, 0.02700492, 0.0065880194, 0.015813865, 0.060782827, 0.07394745, 0.07497611, 0.047451414, -0.03929503, -0.010339737, 0.080985285, 0.011234313, -0.07697462, -0.07548906, -0.08148537, -0.023816667, 0.06632552, -0.07223648, -0.06656057, -0.018806942, -0.060226418, 0.012894258, -0.06326983, -0.023447216, -0.011835851, 0.06355133, -0.08483347, 0.046796896, 0.03021358, -0.06949493, 0.06518776, -0.076831475, -0.00067038834, 0.0061558336, -0.05482891, 0.00825236, 0.06338533, 0.051109232, -0.05907526, 0.019890718, -0.02564783, 0.03675215, 0.08418953, 0.027776346, -0.075394034, -0.059834808, 0.02332019, 0.05205583, 0.005812578, 0.029205702, 0.07824928, -0.051118046, 0.080220155, 0.044377707, 0.0066941753, -0.052183256, -0.018838957, -0.0072366446, 0.07058538, -0.029121388, -0.08289205, -0.07963268, -0.038693406, -0.0756764, 0.06864489, -0.037757196, 0.0644001, -0.03799301, -0.02038262, 0.015891522, -0.006328061, -0.035591107, -0.065645434, -0.0473368, 0.06513102, -0.07872264, -0.111280166, 0.00048901903, -0.06982748, -0.12021859, -0.023737108, -0.06284369, -0.11311568, -0.037664443, -0.0049980185, 0.040389314, 0.048665397, 0.042539176, -0.14948443, -0.1152014, -0.008695469, -0.05515987, -0.11729211, -0.08528636, -0.03308662, -0.06352823, 0.096285895, 0.009577457, -0.04694051, -0.095048584, -0.11025601, 0.06470793, -0.08731488, 0.021399494, 0.02461527, 0.019979022, -0.054830134, 0.056099188, 0.062294092, -0.08012341, -0.00015627059, -0.01418581, 0.04542031, -0.016634947, 0.016199417, -0.064531974, 0.063150026, -0.008434854, -0.056267135, 0.016680524, 0.06043645, -0.07697637, 0.03668809, 0.04858931, 0.04266379, -0.007414803, 0.0004465282, 0.0013433471, -0.031020738, 0.009883605, 0.0073122755, -0.037530374, 0.036280707, -0.0608185, -0.030476775, -0.06261984, 0.06770147, 0.026393518, 0.07390047, 0.085121326, 0.03320612, 0.044758774, 0.024684966, 0.057169072, 0.018884636, 0.046245523, 0.072047465, 0.024884969, -0.032613494, 0.004852712, 0.036062114, 0.0676515, -0.039409578, -0.059432007, -0.063760266, -0.02195222, -0.08041283, 0.04399296, -0.045026526, -0.000364542, -0.024951808, 0.034793116, 0.003238216, -0.026560064, 0.01587917, -0.075264625, -0.058122464, 0.012737989, -0.025594361, 0.08617332, -0.023143068, 0.004094392, 0.0117837265, 0.062435232, 0.026157849, -0.05608991, -0.07051834, -0.024150021, 0.053246684, 0.0028319359, 0.083280094, -0.04868916, 0.0420041, 0.040857874, 0.050489165, -0.08057722, 0.0769166, 0.018540159, 0.07220978, 0.06039416, 0.008545421, -0.022303663, -0.071731135, -0.07187126, -0.078933686, 0.06951725, 0.07789556, -0.0399793, -0.0782775, 0.039271735, 0.022387587, -0.028573632, 0.084517084, -0.00747671, -0.035441406, -0.07059313, -0.02959279, 0.03335163, 0.05567064, -0.057430625, -0.058732852, 0.047875635, -0.022354633, -0.08633102, 0.086467095, 0.08609388, 0.00209935, 0.004563451, -0.04955327, 0.01427684, 0.067762814, 0.070848934, -0.06224011, -0.01001215, -0.072338946, -0.011384219, -0.06616724, 0.041761227, -0.0063653663, 0.004062824, -0.0046965033, 0.048484705, -0.04206317, -0.05892989, -0.027144235, 0.043640472, -0.014745459, 0.076091446, -0.061754033, 0.0025222972, -0.07141525, 0.080364786, 0.063703515, 0.015152201, 0.075426094, 0.019698568, 0.03244058, -0.051385675, -0.016514555, -0.018958673, -0.014807433, -0.0733877, 0.029308453, -0.055119336, -0.08507611, 0.056581773, -0.02942885, 0.06957964, 0.036270656, 0.06742949, 0.050930806, -0.08094027, -0.07630028, -0.0003405437, -0.086191244, 0.07440675, 0.07486788, -0.061212577, -0.040439326, 0.021211594, -0.022116825, -0.08329595, -0.08137871, -0.0098504275, 0.042845987, 0.02834889, -0.09235003, 0.07037764, -0.027160596, 0.06297325, 0.059996683, -0.029005107, 0.0004071631, 0.065261334, -0.04088084, -0.038087226, -0.02055548, 0.00066102826, -0.14887013, -0.0079140505, 0.1604031, 0.009009222, 0.061129432, -0.10521807, -0.047220357, -0.049954224, -0.07705808, -0.066896975, -0.15260838, 0.056756772, 0.14388107, -0.07876424, -0.07420055, -0.13318652, 0.03293807, -0.052512795, -0.05325713, -0.1008765, -0.22385286, 7.972739e-05, 0.20209076, -0.1319347, -0.1240284, -0.19344133, -0.103801854, -0.056069944, -0.006470121, -0.1528567, -0.18104254, -0.1867404, 0.21910635, -0.15092394, -0.15898477, -0.10336913, -0.11195298, -0.060619608, -0.02452268, -0.07687838, -0.23011963, -0.06755888, 0.20802297, -0.2005858, -0.07253523, -0.0855966, -0.06717289, -0.078894794, -0.18703555, -0.11353915, -0.2760197, -0.14772165, 0.18242818, -0.028482113, -0.17424299, -0.14438084, 0.05768312, -0.07250889, -0.23909195, -0.12935972, -0.30215248, -0.069678694, 0.25263143, -0.13940087, -0.120304964, -0.29809883, -0.008455591, -0.094067596, -0.26118898, -0.05415202, -0.44369993, -0.14302994, 0.18908803, -0.22389136, -0.1809828, -0.21479817, 0.08933686, -0.010766987, -0.1608254, -0.1480902, -0.33791825, -0.17278923, 0.25004184, -0.14487652, -0.06417649, -0.22016047, -0.08354804, 0.086371146, -0.107644185, -0.091048464, -0.0954565, -0.23372471, 0.033572454, -0.12922892, -0.11855101, -0.064048685, 0.0069800424, -0.015184594, -0.01049128, -0.105865926, -0.2589292, -0.22237429, 0.15257005, -0.1731107, -0.1746603, -0.2097848, 0.06375238, -0.097915255, 0.20357172, -0.28785932, -0.29028314, -0.22555883, 0.008628641, -0.045308895, -0.15305175, -0.2237692, 0.019286023, -0.18136698, 0.05341056, -0.096411675, -0.31480542, -0.20236993, 0.07539507, -0.102116324, -0.09862707, -0.12196248, -0.16172868, -0.10247653, -0.30218363, -0.1643619, -0.32717007, -0.06985024, 0.21519677, -0.14186531, -0.08788243, -0.2995946, -0.23235528, -0.09169326, -0.17378792, -0.13774693, -0.24436386, -0.18202254, 0.1657261, -0.16674344, -0.2797752, -0.14093912, -0.056385383, -0.018188857, -0.21509753, -0.19062214, -0.24582916, -0.16971153, 0.12755379, -0.023522379, -0.11358925, -0.16295746, -0.14212753, -0.061215725, -0.11768999, -0.05554117, -0.09474847, -0.16072406, 0.08475742, -0.10595954, -0.17311807, -0.18507086, 0.0010402063, -0.01524617, -0.0577625, -0.05503164, -0.15926656, -0.11302833, 0.16109562, -0.08945952, -0.22193323, -0.09022629, 0.00045196686, 0.004641686, -0.0538516, -0.04386459, -0.07244848, -0.03459058, 0.09426168, -0.0032894553, -0.101818115, -0.041251265, 0.013900444, 0.0457863, -0.0145575255, -0.05513996, 0.032546237, -0.080459476, 0.008042373, -0.03755423, -0.08276048, 0.07561866, 0.08007779, -0.024824802, 0.047723077, 0.07932191, 0.053829975, 0.05079093, -0.07021092, 0.0032090172, -0.055786118, -0.08673013, 0.033211797, 0.054038934, 0.061508887, 0.008673772, -0.03859691, -0.043908715, 0.036804378, 0.05919408, -0.0042966455, -0.011295572, -0.055702552, -0.08379699, 0.02425497, -0.044081133, 0.062255077, 0.0575129, -0.07109399, 0.02340877, -0.08418864, 0.08361865, 0.030820504, -0.08504906, 0.054599144, 0.057535626, 0.042965762, 0.052789845, -0.031641755, 0.0056558475, 0.04371298, -0.051783334, -0.060096342, -0.075557806, -0.03224941, 0.080092035, 0.06181469, 0.02992168, 0.0037653297, 0.06036704, -0.033683054, 0.053389274, 0.06456341, -0.08170729, 0.0143862385, -0.033978842, 0.06821237, 0.031902235, -0.055485807, -0.09180135, -0.04469403, 0.06365866, 0.07801686, 0.005554147, -0.043317325, -0.05731839, -0.05760091, -0.05675015, -0.045846406, 0.0057051936, -0.12295316, -0.08836202, -0.0013557434, 0.02042908, -0.02560155, 0.014611301, -0.19486308, -0.024451634, 0.099094786, -0.08199662, -0.083980344, -0.1581363, 0.00042330398, -0.02876178, -0.08843387, -0.010413414, -0.1303169, -0.045241047, 0.11990439, -0.005268143, -0.06915421, 0.009063379, -0.12639599, 0.039124884, -0.046422966, -0.1363378, -0.28931844, -0.08232987, 0.275069, 0.010690836, -0.10817201, 0.0059385104, -0.14209417, -0.2065252, -0.16803852, -0.25855735, -0.37256938, -0.043221615, 0.34587657, -0.11171682, -0.14703102, -0.12889796, -0.20985718, -0.27358177, -0.024002034, -0.23382308, -0.5034209, -0.24605498, 0.41386402, -0.22004355, -0.23511119, -0.12186216, -0.2635144, -0.24386749, 0.011439812, -0.4860693, -0.52132016, -0.23572987, 0.27216142, -0.24532843, -0.33413568, -0.31527722, -0.2648378, -0.17771788, 0.03308454, -0.08239276, -0.46199656, -0.21884975, 0.32781443, -0.19168237, -0.47366965, -0.239885, -0.19379044, -0.28880912, 0.1232, -0.049224112, -0.67922145, -0.23260626, 0.42805558, -0.2498226, -0.53712845, -0.4095254, -0.21416883, -0.046538953, 0.1390424, 0.011585093, -0.6512907, -0.42462367, 0.42684776, -0.30963027, -0.6186837, -0.43134513, -0.27727595, 0.09671291, -0.033033922, -0.051816665, -0.54767495, -0.58522147, 0.17910923, -0.30390683, -0.5502769, -0.5379425, -0.4458665, 0.14577398, 0.064691514, -0.16901734, -0.33499098, -0.5515467, 0.1921817, -0.16686082, -0.47292858, -0.45488375, -0.5755984, 0.25597942, 0.005925787, -0.16203447, -0.45513543, -0.3299261, 0.2602823, -0.28383213, -0.6198162, -0.4901489, -0.4288688, 0.1477277, 0.12211156, -0.116119586, -0.44733426, -0.05334133, 0.20104307, -0.25407135, -0.55549926, -0.5277266, -0.49327347, 0.0023423687, -0.0027862885, -0.16813536, -0.37346998, -0.051849507, 0.2523631, -0.22413166, -0.40205735, -0.37962195, -0.53008425, -0.013205753, -0.15147191, -0.09619798, -0.46189368, 0.0077788616, 0.16540931, -0.16992806, -0.1421017, -0.2893527, -0.41662866, -0.14161943, -0.21815918, -0.26226413, -0.29689696, -0.13114354, 0.20219626, -0.10162053, -0.28417698, -0.20147657, -0.41139403, -0.14881106, -0.2512558, -0.28685686, -0.3564783, -0.080240205, 0.30075824, -0.08966433, -0.2131649, -0.15845387, -0.29404575, -0.22982128, -0.10184145, -0.14865397, -0.18321921, -0.097394645, 0.29416698, 0.019011674, -0.1876134, -0.21463065, -0.104657315, -0.13360938, -0.25109532, -0.16941245, -0.13682705, -0.17606944, 0.34898913, -0.08385267, -0.2088601, -0.03774297, -0.2256342, -0.11795637, -0.15338477, -0.2558403, -0.39035428, -0.25841162, 0.32918692, -0.14995745, -0.18851757, -0.096925616, -0.18276171, -0.050256096, 0.0773886, -0.19366612, -0.24058472, -0.18474308, 0.019916525, -0.08268317, -0.16418302, -0.041873556, -0.111775525, -0.058703758, 0.13858582, -0.012475206, -0.050134894, -0.18003806, -0.029949889, -0.031148635, -0.1384448, -0.023087962, 0.051118083, 0.046662666, 0.026669376, 0.08272467, -0.07974403, -0.01075615, -0.08172178, 0.009138919, 0.06200125, 0.050493293, -0.02308017, -0.045878883, -0.07789196, 0.08187298, -0.0034918785, -0.08278034, -0.023670077, 0.01072707, -0.07888488, -0.0014916137, 0.022575483, 0.03533712, -0.062649496, 0.029250339, -0.0049790815, 0.069475435, 0.036551178, 0.044770055, 0.027876817, 0.05404059, -0.042898554, -0.032859214, -0.013456874, 0.04631584, 0.03574191, -0.05865565, -0.0627826, -0.029421948, -0.059538454, 0.052686594, -0.052320458, 0.0014380557, -0.090387434, -0.05786898, -0.08610318, -0.06805794, -0.0025144883, -0.0784205, -0.012861251, -0.05972394, -0.042687837, 0.01976562, -0.09698643, -0.017573005, -0.20364067, -0.09252831, 0.1754513, -0.16606872, -0.16296348, -0.20254411, -0.19855659, -0.0938467, -0.12566727, -0.13311659, -0.167122, -0.035940755, 0.0525426, -0.17783645, -0.22541912, -0.18258603, -0.07987887, -0.19262911, 0.009038128, 0.03664223, -0.1223509, -0.14481919, 0.15341195, -0.16513024, -0.34701395, -0.09174921, -0.16347383, -0.17247832, 0.03329637, 0.11284613, -0.16928628, -0.27028444, 0.2746673, -0.25271896, -0.20404382, -0.067131825, -0.20145957, -0.2014324, 0.052951995, 0.036913604, -0.32906407, -0.34611064, 0.18141448, -0.3000107, -0.30810937, -0.117245235, -0.10682365, -0.32228133, 0.056102596, 0.061398137, -0.40215454, -0.30929217, 0.17818019, -0.35534057, -0.3612322, -0.24912216, -0.27038473, -0.27243844, 0.28262427, 0.058739044, -0.5864152, -0.2636914, 0.14696111, -0.34938425, -0.32799625, -0.4567692, -0.13222499, -0.32576385, 0.22708192, -0.014465388, -0.4793433, -0.2214178, 0.13510016, -0.38603234, -0.2753787, -0.54183036, -0.12346954, -0.47124267, 0.20378873, 0.14858414, -0.6621311, -0.29904687, 0.18271656, -0.454537, -0.38139036, -0.56341124, -0.2040061, -0.2012215, 0.23823874, 0.24909796, -0.63783604, -0.17295577, 0.120798945, -0.33255687, -0.26982835, -0.6941524, -0.057198215, -0.104510635, 0.240884, 0.21846941, -0.72587883, -0.08791557, 0.10188262, -0.3368079, -0.25835675, -0.6614041, -0.02694045, -0.09203083, 0.12953508, 0.17302129, -0.4846356, -0.14583115, 0.2468845, -0.28671578, -0.307135, -0.71205837, -0.104739696, -0.06535294, 0.12761825, 0.21408953, -0.55699897, 0.03535754, 0.073646225, -0.43025008, -0.2718059, -0.7591339, -0.05413802, 0.05290317, 0.122234695, 0.15356694, -0.4201164, -0.027267545, 0.13782196, -0.33060563, -0.27268663, -0.7092705, -0.15706386, -0.21262151, 0.0503521, 0.17747878, -0.26371092, 0.05996894, 0.129149, -0.30754116, -0.22437596, -0.5495948, -0.30687127, -0.23499584, -0.077478774, 0.17308405, -0.37211633, 0.09136603, 0.2002826, -0.25881943, -0.11419979, -0.3375769, -0.28494602, -0.21095273, -0.177157, 0.108130135, -0.17404622, 0.09051694, 0.21170425, -0.20782171, -0.2961428, -0.4142027, -0.27890903, -0.25771675, -0.22936942, 0.09695996, -0.039302748, 0.10101171, 0.14292663, -0.2692904, -0.30305597, -0.37786797, -0.27899542, -0.21984147, -0.2481259, -0.14359531, 0.017098168, 0.22820473, 0.28855437, -0.14218605, -0.10672372, -0.3040636, -0.3526775, -0.38225535, -0.28998822, -0.31075615, -0.087719835, 0.122367464, 0.26953998, -0.25923187, -0.029051062, -0.26799875, -0.32775506, -0.45817748, -0.5225227, -0.3079604, -0.120914705, -0.07631267, 0.31128007, -0.18203829, 0.018232288, -0.15173307, -0.16957425, -0.35490048, -0.13548546, -0.28118214, -0.107409, -0.050709713, 0.19936, -0.10496164, -0.19431548, -0.21399586, -0.067879915, -0.15630017, 0.010319427, -0.0025249647, -0.13556704, 0.020841956, -0.012031759, -0.023422418, -0.07836216, -0.010121213, 0.024327978, -0.10706379, -0.1253096, -0.088687286, -0.10657866, 0.11976939, 0.099734806, -0.017586738, -0.058216427, 0.049338475, 0.06042915, 0.08486747, 0.029135793, 0.03558539, -0.055396892, -0.031316906, -0.020784073, 0.0033828393, 0.045959048, 0.060118683, 0.056017987, 0.005719207, 0.06976131, 0.0023498386, -0.033151757, 0.054605864, 0.04378306, 0.06327344, 0.015054375, 0.029807404, -0.080584876, 0.07514869, -0.11754493, 0.07049914, 0.025130186, -0.0739177, -0.00729562, 0.033593934, 0.033147056, 0.05360682, -0.035664957, 0.1135784, -0.04448008, -0.0026806279, 0.06548189, -0.15255843, -0.07837323, -0.032476105, -0.0095535815, 0.002669732, -0.0058630323, -0.029950853, -0.053235557, 0.033350196, -0.08560337, -0.04568404, -0.015990635, 0.009982434, -0.09630874, -0.13531369, -0.19327366, 0.06701548, -0.0664377, 0.116002776, 0.03986815, -0.29219976, 0.0729063, -0.0047030183, -0.21208611, -0.06645043, -0.18575567, 0.07934684, -0.014701494, 0.25409347, -0.016579386, -0.38050374, 0.04704215, -0.18453397, -0.29239628, -0.19415079, -0.19033188, -0.16020112, 0.104575455, 0.15881525, -0.21071926, -0.2643783, 0.07012228, -0.25805056, -0.4050211, -0.12054655, -0.16001315, -0.14284678, 0.029061483, 0.16810866, -0.21159475, -0.16414616, -0.02667361, -0.45794833, -0.24681605, -0.23741262, -0.13440736, -0.18338586, 0.11866642, 0.20790936, -0.16919369, -0.29746917, 0.06143002, -0.46112147, -0.02562288, -0.41685855, -0.028334545, -0.21680921, 0.18314523, 0.17116481, -0.32141477, -0.1432989, -0.021022743, -0.56351286, -0.117175676, -0.47623464, -0.10315428, -0.13882425, 0.16207148, 0.26115254, -0.3872469, -0.17706828, 0.068210535, -0.6542065, -0.0069435406, -0.41296798, 0.0390494, -0.18100476, 0.2579013, 0.14914182, -0.38741174, -0.07967045, -0.15485011, -0.4917384, 0.009449864, -0.40619853, -0.03568276, -0.08827155, 0.25738123, 0.23102884, -0.37014297, -0.057547275, -0.0949364, -0.4280321, 0.06311874, -0.4020954, -0.046801735, 0.060867563, 0.12862954, 0.2308912, -0.24878742, -0.18779413, -0.058069192, -0.43466932, 0.046377905, -0.298906, -0.078967474, 0.07046177, 0.21289025, 0.16433588, -0.23247339, -0.05682046, -0.08173435, -0.48402333, 0.17153618, -0.40639094, -0.00083845353, 0.08785866, 0.07762826, 0.097282216, -0.33104017, 0.04446856, 0.003708688, -0.4727544, 0.17069304, -0.42089292, -0.064373724, -0.025470044, 0.106255025, 0.13296677, -0.18461816, 0.10595855, 0.04106665, -0.57806677, 0.020182056, -0.54055107, 0.046827864, -0.055899907, 0.080903396, 0.07390872, -0.103809714, 0.17394204, 0.13620444, -0.5868291, 0.08421194, -0.48877168, -0.08870876, -0.09031785, 0.040048316, 0.03439678, -0.13348767, 0.13863398, 0.13107252, -0.6467509, -0.07081583, -0.43841136, -0.14180635, 0.12719943, -0.17440003, -0.016070899, 0.06372889, 0.025953379, 0.19103555, -0.4678934, -0.053040985, -0.47169694, -0.14089586, 0.11039598, -0.11354689, -0.104642175, 0.13993962, -0.10725143, 0.26982033, -0.53851885, -0.018505301, -0.51852995, -0.10936205, 0.11961968, -0.21147543, -0.2328958, 0.17939606, 0.064085975, 0.27113408, -0.18298562, -0.03005965, -0.7212267, -0.106166914, 0.059966892, -0.3552087, -0.21790999, 0.22931774, 0.07694175, 0.23080955, -0.35286185, -0.20000306, -0.66320586, -0.22423457, -0.06775879, -0.48401028, -0.52741456, 0.1249971, 0.061999638, 0.18353607, -0.27758572, -0.18981835, -0.47548804, -0.2164404, -0.3279916, -0.3891614, -0.5949891, 0.15059444, 0.27153337, 0.06078002, -0.12688354, -0.1049296, -0.3534361, -0.26670858, -0.2516343, -0.16698074, -0.18594755, -0.07440999, 0.12687927, 0.022954367, -0.13585334, 0.021508815, -0.083438136, -0.16710195, -0.18560614, -0.042544022, -0.114088394, -0.2072951, 0.059384264, -0.041529622, -0.037798073, 0.02480586, -0.17667574, -0.006455936, -0.05573711, -0.011109878, -0.068024516, -0.058725365, -0.19564502, 0.05781953, -0.015350475, -0.0120663205, -0.07248512, -0.06027303, 0.07592551, -0.019004911, -0.041395664, -0.06379183, 0.058078878, -0.0029343814, 0.07167076, -0.006314859, -0.029124994, -0.012382835, 0.07841059, -0.083346106, -0.058645263, -0.08049401, -0.05229144, -0.012094796, -0.06253602, -0.047126748, -0.025190856, -0.093411416, 0.08146522, 0.04453165, -0.00085296447, -0.059488658, -0.18333384, 0.057312652, -0.004760797, -0.119991936, -0.10747647, -0.028248865, 0.11578971, -0.014258424, 0.20606278, -0.06135526, -0.20646104, -0.22648071, -0.02896039, -0.20001736, -0.105889425, -0.16508959, 0.042404193, -0.0010081342, 0.24772224, -0.029513989, -0.4378744, -0.059170663, -0.08266372, -0.16802295, -0.14964347, -0.34084517, 0.09469563, 0.06875246, 0.27557132, 0.11263777, -0.40321395, -0.14646623, 0.042737674, -0.28913003, -0.2270354, -0.09849213, 0.035212662, 0.04778221, 0.31691882, 0.032245237, -0.26712927, -0.15614803, -0.05093201, -0.24484247, -0.36838806, -0.08926227, -0.24051197, 0.10241746, 0.12040621, -0.089248575, -0.20950665, -0.076861836, -0.019182771, -0.1034814, -0.5291872, 0.012343795, -0.26545706, 0.09567867, 0.093367435, -0.010867903, -0.16253754, -0.035137743, 0.027344465, -0.114521414, -0.3065987, -0.13378832, -0.1993678, 0.1493129, 0.14619163, -0.06128952, -0.098826356, 0.00216965, -0.03382444, -0.1280986, -0.3820146, -0.045609243, -0.16190061, 0.19112793, 0.11044256, -0.15629095, -0.03095371, -0.017057987, -0.17645502, -0.055866744, -0.13003655, 0.014182142, -0.1165738, 0.111807466, 0.08924255, -0.099384725, 0.01815162, -0.20127986, -0.24542376, 0.004220712, 0.03386226, -0.04583337, -0.06238412, 0.15723427, 0.104965806, -0.16292363, -0.07129278, -0.18538757, -0.18321054, 0.14358728, 0.027730392, 0.10943937, -0.018842481, 0.19136423, 0.08145237, -0.16026981, 0.019739712, -0.13309611, -0.19985227, 0.112312265, -0.04078605, 0.19690937, -0.049021006, 0.22260319, 0.021752428, -0.08631219, -0.10936965, -0.030756114, -0.35323676, 0.21750246, -0.14535391, 0.05355373, 0.021463674, 0.11913627, 0.04725043, -0.06918231, -0.11153363, -0.09300878, -0.34148318, 0.07819544, -0.17564607, 0.1180257, -0.0938908, 0.19270983, 0.12914899, 0.009489624, 0.020692147, -0.11889595, -0.30554715, 0.17977475, -0.3403103, 0.1576677, -0.18257354, 0.10692416, 0.03213099, -0.041352566, 0.099202, 0.07043514, -0.3920742, 0.101932734, -0.32508984, 0.07018736, -0.06842872, 0.052197866, -0.014177126, 0.068287, 0.053477626, 0.0824173, -0.3836408, 0.08912471, -0.3193608, 0.085765444, -0.020823058, 0.009891258, -0.020286974, 0.086493805, 0.113435954, 0.1132916, -0.5332464, 0.09410835, -0.27329272, -0.07272524, 0.019331075, -0.001052765, -0.083776556, 0.04994044, 0.12990539, 0.14870133, -0.5801202, 0.024122529, -0.28073424, 0.031392973, 0.20523179, -0.020884305, -0.15917489, 0.08520833, 0.13685703, 0.17728932, -0.46687335, 0.010567863, -0.3407267, -0.12986483, 0.13505542, -0.09844316, -0.2444464, 0.13242586, 0.14116502, 0.14855579, -0.44462338, -0.088427804, -0.57510734, -0.16807681, 0.05828221, -0.28666255, -0.3008116, 0.28929293, 0.13265464, 0.22492978, -0.5812487, -0.2916264, -0.817499, -0.3810543, -0.0053171907, -0.4445765, -0.3612978, 0.11907039, 0.22267109, 0.10724945, -0.42713824, -0.15214102, -0.5054354, -0.5139595, -0.52041155, -0.16830876, -0.43561307, -0.06271418, 0.3547851, -0.08718808, -0.16374017, 0.10508507, -0.43633574, -0.27631018, -0.23628065, -0.21011917, -0.1550008, -0.23780967, 0.21578178, 0.022123842, -0.22530855, -0.052780308, -0.1252587, -0.04319728, -0.022614913, -0.046327345, -0.14663438, -0.16462806, 0.11371144, 0.108753115, -0.1370469, -0.0039503984, -0.071619175, -0.07220457, 0.0068411008, -0.014261477, 0.042286195, 0.05485048, -0.036099546, -0.06255132, -0.008230247, 0.028626569, 0.061416306, 0.004060757, -0.044974975, -0.055116035, 0.13302922, 0.046671063, -0.10055175, 0.0681056, 0.021047104, -0.05216442, -0.10293499, -0.2219443, -0.23569371, 0.025883486, -0.012103463, -0.13119894, 0.0426354, 0.011055568, 0.097695045, -0.27899465, -0.22782439, -0.16147164, -0.0020133427, 0.016203465, 0.09289724, -0.11494277, -0.22625186, -0.35126594, 0.14513479, -0.19880682, -0.18398233, -0.25586632, 0.045267083, 0.04292949, 0.22385746, 0.011804924, -0.27513158, -0.117871284, -0.044228178, -0.2311778, -0.37536842, -0.17717443, -0.073214315, 0.050070606, 0.13577962, 0.061574183, -0.21077414, -0.16987057, 0.1437008, -0.17477652, -0.48034823, -0.095470026, -0.12234755, 0.16813895, 0.17257571, 0.05648369, -0.20603411, -0.2148735, 0.1970732, -0.21435562, -0.3450313, -0.15018484, -0.22427455, 0.087276004, 0.04985522, -0.02480688, -0.08750072, -0.111346506, 0.047136564, -0.18875471, -0.35161227, -0.18226764, -0.34924847, 0.07859332, 0.061018284, -0.05885728, -0.06756004, -0.020683208, 0.18775061, -0.050595276, -0.22667073, -0.14934087, -0.4197188, 0.059030905, 0.15114765, -0.03275944, 0.03486728, -0.14559571, 0.17157914, -0.122253664, -0.16508518, -0.062383655, -0.25447828, 0.032135174, 0.09037995, -0.10666742, -0.03091486, -0.22813891, 0.086192325, -0.021923322, -0.026747143, -0.016739327, -0.17366739, 0.08762834, 0.13369964, -0.19670197, 0.054745644, -0.12037528, 0.18036067, 0.030282974, 0.08124661, -0.0015314817, -0.090607956, 0.055914924, 0.0847574, -0.28503317, -0.018386485, -0.085461, -0.024932485, 0.027383137, 0.1102582, 0.09429613, -0.07440783, 0.036236487, 0.115585245, -0.34102377, 0.0070436727, -0.14850545, -0.08115205, 0.06639273, 0.138332, 0.13594045, -0.2288869, 0.038842194, 0.14136863, -0.37367946, 0.058357663, -0.1697172, -0.12839216, -0.0032551987, 0.22325364, 0.07086353, -0.19168511, 0.1371483, 0.155137, -0.32995445, -0.051996257, -0.10452413, -0.13495034, 0.14651248, 0.2108355, 0.067537904, -0.32067335, 0.11681562, 0.042953394, -0.2990314, 0.027742293, -0.09160619, -0.03860682, 0.11877258, 0.21456617, 0.2065527, -0.20300952, 0.050328825, 0.05640687, -0.26548293, 0.007159368, -0.13891183, -0.14944427, 0.05306894, 0.08676373, 0.14685981, -0.10896695, 0.047461137, 0.02502944, -0.18582289, 0.09007881, -0.15730819, -0.10407478, -0.01874437, 0.13599235, 0.12096934, -0.031534515, -0.08911512, -0.08631467, -0.10921, 0.084846035, -0.002953454, -0.09060806, 0.018580362, 0.037959494, -0.024943264, 0.005162445, -0.11217329, -0.047770306, -0.08352875, 0.02774071, -0.07063057, -0.15424867, -0.0027340287, -0.13974606, 0.112351365, -0.011336225, -0.13099323, -0.0180534, -0.008657002, 0.09471551, 0.023862993, -0.09466068, 0.030830225, -0.11838619, 0.14038186, 0.08591569, -0.13526769, -0.17540002, 0.15314725, 0.086400196, 0.07940439, -0.1827679, -0.12612174, -0.38695234, -0.13713132, -0.008512246, -0.3785665, -0.3303926, 0.27210256, 0.22426757, 0.13643941, -0.38119817, 0.075765714, -0.49608538, -0.49407136, -0.21113116, -0.44081524, -0.37038133, 0.109917566, 0.48401573, 0.016813124, -0.40235353, -0.0037468711, -0.5921181, -0.60350806, -0.5797794, -0.31246385, -0.4964071, -0.07426217, 0.4736673, -0.08711701, -0.5220155, 0.12374354, -0.38865298, -0.30611494, -0.29296225, -0.19123696, -0.1883712, 0.030044978, 0.26695848, -0.19192447, -0.21627747, -0.055884976, -0.295909, -0.10795016, -0.053521466, -0.11381193, -0.0429463, -0.13494223, 0.090801105, 0.09330062, -0.05430895, -0.029871907, -0.011634005, 0.02217983, 0.05298757, -0.039741352, 0.021297425, 0.07910626, -0.057841543, 0.02870521, 0.06440487, 0.03277407, -0.040401883, -0.22009309, -0.14609669, -0.21347767, 0.07130202, -0.051951077, -0.22487472, -0.037412744, 0.04282498, -0.16575909, -0.24751377, -0.09802301, -0.14138354, -0.014042683, -0.061182845, -0.21436943, -0.18883775, -0.16599941, 0.1268552, -0.2375718, -0.18727475, -0.20685369, -0.15400796, 0.11855312, 0.081012234, -0.1282661, -0.46555692, -0.3282475, 0.21803792, -0.34642243, -0.3845536, -0.32259622, -0.02580796, 0.13980736, 0.18564071, 0.05906874, -0.52876866, -0.15040568, 0.030818045, -0.15732764, -0.6105069, -0.15245414, -0.2215351, 0.100878686, 0.23685494, 0.061039787, -0.2665774, -0.12595752, 0.15110135, -0.05502399, -0.53077424, -0.038689446, -0.32685143, 0.05164029, 0.09591625, -0.06502196, -0.08261132, -0.20552264, 0.14453962, -0.08545841, -0.3661275, -0.107014015, -0.2385905, 0.0557392, 0.07059365, 0.034524057, -0.0519513, -0.07147352, 0.20513566, 0.0041595, -0.28179488, -0.21593449, -0.3678189, 0.065937, 0.101096846, -0.08328211, 0.114767514, -0.15726602, 0.16354162, 0.056323897, -0.14925425, 0.013527349, -0.26289406, -0.00952847, 0.10230947, -0.01689968, 0.07580609, -0.12133664, 0.19736655, 0.0350613, -0.1452216, -0.01839027, -0.2241713, 0.08167198, -0.0072413213, -0.18008512, 0.121454, -0.14008576, 0.24629746, 0.02790258, 0.0063694846, 0.028736645, -0.19721715, 0.09040392, 0.09375059, -0.217327, 0.056125134, -0.11149164, 0.24912398, 0.011234622, -0.044125345, -0.03299506, -0.19123124, -0.014495467, 0.033559028, -0.31811634, 0.04395012, -0.15195678, 0.10985051, 0.004600486, 0.18276125, 0.12242093, -0.09102369, 0.077326834, 0.1219051, -0.3456478, 0.031232338, -0.19194233, 0.077632286, -0.059302043, 0.27906963, 0.10077255, -0.035924878, 0.09869248, 0.089218386, -0.36059135, -0.02893061, -0.12851574, -0.041661892, -0.051293503, 0.40751058, 0.16292813, -0.22648405, -0.03904763, 0.20818563, -0.43482873, -0.13257957, -0.124367945, 0.0039914823, 0.060969543, 0.41991413, 0.082841866, -0.15546599, -0.07314865, 0.07649307, -0.45474347, 0.015666751, -0.23421328, 0.14098203, 0.049565952, 0.317313, 0.2734988, -0.10876955, -0.07405689, 0.037183102, -0.18211378, 0.042598218, -0.14830884, 0.109799266, -0.049620215, 0.2227198, 0.078116074, -0.16756357, -0.069068395, 0.09321364, -0.259511, 0.09761484, -0.27996686, 0.11532766, 0.10175862, 0.03988968, 0.13924466, -0.10248183, 0.031280532, 0.059110507, -0.057260036, 0.040211316, -0.20107768, 0.05918334, -0.03374987, -0.024635062, 0.06814552, 0.06108495, -0.057830382, 0.04810535, -0.1270011, 0.17243846, -0.2216809, 0.015130052, 0.10713326, -0.05623257, 0.021277133, -0.09207342, -0.01382614, -0.10142915, -0.020443078, 0.045741376, -0.10748993, -0.03829334, 0.023095239, -0.08322538, 0.12997939, -0.093812115, -0.061372627, -0.16896918, 0.15700091, 0.170685, -0.122398034, 0.011230547, 0.018940274, -0.22884504, 0.10909691, -0.21647817, -0.32455447, -0.23370753, 0.15710084, 0.28998694, -0.23998065, -0.11710113, 0.1577881, -0.38949758, -0.2466858, -0.4344958, -0.53752756, -0.50605315, 0.080948815, 0.5099887, 0.00782229, -0.29837403, 0.113349296, -0.45621502, -0.5709384, -0.53266233, -0.23999095, -0.6884201, -0.015946554, 0.50017154, -0.22158147, -0.3977124, -0.0653612, -0.40086666, -0.4972424, -0.21494001, -0.21699068, -0.18847282, -0.054921027, 0.22330399, -0.11136286, -0.22241445, 0.016609577, -0.4329473, -0.057846565, -0.07163124, -0.06311901, -0.04247229, -0.1959974, 0.10072969, 0.028866222, -0.09836502, -0.05320627, -0.11086304, 0.068407394, -0.07609172, -0.12233578, -0.08431504, -0.028127344, -0.07468553, -0.13738564, -0.043233138, -0.017098794, -0.06742058, -0.14843495, -0.17437474, -0.035736304, -0.1426714, -0.07502424, -0.10530569, -0.0407872, 0.17768255, -0.24296556, -0.24015129, -0.09889749, -0.11437907, 0.019718839, -0.1844078, -0.07399688, -0.1680985, -0.1700362, 0.26694924, -0.23880446, -0.33934224, -0.13104765, -0.07051093, -0.06840156, 0.07242178, -0.109991, -0.51359975, -0.35676336, 0.20499057, -0.12726147, -0.5254719, -0.3276977, -0.06308914, 0.18478486, 0.17967896, -0.015390582, -0.6833447, -0.034752347, 0.15097491, -0.13701552, -0.4261736, -0.19194923, -0.31149408, 0.0832459, 0.13628495, -0.013423537, -0.33803982, -0.23568702, 0.18348524, -0.03069149, -0.3472961, -0.040045172, -0.35419768, 0.09178275, 0.11114538, -0.02184242, -0.15937373, -0.13837105, 0.21958801, 0.12223208, -0.22638622, -0.0514752, -0.16380203, 0.10179818, 0.027998624, -0.04251059, -0.14531097, -0.12444795, 0.2795574, 0.053390477, -0.2538604, -0.04988355, -0.3492736, 0.07504338, 0.038314253, -0.11802318, 0.04799704, -0.062638156, 0.17798215, 0.057676475, 0.007696687, -0.009945286, -0.3199926, 0.095554866, -0.03657978, -0.0840883, 0.05597213, -0.059138007, 0.19155234, 0.0698098, -0.04529092, -0.00080656237, -0.30451062, 0.061407015, 0.03383626, -0.07167894, 0.038122978, -0.16888846, 0.07086984, 0.018784782, -0.10110702, 0.05429693, -0.183051, 0.05193166, 0.0118278945, -0.23013407, 0.114691146, -0.098696455, 0.18386248, -0.005833108, -0.07898183, -0.020259019, -0.14442325, 0.043007072, -0.046390913, -0.22976163, -0.003074287, -0.12454292, 0.21449463, -0.002632334, -0.04375083, 0.11623346, -0.10572488, 0.030707682, 0.043305535, -0.31897753, -0.04978441, -0.112617806, 0.11984181, 0.024933033, 0.047017388, 0.049558565, -0.008350013, 0.10471266, 0.13773458, -0.3499537, -0.07523551, -0.2087455, 0.1553166, -0.071966074, 0.17751467, 0.11507097, -0.028537842, 0.09646624, 0.124803, -0.4666218, -0.15607524, -0.22458707, 0.12111257, -0.112318926, 0.19970885, 0.26690683, 0.0015789183, 0.039699677, 0.13676183, -0.3672795, -0.13587135, -0.31180465, 0.28743532, 0.012235006, 0.12074639, 0.28024003, -0.03785982, 0.040356673, 0.15794215, -0.13625418, -0.11041642, -0.25828367, 0.21069553, -0.05735203, 0.043786988, 0.2364163, 0.0046138046, -0.08585977, 0.067162976, -0.11147325, -0.052330587, -0.4417773, 0.22779082, 0.018974006, 0.042372886, 0.09015507, -0.045334846, 0.0007257716, 0.16208069, -0.06289912, 0.11240928, -0.35646704, 0.19023472, 0.149232, -0.05963822, 0.079646274, -0.10730609, -0.0027703205, 0.09965459, -0.11069045, 0.13667955, -0.3427629, 0.13788946, 0.064992465, -0.038831227, -0.00753675, -0.20687257, -0.017599668, 0.029186836, 0.015702523, 0.16971605, -0.1795809, -0.020273486, 0.09043316, -0.0015389656, 0.06815315, -0.1742541, -0.06296567, 0.11913689, -0.03635718, 0.21129417, -0.3326179, 0.03535336, 0.1636437, -0.22146063, 0.1401694, -0.3483706, -0.17408842, -0.36257994, 0.037061144, 0.36118972, -0.37934256, -0.0974946, 0.118270665, -0.2583613, -0.07839067, -0.6348646, -0.6969378, -0.8025691, -0.1171137, 0.6152029, -0.5253412, -0.2903565, 0.0762827, -0.4160355, -0.76753825, -0.5654056, -0.6442871, -0.7071312, -0.09756123, 0.68263465, -0.5514079, -0.51617837, 0.06723029, -0.42655686, -0.54785335, -0.32007742, -0.4181619, -0.2578805, -0.19767979, 0.3226364, -0.3644042, -0.3119702, 0.14016993, -0.40421188, -0.11903199, -0.02261176, -0.15082471, -0.14271633, -0.09982738, 0.1438167, -0.17640606, -0.068144366, 0.114391014, -0.08680462, -0.13736555, -0.061621383, 0.003930743, -0.110585235, -0.08513989, -0.1268951, 0.018429443, 0.015630556, -0.076925874, -0.012240886, -0.09727477, 0.018830085, -0.28746578, -0.14457098, -0.095830485, -0.23064649, -0.12460503, 0.24635427, -0.13118759, -0.18082671, 0.10880227, -0.10181014, -0.07078857, 0.05999746, -0.18637411, -0.09770221, -0.20180179, 0.21099514, -0.22950894, -0.34582302, -0.13236903, -0.15079477, 0.052637532, 0.105070956, -0.25764576, -0.46089363, -0.29179808, 0.27334297, -0.15445912, -0.27027962, -0.14459811, -0.18520719, 0.13569643, 0.22443731, -0.21220002, -0.4675517, -0.058377005, 0.2492873, -0.11011861, -0.38422945, -0.0940832, -0.37594974, 0.108070716, 0.17927325, -0.09289957, -0.23223184, -0.25279525, 0.13372229, 0.002980168, -0.11029483, -0.112423256, -0.29357892, 0.101878434, 0.16245736, -0.17948116, -0.09065191, -0.19845387, 0.16875815, 0.041818243, 0.06382661, -0.116511665, -0.085212566, -0.06658229, 0.079331204, -0.024829129, -0.04916991, -0.0347579, 0.031850602, 0.13584693, -0.06591442, -0.10743483, -0.25118873, -0.07489063, -0.06534399, -0.1149823, 0.15559708, -0.060811147, 0.07832012, 0.11206841, -0.04205897, -0.057060234, -0.23579748, 0.08326739, -0.10875247, -0.06695326, 0.032441124, -0.16104035, -0.007329858, 0.20057458, -0.08751372, 0.047871735, -0.16332997, 0.11992645, -0.20880893, -0.14276099, 0.12466535, -0.1730696, -0.03396753, 0.06303481, -0.016344933, 0.0026559327, -0.030140098, 0.07569513, -0.30870992, -0.08210185, 0.2537554, -0.14290372, 0.13498734, 0.13508745, 0.053609237, -0.04132309, -0.10189372, 0.0058294977, -0.2854079, -0.08482354, 0.07099909, -0.22883739, 0.103711955, 0.07541901, 0.031969465, 0.03391928, 0.10838819, -0.0062177298, -0.087186836, -0.15095682, -0.006719058, -0.24652202, 0.101200685, -0.024651831, -0.0020140372, 0.10296649, 0.20137385, 0.07898007, 0.1757364, -0.48377138, -0.12925752, -0.1246325, 0.17591785, -0.18583485, 0.08905959, 0.041604392, 0.37148795, 0.119713835, 0.19510774, -0.37875536, -0.25349793, -0.28048295, 0.23442395, -0.25443378, 0.034157254, 0.14477181, 0.07955314, 0.05537971, 0.14685684, -0.030763239, -0.27925894, -0.44564417, 0.29590765, -0.16339514, -0.023937503, 0.17784305, -0.05268905, 0.0060096066, 0.124777995, -0.0900934, -0.18216456, -0.5084385, 0.32770082, -0.027674884, -0.019714823, 0.26545617, -0.00055524294, 0.055420134, 0.08561549, 0.012569163, -0.087856546, -0.4875134, 0.24324831, -0.04587975, -0.08296069, 0.20803453, -0.18466097, 0.03425864, 0.084071, -0.06413647, -0.093657196, -0.48062113, 0.09027621, 0.08482961, -0.09945898, 0.06477895, -0.27791533, -0.0047630128, 0.23595665, -0.06987373, -0.036284357, -0.2903101, 0.13774149, 0.054176126, -0.06880523, 0.0205665, -0.22185126, -0.008975277, 0.14070214, -0.04645196, 0.1969407, -0.14568837, 0.018446555, 0.13533567, -0.13104288, 0.09775527, -0.45293096, -0.102168985, 0.0419619, -0.15146895, 0.13961828, -0.33413896, 0.01071423, 0.078369096, -0.12875687, 0.18722203, -0.52671194, -0.09081493, -0.25277132, -0.19579811, 0.42692062, -0.23260202, -0.14871901, 0.13018273, -0.39223078, 0.1227136, -0.59322995, -0.820353, -1.0415831, -0.43448633, 0.8163916, -0.4335553, -0.30095875, -0.0851866, -0.51349884, -0.59129184, -0.52883846, -0.55870205, -0.62658596, -0.28193542, 0.7807755, -0.68055594, -0.37173852, -0.14786685, -0.6013723, -0.6097885, -0.31229988, -0.24226554, -0.3847607, -0.3522488, 0.3937279, -0.49531358, -0.19694164, 0.12823297, -0.47431225, -0.2204837, -0.14572656, -0.11777226, -0.13473673, -0.13032542, 0.13223864, -0.1422319, -0.03663025, -0.1118302, -0.21791027, -0.06218358, -0.0032430608, 0.021480294, -0.12044174, -0.057010993, -0.07794207, -0.13656946, 0.032973696, -0.0024160556, -0.17423843, -0.0068968167, 0.06597629, -0.06336555, -0.14625458, -0.1633335, -0.01693879, 0.060734667, 0.1939478, -0.12973155, -0.18412197, 0.034822743, -0.012302378, 0.051789988, 0.03866504, -0.16388157, -0.11997068, -0.11635929, 0.2381197, -0.32513937, -0.49388233, -0.011840856, -0.20576306, 0.1372226, 0.18536392, -0.3283042, -0.39308435, -0.35961276, 0.26437497, -0.21951422, -0.3506761, -0.1436485, -0.24389675, -0.049341954, 0.09452003, -0.1441252, -0.31122878, -0.24861367, 0.20665137, 0.054627288, -0.22516005, -0.026926612, -0.4312233, 0.16125101, -0.080599226, -0.22287007, -0.1318005, -0.12760596, 0.22900523, 0.102712214, -0.02440453, -0.078448266, -0.3382565, 0.059168804, -0.076039314, -0.22493935, 0.031073144, -0.053832784, -0.011894408, 0.18223935, 0.14790833, -0.079066366, -0.15582144, -0.18027562, -0.092033066, -0.10567434, 0.097731136, -0.06423171, 0.037120026, 0.09146866, 0.0116630215, -0.035894632, -0.18030258, -0.07793411, -0.30410612, 0.034200206, 0.19731767, 0.021659376, -0.010135862, 0.23005705, 0.11453871, 0.013873172, -0.2494349, -0.20743787, -0.33779618, 0.016645696, 0.1660833, -0.09367886, -0.03124073, 0.16942388, 0.10201915, -0.07510027, -0.127843, -0.1827643, -0.4837017, 0.07791764, 0.20578852, -0.0683096, -0.009742399, 0.1992431, 0.11341394, 0.0018462299, -0.13269112, -0.13935606, -0.42625734, 0.10215469, 0.19350539, -0.023665711, 0.007460541, 0.14166312, 0.09939594, 0.085646875, -0.08445761, -0.15629153, -0.35186043, 0.07043139, 0.20371696, -0.15453908, 0.011509291, 0.108516805, -0.006465429, 0.043332398, 0.12542287, -0.31407148, -0.08623523, -0.2741918, 0.1706158, -0.00067440205, 0.13547578, -0.014445399, -0.10086012, 0.004494999, 0.4696501, -0.086481296, 0.096837625, -0.59894425, -0.01783861, -0.2521508, 0.27318394, -0.114961945, -0.15308702, -0.15426458, 0.45905623, -0.13674283, 0.24508914, -0.1990733, -0.19497015, -0.388934, 0.42586574, -0.25309134, -0.104579166, -0.09067005, 0.25233018, -0.016909178, 0.13440329, -0.027114253, -0.20221692, -0.49458203, 0.41564262, -0.24439771, -0.13818213, 0.13064846, 0.0923501, 0.060139045, 0.17431837, 0.09664203, -0.3084753, -0.40152636, 0.27491018, -0.1415171, -0.003842218, 0.20902929, -0.18508056, 0.018785585, 0.075345896, -0.025155187, -0.34122282, -0.32097828, 0.21444285, -0.007318035, 0.063137755, 0.03125286, -0.1563031, 0.0025583275, 0.21817395, -0.0029695593, -0.23433901, -0.2837746, 0.126421, 0.08066177, -0.015164607, 0.08457718, -0.24897951, -0.018119859, 0.1738462, -0.14968158, -0.20143396, -0.13710032, 0.13798954, 0.043745086, -0.011953744, 0.06464545, -0.296654, -0.059853785, 0.12123408, -0.045621365, -0.021123795, -0.19263789, 0.14712018, 0.06809284, 0.050118137, 0.1015551, -0.46642205, -0.086253904, 0.06296233, -0.087973356, -0.011783677, -0.20122725, 0.06365507, 0.048375122, -0.15817018, 0.16552897, -0.56531286, -0.18157972, -0.21528251, -0.3137423, 0.28892493, -0.047031287, -0.15210421, 0.13986571, -0.17471135, 0.12827782, -0.74920505, -0.39678258, -0.86449236, -0.46553043, 0.80403644, -0.22721711, -0.37469152, -0.10048831, -0.3877628, -0.47749048, -0.24609111, -0.28065184, -0.33289292, -0.39533177, 0.9258211, -0.6630251, -0.3092945, -0.33323207, -0.4719403, -0.40632996, -0.1037193, -0.13132331, -0.25124234, -0.39175564, 0.5022622, -0.44334617, -0.18337263, -0.10840306, -0.3886493, -0.06650202, 0.0042128176, -0.049837083, -0.006137488, -0.062191084, 0.0838523, -0.14407168, 0.053184316, 0.109960966, -0.18260938, 0.04898538, 0.01598093, -0.060185894, 0.020597383, -0.03689889, -0.022945408, 0.054380547, 0.10543132, -0.030945167, -0.016417613, -0.0012190673, -0.0013261535, -0.102339976, -0.08834445, -0.20594078, -0.19045828, -0.11428278, 0.11304225, -0.17006788, -0.32863083, -0.14315403, -0.07759203, -0.19365938, -0.112835005, -0.2986873, -0.11308194, -0.05500321, 0.42929918, -0.3821013, -0.46688804, -0.11447142, -0.0405808, -0.12731345, 0.27434906, -0.33579156, -0.42194983, -0.32210684, 0.43759006, -0.20281275, -0.28266525, -0.32173994, 0.015612333, -0.06358592, 0.09442828, -0.26135954, -0.10207185, -0.21878456, 0.3182022, 0.11947988, -0.03262617, -0.12899563, -0.16650066, -0.16245028, -0.2031783, -0.13060561, -0.02632169, -0.052269403, 0.12237866, 0.06392472, 0.22654048, -0.02985949, -0.3119979, -0.2267069, -0.23716594, -0.037482694, 0.078781605, -0.08116331, -0.018175852, 0.20046873, 0.1412712, -0.03906835, -0.31194863, -0.33271784, -0.4226144, -0.006055698, 0.0659883, -0.001851511, 0.019770347, 0.18891317, 0.13912241, 0.022349501, -0.14401412, -0.38825542, -0.38640457, 0.11616257, 0.1521958, 0.046342824, 0.034286607, 0.22578727, 0.25173205, -0.0625689, -0.26957086, -0.3480415, -0.4181404, 0.1745081, 0.082464956, 0.02181364, 0.08129951, 0.14510117, 0.21790767, -0.08147444, -0.15845045, -0.5669085, -0.32069036, 0.16882041, 0.14184235, 0.008774993, 0.042396888, 0.1536038, 0.18380186, 0.013428959, -0.14966771, -0.5614543, -0.27921486, 0.21626222, 0.24586064, -0.060437962, -0.0049313223, 0.04698796, 0.23524055, -0.079897135, -0.08862756, -0.55669385, -0.1151911, 0.219056, 0.3244375, 0.07505489, -0.047452696, 0.09380129, -0.02754681, -0.046746146, 0.16341443, -0.6057466, 0.09305094, -0.31206495, 0.18300965, -0.045688223, -0.007809949, 0.27598467, -0.13062648, -0.39175788, 0.5635514, -0.4876301, 0.18051553, -0.5088894, 0.08222389, -0.22654884, 0.0851954, 0.10508525, -0.039567232, -0.38916495, 0.5151048, -0.28285322, 0.07725908, -0.098377496, -0.091779806, -0.3498326, 0.26679716, -0.085771665, 0.026545562, -0.3829834, 0.2635999, -0.13166542, 0.11341316, 0.24681625, -0.19926627, -0.32560307, 0.42168936, -0.15037343, 0.16119348, -0.13118665, -0.103200294, -0.19748823, 0.12142359, 0.157848, -0.22346734, -0.27328366, 0.26971397, -0.07870075, 0.24607518, 0.01576476, -0.10757181, -0.11854544, 0.11887922, -0.042023074, -0.2509726, -0.2690952, 0.3205631, -0.08405942, 0.20324714, 0.034985255, -0.17051552, 0.0050454168, 0.17490396, -0.027843902, -0.32771885, -0.18280248, 0.13563578, 0.0119536845, 0.21099348, 0.17218822, -0.23207416, 0.015408949, 0.041432574, -0.082976945, -0.49333587, -0.1338048, 0.12016815, 0.08643732, 0.33824486, 0.23340914, -0.21985593, -0.073372774, -0.15896092, -0.078250825, -0.4756643, -0.024360396, 0.14566447, 0.1416335, 0.24097706, 0.16210555, -0.3458209, -0.06046358, -0.17530032, -0.22070572, -0.47244117, 0.07599068, 0.031783108, 0.13551638, 0.12213277, 0.2967744, -0.23573887, -0.18118604, -0.26453233, -0.370656, -0.08247335, 0.15653168, -0.20312032, 0.20948738, -0.08797472, 0.15823065, -0.48697487, -0.11001594, -0.55710447, -0.53441614, 0.21630824, -0.05659389, -0.49715617, 0.11011933, -0.36812013, -0.2432549, -0.18593518, 0.10507752, -0.13613768, -0.42423812, 0.5766211, -0.42915782, -0.521503, -0.0010783904, -0.4776087, -0.36328274, -0.1370036, -0.071884446, -0.11616648, -0.25450283, 0.40919837, -0.48471895, -0.15078007, 0.17085977, -0.26530337, -0.07052732, 0.07162025, -0.12132493, -0.044269796, -0.19285175, 0.017605921, -0.09686349, -0.028499922, -0.007928209, -0.14498737, 0.061899886, -0.052641757, -0.083575465, -0.012977244, -0.03965936, -0.11863273, -0.03992835, 0.14698632, -0.121909566, -0.0685308, -0.003392849, -0.042241722, -0.015379384, -0.09673608, -0.22997198, -0.13005842, -0.1600634, 0.16565157, -0.06895218, -0.31883076, -0.09994686, -0.15481196, -0.15537317, -0.26678243, -0.37064207, -0.2514852, -0.163232, 0.41740125, -0.35233718, -0.48450515, -0.10038615, -0.046810824, -0.3279573, -0.021687102, -0.17762706, -0.13195676, -0.17683312, 0.3848064, -0.09921046, -0.19643071, -0.18083699, -0.018042998, -0.22314851, -0.031062879, -0.24523662, -0.0779654, -0.14711681, 0.2374623, 0.008353726, 0.13334939, 0.0008095859, -0.27304104, -0.31527865, -0.21927789, -0.049518432, 0.05652707, -0.066907726, 0.17404103, 0.10273644, 0.24793248, 0.06019643, -0.08450857, -0.6279198, -0.33185944, 0.048605334, 0.11968249, 0.12873675, -0.025312344, 0.06183461, 0.26995495, 0.036284737, -0.06655718, -0.7344909, -0.35912627, 0.17077364, 0.17253847, 0.18148997, 0.07289139, 0.083325796, 0.16477802, 0.012887482, -0.14460613, -0.471485, -0.29361665, 0.27757362, 0.050349806, 0.1662517, 0.117098756, 0.079712756, 0.15993813, -0.09501175, -0.14108947, -0.5672659, -0.10699745, 0.2633626, 0.033779863, 0.16918075, -0.030203205, 0.08784114, 0.16192438, -0.011652123, -0.32669976, -0.46294275, -0.14416954, 0.3333053, 0.14470921, 0.05264007, -0.11515395, -0.115086675, 0.14949106, 0.033103943, -0.35159567, -0.4581435, -0.03445209, 0.32751536, 0.21075296, 0.089962654, -0.17644793, -0.07576242, -0.0053623775, -0.05832144, -0.24298777, -0.46740016, 0.0051775523, 0.38948253, 0.28669706, 0.10127422, -0.3824375, 0.105544806, -0.15933566, -0.14348553, 0.17127806, -0.5388289, 0.08137657, -0.11912123, 0.2534165, 0.07038598, -0.49022818, 0.25080666, 0.004925781, -0.44451386, 0.6260082, -0.38941282, 0.2225744, -0.28177583, 0.034140963, -0.26695594, -0.15100317, 0.15336373, 0.18445145, -0.66066647, 0.47215265, -0.37582842, 0.08398511, 0.10587645, -0.14486651, -0.22905222, 0.106548436, 0.0501771, 0.15811302, -0.5508383, 0.15936445, -0.26143456, 0.07693663, 0.19375554, -0.35511732, -0.08275333, 0.25880042, -0.08019839, 0.16940552, -0.21441214, -0.029827196, -0.19493145, 0.086094595, 0.1239938, -0.32616878, -0.07974726, 0.24389298, -0.04993987, 0.22701092, -0.022188608, -0.10347363, -0.08719544, 0.049274214, 0.002396704, -0.2764839, -0.10718034, 0.18719192, 0.039610866, 0.29246578, 0.08772797, -0.21027608, 0.047159728, -0.018738566, -0.035514325, -0.29183254, -0.13859144, 0.008514216, 0.063322, 0.2529515, 0.027028443, -0.12572907, -0.055517316, -0.15558827, -0.026607197, -0.4045994, -0.053717, 0.05078503, 0.08929043, 0.33492747, 0.059520245, -0.04799843, -0.052606363, -0.32277238, 0.09161239, -0.5726714, 0.15097862, -0.07578543, 0.2817687, 0.20442025, 0.13684703, -0.16269815, -0.25648385, -0.38104945, -0.020328829, -0.74956685, 0.2583718, 0.03644207, 0.23023526, 0.13074474, 0.30662957, -0.16906199, -0.33781514, -0.46340758, -0.18230975, -0.81837344, 0.30956277, -0.119809546, 0.28823635, 0.1457796, 0.3503749, -0.29159266, 0.049536213, -0.3943092, -0.20961423, -0.5546724, 0.15549643, -0.33227938, 0.38559785, -0.50186497, -0.077774525, -0.20070742, 0.27482688, -0.06569742, -0.19931623, 0.0005374673, -0.15988545, -0.099222235, 0.08953736, -0.5760191, -0.22068322, -0.2854458, 0.23798853, -0.096254505, -0.14127944, 0.112569325, -0.29227018, 0.0747704, -0.03651795, -0.33396733, -0.09325134, -0.0069937687, 0.058811408, -0.030720172, -0.21437252, -0.14516343, -0.10582172, 0.14208792, -0.19953135, -0.058548924, 0.024833245, 0.0945917, -0.07221072, -0.032420263, -0.08375458, -0.0615526, -0.028532656, 0.041992836, 0.0014076171, -0.12457963, 0.09137142, -0.14162119, -0.12152429, -0.09379597, -0.12968446, -0.15220645, -0.05558447, 0.12042948, -0.12797257, -0.14155163, -0.030475367, -0.09090498, -0.14187936, -0.2826747, -0.20762664, -0.19027059, 0.013515016, 0.389226, -0.1989732, -0.38082263, -0.12209576, -0.010428421, -0.2487717, -0.022845533, -0.19372702, -0.048525743, -0.18060154, 0.31258518, -0.03599322, -0.0613779, -0.111350134, 0.017108576, -0.43930575, -0.20307726, -0.03905077, 0.035423078, -0.28298855, 0.21228048, -0.1358984, 0.26970935, 0.054070987, -0.20770831, -0.6281603, -0.2165236, 0.13082576, 0.15929739, 0.1089957, 0.124332935, -0.010172823, 0.23426872, 0.03509647, -0.1090963, -0.75574577, -0.3564122, 0.17821354, 0.04925993, 0.1865072, 0.02651559, -0.080304995, 0.088654436, 0.17173323, -0.08928867, -0.63085085, -0.3432418, 0.23722066, 0.01390956, 0.028007654, -0.05766812, -0.09702821, 0.15424427, 0.07881369, -0.09368997, -0.3537698, -0.16162081, 0.27880847, 0.034600336, 0.10075084, -0.06094929, -0.16241658, 0.123284206, 0.0037617085, -0.13491854, -0.2854763, -0.18116067, 0.18295251, 0.004156488, 0.02595952, -0.14145426, -0.074699625, 0.094683975, -0.011669955, -0.4247577, -0.30970243, -0.17857789, 0.3508095, 0.114716955, 0.10766048, -0.18378326, -0.15623799, 0.018718366, 0.041178986, -0.5107246, -0.2325319, -0.14921825, 0.45881313, 0.20837997, 0.11459584, -0.5322557, -0.000406367, -0.041867286, -0.07958704, -0.22598547, -0.15124466, 0.039587684, 0.2962058, 0.25719234, 0.051909264, -0.7262853, 0.18197401, -0.14365625, -0.4108011, 0.2830343, -0.13731936, 0.1411643, -0.11791524, 0.12738785, -0.033732977, -0.7889189, 0.2772521, 0.016995927, -0.51193243, 0.5620848, -0.11649569, 0.14008941, -0.10529884, -0.07597201, -0.15145111, -0.3197016, 0.1181033, 0.17985399, -0.68595266, 0.40855387, -0.21092537, 0.061283894, 0.14770469, -0.25500503, -0.026285617, -0.0013587953, 0.14228755, 0.22968544, -0.47509277, 0.031357244, -0.19045097, -0.017061844, 0.26157716, -0.28721356, 0.0839181, 0.17945676, 0.098535106, 0.3307948, -0.18261941, -0.015709968, -0.21506567, 0.115131855, 0.26085508, -0.27731782, -0.12561488, 0.14256223, -0.10861297, 0.31245372, -0.105564594, -0.1361893, -0.09700919, 0.028994162, 0.20844677, -0.15903576, -0.14852308, 0.11651326, -0.051398564, 0.30529025, -0.13281786, -0.20429762, -0.04514752, -0.13698766, 0.11787996, -0.111353196, -0.07321122, 0.01679464, -0.010186385, 0.26213363, -0.13825978, -0.29916203, -0.11845141, -0.25254998, 0.16936618, -0.17541847, 0.02791242, 0.02746049, 0.069160335, 0.22214635, 0.122907564, -0.19816536, -0.05861902, -0.28282422, 0.1392961, -0.28571182, 0.16988169, 0.0047242856, -0.09049019, 0.2321424, 0.21371092, -0.23884079, -0.15715358, -0.37758872, 0.05731743, -0.47748828, 0.26899397, -0.04571339, 0.0021024416, 0.03257287, 0.30093962, -0.29947114, -0.11070562, -0.40042493, -0.059833046, -0.6758574, 0.421401, -0.13057172, -0.02086534, -0.13789462, 0.21600547, -0.3379334, 0.18840683, -0.23442246, -0.21268637, -0.67453355, 0.32004657, -0.024862574, 0.0017513025, -0.55960256, 0.07776358, -0.23149349, 0.39933875, -0.08172383, -0.01815877, -0.1877212, -0.19775783, -0.0025209964, 0.057542376, -0.4005495, -0.25549668, -0.23116343, 0.3770911, -0.23871987, -0.16098808, -0.057853848, -0.35983855, -0.049549818, -0.020818511, -0.21711922, -0.101136856, -0.085184604, 0.06363931, -0.15201305, -0.16945377, -0.102884546, -0.14708391, -0.03895071, -0.19928986, -0.11655667, -0.030786468, -0.10343527, -0.039284393, -0.03480878, -0.052344553, 0.056795154, -0.043794073, -0.12728202, -0.15661682, -0.12064279, -0.10532579, -0.088525094, -0.05586276, 0.039356016, -0.056795117, -0.033131793, -0.030066613, 0.13360316, -0.17604397, -0.049766667, -0.20347697, 0.02374119, -0.14623119, -0.11366901, -0.24948515, -0.17124899, -0.10465866, 0.33771974, -0.25662893, -0.2816146, -0.33755463, 0.111353874, -0.19279112, 0.052756093, -0.10584112, -0.0865515, -0.20069216, 0.16934544, -0.27663305, 0.086208075, -0.13339347, 0.07250735, -0.30109778, -0.109215066, 0.21381223, -0.0048808577, -0.36264372, 0.14963412, -0.24488775, 0.13251184, 0.036411624, -0.037269805, -0.48537663, -0.30936566, 0.21583875, -0.04633617, 0.08938474, 0.014491631, -0.23280072, 0.07216953, 0.15747616, -0.18520038, -0.3725926, -0.4066902, 0.28855124, -0.104687445, 0.17498101, -0.05898117, -0.2042985, 0.068546616, 0.13129169, -0.26035085, -0.17063177, -0.309716, 0.2537839, -0.04530935, 0.027417364, -0.0010353106, -0.26392034, 0.06396945, 0.087752335, -0.06725376, -0.16759947, -0.18768619, 0.26913276, 0.0048615034, 0.14022957, -0.046057753, -0.23791413, 0.085556716, 0.15580256, -0.2866423, -0.15509203, -0.09954589, 0.27553257, 0.06238062, 0.12635341, -0.22926182, -0.1674304, -0.013134587, 0.12552124, -0.5822614, -0.047493976, -0.20297989, 0.2161488, 0.20122744, 0.2114462, -0.29541016, -0.19201331, -0.025008805, 0.10811822, -0.5170912, 0.01795164, -0.09646821, 0.26485494, 0.12288124, 0.16748314, -0.48522866, 0.04370766, -0.10111704, -0.024115494, -0.08761199, 0.027035166, -0.016024306, 0.17924675, 0.10670957, 0.07184998, -0.7219513, 0.22086255, -0.01695226, -0.3574063, 0.3142638, 0.022888124, 0.074442014, -0.08684846, 0.014421627, -0.04064125, -0.5920181, 0.15418781, -0.057849374, -0.6833132, 0.48056856, 0.036937192, 0.06680801, -0.045954723, -0.07538121, -0.08400955, -0.2076022, 0.09509379, 0.019029485, -0.70501935, 0.36043137, -0.18605246, 0.032165762, 0.09892844, -0.18953584, 0.10159847, -0.13130198, 0.112919554, 0.120047286, -0.54522777, 0.08251977, -0.11830591, -0.054391373, 0.34460253, -0.28720137, -0.026567725, 0.017089514, 0.025072094, 0.29824758, -0.2613523, -0.2492837, -0.16420776, 0.0016246585, 0.2811239, -0.25941893, -0.17236888, 0.07761663, -0.096277624, 0.25583634, -0.1388815, -0.3881263, -0.11699132, 0.04270629, 0.21762529, -0.21449445, -0.1139338, 0.2206758, -0.027473185, 0.07631442, -0.106871225, -0.3821279, -0.030794695, -0.06618597, 0.27262154, -0.11072339, -0.053811483, 0.32370213, -0.15232503, 0.16970417, 0.05180656, -0.24640588, -0.050821327, -0.09573428, 0.19710226, -0.034008004, -0.020105064, 0.20791924, -0.10924379, 0.09108216, 0.049785357, -0.19647488, -0.17651811, -0.1379831, 0.07609455, -0.13776429, 0.04343847, 0.06536632, -0.21238633, 0.09557907, 0.15970762, -0.2523577, -0.12705952, -0.27252805, 0.03738433, -0.026676776, 0.2581338, 0.11281882, -0.2304281, -0.07057997, 0.18566585, -0.28667477, -0.1321914, -0.123947814, -0.042370263, -0.16296028, 0.298143, 0.053022023, -0.2592914, -0.28320542, 0.27891594, -0.2070455, 0.17475529, -0.19487752, -0.30989644, -0.2474343, 0.10733944, -0.07095629, -0.24572745, -0.77823037, 0.040890478, -0.19251446, 0.39564276, -0.36245516, -0.10661783, -0.4308596, -0.034839362, -0.016748957, -0.09591458, -0.379289, -0.3678383, -0.17980032, 0.46644017, -0.18568313, -0.26831055, -0.22444136, -0.49081036, -0.20747425, -0.16697475, -0.13580874, -0.04033223, 0.010354877, 0.09191599, -0.04140304, -0.1772689, -0.17290314, -0.042725842, -0.16186252, -0.16184953, -0.044457696, -0.0958131, 0.06700219, -0.058141213, -0.09348154, -0.03650875, 0.13731287, -0.09480198, 0.114786126, -0.024878597, -0.15702388, -0.04613116, 0.046829943, -0.1781735, -0.0003776378, 0.023060944, -0.0658737, 0.035304, -0.058188003, -0.064861044, -0.05527461, -0.07280257, 0.0554549, -0.18265727, 0.062035147, 0.072115496, -0.2728647, -0.1305373, 0.22378615, -0.10954581, -0.33719754, -0.29236698, 0.12175746, 0.06469195, 0.06437362, 0.05021532, -0.08481741, -0.30991864, 0.14500721, -0.29280657, -0.052535698, 0.06480458, 0.019611722, -0.03746789, 0.033833705, 0.14306393, -0.14496468, -0.53956896, 0.061182234, -0.3990624, 0.13410945, 0.2426147, -0.37747768, 0.01586061, -0.10191221, 0.1822396, -0.18533377, -0.06783478, -0.010501781, -0.30169228, 0.10791435, 0.042516496, -0.4396306, -0.046818208, -0.14157741, 0.16517702, -0.14805128, 0.06995436, -0.100562915, -0.37585992, 0.100439906, 0.22724462, -0.18319102, 0.017123362, -0.30709535, 0.29351297, -0.2215576, 0.16764256, -0.087750845, -0.25416788, -0.005442924, 0.1454819, -0.073753424, 0.015192498, -0.35016525, 0.29194838, -0.021909745, 0.04571649, -0.2675657, -0.24191669, 0.055242956, 0.2047608, -0.31104785, -0.061962638, -0.20537297, 0.22374438, 0.011531895, 0.19513908, -0.34541005, -0.16381155, -0.02718174, 0.15060636, -0.39682353, 0.043955594, -0.22899656, 0.13142708, 0.13822347, 0.1363842, -0.30870083, -0.086500645, -0.01995957, 0.02576967, -0.21058382, 0.065587975, -0.04479192, 0.15308695, 0.023663938, 0.3020407, -0.54015565, -0.021642128, -0.037888777, -0.18791518, 0.003575955, 0.099129684, 0.05589027, 0.108970314, 0.075506866, 0.1254472, -0.5293136, 0.21576516, -0.14458776, -0.57817703, 0.39744237, 0.15737328, 0.034877736, -0.006804229, -0.10301847, -0.060007345, -0.33280468, 0.26662406, -0.09661783, -0.7201238, 0.44072932, 0.09358586, 0.06596165, -0.03302908, -0.18783896, 0.06270243, -0.22524337, 0.21380143, -0.04170077, -0.57750505, 0.27251312, -0.03959201, -0.005893908, 0.27537957, -0.26140362, 0.12948923, -0.0020450454, 0.0041865353, 0.02865755, -0.46882707, -0.09583975, -0.0007727307, -0.10749842, 0.3764223, -0.2134593, -0.014774915, 0.032782495, -0.087894954, 0.24120668, -0.12225623, -0.38593638, 0.038816527, -0.030079208, 0.31905553, -0.17195131, -0.11527995, 0.24124934, -0.10494915, 0.2033251, -0.005289062, -0.5611358, -0.1368526, -0.048143767, 0.17732923, 0.04777936, -0.014027093, 0.35124373, -0.1257614, 0.067090094, -0.0009596012, -0.45060718, -0.12927082, 0.11143178, 0.105747476, -0.016155573, -0.030887289, 0.21409348, -0.1759742, -0.01799549, 0.018844584, -0.36972547, -0.08502284, 0.09475365, 0.068211436, -0.05773416, 0.13731298, 0.33323613, -0.32171896, 0.007491903, 0.068128236, -0.23160616, -0.1736903, -0.004765001, -0.046898235, -0.07255376, 0.07754252, 0.24066845, -0.32987192, -0.15198313, 0.094290644, -0.32054505, -0.1739173, 0.06933855, -0.018038971, -0.08406838, 0.056063242, 0.20039666, -0.2949536, -0.24387373, 0.25967923, -0.35974744, -0.04807214, 0.11156955, -0.13077234, -0.005526224, 0.10936531, 0.066046365, -0.19830975, -0.35137865, 0.14912267, -0.22279915, 0.32000282, -0.019279564, -0.42203644, 0.017384078, 0.0799885, -0.05272171, -0.33213207, -0.78525656, -0.07736595, -0.21477312, 0.41801715, -0.40133205, -0.27606195, -0.1936084, -0.0025209687, -0.26589504, -0.18183233, -0.45081392, -0.27540228, -0.21145026, 0.37199125, -0.092760175, -0.04373534, -0.36748424, -0.46014547, -0.2228302, -0.27944365, -0.12799409, -0.22054118, -0.14488073, 0.15525687, -0.25702053, -0.17912963, -0.13371207, -0.14988315, -0.1743617, -0.22361709, -0.039281152, -0.08192127, -0.032888588, -0.00011278695, -0.054419886, -0.07553395, -0.14391251, 0.0044041765, 0.065889165, -0.120320566, -0.02026937, -0.07714113, 0.06660418, -0.048945818, 0.19362351, 0.020114025, 0.0010657655, 0.021102304, -0.14858724, -0.17023227, -0.02830203, -0.16181971, 0.07520958, -0.10146357, 0.2767667, -0.027732957, -0.27391168, -0.022216057, -0.052937176, -0.18318789, -0.19151822, -0.27621704, -0.14157704, 0.17520528, 0.18909718, -0.13746415, -0.05153387, -0.40529507, 0.039779842, -0.12037307, -0.07777827, 0.00396948, -0.23517472, 0.19910683, 0.1608922, -0.13363957, -0.06982599, -0.42476326, 0.08884611, -0.47453848, 0.09594761, 0.13708258, -0.3436445, 0.19462024, -0.034647964, -0.021737477, -0.19339463, -0.07655771, -0.01619237, -0.37115067, 0.004157549, 0.12939924, -0.3747569, 0.12838332, -0.16050255, 0.045160975, -0.17975348, 0.033900283, 0.04963254, -0.28509882, -0.11636456, 0.16607621, -0.35821992, -0.06371002, -0.22452874, 0.15960023, -0.4129938, 0.17835829, -0.03550751, -0.07943218, -0.05184783, 0.19051023, -0.24749656, -0.0097943945, -0.3074261, 0.22755156, -0.3700704, 0.11925529, -0.15390645, -0.026160792, 0.021025425, 0.17272125, -0.15873154, 0.02666479, -0.2657002, 0.110705025, -0.24880195, 0.21584754, -0.17454001, -0.0066429316, -0.05245077, 0.14525552, -0.20181519, 0.04076692, -0.28828332, 0.025292268, -0.18776433, 0.2849164, -0.30042735, 0.043162026, 0.10707678, 0.076850094, -0.13676055, 0.085376754, -0.13594371, 0.053539254, -0.100656696, 0.37722558, -0.45376801, 0.06333745, -0.0057632723, -0.3196637, 0.014134215, 0.30638722, 0.0091003, 0.0066128387, -0.12946329, 0.052335415, -0.30785984, 0.20604068, 0.009977326, -0.64809096, 0.2887515, 0.1662385, 0.090207994, 0.03021495, -0.17528537, -0.037860043, -0.12618558, 0.14872918, -0.21484813, -0.6802412, 0.401434, 0.15875861, -0.06416403, 0.23129098, -0.20241627, 0.13817544, -0.097423814, 0.0281995, -0.16914296, -0.40065938, 0.04737324, 0.06168786, -0.19105205, 0.4113845, -0.122821644, 0.07982218, 0.06848938, 0.054887943, 0.063994125, -0.2812468, -0.2060131, 0.0243925, -0.13177985, 0.35838807, -0.19988753, -0.06990213, 0.07315983, 0.02571091, 0.1967071, -0.06358819, -0.46711498, 0.06478289, -0.072881505, 0.20126125, -0.04153054, -0.18016942, 0.2551894, -0.06438727, 0.14686234, -0.08447173, -0.44060865, 0.023518499, 0.101811066, 0.17257474, -0.019764379, 0.012693612, 0.1694134, -0.245257, -0.004855691, 0.044363394, -0.44673443, -0.046382982, 0.10956841, 0.08767591, -0.070711076, 0.009609791, 0.21963495, -0.26158243, -0.10624065, 0.09000772, -0.36582392, 0.006942979, 0.178237, 0.119143315, -0.010837823, 0.0728039, 0.18652275, -0.20034648, -0.08724051, 0.055747047, -0.2871724, -0.022021048, 0.0774031, -0.0052625127, -0.038044807, -0.00026941753, 0.17761579, -0.18575755, -0.21178056, 0.16653322, -0.26752007, 0.073233016, 0.20385394, -0.025465494, 0.03196769, 0.03572525, -0.03458887, -0.29422417, -0.109012805, 0.20324798, -0.2967974, 0.05832046, 0.18512772, -0.16259958, 0.060042683, 0.0419856, -0.07944771, -0.1639402, -0.4191204, 0.022553641, -0.23399258, 0.26463214, 0.097857825, -0.22397074, -0.012821402, -0.029561749, -0.23008555, -0.19959241, -0.58269167, -0.1695832, -0.37434185, 0.60686713, -0.4516798, -0.25129125, -0.34954774, -0.16453232, -0.38809127, -0.37620318, -0.5282686, -0.2292425, -0.20296627, 0.5457085, -0.34594935, -0.23608166, -0.37202144, -0.3918721, -0.2857662, -0.41112143, -0.21724664, -0.09015391, -0.25371554, 0.10735665, -0.12114891, -0.099764384, -0.2093126, -0.14675215, -0.13597214, -0.12453715, -0.13216771, 0.058555476, -0.057733778, -0.040542994, 0.07658925, 0.06778332, 0.07671847, 0.01813759, -0.024361312, -0.0036368072, 0.0053426474, -0.028918577, 0.062018555, -0.13262975, 0.15837632, -0.12432263, -0.1496077, -0.059998594, -0.10177253, -0.0809463, -0.10989779, -0.14231981, -0.08593821, -0.0040563405, 0.12834558, -0.043135554, -0.178132, -0.067503035, -0.049011797, -0.16949685, -0.16535576, -0.22451013, -0.21152142, 0.12253461, 0.2825354, -0.361333, -0.062458023, -0.39509636, -0.067588985, -0.29230917, -0.14124785, 0.030562475, -0.15765029, 0.22397324, 0.2246598, -0.16332333, -0.056396816, -0.49057585, 0.06673703, -0.3578542, -0.113421276, 0.09281252, -0.39292744, 0.22374822, 0.054694332, -0.19865438, 0.09055033, -0.18941808, 0.0071254135, -0.3139512, -0.20691289, 0.06896853, -0.56854916, 0.15869658, -0.039067913, 0.0289667, 0.03362434, -0.08961284, -0.058941342, -0.23136242, -0.1094247, 0.06979684, -0.33547902, 0.11448735, -0.124379136, 0.06886461, -0.12622175, 0.05910992, -0.199922, -0.032515742, -0.048156273, 0.12959878, -0.15807256, 0.07609177, -0.30643576, 0.17853995, -0.30995667, 0.1762645, -0.19122624, 0.15811455, -0.018239124, 0.17411512, -0.20484199, 0.12832657, -0.32789466, 0.10323733, -0.311318, 0.1643929, -0.2567169, 0.14987136, -0.031746633, 0.29939172, -0.10226691, 0.14792687, -0.54355544, -0.0794461, -0.4016953, 0.3352021, -0.32608464, 0.06957904, 0.11667194, -0.043641984, -0.18712828, 0.19760141, -0.34852427, -0.030865852, -0.33831376, 0.2737676, -0.28447163, 0.1166904, -0.026762351, -0.30452, 0.016276551, 0.20704366, -0.30782756, 0.010004241, -0.36058086, 0.15570262, -0.18801892, 0.2812827, -0.09879297, -0.55424005, 0.31682408, 0.13938273, -0.28876346, 0.1952957, -0.29970628, 0.013200223, -0.028917434, 0.023512112, -0.076865904, -0.5269306, 0.37107897, 0.08035169, -0.31308502, 0.3327598, -0.29335812, 0.011149055, 0.046103884, -0.047377557, -0.060959928, -0.37996897, 0.036048803, 0.052733622, -0.13566351, 0.25086686, -0.107681245, -0.0005104508, 0.011641239, -0.15840566, 0.14646576, -0.20661125, -0.40011257, 0.006879446, -0.07210415, 0.35624915, -0.056092232, -0.16858189, 0.012713661, 0.018623343, 0.09160544, -0.08354524, -0.38900718, 0.06963317, 0.12575813, 0.09264183, 0.042422373, -0.00078066014, -0.005261283, -0.15901293, -0.042663604, 0.034849167, -0.3971923, 0.049542356, 0.09981218, 0.10952145, 0.038876828, 0.10091523, 0.04705651, -0.15853508, -0.023919461, 0.08006666, -0.20774576, -0.076696545, 0.15882652, -0.04821304, 0.059167214, 0.035809405, 0.027713897, -0.18048126, -0.040891647, 0.007146075, -0.25589886, -0.012593498, 0.13266239, -0.053236056, 0.082572676, 0.06702376, 0.033076774, -0.17479132, -0.121272855, 0.04769584, -0.15190585, 0.0007023599, 0.11971967, -0.01848059, 0.021098785, -0.05929472, -0.11057524, -0.21967147, -0.2682418, 0.11676363, -0.08623899, 0.17223613, 0.1712359, -0.14501153, -0.025481489, 0.04289663, -0.14369144, -0.07239907, -0.21607183, -0.025285572, -0.14742619, 0.14796528, 0.20718096, -0.16959436, 0.057833347, 0.02756339, -0.06408363, -0.053454615, -0.38702717, -7.3496776e-05, -0.18764235, 0.2959269, -0.060109694, -0.2440436, 0.10593875, -0.10395682, -0.088004984, -0.124607645, -0.5308405, -0.106586605, -0.30512556, 0.6779736, -0.3853277, -0.37421846, -0.35384738, -0.13893892, -0.065948956, -0.5410627, -0.34833997, -0.18310148, -0.13021629, 0.37208524, -0.3880734, -0.21081856, -0.4445914, -0.44979763, 0.08763464, -0.31751797, -0.26780394, -0.021883285, -0.06000692, 0.28185084, -0.22574, -0.12815097, -0.17334612, -0.14250718, -0.11741978, -0.23297377, -0.24362625, -0.07171131, 0.044512276, -0.15758428, -0.21691525, -0.17900333, -0.13770881, -0.12316998, 0.050028995, -0.1667568, 0.02072005, -0.11502142, 0.07190598, -0.24090628, 0.19329266, 0.021874195, -0.0442579, -0.118068255, 0.040800493, -0.18710479, -0.102324836, -0.3063883, -0.107566975, -0.14095141, 0.22664358, -0.01788085, -0.15261835, -0.065634295, 0.14188147, -0.25855392, -0.31930485, -0.36856812, -0.1648691, 0.07165159, 0.4098476, -0.28339028, -0.03932013, -0.2374195, -0.122258455, -0.66577744, -0.29370168, -0.014617185, -0.3183707, 0.28000322, 0.3036841, -0.27667707, 0.15815209, -0.45539573, -0.044227276, -0.24353163, -0.2989177, -0.005050168, -0.48474348, 0.2679156, 0.11558002, -0.16135494, 0.17224479, -0.3333269, -0.14253932, -0.12310007, -0.31966332, 0.03238009, -0.64463955, 0.10746164, 0.07018746, -0.12883076, 0.29576498, -0.117625676, -0.35258928, -0.077116735, -0.14219373, 0.08593844, -0.39192125, 0.13949388, -0.14184749, -0.08434528, 0.026605567, 0.011435058, -0.35977674, -0.062890194, -0.14744623, 0.18779415, -0.10537791, 0.08638178, -0.14282347, -0.011894071, -0.06278223, 0.075431265, -0.34008306, 0.079313226, -0.034806296, 0.18851046, -0.042480938, 0.11502057, -0.38448825, -0.046408005, -0.25764868, 0.20676792, -0.27077043, 0.16537352, -0.0047627543, 0.20544484, -0.143119, 0.16116464, -0.36936355, -0.22598451, -0.20940082, 0.30332828, -0.33935347, 0.19087811, 0.06649777, 0.10926749, -0.11380123, 0.1615933, -0.46367884, -0.09551076, -0.25118926, 0.29549947, -0.21867383, 0.117533766, -0.07850048, -0.3009986, 0.12759796, 0.24883516, -0.41536504, 0.0057799947, -0.20350064, 0.3014181, -0.08296487, 0.12921889, -0.1426597, -0.4277063, 0.18452694, 0.23152807, -0.35579532, 0.084136754, -0.09030426, 0.13635014, 0.049477242, -0.021594763, -0.22833434, -0.4117249, 0.25059465, 0.02989648, -0.28197452, 0.23021393, 0.0063963197, -0.02986113, -0.0014368761, -0.1349148, -0.019937186, -0.18983506, -0.023023926, 0.09717074, -0.02893232, 0.21062432, -0.005819007, -0.032546178, -0.029417748, -0.106846124, -0.0077979905, -0.028962327, -0.30537656, 0.020314079, 0.17397574, 0.090807885, 0.079227895, 0.106429264, -0.133819, -0.036522184, -0.048242893, -0.07376244, -0.20192142, 0.09888521, 0.18938614, -0.041765057, 0.12177214, 0.18502325, -0.099861786, -0.17052168, -0.069419265, -0.06400847, -0.13394201, 0.023948789, 0.20476364, -0.1311284, 0.022276964, 0.05692908, -0.08014537, -0.073588006, -0.13736692, -0.015429824, -0.11796284, 0.07584561, 0.18661816, -0.15547365, 0.06316569, 0.06482908, -0.097740725, -0.079633854, -0.15836628, -0.06603517, -0.049113017, 0.003311072, 0.035860803, -0.09708154, 0.06057839, -0.02559141, -0.10533546, -0.057654895, -0.015847506, 0.0054059215, -0.07848187, 0.12573834, 0.2066427, -0.020161742, -0.017819315, -0.04779505, -0.19016986, -0.1595866, -0.16898979, 0.07645896, -0.20432442, 0.15057379, 0.24268486, -0.3621834, 0.080140576, -0.08164824, -0.23314154, -0.060485367, -0.2910193, -0.07209798, -0.07730356, 0.21924596, -0.020112991, -0.2232766, 0.11665702, -0.03920553, -0.30495435, -0.009547029, -0.43944564, -0.0011036526, -0.118761994, 0.37883237, -0.24867572, -0.3081021, 0.13306016, -0.10062466, -0.33118796, -0.100217916, -0.5311221, -0.31596896, -0.07039673, 0.5606607, -0.544955, -0.425785, -0.22573489, 0.03995278, -0.24393755, -0.6530985, -0.25972736, -0.19104941, 0.030677827, 0.14488477, -0.2620351, -0.12246347, -0.22428069, -0.29480064, 0.14868528, -0.26867554, -0.27985367, -0.2274124, 0.032079663, 0.080412515, -0.15935723, -0.11921816, -0.08672811, -0.1553198, -0.13369176, -0.10411523, -0.14959325, -0.062278323, 0.08750608, -0.12652557, -0.031951174, -0.0062521202, -0.057317268, 0.023247272, -0.05274235, -0.14095958, 0.04684418, -0.025841728, 0.011815669, -0.18231134, 0.026522249, -0.13783556, -0.08163651, -0.06223983, 0.10115127, -0.12033856, -0.06913561, -0.18064709, -0.06756739, -0.026399354, 0.08150305, -0.17277876, 0.1147775, -0.15434547, 0.14811356, -0.19608629, -0.23879765, -0.32906556, -0.1154197, -0.10307775, 0.36581755, -0.17533971, -0.059475828, -0.32891333, -0.09233025, -0.44907117, -0.25872555, -0.055030204, -0.45008612, 0.080311045, 0.22206633, -0.23369838, 0.08281974, -0.35089007, 0.0045711873, -0.27708316, -0.4091289, 0.009640815, -0.5756579, 0.119637646, 0.29119012, -0.085677534, 0.17104182, -0.28019857, -0.19594051, -0.0645495, -0.17073277, 0.1257862, -0.34103563, 0.15969421, 0.14332353, -0.19257829, 0.24823743, -0.20742945, -0.3872807, -0.0025606938, -0.12879069, 0.057939008, -0.12411388, 0.16068125, -0.045285232, -0.35430193, 0.08589038, -0.07600759, -0.39596164, 0.009523072, -0.22367795, 0.08162693, -0.111339286, 0.10334603, 0.0071778796, -0.30841398, 0.13835494, -0.006383926, -0.34047747, 0.040475413, -0.2733765, 0.2165188, -0.01835375, 0.15613519, -0.05477935, -0.33379927, 0.10691303, 0.08690297, -0.27204314, 0.12392264, -0.23112693, 0.26096264, -0.04399851, 0.15707198, -0.24735527, -0.4219405, -0.020960739, 0.21145415, -0.23482522, 0.07627426, -0.30096698, 0.11249212, -0.072683655, 0.15648082, -0.19875109, -0.2718744, 0.02212703, 0.29756752, -0.11373698, -0.02689688, -0.20725028, 0.08565622, 0.051847417, 0.21080956, -0.28586912, -0.16813368, -0.027015556, 0.26807612, -0.030847525, -0.075471304, -0.21325175, -0.12963122, 0.16034837, 0.14438128, -0.23566003, -0.11210286, 0.03400814, 0.2529787, 0.048251644, -0.14199586, -0.15812178, -0.12405002, 0.0089771785, 0.15058912, -0.07217154, 0.073260345, -0.02856457, 0.12369316, 0.07799778, -0.23818082, -0.12577195, -0.11217276, -0.1273857, 0.048368573, -0.010279246, 0.021782009, 0.042168546, 0.21635605, -0.052498087, -0.1171783, -0.09428218, -0.0045506833, -0.048729733, 0.10003334, 0.117460705, -0.010992694, -0.039045032, 0.09988709, -0.14738022, -0.07589098, -0.05326701, -0.01643708, -0.1276929, 0.14204313, 0.22894457, -0.09378562, -0.03700126, 0.18404901, -0.25851616, -0.034937743, -0.12884893, -0.010863095, 0.07849694, 0.0012904411, 0.18887082, -0.13345315, 0.090193026, 0.13161682, -0.20979553, 0.04971912, -0.09179875, -0.07347648, 0.06837924, 0.056582592, 0.102102704, -0.16465986, -0.027135564, 0.01564107, -0.23961319, 0.017948827, -0.07310235, -0.05091792, 0.046074457, -0.013515916, 0.12559205, -0.19919616, 0.050421342, 0.02592148, -0.25103793, 0.03173243, -0.043114696, 0.015592765, -0.071178414, 0.078247815, 0.1409911, -0.2180871, 0.08416362, 0.07457527, -0.4077364, 0.021112632, -0.3151136, 0.037626762, -0.05226606, 0.18989767, 0.014100244, -0.44339564, 0.098708965, 0.023745332, -0.4906471, 0.03979948, -0.27728093, -0.08303985, -0.08653074, 0.2899409, -0.0020867002, -0.32991397, 0.050829016, -0.016426377, -0.56713116, 0.053493083, -0.27378795, -0.16350093, 0.050448496, 0.20189483, -0.24630664, -0.5022032, 0.18737945, -0.19508928, -0.175451, -0.104568146, -0.3000655, -0.30446187, 0.07954886, 0.390051, -0.4969048, -0.28388062, -0.13793388, -0.2129674, -0.14910184, -0.5980374, -0.16403648, -0.25453353, 0.05180938, 0.20645046, -0.21263713, -0.1346509, -0.26381275, -0.2832543, -0.091710724, -0.30960652, -0.020965455, -0.021464678, 0.026778573, 0.12459014, -0.07669901, -0.08470267, -0.18196599, -0.21575108, -0.10610767, -0.066827215, -0.06553938, 0.07944099, 0.002761595, -0.031594545, -0.048663545, -0.048881162, 0.08534146, 0.02308245, 0.0619405, 0.06625479, -0.033772733, 0.01638954, -0.1320754, -0.11785931, 0.069374345, -0.128029, -0.053048406, -0.11655108, -0.050771665, -0.07256625, -0.107972905, -0.07372807, -0.06626688, 0.05860908, -0.057639286, -0.087712966, 0.08696473, -0.12259044, -0.20051375, -0.24265856, -0.28802648, -0.26751137, -0.19101515, 0.031291272, 0.33980417, -0.07488009, -0.05256695, -0.30392987, -0.34868786, -0.4349954, -0.31449115, 0.016673313, -0.2293497, 0.17283528, 0.29186547, -0.19471872, 0.041844755, -0.3366911, -0.37435615, -0.17696902, -0.28169286, 0.048422046, -0.3110425, 0.050126422, 0.24713582, -0.37056088, 0.083818465, -0.341776, -0.43448702, -0.09431454, -0.19655806, 0.003940219, -0.1896952, 0.12236535, 0.14324367, -0.33775207, 0.08161328, -0.32093814, -0.51409453, -0.0045917006, -0.21762273, 0.0012007474, -0.04076037, 0.2531396, 0.1721978, -0.37452832, 0.0858092, -0.1604289, -0.41815943, 0.02229736, -0.22726567, 0.016630674, -0.028778672, 0.13511558, 0.043895356, -0.48680577, 0.16236547, -0.14674112, -0.23617697, -0.0427246, -0.3495108, 0.0919677, -0.020596756, 0.11765371, 0.035926446, -0.42138895, 0.13337493, 0.134169, -0.31709424, 0.002898949, -0.32451403, 0.26390374, 0.078139976, 0.21151453, -0.04817918, -0.49696276, -0.0042588967, 0.16901438, -0.18302074, -0.014337161, -0.44318774, 0.2603369, 0.024250196, 0.16012357, -0.24317919, -0.2043195, 0.15609364, 0.34977064, -0.13711667, -0.079913296, -0.44018117, 0.16636078, 0.1065349, 0.106487274, -0.25082138, -0.30064443, 0.036133073, 0.30395433, -0.024109803, -0.046397164, -0.351556, 0.007492476, -0.055255625, 0.073582485, -0.06565433, -0.15629253, -0.005082542, 0.2240827, 0.022580655, -0.030627368, -0.08212577, -0.034816545, 0.035573572, -0.03432964, -0.024299549, -0.08084742, 0.009666599, 0.28906184, -0.034018613, -0.09655407, -0.1683383, 0.030588623, -0.025905209, -0.00051869184, 0.042141322, 0.052856516, -0.03868856, 0.19506566, -0.09470267, -0.025361426, -0.22372663, -0.06395119, 0.07321884, 0.077496774, 0.08389178, -0.0052626915, 0.06224838, 0.14569716, -0.17036451, -0.10825727, -0.101390176, 0.04018188, 0.1342948, -0.03018089, 0.1516123, -0.019962313, 0.13945633, 0.15296087, -0.2848931, -0.10495681, -0.15235588, -0.08822678, 0.070158675, 0.12493443, 0.14637762, -0.106459096, 0.10541433, 0.15029968, -0.3638066, 0.054694857, -0.13942072, 0.0016765336, 0.118109986, 0.18068525, 0.16436395, -0.1087724, 0.06487542, 0.040996574, -0.38864022, -0.015918879, -0.056924943, -0.11476756, 0.084472865, 0.17064579, 0.16748552, -0.11571588, 0.02891488, 0.0566849, -0.43893906, -0.00573773, -0.17756996, 0.062115423, -0.03986671, 0.16086625, 0.09105739, -0.09879535, 0.07926503, 0.009281292, -0.4645004, 0.06977469, -0.19681683, -0.0434265, -0.1712447, 0.16104886, -0.04568517, -0.23980798, 0.20600604, -0.19100821, -0.40622967, 0.11682848, -0.1773619, -0.119914174, -0.07280099, 0.23631993, -0.054408565, -0.3339134, 0.09386552, -0.08515499, -0.5078216, 0.022107568, -0.18669891, -0.24264926, -0.0684289, 0.21915412, -0.2942799, -0.31961396, 0.11123243, -0.233217, -0.110149525, -0.26062605, 0.0711548, -0.25688657, 0.017896956, 0.30473995, -0.4471013, -0.19840127, -0.006066247, -0.21649049, -0.15767308, -0.582534, 0.024709497, -0.10644796, -0.026770245, 0.23024248, -0.057277676, -0.109969504, -0.2642287, -0.14916681, -0.03864965, -0.21453486, -0.056448005, -0.025544267, 0.12488009, -0.03869256, 0.036941007, -0.02191862, 0.09435923, -0.03233208, 0.049485166, 0.0070853624, -0.026802542, 0.03290494, 0.04405529, -0.14923829, -0.02458584, -0.08101601, -0.0016971458, -0.024670146, -0.051146537, -0.12555297, 0.00045393125, -0.07070849, -0.021894876, 0.039874144, 0.03197452, 0.052361, -0.018299067, -0.024630375, -0.14678378, -0.0945052, -0.060605884, -0.14363725, -0.062439438, 0.025616128, 0.078170426, -0.018625336, -0.25029343, -0.16871008, -0.24753465, -0.30629584, -0.24354537, -0.17214185, -0.020374821, 0.091227725, 0.32293153, -0.22445087, 0.04044426, -0.21229011, -0.3312581, -0.4627981, -0.2773598, -0.10506282, 0.08470166, 0.10279023, 0.13689587, -0.2638567, 0.12964723, -0.42854413, -0.28008917, -0.2821193, -0.12061947, -0.02199737, 0.18496472, 0.09882752, 0.17417267, -0.27660096, -0.004540205, -0.55321777, -0.22858721, -0.052147545, -0.09779902, 0.013856087, 0.18423006, 0.11797996, 0.11477648, -0.46482933, 0.09526116, -0.3873372, -0.26325113, -0.020123078, -0.10988384, 0.065862365, 0.10578432, 0.03652537, 0.09983603, -0.4559333, 0.011743524, -0.08615109, -0.2730754, 0.1541783, -0.21573286, -0.041444737, 0.09223361, 0.093099914, 0.03879857, -0.34202537, 0.08445661, -0.06301793, -0.1185789, 0.03243147, -0.113709666, 0.08270603, 0.090473324, 0.09216246, -0.036635358, -0.24567232, 0.07238735, -0.043754894, -0.2106334, -0.033267308, -0.21035485, 0.1225396, 0.02111213, 0.07172693, -0.056574963, -0.3370711, 0.121233605, 0.040983133, -0.21796206, -0.093299106, -0.17215629, 0.18468483, -0.11071536, 0.06205962, -0.043427125, -0.14675787, 0.085433, 0.16584405, -0.021496892, -0.111273594, -0.28813776, 0.22326721, -0.21094613, 0.07435512, -0.047357317, -0.23522778, 0.0783732, 0.30893612, -0.05799478, -0.01398132, -0.17146544, 0.1097991, -0.18820788, -0.03513941, -0.10819487, -0.27181163, 0.06721784, 0.36791533, 0.032149933, -0.004125432, -0.12513609, 0.0064109075, -0.090253234, -0.06395286, 3.196075e-05, -0.12662789, -0.013434899, 0.29343304, -0.110079415, -0.017188217, -0.093772136, -0.010922865, 0.025815703, 0.012607817, -0.0007806974, -0.046685953, 0.13721377, 0.26541013, -0.17474215, -0.07744292, -0.12115214, -0.009793903, 0.12683903, -0.04093053, 0.046281856, -0.091766015, 0.06989398, 0.11501496, -0.102718756, 0.0032340367, -0.0961126, -0.15856794, 0.116191044, 0.11652101, 0.11785694, -0.039106496, -0.007362965, 0.17671682, -0.19965175, -0.06723141, -0.2419036, -0.1700073, 0.20673497, 0.16433166, 0.13190295, -0.0779657, 0.01400724, 0.08071647, -0.2819412, -0.024802193, -0.21650067, -0.21737973, 0.03499459, 0.15432312, 0.09206117, -0.033326924, -0.026561987, -0.0071898047, -0.3982578, -0.014339682, -0.17201315, -0.055305537, 0.03337267, 0.08102294, 0.0016889651, -0.060250845, 0.045644216, -0.03345625, -0.47465473, 0.05764855, -0.19423734, -0.075810485, -0.034469754, 0.08381999, -0.1419378, -0.101556815, 0.10135242, -0.10190676, -0.4560109, 0.0007622215, -0.051386774, -0.017353911, -0.16460879, 0.21103549, -0.1518472, -0.1473774, 0.17985061, -0.17391329, -0.4516089, 0.06972871, -0.19809358, -0.1768097, -0.27507424, 0.18574919, -0.22865513, -0.09741712, 0.10281277, -0.25972417, -0.5437986, -0.038492884, 0.0022026103, -0.15370935, -0.041290008, 0.17442375, -0.45399496, -0.18637364, 0.004300818, -0.23585497, -0.17185333, -0.29758447, 0.09515924, -0.21331099, 0.025224233, 0.33891433, -0.30216938, -0.19970816, 0.012969505, -0.2098109, -0.09600087, -0.28725117, -0.0330921, 0.1400662, 0.009298749, 0.1313958, -0.07688022, -0.15638152, 0.0743521, -0.06880382, -0.13168603, -0.33887857, -0.07357185, -0.0042899707, -0.07376903, 0.020439161, 0.03933394, -0.033644997, -0.002762906, -0.082923755, -0.075800106, -0.08164284, -0.011852269, 0.04768728, 0.15087658, -0.0057666707, -0.08188941, -0.02530668, 0.022972254, -0.019906914, -0.05178761, -0.012083649, -0.04193555, 0.035757884, 0.06644943, -0.086301595, 0.11277516, -0.054076817, -0.093925536, -0.08844045, -0.04574282, -0.045895122, -0.10977797, -0.19892654, -0.17375022, 0.015024329, 0.12610613, -0.11778438, -0.15369472, -0.1080009, -0.13799347, -0.1924492, -0.1371444, -0.19739886, -0.03492678, 0.010426244, 0.18937683, -0.3004633, -0.12455128, -0.08155957, -0.36605656, -0.1733637, -0.18022823, -0.25343773, 0.105053425, 0.19397889, 0.18739958, -0.4172648, 0.09975908, -0.4879283, -0.13403185, -0.19570413, -0.20819825, -0.054146532, 0.3226666, 0.13550332, 0.07901137, -0.41038606, -0.051431954, -0.52179754, -0.00085403083, -0.13306102, -0.15868512, 0.053537257, 0.15138999, 0.20232026, 0.14892209, -0.39252228, -0.1165596, -0.63468796, -0.05209402, 0.033318024, -0.20334406, 0.04716224, 0.11074034, 0.10979682, 0.059674006, -0.23289123, 0.005787427, -0.3416229, 0.09535792, 0.027661292, -0.18222053, 0.08227481, 0.004686815, 0.21465856, 0.0574541, -0.24588932, 0.009956512, -0.24753948, 0.058749262, -0.0019603043, -0.04166405, 0.10229932, -0.01004477, 0.19083805, 0.07844761, -0.17180301, 0.043333795, -0.05484001, -0.054234613, -0.044446085, -0.07044523, 0.10130482, -0.058512453, 0.14123124, -0.0069348854, -0.13600603, 0.042369988, 0.026372219, -0.0041887923, -0.0012684516, -0.10862865, 0.23550671, -0.23559423, 0.061511543, -0.02658468, -0.10717197, 0.08724639, 0.018440478, -0.13464226, 0.110357955, -0.049096268, 0.17908853, -0.3108022, 0.0693297, -0.0149746165, -0.11880057, 0.10530645, 0.0860243, -0.0860027, 0.16122875, -0.064206384, 0.25373477, -0.22308202, -0.080200024, -0.09614898, -0.16398901, 0.15531506, 0.059482478, -0.13248219, 0.17288864, -0.14097981, 0.074976064, -0.13219455, -0.11448496, -0.029137574, -0.21363254, 0.06836492, 0.04608531, -0.09238367, 0.17256403, -0.14278428, 0.11342042, -0.04612988, -0.15765198, 0.08543081, -0.015470806, 0.035041768, 0.03456898, -0.0050171553, 0.053931765, -0.09009831, 0.01666068, 0.05570088, 0.025830334, 0.036066912, -0.09680422, 0.072963454, -0.0032706023, -0.079966575, -0.063332796, -0.18517853, -0.030170554, 0.12616946, 0.0030884526, 0.0245198, 0.0144048035, 0.087398686, -0.019932266, -0.2564318, -0.0032606458, -0.16522706, -0.12497799, 0.12912317, 0.16259184, 0.07279764, 0.079423174, 0.024400597, -0.0007651746, -0.30404592, 0.0020796314, -0.1739362, -0.072023794, 0.11830798, 0.2093033, 0.085317686, 0.07724364, 0.15168698, -0.06489034, -0.30447206, 0.012885195, -0.18887222, -0.18396947, 0.093435295, 0.24712735, 0.08075302, 0.041253667, 0.11474236, -0.08432884, -0.3328562, -0.07613438, -0.15194082, -0.10003249, -0.17140207, 0.14340824, -0.14414628, 0.14841402, 0.07832474, -0.050630786, -0.4208539, 0.013661784, 0.021134585, -0.07247581, -0.3514365, 0.23600712, -0.10132976, -0.0028191502, 0.17119208, -0.21576333, -0.41826963, -0.065720305, 0.04036235, -0.08293175, -0.13895868, 0.20277183, -0.16841175, -0.12350561, 0.19486143, -0.4064604, -0.5252434, -0.076171644, 0.09167611, -0.18691488, -0.036418077, 0.24734384, -0.41169018, -0.106386885, -0.0048507736, -0.29883277, -0.3071126, -0.17409296, 0.11268995, -0.038670845, -0.0059322994, 0.11888184, -0.23665968, -0.12476282, -0.04145295, -0.26072377, -0.2060784, -0.19220597, -0.056611713, 0.038779262, 0.091202974, -0.18447998, -0.028539514, 0.07861313, 0.09036065, -0.035672605, -0.12871093, -0.15390499, -0.19874646, 0.052988794, 0.036850344, -0.019038294, 0.0032450857, 0.008900572, 0.04912549, -0.07612808, -0.039602976, 0.017353293, -0.088630855, 0.051625095, -0.0043448806, -0.05866292, 0.029814035, 0.057229795, -0.016642362, -0.051767334, -0.059905544, -0.08405836, 0.04428845, -0.020706229, -0.024155013, 0.047541834, -0.083612055, -0.029583361, -0.048555106, 0.07004393, 0.068993665, -0.03856715, -0.08358505, -0.02287413, -0.011842629, -0.086712055, 0.19211277, 0.008947062, -0.008122974, 0.03859173, -0.15728457, -0.11643381, -0.2677738, -0.26257697, -0.15383281, -0.118944615, 0.26983115, -0.15651716, -0.053724486, -0.04109062, -0.25243136, -0.20993702, -0.15407537, -0.3938348, 0.042546272, -0.084813274, 0.27057037, -0.37198672, 0.116979025, -0.2804252, 0.104807384, -0.29569542, -0.26521024, -0.20806667, 0.31470132, -0.054156486, 0.20493336, -0.2974103, 0.050983027, -0.2927596, 0.122478016, -0.40299615, -0.1984969, -0.12765378, 0.27390185, -0.059438348, 0.20082784, -0.20437302, -0.13722141, -0.5599621, 0.19139476, -0.25541428, -0.16902228, -0.015269316, 0.15813129, 0.099579826, 0.2100765, -0.14937292, -0.08170733, -0.5435347, 0.19487013, -0.1923383, -0.14385733, 0.062970854, 0.027497746, 0.023863077, 0.0361798, -0.05249926, 0.033612996, -0.4725233, -0.04813652, 0.06444333, -0.044408098, 0.12888841, -0.061989207, -0.027788043, 0.07074686, -0.14396966, 0.11842468, -0.29107884, -0.08129705, -0.042653162, -0.013264127, 0.13162817, -0.10467267, -0.05844139, 0.10102108, -0.11814514, 0.108294785, -0.3279704, -0.039952774, -0.0009591677, -0.0025988687, 0.1693879, -0.15834641, -0.019507991, 0.06704205, -0.07778481, 0.06774285, -0.34522906, -0.13140489, 0.019734215, -0.13940255, 0.22589236, -0.21530072, -0.015575442, 0.047963317, -0.1980051, 0.1245435, -0.1773787, -0.04262703, 0.22273928, -0.05952898, 0.22616951, -0.12643677, -0.07430207, 0.041163713, -0.09137167, 0.07233939, -0.13864885, -0.09231553, 0.22213696, -0.11060898, 0.24221742, -0.11343668, -0.09119153, -0.011599371, -0.12321358, 0.12767516, -0.16140829, -0.025160491, 0.15943962, -0.17341721, 0.106130406, 0.08592602, -0.08823306, -0.043556906, -0.096845135, 0.11496281, -0.04521709, -0.013173436, 0.23033346, -0.1520867, -0.09234106, 0.16709325, -0.115288086, -0.08895059, -0.0068145823, 0.028469566, -0.1538248, -0.11549094, 0.15441914, -0.16262318, 0.06464004, 0.30251127, -0.01975262, 0.045105804, 0.08286367, -0.03632631, -0.21970232, -0.10617141, 0.027998332, -0.08793933, -0.1272769, 0.013725846, 0.12415708, 0.11273316, 0.069280356, -0.056838274, -0.23374327, -0.19138138, 0.1118795, -0.12876604, -0.17927833, 0.046715066, 0.16988271, 0.05347416, 0.1962319, -0.019366968, -0.0680938, -0.27026162, 0.019001642, -0.10329844, -0.33041593, -0.023388544, 0.1710036, -0.09147329, 0.17454182, 0.1190328, -0.19808857, -0.3597709, 0.10765398, 0.032710783, -0.20795055, -0.095300615, 0.13047464, -0.16028136, 0.12634641, -0.08790543, -0.2650587, -0.46493477, 0.08213666, 0.1838888, -0.1898065, -0.23169656, 0.15598449, -0.20037521, -0.1327852, 0.039946236, -0.28109708, -0.33802074, -0.040343393, 0.19163175, -0.19953083, -0.22984335, 0.13854139, -0.30859795, -0.15862568, 0.11966346, -0.33917892, -0.38554376, 0.03691316, 0.18389954, -0.116438985, -0.18638647, 0.06792133, -0.1282388, -0.16407645, 0.060685758, -0.33121943, -0.14888449, -0.19541615, 0.089406095, -0.12711856, 0.00877065, 0.04659626, -0.21131808, -0.100192316, 0.03534206, -0.21378839, -0.12871316, -0.27684265, -0.0562454, -0.08539387, 0.011799924, -0.08093321, 0.020641962, 0.007906906, 0.010056502, 0.009063128, -0.09812142, -0.14306428, -0.19790182, 0.0058005527, -0.08553242, 0.018279888, -0.046219736, 0.06413285, -0.05751728, 0.06953753, 0.04104074, 0.04085622, 0.04288549, 0.01903361, -0.017974228, 0.02045615, -0.029122446, -0.0362102, 0.052835904, 0.06708724, -0.026106238, -0.06790607, -0.07764862, -0.07545665, 0.010365851, 0.055944778, 0.08399475, 0.01624, -0.07825698, -0.069280624, -0.06698621, -0.07151173, -0.022004224, -0.12194766, -0.106912136, -0.20642814, 0.06169636, -0.07365934, -0.033480953, -0.101947, -0.047370967, -0.1123338, -0.114041395, -0.17509894, -0.2700977, -0.2044924, 0.30344737, -0.17329207, 0.09558694, -0.050114196, 0.084446594, -0.14863631, -0.32063258, -0.22750203, -0.22237816, -0.32499003, 0.39105013, -0.36961535, -0.11436356, -0.1673952, 0.2787962, -0.54062694, -0.085458994, -0.13393605, 0.041065376, -0.29816082, 0.28163138, -0.1851782, -0.045110874, -0.30578375, 0.37635002, -0.49073744, 0.06368229, -0.18949862, 0.014275931, -0.40076357, 0.39034826, -0.046693403, -0.047022644, -0.36844257, 0.40445414, -0.3647448, 0.04831941, -0.1528754, -0.078190856, -0.34736267, 0.30037934, -0.07851382, -0.0020382842, -0.36204875, 0.24454492, -0.32947958, 0.12088806, -0.16013233, -0.2203645, -0.22891288, 0.18959227, -0.09646023, -0.007361795, -0.55339396, 0.2046778, -0.076805025, 0.08094383, -0.086615756, -0.15114492, -0.26080278, 0.14580046, -0.04458068, 0.13196301, -0.6268002, 0.017001988, -0.04405627, -0.034479655, -0.008831232, -0.23325169, -0.21796115, 0.31738943, -0.04313038, 0.052804466, -0.6318138, 0.15936816, -0.05117868, 0.04572481, 0.016805697, -0.32003587, -0.13593479, 0.14165209, -0.07165172, 0.10123743, -0.5911021, 0.023787715, 0.12421407, -0.049673185, 0.08225071, -0.2839317, -0.1607221, 0.20918617, -0.15628825, 0.23273863, -0.5145399, 0.021640275, 0.062329493, -0.051632985, 0.14060251, -0.2857982, -0.09599646, 0.23769966, -0.09614247, 0.09328748, -0.48019743, 0.060223747, 0.11443747, -0.14202572, -0.022103779, -0.30301958, 0.008429859, 0.11511654, -0.06650287, 0.21316904, -0.4986978, 0.14065671, 0.067866, -0.12987244, -0.011419872, -0.27601653, -0.085490465, 0.117828175, -0.07786798, 0.14992586, -0.4072752, 0.10518833, 0.14897494, -0.07405016, -0.049897183, -0.31289193, -0.08661722, 0.1381782, -0.059563417, 0.10942493, -0.3221472, -0.016619077, 0.1497811, -0.029877884, -0.23563986, -0.08837909, 0.059167836, -0.00599303, -0.03969646, 0.09499359, -0.33574954, 0.0005089188, 0.04541594, 0.08127728, -0.33472627, -0.047310296, 0.031534918, -0.14802949, 0.07405583, 0.097009696, -0.24720383, -0.15899743, 0.19296877, 0.057286587, -0.34605014, 0.030237306, 0.005997285, -0.14391224, 0.04845617, -0.03478952, -0.47074935, -0.17830044, 0.20670916, 0.08772945, -0.5126503, 0.0059517836, -0.064293146, -0.219574, -0.006551065, 0.005704364, -0.38009977, -0.18280396, 0.04392903, 0.15702827, -0.407199, -0.08762896, 0.04059327, -0.09167838, -0.012281652, -0.07551242, -0.35812962, -0.18204755, -0.103142135, 0.30383146, -0.37697718, -0.2478222, 0.012456068, -0.11698497, 0.036477644, -0.0019133423, -0.31570753, -0.3718429, -0.092339724, 0.2642752, -0.22601704, -0.16638508, 0.009326845, -0.10203252, -0.17283016, 0.1285319, -0.11555956, -0.49595827, -0.1299246, 0.16394308, -0.16784035, -0.1622375, 0.2003008, -0.30584562, -0.13809763, -0.013727965, -0.08195547, -0.27847853, -0.2695873, -0.053534176, -0.02664751, 0.09173728, 0.24444146, -0.20711018, 0.061227795, -0.24390589, -0.16837397, -0.16847937, -0.23051135, -0.12891348, -0.028202677, 0.067351736, 0.031608347, -0.091383934, -0.07402117, -0.1754588, -0.10434275, 0.04061697, -0.14869131, -0.033008702, 0.044958957, -0.009882197, -0.013012454, 0.053418823, 0.026724339, 0.05215057, 0.061822347, -0.055325784, 0.06375272, -0.08682308, -0.0068674833, -0.081304066, -0.002669096, -0.08516663, 0.059637748, -0.06907965, 0.078521095, 0.081602015, -0.03111307, -0.03946589, -0.06516997, 0.08070702, 0.07379373, -0.040642623, -0.05243051, -0.01577299, -0.061196245, 0.031342976, -0.058381535, -0.038535997, -0.037947707, 0.0030157214, 0.023682898, 0.15766962, -0.09625245, -0.05266051, -0.00036944982, -0.16161044, -0.109365605, 0.023180598, -0.050820854, -0.15986423, -0.13142152, -0.030687023, -0.074003324, -0.05255302, -0.11734017, 0.12589641, -0.12613401, -0.33927098, -0.114765, -0.3239196, -0.33299574, -0.055149864, -0.093628936, 0.053862184, -0.14195573, 0.2205654, -0.30007377, 0.009536852, -0.32275018, -0.36552754, -0.5441865, 0.076562636, -0.12738717, -0.170025, -0.148064, 0.27542877, -0.48394743, 0.19601311, -0.31291705, -0.4222933, -0.39525193, 0.28183416, -0.16770399, -0.11249853, -0.19970638, 0.102380045, -0.2979836, 0.24020196, -0.29502887, -0.5021249, -0.440196, 0.29697, -0.40111026, -0.13078861, -0.21414399, 0.14822075, -0.38098955, 0.14435858, -0.4059684, -0.47004014, -0.63977337, 0.44115776, -0.39548495, -0.0808992, -0.30240074, 0.30386493, -0.40846035, 0.18488641, -0.5538911, -0.4725009, -0.6600033, 0.44622248, -0.29907802, 0.06278327, -0.3246932, 0.2474986, -0.26583204, 0.14180069, -0.5863957, -0.71033484, -0.66100204, 0.43813545, -0.22430725, 0.003683308, -0.36721557, 0.17645368, -0.10995584, 0.15549494, -0.44830805, -0.77094245, -0.5708815, 0.41386816, -0.3665995, 0.14225416, -0.23968895, 0.20301919, -0.16601215, 0.012100094, -0.57089865, -0.54652727, -0.4540316, 0.37599495, -0.4035637, 0.12913641, -0.34270164, 0.25530118, -0.24081974, 0.14791009, -0.57119024, -0.4679554, -0.31125897, 0.35684097, -0.31521603, 0.2098503, -0.5950263, 0.21249828, -0.11027062, 0.084609, -0.64803785, -0.4566986, -0.24284548, 0.13047852, -0.31979412, -0.0073854947, -0.55368245, 0.19878745, -0.047924362, 0.1359786, -0.62126505, -0.46240947, -0.13763542, 0.10685104, -0.1924902, 0.21286334, -0.5686365, 0.21010122, 0.11634359, 0.12135949, -0.65703905, -0.7244747, -0.1577358, 0.081773624, -0.36239284, 0.12509497, -0.52332705, 0.2100982, 0.017677328, 0.15152888, -0.5955155, -0.67184764, -0.18658905, 0.027123177, -0.39473093, 0.2232656, -0.55147445, 0.21176133, 0.04980095, 0.19803452, -0.5106742, -0.41852924, -0.29106465, -0.043395538, -0.27911416, 0.0059422157, -0.32801425, 0.17726651, -0.002493512, 0.2907858, -0.59073687, -0.43302196, -0.2860566, 0.0386465, -0.39040202, 0.008701522, -0.33065763, 0.059093084, -0.037250694, 0.32770914, -0.33476466, -0.24871908, -0.3403514, -0.15844434, -0.32593596, -0.108219154, -0.2399658, -0.09590111, -0.064029515, 0.43654388, -0.41829678, -0.081200734, -0.1910167, -0.225523, -0.37305543, 0.062142868, -0.14137484, -0.00094317476, -0.2553186, 0.30336002, -0.30342203, -0.10809978, -0.3418554, -0.07953103, -0.20572686, 0.13008414, -0.12198735, -0.04133055, -0.42996323, 0.14510714, -0.11876221, -0.13048649, -0.30837572, -0.27310574, -0.06285295, 0.15137745, -0.08412693, -0.14945091, -0.18487786, 0.17299473, -0.060522866, -0.11791268, -0.08815848, -0.16120754, -0.119788356, 0.13619956, -0.07473259, -0.17004728, -0.29639167, -0.0636194, -0.07200363, -0.0381975, -0.024439823, -0.0029751556, -0.10281776, -0.1456915, -0.13691874, -0.042400483, -0.14494531, -0.057526924, 0.058330175, -0.06925121, 0.15337388, 0.025117515, -0.07371037, -0.11798272, -0.08146094, 0.068675175, -0.118493475, -0.16751511, -0.06389106, -0.078001596, 0.02031006, 0.06675347, 0.076902695, 0.008809671, -0.082831845, -0.086445734, -0.060689695, 0.08405758, -0.07853571, -0.06630094, 0.05381895, 0.011436902, -0.027500052, 0.0028278083, 0.0021453574, 0.020972341, 0.065213956, 0.057198144, -0.029295608, 0.034754813, -0.005905941, -0.051299665, 0.019632667, -0.003281802, 0.01634875, -0.01967509, -0.052711632, 0.05102489, -0.014388524, -0.01353924, 0.0024031475, -0.004387386, -0.001192838, -0.038302172, 0.05827076, -0.028824825, 0.07451723, 0.06050501, -0.04049369, -0.12643369, -0.044228293, -0.021003943, -0.08364452, -0.09196406, -0.09501801, -0.020930072, 0.008158719, 0.08337496, -0.11139501, -0.108141884, -0.20415416, -0.10430191, -0.06723714, -0.09519959, -0.057293486, -0.22169946, -0.15132986, 0.23020825, -0.1858454, -0.3279466, -0.15292919, 0.081562385, -0.049148507, -0.1272296, -0.04056661, 0.00030664075, -0.35156608, 0.19626059, -0.2701483, -0.16598059, -0.16053617, -0.00030650734, -0.2506483, -0.34550196, -0.068917885, -0.12019271, -0.44110417, 0.22468354, -0.2690952, -0.16948788, -0.38708195, 0.062726304, -0.4364793, -0.30234942, -0.0013044887, 0.087148346, -0.20764013, 0.2903557, -0.3782573, -0.36554265, -0.31395185, -0.031066379, -0.5987154, -0.2860731, -0.117826425, 0.11468954, -0.23898004, 0.30472028, -0.3635599, -0.46497783, -0.31860396, -0.15312831, -0.6528036, -0.22991136, -0.2326994, 0.15374242, -0.42774308, 0.26057538, -0.3725203, -0.2232598, -0.3788114, -0.08431488, -0.5373251, -0.061559856, -0.23538943, 0.17001101, -0.4340815, 0.25432962, -0.36999914, -0.39331633, -0.27305013, -0.13190329, -0.6764506, 0.033593882, -0.1010531, 0.20180693, -0.27978006, 0.26729444, -0.33433822, -0.50867593, -0.38120735, -0.15984523, -0.65687007, 0.0671694, -0.18321638, 0.09996163, -0.39668787, 0.2256941, -0.32562578, -0.42089763, -0.50640553, -0.07207878, -0.8502178, -0.14164105, -0.17512888, 0.24229057, -0.4030652, 0.3113105, -0.35347307, -0.49691463, -0.5531605, -0.128366, -0.8910732, -0.14794329, -0.24726208, 0.23230246, -0.44214287, 0.38385472, -0.38132578, -0.23325928, -0.55516785, -0.18905568, -0.76954997, -0.03904662, -0.22492208, 0.330897, -0.85323536, 0.2012341, -0.3939172, -0.25221065, -0.4994787, -0.062466346, -0.87258244, -0.082346514, -0.21313462, 0.22677435, -0.9113773, 0.13321444, -0.32274923, -0.39136812, -0.37812838, -0.14686777, -0.66769195, -0.10768992, -0.2891209, 0.34034792, -0.48486197, 0.25105038, -0.41932902, -0.18406849, -0.4991372, -0.053035453, -0.6710858, -0.23794389, -0.24296649, 0.29710042, -0.42210507, 0.24714144, -0.16083282, -0.25112283, -0.37210616, -0.05481681, -0.5308657, -0.073231585, -0.1212177, 0.26493406, -0.66890687, 0.1389754, -0.2197644, -0.20910808, -0.38881618, -0.048437648, -0.5699597, -0.032815445, -0.20576388, 0.009019067, -0.47509748, 0.20204067, -0.257749, -0.122914016, -0.28286842, -0.0031347254, -0.37582293, -0.020130157, -0.09115204, 0.04985897, -0.30658677, 0.11948177, -0.18868095, -0.09007397, -0.17304674, -0.052921325, -0.21851175, 0.052196164, -0.024654163, 0.042730793, -0.128184, 0.11569076, -0.036220577, -0.10019318, -0.16571464, -0.107260354, -0.20215152, 0.025293525, -0.07101757, -0.0045056595, -0.025316719, 0.07373398, -0.021119697, -0.014162568, 0.05218393, 0.019691607, 0.007235283, -0.12666656, -0.01767987, -0.031702254, -0.02709315, -0.012211466, -0.063966125, 0.04591001, -0.04272226, -0.0759615, -0.079062365, -0.033516556, -0.03752009, 0.13798963, -0.084977515, -0.11835056, 0.032000802, -0.045468435, -0.08096358, 0.036550432, 0.08092723, -0.029692914, -0.082487404, -0.07365222, 0.06946135, 0.03944177, -0.021585196, 0.06637346, -0.06171768, 0.031174667, 0.06632855, 0.058718123, 0.0070301816, -0.0607716, 0.053892307, -0.08229292, -0.052239068, 0.009446152, -0.049616087, -0.008073442, -0.045931485, 0.054116495, -0.033630308, -0.05684366, -0.08456108, 0.06762735, -0.036510658, 0.02884943, -0.052133888, 0.015481114, -0.01705534, -0.06437796, 0.08054864, 0.018248655, 0.0452208, -0.055278715, 0.072796546, -0.03105564, -0.08142068, 0.0057713315, 0.05522906, 0.024460778, -0.05927159, -0.055285014, -0.07879768, -0.0216882, -0.037514973, -0.055299897, -0.056985337, -0.0063759387, 0.026285492, -0.07187097, 0.08477376, 0.026343606, 0.01665306, 0.020047382, -0.051843718, -0.08192974, -0.07361608, -0.07216322, 0.024878656, -0.028422272, -0.034621436, -0.04865284, 0.04487649, -0.019716706, -0.055305917, -0.094620645, -0.030876277, 0.071098134, 0.062102523, -0.0020312439, -0.07531418, 0.09235483, -0.05775584, -0.12000981, -0.012863546, -0.031195281, 0.048021786, -0.029042589, -0.03129817, -0.031034222, -0.016392771, -0.0030569935, -0.10789279, -0.00011909866, -0.106301874, -0.02967405, -0.029404575, -0.15018427, -0.048291594, -0.031562835, 0.021158656, 0.089981504, -0.103733405, -0.058003623, -0.09586502, 0.02235407, -0.11638616, -0.20211889, -0.21132587, -0.1614891, -0.020606525, 0.2237591, -0.20677914, -0.074528314, -0.0074141007, -0.0033286687, -0.0980377, -0.221202, -0.19213735, -0.17927669, 0.041190155, 0.08369583, -0.13722545, -0.058794074, -0.056714147, -0.046549704, -0.18070921, -0.36044306, -0.18819469, -0.0241717, -0.13439548, 0.18029754, -0.18068531, -0.015618576, -0.0935469, -0.012324667, -0.028195813, -0.27765346, -0.23855452, 0.11473365, -0.0043368284, 0.10917746, -0.19687527, -0.037532482, -0.10891277, -0.10862086, -0.14763255, -0.24269417, -0.19088317, -0.07023192, -0.1379737, 0.17468363, -0.19147965, -0.10561895, -0.07338721, -0.17107646, -0.1007525, -0.23590758, -0.34499076, -0.13158847, -0.08874043, 0.31817427, -0.17387299, -0.34652245, -0.12800427, -0.19489476, -0.0971953, -0.33036393, -0.35887668, -0.2914518, -0.15886566, 0.27257183, -0.3064398, -0.1387235, -0.12235879, 0.0044576568, -0.022455366, -0.27970648, -0.3200599, -0.22404377, -0.13756353, 0.18468545, -0.14400175, -0.10258424, -0.1396613, -0.04828154, -0.16807665, -0.45598972, -0.19358599, -0.20709588, -0.08491333, 0.24023046, -0.23511587, -0.27678746, -0.11632928, -0.14394423, -0.066124626, -0.21060434, -0.3343101, -0.18018407, -0.06429732, 0.43343368, -0.17109218, -0.39882016, -0.11805744, -0.16743492, -0.12903538, -0.305783, -0.2028049, -0.14953044, -0.017003685, 0.27207923, -0.21919985, -0.15845576, -0.13678649, -0.09488601, -0.1424823, -0.19240911, -0.14699782, -0.10370862, -0.01743502, 0.23164941, -0.22523655, -0.04777647, -0.056715135, -0.045159742, -0.1016646, -0.15211251, -0.1592268, -0.21227413, -0.06620825, 0.015305661, -0.08944413, 0.089588806, -0.16873747, -0.095046766, -0.15098691, -0.1261517, -0.09335403, -0.11236803, -0.011079118, 0.095395885, -0.20623118, 0.008043576, -0.07818815, -0.075359, -0.089825794, -0.05402129, -0.18050352, -0.19047052, -0.114943124, 0.19778985, -0.1980962, -0.059416723, -0.09125047, -0.09799722, -0.06271667, 0.0038981144, -0.024548536, -0.11403872, -0.019957265, 0.07775444, -0.16343975, -0.18522118, -0.0147651285, 0.034460075, 0.054250084, -0.08159891, 0.07272402, 0.020720653, 0.017702974, -0.055297285, -0.0513384, 0.01233127, 0.018344924, 0.036332563, -0.020634808, 